{"learner":{"attributes":{"best_iteration":"10","best_ntree_limit":"11","best_score":"8.689506525319471","scikit_learn":"{\"n_estimators\": 500, \"objective\": \"reg:squarederror\", \"max_depth\": null, \"max_leaves\": null, \"max_bin\": null, \"grow_policy\": null, \"learning_rate\": null, \"verbosity\": null, \"booster\": null, \"tree_method\": null, \"gamma\": null, \"min_child_weight\": null, \"max_delta_step\": null, \"subsample\": null, \"sampling_method\": null, \"colsample_bytree\": null, \"colsample_bylevel\": null, \"colsample_bynode\": null, \"reg_alpha\": null, \"reg_lambda\": null, \"scale_pos_weight\": null, \"base_score\": null, \"missing\": NaN, \"num_parallel_tree\": null, \"random_state\": null, \"n_jobs\": null, \"monotone_constraints\": null, \"interaction_constraints\": null, \"importance_type\": null, \"gpu_id\": null, \"validate_parameters\": null, \"predictor\": null, \"enable_categorical\": false, \"feature_types\": null, \"max_cat_to_onehot\": null, \"max_cat_threshold\": null, \"eval_metric\": null, \"early_stopping_rounds\": 50, \"callbacks\": null, \"evals_result_\": {\"validation_0\": {\"rmse\": [13.609500831408008, 11.348000165654083, 10.052283365123879, 9.349357766323873, 8.984082781769116, 8.79824902230471, 8.70192428141289, 8.654724877990372, 8.631369553927751, 8.617664044807494, 8.61023908592378, 8.606045641655449, 8.601349449888414, 8.597224789551053, 8.595961726727317, 8.593862957563182, 8.591426336676284, 8.589167687930825, 8.586819136017475, 8.58476793829893, 8.584428273651534, 8.58365824358127, 8.582491891968717, 8.580124996756991, 8.578206799017062, 8.577921484237526, 8.577012720850853, 8.57566426923609, 8.574353658725904, 8.572428241447968, 8.57115530146798, 8.56942843446669, 8.568686155428136, 8.568431567145765, 8.567722910774975, 8.566767155551311, 8.565844509211152, 8.564515687330019, 8.563603365810158, 8.563013296550686, 8.561451561149914, 8.560541485803675, 8.559079123463107, 8.558542672150956, 8.5567307220761, 8.556560141447683, 8.556352666636364, 8.555434853471898, 8.555208269403064, 8.555134984460969, 8.554402570161482, 8.554339039350934, 8.553095551134067, 8.552484913164372, 8.551311899672202, 8.550210390886178, 8.549179281105191, 8.548672644182265, 8.548009158929306, 8.547464653280285, 8.546589801549489]}, \"validation_1\": {\"rmse\": [13.523081531320374, 11.257455216791048, 9.983807110437176, 9.310684559086672, 8.973469044154696, 8.813373028272714, 8.740984451751402, 8.708175321545731, 8.694662226752383, 8.690272790797149, 8.689506525319471, 8.69005490894999, 8.691999335204935, 8.69398373478087, 8.695937833383265, 8.696462973423486, 8.698860639553137, 8.699500660757902, 8.70083556000586, 8.702892674576882, 8.703067447671783, 8.703745228443156, 8.704100472871172, 8.704471481466362, 8.705855638792803, 8.705963593565754, 8.70608920915572, 8.70746067274137, 8.708402578345297, 8.709972461438321, 8.710236857314705, 8.710975483773657, 8.710835702349579, 8.710994508812766, 8.711449383656504, 8.711897702963068, 8.711950127895058, 8.712318610395297, 8.712582179744958, 8.713274350713773, 8.714120400799548, 8.714667833483196, 8.714882062474883, 8.715356283089253, 8.716318908322044, 8.716731128477807, 8.716726544540341, 8.717436364349105, 8.717711455609248, 8.717805422832072, 8.718573643640532, 8.718775243284421, 8.719020254298176, 8.718910057858341, 8.719949014544717, 8.720084144878937, 8.720523643118279, 8.720930660000816, 8.721680700471211, 8.721519790401763, 8.722425339490274]}}, \"_estimator_type\": \"regressor\"}"},"feature_names":["dayofweek","quarter","month","dayofyear","year","Special Day"],"feature_types":["int","int","int","int","int","i"],"gradient_booster":{"model":{"gbtree_model_param":{"num_parallel_tree":"1","num_trees":"61","size_leaf_vector":"0"},"tree_info":[0,0,0,0,0,0,0,0,0,0,0,0,0,0,0,0,0,0,0,0,0,0,0,0,0,0,0,0,0,0,0,0,0,0,0,0,0,0,0,0,0,0,0,0,0,0,0,0,0,0,0,0,0,0,0,0,0,0,0,0,0],"trees":[{"base_weights":[1.5020265E1,1.4945264E1,1.5247183E1,1.53008995E1,1.4919016E1,1.5107614E1,1.5432146E1,1.4572369E1,1.5531235E1,1.5251519E1,1.4871038E1,1.5196129E1,1.5609385E1,1.4825681E1,1.2886598E1,1.4527065E1,1.5724098E1,1.5008033E1,1.55245495E1,1.2983051E1,1.4985484E1,1.5503339E1,1.4100893E1,1.62E1,1.5427574E1,1.2737069E1,1.5345339E1,1.5135614E1,1.3303763E1,1.6686111E1,1.5414503E1,1.4E1,1.1480519E1,1.4678987E1,1.5310903E1,1.3280851E1,1.4648773E1,1.0945652E1,1.3718309E1,1.5032506E1,1.6529411E1],"categories":[],"categories_nodes":[],"categories_segments":[],"categories_sizes":[],"default_left":[1,1,1,1,0,1,1,1,1,1,1,1,1,0,0,1,0,1,1,1,1,0,1,0,0,1,0,1,0,0,0,0,0,0,0,0,0,0,0,0,0],"id":0,"left_children":[1,3,5,7,-1,9,11,13,15,17,19,21,23,-1,-1,25,-1,27,29,31,33,-1,35,-1,-1,37,-1,39,-1,-1,-1,-1,-1,-1,-1,-1,-1,-1,-1,-1,-1],"loss_changes":[6.99E2,1.55E2,1.1525E2,2.401875E2,0E0,3.65E1,3.5E0,1.0103125E2,1.7765625E2,8.425E1,4.4625E2,6.245E2,9.90625E1,0E0,0E0,3.1865625E2,0E0,3.53625E2,2.65625E1,1.09728516E2,5.35625E1,0E0,5.7046875E1,0E0,0E0,5.375E1,0E0,9.1625E1,0E0,0E0,0E0,0E0,0E0,0E0,0E0,0E0,0E0,0E0,0E0,0E0,0E0],"parents":[2147483647,0,0,1,1,2,2,3,3,5,5,6,6,7,7,8,8,9,9,10,10,11,11,12,12,15,15,17,17,18,18,19,19,20,20,22,22,25,25,27,27],"right_children":[2,4,6,8,-1,10,12,14,16,18,20,22,24,-1,-1,26,-1,28,30,32,34,-1,36,-1,-1,38,-1,40,-1,-1,-1,-1,-1,-1,-1,-1,-1,-1,-1,-1,-1],"split_conditions":[2.0195E3,2.45E1,3.5E0,6.5E0,4.475705E0,2.255E2,1.575E2,5.5E0,5E-1,4.5E0,2.35E2,1.225E2,2.035E2,4.4477043E0,3.8659794E0,2.0175E3,4.71723E0,1.135E2,1.325E2,2.315E2,1.05E1,4.651002E0,1.375E2,4.8600006E0,4.6282725E0,1.25E1,4.603602E0,1.065E2,3.9911292E0,5.0058336E0,4.624351E0,4.2000003E0,3.444156E0,4.403696E0,4.593271E0,3.9842556E0,4.3946323E0,3.2836957E0,4.115493E0,4.509752E0,4.9588237E0],"split_indices":[4,3,0,3,0,3,3,0,0,2,3,3,3,0,0,4,0,3,3,3,2,0,3,0,0,3,0,3,0,0,0,0,0,0,0,0,0,0,0,0,0],"split_type":[0,0,0,0,0,0,0,0,0,0,0,0,0,0,0,0,0,0,0,0,0,0,0,0,0,0,0,0,0,0,0,0,0,0,0,0,0,0,0,0,0],"sum_hessian":[5.4503E4,4.1014E4,1.3489E4,2.779E3,3.8235E4,7.735E3,5.754E3,6.83E2,2.096E3,4.77E3,2.965E3,2.505E3,3.249E3,5.87E2,9.6E1,3.5E2,1.746E3,2.551E3,2.219E3,1.76E2,2.789E3,1.946E3,5.59E2,7.44E2,2.505E3,1.15E2,2.35E2,2.366E3,1.85E2,1.79E2,2.04E3,1E2,7.6E1,1.46E3,1.329E3,2.34E2,3.25E2,4.5E1,7E1,2.214E3,1.52E2],"tree_param":{"num_deleted":"0","num_feature":"6","num_nodes":"41","size_leaf_vector":"0"}},{"base_weights":[1.0515868E1,1.0462404E1,1.0677642E1,1.0719634E1,1.0443428E1,1.0600763E1,1.0868777E1,1.0643802E1,1.2284551E1,1.0083851E1,1.0453709E1,1.0583943E1,1.1676878E1,1.0896801E1,9.049512E0,1.071803E1,8.998262E0,1.3292085E1,1.0330971E1,1.0329663E1,9.069434E0,1.1367418E1,1.0445034E1,1.0553864E1,1.10969715E1,1.0957281E1,1.0250805E1,1.0212812E1,1.0898445E1,5.861476E0,9.662002E0,1.2107159E1,9.724074E0,1.0088037E1,1.0457175E1,1.0677465E1,1.0317327E1,1.0733776E1,1.1144362E1,9.487934E0,1.0845106E1,1.038554E1,9.060474E0,1.0387371E1,1.1164642E1,1.0418795E1,9.261143E0,1.0531046E1,1.0389322E1,1.052098E1,1.0988972E1,8.862004E0,1.0419165E1,1.0991033E1,9.902875E0,1.1973465E1,1.1035446E1],"categories":[],"categories_nodes":[],"categories_segments":[],"categories_sizes":[],"default_left":[1,1,1,1,1,1,1,1,1,1,1,1,0,1,0,1,0,0,0,0,1,1,1,1,0,1,1,1,1,0,0,0,0,1,1,1,1,1,1,0,0,0,0,0,0,0,0,0,0,0,0,0,0,0,0,0,0],"id":1,"left_children":[1,3,5,7,9,11,13,15,17,19,21,23,-1,25,-1,27,-1,-1,-1,-1,29,31,33,35,-1,37,39,41,43,-1,-1,-1,-1,45,47,49,51,53,55,-1,-1,-1,-1,-1,-1,-1,-1,-1,-1,-1,-1,-1,-1,-1,-1,-1,-1],"loss_changes":[3.6E2,8.85E1,8.3E1,1.9915625E2,3.55E1,5.1375E1,9.6625E1,2.2834375E2,1.028125E2,1.7836719E2,1.76E2,2.975E1,0E0,3.4875E1,0E0,1.20125E2,0E0,0E0,0E0,0E0,3.6347266E2,2.9315625E2,5.4E1,1.534375E2,0E0,2.378125E1,5.034375E1,4.2046875E1,1.3651562E2,0E0,0E0,0E0,0E0,2.4239062E2,6.875E1,1.71625E2,3.7065625E2,2.3101562E2,3.4109375E1,0E0,0E0,0E0,0E0,0E0,0E0,0E0,0E0,0E0,0E0,0E0,0E0,0E0,0E0,0E0,0E0,0E0,0E0],"parents":[2147483647,0,0,1,1,2,2,3,3,4,4,5,5,6,6,7,7,8,8,9,9,10,10,11,11,13,13,15,15,20,20,21,21,22,22,23,23,25,25,26,26,27,27,28,28,33,33,34,34,35,35,36,36,37,37,38,38],"right_children":[2,4,6,8,10,12,14,16,18,20,22,24,-1,26,-1,28,-1,-1,-1,-1,30,32,34,36,-1,38,40,42,44,-1,-1,-1,-1,46,48,50,52,54,56,-1,-1,-1,-1,-1,-1,-1,-1,-1,-1,-1,-1,-1,-1,-1,-1,-1,-1],"split_conditions":[2.0195E3,2.45E1,4.5E0,2.35E1,3.45E1,5E-1,5E-1,2.25E1,2.5E0,3.25E1,3.75E1,3.455E2,3.5030634E0,3.335E2,2.7148538E0,6.5E0,2.6994789E0,3.9876256E0,3.0992913E0,3.0988991E0,3.5E0,2.0185E3,4.85E1,2.255E2,3.3290915E0,5.5E0,5.5E0,5.5E0,2.0175E3,1.7584429E0,2.8986006E0,3.6321478E0,2.9172225E0,4.5E0,1.995E2,1.535E2,2.335E2,4.5E0,1.725E2,2.8463802E0,3.253532E0,3.115662E0,2.7181425E0,3.1162114E0,3.349393E0,3.1256385E0,2.778343E0,3.159314E0,3.1167967E0,3.156294E0,3.2966917E0,2.6586013E0,3.1257496E0,3.2973099E0,2.9708626E0,3.5920396E0,3.310634E0],"split_indices":[4,3,0,3,3,5,5,3,0,3,3,3,0,3,0,3,0,0,0,0,0,4,3,3,0,2,0,0,4,0,0,0,0,0,3,3,3,2,3,0,0,0,0,0,0,0,0,0,0,0,0,0,0,0,0,0,0],"split_type":[0,0,0,0,0,0,0,0,0,0,0,0,0,0,0,0,0,0,0,0,0,0,0,0,0,0,0,0,0,0,0,0,0,0,0,0,0,0,0,0,0,0,0,0,0,0,0,0,0,0,0,0,0,0,0,0,0],"sum_hessian":[5.4503E4,4.1014E4,1.3489E4,2.779E3,3.8235E4,9.66E3,3.829E3,2.658E3,1.21E2,1.09E3,3.7145E4,9.522E3,1.38E2,3.766E3,6.3E1,2.538E3,1.2E2,7.6E1,4.5E1,8.7E2,2.2E2,3.37E2,3.6808E4,9.015E3,5.07E2,3.429E3,3.37E2,6.83E2,1.855E3,3.6E1,1.84E2,2.28E2,1.09E2,1.238E3,3.557E4,5.892E3,3.123E3,1.589E3,1.84E3,1.55E2,1.82E2,5.87E2,9.6E1,6.49E2,1.206E3,8.76E2,3.62E2,1.6956E4,1.8614E4,3.945E3,1.947E3,2.1E2,2.913E3,1.204E3,3.85E2,2.01E2,1.639E3],"tree_param":{"num_deleted":"0","num_feature":"6","num_nodes":"57","size_leaf_vector":"0"}},{"base_weights":[7.362752E0,7.324867E0,7.4773927E0,7.392483E0,7.2863016E0,7.4225082E0,7.6138844E0,7.345959E0,7.675674E0,7.18484E0,7.3634286E0,7.5111337E0,7.3150563E0,8.360206E0,7.566965E0,7.3675222E0,6.219188E0,8.204205E0,7.399046E0,7.3012004E0,6.8562727E0,8.430041E0,7.3545976E0,7.388645E0,7.9011517E0,6.0219417E0,7.352037E0,7.47864E0,8.773155E0,6.622992E0,7.669043E0,7.446369E0,7.262915E0,5.762895E0,7.241856E0,6.418648E0,8.504003E0,7.137459E0,7.913952E0,7.2632227E0,8.584488E0,7.502501E0,6.6076336E0,7.266049E0,7.41914E0,7.452502E0,5.3242736E0,9.338041E0,7.5512333E0,5.5616064E0,6.9658523E0,7.288731E0,7.774061E0,6.80378E0,5.050428E0,8.328805E0,7.592013E0,7.493056E0,6.4936976E0,7.6277723E0,7.0756755E0,5.223731E0,6.1925354E0,6.809767E0,5.479842E0,8.84497E0,7.4812307E0,7.974108E0,6.8764873E0,7.679037E0,9.867981E0,7.3187876E0,6.498735E0,9.271735E0,7.189114E0,6.8819537E0,8.152681E0,5.88888E0,6.7525887E0,8.59829E0,7.233924E0,7.441283E0,7.004118E0,7.14101E0,7.544186E0,8.563769E0,7.235855E0,7.312338E0,5.9671626E0,7.8785467E0,6.2631965E0,5.835664E0,7.2627134E0,7.697971E0,1.0370999E1,6.9686303E0,7.717929E0],"categories":[],"categories_nodes":[],"categories_segments":[],"categories_sizes":[],"default_left":[1,1,1,1,1,1,1,1,1,1,1,1,1,1,1,1,1,1,1,1,1,0,1,1,1,1,1,0,0,1,1,1,1,1,0,1,1,1,1,1,1,1,1,1,1,1,0,0,1,0,0,1,1,1,0,1,1,0,0,0,0,0,0,0,0,0,0,0,0,0,0,0,0,0,0,0,0,0,0,0,0,0,0,0,0,0,0,0,0,0,0,0,0,0,0,0,0],"id":2,"left_children":[1,3,5,7,9,11,13,15,17,19,21,23,25,27,29,31,33,35,37,39,41,-1,43,45,47,49,51,-1,-1,53,55,57,59,61,-1,63,65,67,69,71,73,75,77,79,81,83,-1,-1,85,-1,-1,87,89,91,-1,93,95,-1,-1,-1,-1,-1,-1,-1,-1,-1,-1,-1,-1,-1,-1,-1,-1,-1,-1,-1,-1,-1,-1,-1,-1,-1,-1,-1,-1,-1,-1,-1,-1,-1,-1,-1,-1,-1,-1,-1,-1],"loss_changes":[1.8175E2,5.325E1,4.45E1,1.389375E2,1.52E2,3.70625E1,7.0875E1,2.6425E2,2.4195312E2,3.83875E2,7.78125E1,1.9275E2,1.6639062E2,1.3385742E1,2.974375E2,4.9125E1,7.305957E1,3.2119922E2,1.2790625E2,3.454375E2,4.3003125E2,0E0,3.025E1,4.8971875E2,5.539531E2,1.6876465E1,5.7625E1,0E0,0E0,6.798633E1,1.02203125E2,2.6696875E2,3.1625E2,8.19043E0,0E0,1.237793E0,1.423711E2,1.4560547E2,1.3170508E2,2.9790625E2,1.5870117E2,2.7554688E2,1.8570312E2,2.055625E2,2.571875E1,5.73125E1,0E0,0E0,2.5864453E2,0E0,0E0,7.2921875E1,3.6371094E1,9.979297E1,0E0,3.4529688E2,1.7589062E2,0E0,0E0,0E0,0E0,0E0,0E0,0E0,0E0,0E0,0E0,0E0,0E0,0E0,0E0,0E0,0E0,0E0,0E0,0E0,0E0,0E0,0E0,0E0,0E0,0E0,0E0,0E0,0E0,0E0,0E0,0E0,0E0,0E0,0E0,0E0,0E0,0E0,0E0,0E0,0E0],"parents":[2147483647,0,0,1,1,2,2,3,3,4,4,5,5,6,6,7,7,8,8,9,9,10,10,11,11,12,12,13,13,14,14,15,15,16,16,17,17,18,18,19,19,20,20,22,22,23,23,24,24,25,25,26,26,29,29,30,30,31,31,32,32,33,33,35,35,36,36,37,37,38,38,39,39,40,40,41,41,42,42,43,43,44,44,45,45,48,48,51,51,52,52,53,53,55,55,56,56],"right_children":[2,4,6,8,10,12,14,16,18,20,22,24,26,28,30,32,34,36,38,40,42,-1,44,46,48,50,52,-1,-1,54,56,58,60,62,-1,64,66,68,70,72,74,76,78,80,82,84,-1,-1,86,-1,-1,88,90,92,-1,94,96,-1,-1,-1,-1,-1,-1,-1,-1,-1,-1,-1,-1,-1,-1,-1,-1,-1,-1,-1,-1,-1,-1,-1,-1,-1,-1,-1,-1,-1,-1,-1,-1,-1,-1,-1,-1,-1,-1,-1,-1],"split_conditions":[2.0195E3,1.325E2,4.5E0,1.135E2,2.335E2,1.985E2,2.2E1,1.115E2,2.0175E3,2.065E2,2.345E2,1.535E2,2.035E2,8E0,5.7E1,3.5E0,5.5E0,5E-1,1.265E2,2.045E2,1.5E0,2.5290124E0,2.5E0,1.485E2,5E-1,2.5E0,3.455E2,2.243592E0,2.6319466E0,5.35E1,8.85E1,1.065E2,2.0175E3,2.0185E3,2.1725569E0,1.245E2,1.265E2,1.165E2,5.5E0,1.995E2,2.0185E3,5E-1,2.105E2,2.395E2,3.605E2,3.45E1,1.5972822E0,2.8014126E0,1.625E2,1.668482E0,2.0897558E0,3.435E2,3.655E2,3.25E1,1.5151285E0,8.15E1,1.375E2,2.247917E0,1.9481094E0,2.2883317E0,2.1227028E0,1.5671194E0,1.8577607E0,2.0429301E0,1.6439527E0,2.653491E0,2.2443693E0,2.3922327E0,2.0629463E0,2.3037112E0,2.9603944E0,2.1956363E0,1.9496206E0,2.7815206E0,2.1567342E0,2.0645862E0,2.4458046E0,1.766664E0,2.0257766E0,2.5794873E0,2.1701772E0,2.2323852E0,2.1012354E0,2.142303E0,2.2632558E0,2.569131E0,2.1707566E0,2.1937015E0,1.7901489E0,2.363564E0,1.8789591E0,1.7506992E0,2.1788142E0,2.3093913E0,3.1113E0,2.0905893E0,2.3153787E0],"split_indices":[4,3,0,3,3,3,3,3,4,3,3,3,3,3,3,0,0,0,3,3,0,0,0,3,0,0,3,0,0,3,3,3,4,4,0,3,3,3,0,3,4,0,3,3,3,3,0,0,3,0,0,3,3,3,0,3,3,0,0,0,0,0,0,0,0,0,0,0,0,0,0,0,0,0,0,0,0,0,0,0,0,0,0,0,0,0,0,0,0,0,0,0,0,0,0,0,0],"split_type":[0,0,0,0,0,0,0,0,0,0,0,0,0,0,0,0,0,0,0,0,0,0,0,0,0,0,0,0,0,0,0,0,0,0,0,0,0,0,0,0,0,0,0,0,0,0,0,0,0,0,0,0,0,0,0,0,0,0,0,0,0,0,0,0,0,0,0,0,0,0,0,0,0,0,0,0,0,0,0,0,0,0,0,0,0,0,0,0,0,0,0,0,0,0,0,0,0],"sum_hessian":[5.4503E4,4.1014E4,1.3489E4,1.4827E4,2.6187E4,9.66E3,3.829E3,1.2758E4,2.069E3,1.135E4,1.4837E4,5.256E3,4.404E3,2.16E2,3.613E3,1.2513E4,2.45E2,7.01E2,1.368E3,8.366E3,2.984E3,1.14E2,1.4723E4,4.015E3,1.241E3,1.27E2,4.277E3,7.5E1,1.41E2,3.59E2,3.254E3,7.095E3,5.418E3,1.74E2,7.1E1,1.04E2,5.97E2,9.17E2,4.51E2,8.132E3,2.34E2,8.21E2,2.163E3,6.255E3,8.468E3,3.892E3,1.23E2,2.38E2,1.003E3,9E1,3.7E1,3.735E3,5.42E2,3.19E2,4E1,3.29E2,2.925E3,6.757E3,3.38E2,1.824E3,3.594E3,8.3E1,9.1E1,6.9E1,3.5E1,4.42E2,1.55E2,2.11E2,7.06E2,4.07E2,4.4E1,7.573E3,5.59E2,1.53E2,8.1E1,4.26E2,3.95E2,3.7E2,1.793E3,1.41E2,6.114E3,8.023E3,4.45E2,9.03E2,2.989E3,2.32E2,7.71E2,3.665E3,7E1,5.03E2,3.9E1,1.07E2,2.12E2,2.55E2,7.4E1,5.01E2,2.424E3],"tree_param":{"num_deleted":"0","num_feature":"6","num_nodes":"97","size_leaf_vector":"0"}},{"base_weights":[5.155893E0,5.1289062E0,5.2375607E0,5.2894206E0,5.1171017E0,5.1460443E0,5.303278E0,4.6720243E0,5.3954773E0,5.089664E0,5.2120285E0,5.286817E0,4.9944377E0,5.5157423E0,5.2349515E0,5.3827777E0,4.2493987E0,5.249129E0,5.9625416E0,5.106787E0,4.2179456E0,6.1732144E0,5.171504E0,5.080582E0,6.0957766E0,5.2078886E0,4.541989E0,5.2989626E0,6.3914127E0,4.9329967E0,5.3351274E0,3.5306969E0,5.911158E0,2.485824E0,4.5988307E0,5.670611E0,4.7171617E0,7.091363E0,5.5770473E0,5.09062E0,5.406862E0,4.4196343E0,3.4438627E0,5.572403E0,6.471514E0,3.462397E0,5.195407E0,5.115568E0,3.0959775E0,6.783375E0,5.6135488E0,4.9859767E0,5.623464E0,2.593367E0,4.630742E0,5.0679646E0,5.486806E0,6.167996E0,7.306397E0,5.1754565E0,4.5768833E0,5.2606425E0,5.5620527E0,4.8359256E0,3.1595488E0,5.5332026E0,6.840829E0,4.918454E0,3.4036252E0,5.2058425E0,7.8556666E0,5.1213517E0,6.4277835E0,5.1403465E0,4.9685526E0,5.793117E0,4.643623E0,3.7787235E0,4.56516E0,3.6791246E0,2.9324975E0,6.6949472E0,4.927444E0,5.5076246E0,5.118643E0,5.798171E0,5.05046E0,6.4514995E0,5.1466937E0,5.193856E0,4.413067E0,6.1844854E0,5.1671085E0,4.9891696E0,4.38508E0,5.4028068E0,4.06129E0,7.2060714E0,5.228459E0,6.6680484E0,5.7035117E0,4.7177196E0,5.92041E0,2.7963395E0,4.9564133E0,4.616862E0,5.305742E0,5.8750114E0,5.1185646E0],"categories":[],"categories_nodes":[],"categories_segments":[],"categories_sizes":[],"default_left":[1,1,1,1,1,1,1,1,1,1,1,1,1,1,1,1,1,1,1,1,1,1,1,1,1,1,1,1,1,1,1,0,0,0,1,1,1,1,1,1,1,1,1,1,0,0,1,1,0,0,1,1,1,0,1,1,1,1,0,1,1,1,1,0,0,0,0,0,0,0,0,0,0,0,0,0,0,0,0,0,0,0,0,0,0,0,0,0,0,0,0,0,0,0,0,0,0,0,0,0,0,0,0,0,0,0,0,0,0],"id":3,"left_children":[1,3,5,7,9,11,13,15,17,19,21,23,25,27,29,31,33,35,37,39,41,43,45,47,49,51,53,55,57,59,61,-1,-1,-1,63,65,67,69,71,73,75,77,79,81,-1,-1,83,85,-1,-1,87,89,91,-1,93,95,97,99,-1,101,103,105,107,-1,-1,-1,-1,-1,-1,-1,-1,-1,-1,-1,-1,-1,-1,-1,-1,-1,-1,-1,-1,-1,-1,-1,-1,-1,-1,-1,-1,-1,-1,-1,-1,-1,-1,-1,-1,-1,-1,-1,-1,-1,-1,-1,-1,-1,-1],"loss_changes":[9.3375E1,5.0625E1,5.384375E1,1.5682812E2,7.3E1,9.465625E1,8.4625E1,1.0178516E2,1.6505469E2,4.218125E2,3.0040625E2,4.5685938E2,2.4182812E2,3.2376562E2,1.5325E2,1.26898926E2,1.5187402E2,3.9679297E2,1.6845508E2,1.13875E2,7.501953E1,2.4875E1,3.1670312E2,1.4635547E2,1.572207E2,1.4358594E2,1.4174023E2,3.7976562E1,3.0367188E1,1.0513672E2,4.5867188E1,0E0,0E0,0E0,5.979541E1,1.3082812E2,2.0562305E2,1.2915576E2,1.070332E2,1.423125E2,4.0734766E2,2.5186523E1,4.128784E0,5.3890625E1,0E0,0E0,1.6540625E2,7.2671875E1,0E0,0E0,1.0449902E2,1.22615234E2,1.3190234E2,0E0,5.2876953E1,2.1165234E2,3.283164E2,3.2345703E1,0E0,2.7214062E2,4.0038574E2,7.321094E1,1.1996484E2,0E0,0E0,0E0,0E0,0E0,0E0,0E0,0E0,0E0,0E0,0E0,0E0,0E0,0E0,0E0,0E0,0E0,0E0,0E0,0E0,0E0,0E0,0E0,0E0,0E0,0E0,0E0,0E0,0E0,0E0,0E0,0E0,0E0,0E0,0E0,0E0,0E0,0E0,0E0,0E0,0E0,0E0,0E0,0E0,0E0,0E0],"parents":[2147483647,0,0,1,1,2,2,3,3,4,4,5,5,6,6,7,7,8,8,9,9,10,10,11,11,12,12,13,13,14,14,15,15,16,16,17,17,18,18,19,19,20,20,21,21,22,22,23,23,24,24,25,25,26,26,27,27,28,28,29,29,30,30,34,34,35,35,36,36,37,37,38,38,39,39,40,40,41,41,42,42,43,43,46,46,47,47,50,50,51,51,52,52,54,54,55,55,56,56,57,57,59,59,60,60,61,61,62,62],"right_children":[2,4,6,8,10,12,14,16,18,20,22,24,26,28,30,32,34,36,38,40,42,44,46,48,50,52,54,56,58,60,62,-1,-1,-1,64,66,68,70,72,74,76,78,80,82,-1,-1,84,86,-1,-1,88,90,92,-1,94,96,98,100,-1,102,104,106,108,-1,-1,-1,-1,-1,-1,-1,-1,-1,-1,-1,-1,-1,-1,-1,-1,-1,-1,-1,-1,-1,-1,-1,-1,-1,-1,-1,-1,-1,-1,-1,-1,-1,-1,-1,-1,-1,-1,-1,-1,-1,-1,-1,-1,-1,-1],"split_conditions":[2.0195E3,2.45E1,2.5E0,5E-1,2.895E2,1.885E2,8.85E1,8.5E0,1.95E1,2.845E2,2.925E2,1.535E2,1.5E0,7.25E1,1.575E2,1.5E0,1.15E1,3.5E0,2.05E1,2.715E2,5.5E0,2.905E2,2.935E2,5.5E0,1.675E2,1.05E1,1.935E2,3.25E1,5.5E0,1.295E2,5.5E0,1.0592091E0,1.7733475E0,7.4574727E-1,2.25E1,1.75E1,1.65E1,4.5E0,2.35E1,1.995E2,2.0185E3,2.855E2,2.875E2,1.5E0,1.9414543E0,1.0387192E0,3.075E2,1.35E1,9.287933E-1,2.0350125E0,5E-1,2.725E2,3.32E2,7.780102E-1,2.635E2,2.45E1,3.85E1,8.05E1,2.191919E0,1.145E2,1.355E2,1.715E2,3.5E0,1.4507778E0,9.4786465E-1,1.6599609E0,2.0522487E0,1.4755363E0,1.0210876E0,1.5617528E0,2.3567002E0,1.5364056E0,1.9283351E0,1.542104E0,1.4905658E0,1.7379352E0,1.3930869E0,1.133617E0,1.369548E0,1.1037375E0,8.797493E-1,2.0084844E0,1.4782332E0,1.6522875E0,1.5355929E0,1.7394514E0,1.515138E0,1.93545E0,1.5440081E0,1.5581568E0,1.3239201E0,1.8553457E0,1.5501326E0,1.496751E0,1.315524E0,1.6208421E0,1.218387E0,2.1618216E0,1.5685377E0,2.0004146E0,1.7110536E0,1.4153159E0,1.7761232E0,8.389019E-1,1.486924E0,1.3850586E0,1.5917226E0,1.7625035E0,1.5355694E0],"split_indices":[4,3,0,0,3,3,3,3,3,3,3,3,0,3,3,3,3,0,3,3,0,3,3,2,3,2,3,3,0,3,0,0,0,0,3,3,3,0,3,3,4,3,3,0,0,0,3,3,0,0,0,3,3,0,3,3,3,3,0,3,3,3,1,0,0,0,0,0,0,0,0,0,0,0,0,0,0,0,0,0,0,0,0,0,0,0,0,0,0,0,0,0,0,0,0,0,0,0,0,0,0,0,0,0,0,0,0,0,0],"split_type":[0,0,0,0,0,0,0,0,0,0,0,0,0,0,0,0,0,0,0,0,0,0,0,0,0,0,0,0,0,0,0,0,0,0,0,0,0,0,0,0,0,0,0,0,0,0,0,0,0,0,0,0,0,0,0,0,0,0,0,0,0,0,0,0,0,0,0,0,0,0,0,0,0,0,0,0,0,0,0,0,0,0,0,0,0,0,0,0,0,0,0,0,0,0,0,0,0,0,0,0,0,0,0,0,0,0,0,0,0],"sum_hessian":[5.4503E4,4.1014E4,1.3489E4,2.779E3,3.8235E4,5.671E3,7.818E3,4.14E2,2.365E3,2.9704E4,8.531E3,2.923E3,2.748E3,1.883E3,5.935E3,1.5E2,2.64E2,1.888E3,4.77E2,2.9127E4,5.77E2,3.39E2,8.192E3,2.335E3,5.88E2,1.86E3,8.88E2,1.515E3,3.68E2,1.491E3,4.444E3,3.5E1,1.15E2,4.5E1,2.19E2,1.048E3,8.4E2,1.17E2,3.6E2,2.7655E4,1.472E3,4.54E2,1.23E2,1.19E2,2.2E2,1.15E2,8.077E3,2.293E3,4.2E1,2.37E2,3.51E2,1.221E3,6.39E2,4E1,8.48E2,6.92E2,8.23E2,3.02E2,6.6E1,8.79E2,6.12E2,3.364E3,1.08E3,1.86E2,3.3E1,9.43E2,1.05E2,7.26E2,1.14E2,3.6E1,8.1E1,2.39E2,1.21E2,1.9621E4,8.034E3,9.73E2,4.99E2,8.9E1,3.65E2,8E1,4.3E1,4E1,7.9E1,1.58E3,6.497E3,1.92E2,2.101E3,1.21E2,2.3E2,8.9E2,3.31E2,2.81E2,3.58E2,3.37E2,5.11E2,5.16E2,1.76E2,1.04E2,7.19E2,1.39E2,1.63E2,5.49E2,3.3E2,1.09E2,5.03E2,2.27E2,3.137E3,6.26E2,4.54E2],"tree_param":{"num_deleted":"0","num_feature":"6","num_nodes":"109","size_leaf_vector":"0"}},{"base_weights":[3.6106608E0,3.5912066E0,3.6695423E0,3.7655606E0,3.5850317E0,3.6056821E0,3.7153978E0,3.1766193E0,4.0741076E0,2.5363593E0,3.5878065E0,3.3598466E0,3.6640277E0,3.86764E0,3.6664526E0,2.931259E0,3.8574016E0,3.49956E0,4.6536794E0,1.4692886E0,3.0946364E0,3.5706942E0,3.6495514E0,3.6785233E0,2.4399812E0,3.923836E0,3.5080607E0,3.6874294E0,4.433717E0,3.1124015E0,3.695599E0,2.2212858E0,3.2343466E0,3.935412E0,3.0655165E0,4.5023885E0,5.4172378E0,4.2392597E0,1.5178758E0,3.582175E0,2.9603243E0,4.3372154E0,3.6205688E0,3.5503964E0,4.765734E0,2.842679E0,2.1644363E0,3.867609E0,6.114239E0,3.649476E0,3.2038472E0,3.780444E0,2.1656687E0,4.2021074E0,4.835159E0,3.598404E0,2.1478546E0,4.601914E0,3.6777222E0,3.2515235E0,1.8122929E0,4.909024E0,2.8789322E0,2.5009108E0,4.1864996E0,2.117084E0,3.7823577E0,4.700075E0,3.5116682E0,3.5746562E0,3.9594915E0,3.0992455E0,2.4266996E0,4.7900615E0,4.1258035E0,2.4326324E0,3.6371794E0,4.0677323E0,3.359276E0,5.432437E0,4.1394844E0,2.0270314E0,3.1976957E0,2.815341E0,1.6992568E0,4.5937166E0,3.7760754E0,3.3608918E0,3.818274E0,3.1374538E0,4.040759E0,3.5516722E0,4.0152817E0,1.0106443E0,3.169898E0,4.5334606E0,1.9929622E0,5.5212154E0,4.2266912E0,3.214014E0,4.1464696E0,1.7122746E0,2.5047848E0,5.182543E0,2.9775903E0,2.7186043E0,3.7026777E0],"categories":[],"categories_nodes":[],"categories_segments":[],"categories_sizes":[],"default_left":[1,1,1,1,1,1,1,1,1,1,1,1,1,1,1,1,0,1,1,0,1,1,1,1,1,1,1,1,1,1,1,1,1,1,1,1,0,0,0,1,1,1,1,1,1,1,1,1,0,1,1,1,1,1,1,1,1,1,1,0,0,0,0,0,0,0,0,0,0,0,0,0,0,0,0,0,0,0,0,0,0,0,0,0,0,0,0,0,0,0,0,0,0,0,0,0,0,0,0,0,0,0,0,0,0,0,0],"id":4,"left_children":[1,3,5,7,9,11,13,15,17,19,21,23,25,27,29,31,-1,33,35,-1,37,39,41,43,45,47,49,51,53,55,57,59,61,63,65,67,-1,-1,-1,69,71,73,75,77,79,81,83,85,-1,87,89,91,93,95,97,99,101,103,105,-1,-1,-1,-1,-1,-1,-1,-1,-1,-1,-1,-1,-1,-1,-1,-1,-1,-1,-1,-1,-1,-1,-1,-1,-1,-1,-1,-1,-1,-1,-1,-1,-1,-1,-1,-1,-1,-1,-1,-1,-1,-1,-1,-1,-1,-1,-1,-1],"loss_changes":[4.91875E1,3.06875E1,2.6109375E1,2.383711E2,1.0625E2,6.905469E1,4.4085938E1,6.887109E1,2.8473828E2,5.9790894E1,2.871875E1,3.1347754E2,1.7153906E2,1.7584375E2,8.435156E1,6.9636475E1,0E0,7.458008E1,2.7246094E1,0E0,1.19901184E2,2.0659375E2,1.5435156E2,9.6609375E1,2.5582153E1,1.8658594E2,1.1164844E2,1.9493164E2,2.152246E1,1.3430908E2,7.4359375E1,4.045685E1,1.3347803E2,7.057202E1,1.5108325E2,5.7723145E1,0E0,0E0,0E0,7.215625E1,3.5327637E1,1.2787598E1,1.528125E2,5.880957E1,1.2166748E1,2.623938E1,4.7901062E1,9.3447266E1,0E0,8.21543E1,3.8331055E1,5.8320312E1,9.538867E1,2.0544238E2,4.2619385E1,2.8807129E1,1.1880157E1,8.3596924E1,1.2228906E2,0E0,0E0,0E0,0E0,0E0,0E0,0E0,0E0,0E0,0E0,0E0,0E0,0E0,0E0,0E0,0E0,0E0,0E0,0E0,0E0,0E0,0E0,0E0,0E0,0E0,0E0,0E0,0E0,0E0,0E0,0E0,0E0,0E0,0E0,0E0,0E0,0E0,0E0,0E0,0E0,0E0,0E0,0E0,0E0,0E0,0E0,0E0,0E0],"parents":[2147483647,0,0,1,1,2,2,3,3,4,4,5,5,6,6,7,7,8,8,9,9,10,10,11,11,12,12,13,13,14,14,15,15,17,17,18,18,20,20,21,21,22,22,23,23,24,24,25,25,26,26,27,27,28,28,29,29,30,30,31,31,32,32,33,33,34,34,35,35,39,39,40,40,41,41,42,42,43,43,44,44,45,45,46,46,47,47,49,49,50,50,51,51,52,52,53,53,54,54,55,55,56,56,57,57,58,58],"right_children":[2,4,6,8,10,12,14,16,18,20,22,24,26,28,30,32,-1,34,36,-1,38,40,42,44,46,48,50,52,54,56,58,60,62,64,66,68,-1,-1,-1,70,72,74,76,78,80,82,84,86,-1,88,90,92,94,96,98,100,102,104,106,-1,-1,-1,-1,-1,-1,-1,-1,-1,-1,-1,-1,-1,-1,-1,-1,-1,-1,-1,-1,-1,-1,-1,-1,-1,-1,-1,-1,-1,-1,-1,-1,-1,-1,-1,-1,-1,-1,-1,-1,-1,-1,-1,-1,-1,-1,-1,-1],"split_conditions":[2.0195E3,1.25E1,2.5E0,2.0175E3,1.35E1,7.05E1,8.85E1,9.5E0,6.5E0,4.5E0,2.895E2,5.25E1,1.815E2,6.75E1,1.015E2,1.5E0,1.1572205E0,3.5E0,1.15E1,4.407866E-1,5.5E0,2.845E2,2.925E2,4.85E1,2.5E0,1.785E2,1.5E0,6.55E1,8.15E1,9.8E1,1.075E2,2.5E0,2.5E0,5E-1,4.5E0,1.05E1,1.6251714E0,1.271778E0,4.5536277E-1,2.795E2,5.5E0,2.0175E3,2.935E2,1.35E1,1.5E0,5E-1,5E-1,8.35E1,1.8342718E0,2.48E2,3.545E2,3.25E1,4.5E0,8.05E1,8.65E1,9.45E1,3.5E0,5.5E0,1.145E2,9.754571E-1,5.436879E-1,1.4727072E0,8.636797E-1,7.502733E-1,1.25595E0,6.351252E-1,1.1347073E0,1.4100226E0,1.0535005E0,1.0723969E0,1.1878475E0,9.297737E-1,7.2800994E-1,1.4370185E0,1.2377411E0,7.2978973E-1,1.0911539E0,1.2203197E0,1.0077828E0,1.6297312E0,1.2418454E0,6.081095E-1,9.5930874E-1,8.4460235E-1,5.0977707E-1,1.378115E0,1.1328226E0,1.0082676E0,1.1454823E0,9.412362E-1,1.2122278E0,1.0655017E0,1.2045846E0,3.031933E-1,9.5096946E-1,1.3600383E0,5.978887E-1,1.6563647E0,1.2680074E0,9.6420425E-1,1.243941E0,5.1368237E-1,7.5143546E-1,1.554763E0,8.932771E-1,8.155813E-1,1.1108034E0],"split_indices":[4,3,0,4,3,3,3,3,3,0,3,3,3,3,3,0,0,3,3,0,0,3,3,3,2,3,0,3,3,3,3,3,0,0,0,3,0,0,0,3,0,4,3,3,0,0,0,3,0,3,3,3,0,3,3,3,0,0,3,0,0,0,0,0,0,0,0,0,0,0,0,0,0,0,0,0,0,0,0,0,0,0,0,0,0,0,0,0,0,0,0,0,0,0,0,0,0,0,0,0,0,0,0,0,0,0,0],"split_type":[0,0,0,0,0,0,0,0,0,0,0,0,0,0,0,0,0,0,0,0,0,0,0,0,0,0,0,0,0,0,0,0,0,0,0,0,0,0,0,0,0,0,0,0,0,0,0,0,0,0,0,0,0,0,0,0,0,0,0,0,0,0,0,0,0,0,0,0,0,0,0,0,0,0,0,0,0,0,0,0,0,0,0,0,0,0,0,0,0,0,0,0,0,0,0,0,0,0,0,0,0,0,0,0,0,0,0],"sum_hessian":[5.4503E4,4.1014E4,1.3489E4,1.382E3,3.9632E4,5.671E3,7.818E3,4.79E2,9.03E2,1.07E2,3.9525E4,1.099E3,4.572E3,1.883E3,5.935E3,3.56E2,1.23E2,4.57E2,4.46E2,3.8E1,6.9E1,3.0994E4,8.531E3,8.14E2,2.85E2,1.706E3,2.866E3,1.434E3,4.49E2,3.02E2,5.633E3,1.09E2,2.47E2,2.24E2,2.33E2,3.78E2,6.8E1,3.9E1,3E1,3.0417E4,5.77E2,3.39E2,8.192E3,7.32E2,8.2E1,1.12E2,1.73E2,1.666E3,4E1,1.949E3,9.17E2,1.35E3,8.4E1,2.92E2,1.57E2,1.99E2,1.03E2,1.04E2,5.529E3,2.9E1,8E1,4.1E1,2.06E2,3.5E1,1.89E2,1.02E2,1.31E2,3.12E2,6.6E1,2.9833E4,5.84E2,4.54E2,1.23E2,1.01E2,2.38E2,1.15E2,8.077E3,1.92E2,5.4E2,3.6E1,4.6E1,3.6E1,7.6E1,7E1,1.03E2,1.81E2,1.485E3,7.27E2,1.222E3,8.54E2,6.3E1,6.92E2,6.58E2,4E1,4.4E1,2.53E2,3.9E1,7E1,8.7E1,1.21E2,7.8E1,4.9E1,5.4E1,7.5E1,2.9E1,1.43E2,5.386E3],"tree_param":{"num_deleted":"0","num_feature":"6","num_nodes":"107","size_leaf_vector":"0"}},{"base_weights":[2.528497E0,2.6552024E0,2.5204713E0,2.3533626E0,2.7988188E0,2.2617595E0,2.530397E0,2.6897879E0,2.2923331E0,2.4514976E0,2.9212759E0,2.3316183E0,1.8600401E0,3.1989512E0,2.524444E0,1.8981241E0,3.508921E0,2.140477E0,2.6137643E0,2.553879E0,1.2742281E0,3.2424235E0,2.6913652E0,2.7798903E0,2.1884332E0,6.6339296E-1,2.2429981E0,4.253092E0,2.7460694E0,2.3880298E0,2.5387418E0,3.823424E0,2.966825E0,2.3398626E0,1.7745726E0,1.5380358E0,2.7800827E0,2.315878E0,3.3701408E0,4.13039E0,3.091095E0,2.4085498E0,3.5428264E0,5.796162E-1,3.229078E0,1.6715037E0,2.3068075E0,-5.804428E-1,1.959351E0,2.041547E0,2.6635373E0,3.2319248E0,4.5461254E0,2.4344914E0,3.4091945E0,2.5335119E0,1.8164624E0,2.953467E0,2.5300412E0,2.4446368E0,2.1995754E0,1.2941248E0,1.9809958E0,3.213284E0,2.5518131E0,2.400076E0,1.6728275E0,3.6607366E0,2.6428864E0,3.348742E0,4.942518E0,3.2099862E0,2.190919E0,2.6169264E0,2.0841603E0,1.9995573E0,4.3366957E0,1.1987065E0,-5.652167E-2,2.5902407E0,4.020631E0,1.9945886E0,1.0405961E0,3.3796723E0,2.14809E0,2.5671802E0,1.8546777E0,2.877156E0,1.5760837E0,2.9127357E0,4.4386272E0,2.4937205E0,3.5021389E0,1.641693E0,2.9246187E0,2.4186168E0,3.23679E0,2.6050253E0,2.5123053E0],"categories":[],"categories_nodes":[],"categories_segments":[],"categories_sizes":[],"default_left":[1,1,1,1,1,1,1,1,1,1,1,1,1,1,1,0,1,1,1,1,0,1,1,1,1,1,1,1,1,1,1,0,0,1,1,0,1,1,1,1,1,1,1,1,1,1,1,0,0,1,0,0,0,1,1,1,1,1,1,0,0,0,0,0,0,0,0,0,0,0,0,0,0,0,0,0,0,0,0,0,0,0,0,0,0,0,0,0,0,0,0,0,0,0,0,0,0,0,0],"id":5,"left_children":[1,3,5,7,9,11,13,15,17,19,21,23,25,27,29,-1,31,33,35,37,-1,39,41,43,45,47,49,51,53,55,57,-1,-1,59,61,-1,63,65,67,69,71,73,75,77,79,81,83,-1,-1,85,-1,-1,-1,87,89,91,93,95,97,-1,-1,-1,-1,-1,-1,-1,-1,-1,-1,-1,-1,-1,-1,-1,-1,-1,-1,-1,-1,-1,-1,-1,-1,-1,-1,-1,-1,-1,-1,-1,-1,-1,-1,-1,-1,-1,-1,-1,-1],"loss_changes":[4.871875E1,1.333457E2,1.2596875E2,1.5331055E1,8.564258E1,4.909668E1,1.8840625E2,9.385364E1,3.7993652E1,6.6051025E1,1.1000098E2,9.776953E1,1.3003436E2,1.945581E2,8.940625E1,0E0,1.4434204E0,4.049707E1,4.6177734E1,9.477026E1,0E0,7.6726074E1,2.1854736E2,3.8160303E2,7.14707E1,1.1558636E2,1.2946167E1,2.3609375E1,5.4717773E1,3.8289062E2,1.5234375E2,0E0,0E0,3.9916992E-1,1.9254944E1,0E0,1.5829712E1,1.8291992E1,1.5051758E1,4.311975E1,5.4291504E1,4.2605957E1,2.7678906E2,2.6454151E1,1.5241211E2,4.5418396E1,1.6285254E2,0E0,0E0,1.0070557E1,0E0,0E0,0E0,7.56427E1,3.562329E1,1.3433984E2,1.7899341E2,1.2915918E2,5.115625E1,0E0,0E0,0E0,0E0,0E0,0E0,0E0,0E0,0E0,0E0,0E0,0E0,0E0,0E0,0E0,0E0,0E0,0E0,0E0,0E0,0E0,0E0,0E0,0E0,0E0,0E0,0E0,0E0,0E0,0E0,0E0,0E0,0E0,0E0,0E0,0E0,0E0,0E0,0E0,0E0],"parents":[2147483647,0,0,1,1,2,2,3,3,4,4,5,5,6,6,7,7,8,8,9,9,10,10,11,11,12,12,13,13,14,14,16,16,17,17,18,18,19,19,21,21,22,22,23,23,24,24,25,25,26,26,27,27,28,28,29,29,30,30,33,33,34,34,36,36,37,37,38,38,39,39,40,40,41,41,42,42,43,43,44,44,45,45,46,46,49,49,53,53,54,54,55,55,56,56,57,57,58,58],"right_children":[2,4,6,8,10,12,14,16,18,20,22,24,26,28,30,-1,32,34,36,38,-1,40,42,44,46,48,50,52,54,56,58,-1,-1,60,62,-1,64,66,68,70,72,74,76,78,80,82,84,-1,-1,86,-1,-1,-1,88,90,92,94,96,98,-1,-1,-1,-1,-1,-1,-1,-1,-1,-1,-1,-1,-1,-1,-1,-1,-1,-1,-1,-1,-1,-1,-1,-1,-1,-1,-1,-1,-1,-1,-1,-1,-1,-1,-1,-1,-1,-1,-1,-1],"split_conditions":[2.15E1,7.5E0,3.45E1,1.5E0,2.0175E3,3.25E1,3.75E1,2.0185E3,4.5E0,2.05E1,1.35E1,2.0175E3,2.0175E3,2.0175E3,6.85E1,5.6943727E-1,1.5E0,4.5E0,2.0175E3,1.75E1,3.8226846E-1,5E-1,1.95E1,5E-1,2.35E1,3.5E0,2.0195E3,2.5E0,2.0195E3,6.25E1,7.45E1,1.1470273E0,8.9004755E-1,2.5E0,5.5E0,4.6141073E-1,2.0185E3,1.65E1,3.5E0,1.05E1,1.25E1,3.5E0,5E-1,2.65E1,2.75E1,2.0195E3,2.45E1,-1.7413284E-1,5.8780533E-1,4.5E0,7.9906124E-1,9.695775E-1,1.3638377E0,1.5E0,2.5E0,6.15E1,5.5E0,1.5E0,1.305E2,7.3339105E-1,6.5987265E-1,3.8823748E-1,5.942988E-1,9.6398526E-1,7.65544E-1,7.200228E-1,5.018483E-1,1.0982211E0,7.9286593E-1,1.0046227E0,1.4827555E0,9.629959E-1,6.572757E-1,7.85078E-1,6.2524813E-1,5.998672E-1,1.3010087E0,3.5961196E-1,-1.69565E-2,7.7707225E-1,1.2061893E0,5.9837663E-1,3.1217885E-1,1.0139017E0,6.44427E-1,7.7015406E-1,5.5640334E-1,8.6314684E-1,4.728251E-1,8.738207E-1,1.3315883E0,7.481162E-1,1.0506417E0,4.925079E-1,8.773857E-1,7.2558504E-1,9.7103703E-1,7.815076E-1,7.536916E-1],"split_indices":[3,3,3,3,4,3,3,4,0,3,3,4,4,4,3,0,0,3,4,3,0,0,3,0,3,0,4,0,4,3,3,0,0,0,3,0,4,3,0,3,3,0,0,3,3,4,3,0,0,0,0,0,0,0,0,3,0,0,3,0,0,0,0,0,0,0,0,0,0,0,0,0,0,0,0,0,0,0,0,0,0,0,0,0,0,0,0,0,0,0,0,0,0,0,0,0,0,0,0],"split_type":[0,0,0,0,0,0,0,0,0,0,0,0,0,0,0,0,0,0,0,0,0,0,0,0,0,0,0,0,0,0,0,0,0,0,0,0,0,0,0,0,0,0,0,0,0,0,0,0,0,0,0,0,0,0,0,0,0,0,0,0,0,0,0,0,0,0,0,0,0,0,0,0,0,0,0,0,0,0,0,0,0,0,0,0,0,0,0,0,0,0,0,0,0,0,0,0,0,0,0],"sum_hessian":[5.4503E4,3.227E3,5.1276E4,1.046E3,2.181E3,1.903E3,4.9373E4,1.54E2,8.92E2,5.74E2,1.607E3,1.617E3,2.86E2,4.31E2,4.8942E4,8E1,7.4E1,6.11E2,2.81E2,5.27E2,4.7E1,6.65E2,9.42E2,3.87E2,1.23E3,7E1,2.16E2,1.27E2,3.04E2,4.659E3,4.4283E4,4.3E1,3.1E1,3.92E2,2.19E2,3.9E1,2.42E2,4.11E2,1.16E2,9.3E1,5.72E2,7.1E2,2.32E2,6.6E1,3.21E2,2.32E2,9.98E2,3.6E1,3.4E1,1.5E2,6.6E1,3.1E1,9.6E1,2.1E2,9.4E1,3.711E3,9.48E2,9.03E2,4.338E4,2.15E2,1.77E2,6.8E1,1.51E2,7.9E1,1.63E2,3.61E2,5E1,8E1,3.6E1,5E1,4.3E1,5.03E2,6.9E1,4.28E2,2.82E2,8E1,1.52E2,3.3E1,3.3E1,1.8E2,1.41E2,1.52E2,8E1,1.26E2,8.72E2,3.6E1,1.14E2,1.37E2,7.3E1,6.6E1,2.8E1,3.568E3,1.43E2,8.21E2,1.27E2,3.16E2,5.87E2,8.27E3,3.511E4],"tree_param":{"num_deleted":"0","num_feature":"6","num_nodes":"99","size_leaf_vector":"0"}},{"base_weights":[1.7706412E0,1.7549479E0,1.8095291E0,1.7359498E0,1.8271414E0,2.102786E0,1.7875006E0,1.7976202E0,1.682983E0,2.0013492E0,1.733685E0,1.8980951E0,2.422088E0,1.6640211E0,1.8492025E0,1.7513734E0,2.2559624E0,1.3798009E0,1.7259283E0,1.9124582E0,3.339049E0,7.746264E-1,1.767677E0,2.300136E0,1.5488542E0,2.6562183E0,1.9433649E0,2.149036E0,1.4956187E0,2.1642945E0,1.7694887E0,1.7696067E0,1.0614984E0,2.3332236E0,1.7497267E0,1.502209E0,8.511641E-1,2.1477227E0,1.6757843E0,1.9808718E0,-7.053229E-1,1.7081577E0,4.47352E0,1.4468012E0,1.8371335E-1,2.3313532E0,1.7247412E0,1.95366E0,2.6428766E0,1.393208E0,2.1967292E0,1.023232E0,2.9563377E0,2.8972294E0,8.9221495E-1,2.4282498E0,1.4574057E0,1.577152E0,9.338646E-1,1.9276854E0,3.6257293E0,-1.322398E-1,1.7959017E0,1.7487729E0,2.3899553E0,1.6304191E0,7.8735393E-1,2.1996047E0,2.7776825E0,1.3856094E0,2.9530852E0,1.7049644E0,1.1915385E0,2.7741113E-1,1.0125632E0,1.7721413E0,2.3971388E0,1.8025856E0,1.5878758E0,1.7023604E0,2.317839E0,-3.0532086E-1,-1.096345E0,1.3725679E0,2.0733402E0,4.7776985E0,3.622734E0,-8.148814E-2,4.6166256E-1,3.2948608E0,1.9426174E-1,1.570766E0,1.8498379E0,2.2304933E0,1.0881605E0,1.6756989E0,6.458754E-1,1.7966785E0,3.573691E0,2.1487567E0,2.975336E0,6.1015767E-1,2.1718597E0,1.2404219E0,1.6840369E0,2.1396711E-1,1.2746686E0,2.4182894E0,1.4312751E0,4.6291604E0,3.2600565E0,7.368781E-1,-1.5492803E0,1.6600822E0,1.9363877E0],"categories":[],"categories_nodes":[],"categories_segments":[],"categories_sizes":[],"default_left":[1,1,1,1,1,1,1,1,1,1,1,1,1,1,1,1,1,1,1,1,1,1,1,1,1,1,1,1,1,1,1,1,1,1,1,1,1,1,1,1,1,1,1,0,1,1,1,1,0,1,0,0,1,0,0,1,1,1,1,1,1,1,1,0,0,0,0,0,0,0,0,0,0,0,0,0,0,0,0,0,0,0,0,0,0,0,0,0,0,0,0,0,0,0,0,0,0,0,0,0,0,0,0,0,0,0,0,0,0,0,0,0,0,0,0],"id":6,"left_children":[1,3,5,7,9,11,13,15,17,19,21,23,25,27,29,31,33,35,37,39,41,43,45,47,49,51,53,55,57,59,61,63,65,67,69,71,73,75,77,79,81,83,85,-1,87,89,91,93,-1,95,-1,-1,97,-1,-1,99,101,103,105,107,109,111,113,-1,-1,-1,-1,-1,-1,-1,-1,-1,-1,-1,-1,-1,-1,-1,-1,-1,-1,-1,-1,-1,-1,-1,-1,-1,-1,-1,-1,-1,-1,-1,-1,-1,-1,-1,-1,-1,-1,-1,-1,-1,-1,-1,-1,-1,-1,-1,-1,-1,-1,-1,-1],"loss_changes":[3.009375E1,5.0132812E1,9.726953E1,9.753906E1,1.2804688E2,6.6447266E1,1.0780078E2,2.9727734E2,2.1348047E2,3.282256E2,1.7026953E2,9.009033E1,4.2025146E1,3.9365723E2,2.396836E2,1.6055078E2,4.672461E1,1.3215234E2,3.0346094E2,4.743789E2,3.142932E2,7.2024025E1,1.1902246E2,3.141211E1,3.32417E1,1.3420068E2,1.3979199E2,2.3785205E2,1.638711E2,6.6833594E2,3.8916992E2,1.5839453E2,5.0965057E1,6.064258E1,7.302496E1,1.03350586E2,3.583438E1,1.3991943E2,1.4182422E2,2.3762305E2,1.0301121E1,6.100464E0,9.088501E0,0E0,7.26145E0,7.3445984E2,8.816406E1,3.518994E1,0E0,6.0774292E1,0E0,0E0,1.6253613E2,0E0,0E0,1.295415E2,2.1780066E2,1.11319824E2,1.1258554E2,4.0641846E2,8.43457E1,1.3292018E2,1.4250586E2,0E0,0E0,0E0,0E0,0E0,0E0,0E0,0E0,0E0,0E0,0E0,0E0,0E0,0E0,0E0,0E0,0E0,0E0,0E0,0E0,0E0,0E0,0E0,0E0,0E0,0E0,0E0,0E0,0E0,0E0,0E0,0E0,0E0,0E0,0E0,0E0,0E0,0E0,0E0,0E0,0E0,0E0,0E0,0E0,0E0,0E0,0E0,0E0,0E0,0E0,0E0,0E0],"parents":[2147483647,0,0,1,1,2,2,3,3,4,4,5,5,6,6,7,7,8,8,9,9,10,10,11,11,12,12,13,13,14,14,15,15,16,16,17,17,18,18,19,19,20,20,21,21,22,22,23,23,24,24,25,25,26,26,27,27,28,28,29,29,30,30,31,31,32,32,33,33,34,34,35,35,36,36,37,37,38,38,39,39,40,40,41,41,42,42,44,44,45,45,46,46,47,47,49,49,52,52,55,55,56,56,57,57,58,58,59,59,60,60,61,61,62,62],"right_children":[2,4,6,8,10,12,14,16,18,20,22,24,26,28,30,32,34,36,38,40,42,44,46,48,50,52,54,56,58,60,62,64,66,68,70,72,74,76,78,80,82,84,86,-1,88,90,92,94,-1,96,-1,-1,98,-1,-1,100,102,104,106,108,110,112,114,-1,-1,-1,-1,-1,-1,-1,-1,-1,-1,-1,-1,-1,-1,-1,-1,-1,-1,-1,-1,-1,-1,-1,-1,-1,-1,-1,-1,-1,-1,-1,-1,-1,-1,-1,-1,-1,-1,-1,-1,-1,-1,-1,-1,-1,-1,-1,-1,-1,-1,-1,-1],"split_conditions":[4.5E0,2.895E2,2.65E1,1.345E2,3.165E2,1.65E1,1.395E2,1.215E2,1.535E2,3.145E2,3.175E2,5.5E0,2.0195E3,2.0175E3,1.845E2,1.185E2,1.325E2,1.495E2,1.675E2,3.135E2,5E-1,1.5E0,3.205E2,9E0,2.0195E3,1.95E1,2.2E1,1.055E2,1.255E2,1.795E2,1.875E2,1.145E2,2.0185E3,2.0195E3,1.5E0,2.5E0,1.5E0,1.585E2,1.5E0,2.5E0,2E0,3.155E2,1.5E0,4.3404037E-1,2.5E0,2.0185E3,3.405E2,6.5E0,7.92863E-1,2.0185E3,6.5901875E-1,3.069696E-1,2.0175E3,8.691689E-1,2.676645E-1,7.75E1,1.195E2,4.85E1,2.0185E3,5.5E0,1.805E2,5.5E0,2.0185E3,5.2463186E-1,7.169866E-1,4.8912576E-1,2.3620619E-1,6.598815E-1,8.333048E-1,4.1568282E-1,8.859256E-1,5.1148933E-1,3.5746154E-1,8.322334E-2,3.03769E-1,5.3164244E-1,7.1914166E-1,5.407757E-1,4.7636276E-1,5.1070815E-1,6.953517E-1,-9.159626E-2,-3.289035E-1,4.1177037E-1,6.2200207E-1,1.4333096E0,1.0868202E0,-2.4446443E-2,1.3849877E-1,9.884583E-1,5.8278527E-2,4.7122982E-1,5.5495137E-1,6.69148E-1,3.2644817E-1,5.027097E-1,1.9376263E-1,5.390036E-1,1.0721073E0,6.4462703E-1,8.9260083E-1,1.8304731E-1,6.515579E-1,3.7212658E-1,5.0521106E-1,6.4190134E-2,3.824006E-1,7.254869E-1,4.2938256E-1,1.3887482E0,9.78017E-1,2.2106344E-1,-4.6478412E-1,4.9802467E-1,5.8091635E-1],"split_indices":[0,3,3,3,3,3,3,3,3,3,3,0,4,4,3,3,3,3,3,3,0,0,3,3,4,3,3,3,3,3,3,3,4,4,0,0,0,3,0,0,0,3,0,0,0,4,3,3,0,4,0,0,4,0,0,3,3,3,4,0,3,0,4,0,0,0,0,0,0,0,0,0,0,0,0,0,0,0,0,0,0,0,0,0,0,0,0,0,0,0,0,0,0,0,0,0,0,0,0,0,0,0,0,0,0,0,0,0,0,0,0,0,0,0,0],"split_type":[0,0,0,0,0,0,0,0,0,0,0,0,0,0,0,0,0,0,0,0,0,0,0,0,0,0,0,0,0,0,0,0,0,0,0,0,0,0,0,0,0,0,0,0,0,0,0,0,0,0,0,0,0,0,0,0,0,0,0,0,0,0,0,0,0,0,0,0,0,0,0,0,0,0,0,0,0,0,0,0,0,0,0,0,0,0,0,0,0,0,0,0,0,0,0,0,0,0,0,0,0,0,0,0,0,0,0,0,0,0,0,0,0,0,0],"sum_hessian":[5.4503E4,3.8865E4,1.5638E4,3.0788E4,8.077E3,1.086E3,1.4552E4,1.421E4,1.6578E4,2.813E3,5.264E3,6.66E2,4.2E2,4.858E3,9.694E3,1.2912E4,1.298E3,2.061E3,1.4517E4,2.64E3,1.73E2,1.81E2,5.083E3,3.07E2,3.59E2,2.79E2,1.41E2,1.249E3,3.609E3,1.952E3,7.742E3,1.2578E4,3.34E2,1.123E3,1.75E2,1.672E3,3.89E2,1.538E3,1.2979E4,2.573E3,6.7E1,7.2E1,1.01E2,8.4E1,9.7E1,3.56E2,4.727E3,1.56E2,1.51E2,2.92E2,6.7E1,4.4E1,2.35E2,7.3E1,6.8E1,8.88E2,3.61E2,3.15E3,4.59E2,1.682E3,2.7E2,1.06E2,7.636E3,1.2173E4,4.05E2,1.07E2,2.27E2,8.68E2,2.55E2,1.36E2,3.9E1,1.009E3,6.63E2,8.6E1,3.03E2,6.17E2,9.21E2,5.306E3,7.673E3,1.412E3,1.161E3,3.4E1,3.3E1,4E1,3.2E1,7.1E1,3E1,5E1,4.7E1,2.45E2,1.11E2,2.125E3,2.602E3,1.17E2,3.9E1,2.11E2,8.1E1,8.3E1,1.52E2,5.91E2,2.97E2,1.66E2,1.95E2,7.62E2,2.388E3,1.48E2,3.11E2,8.44E2,8.38E2,6.9E1,2.01E2,6.6E1,4E1,3.889E3,3.747E3],"tree_param":{"num_deleted":"0","num_feature":"6","num_nodes":"115","size_leaf_vector":"0"}},{"base_weights":[1.2399901E0,1.2368937E0,1.422216E0,1.2416615E0,1.112354E0,1.4815602E0,7.837287E-1,1.2325683E0,1.7556154E0,9.8490477E-1,1.7982253E0,1.3994553E0,2.3762085E0,9.0713614E-1,5.9371483E-1,1.242365E0,9.148472E-1,1.9077991E0,9.6826E-1,6.5254426E-1,1.3314663E0,1.5216999E0,2.1595876E0,1.2816128E0,1.9158636E0,3.3539824E0,1.1009948E0,1.2376629E0,1.6316935E0,1.0864174E0,2.9785117E-2,2.0467336E0,1.4472495E0,2.533498E0,3.5944673E-1,-7.223004E-1,8.22646E-1,1.954696E0,1.182101E0,1.7692894E0,3.7268898E-1,2.4566443E0,1.4876179E0,1.5035939E0,6.691395E-1,2.2608294E0,1.5331327E0,1.241987E0,4.920794E-1,1.7961272E0,2.9112083E-1,1.5712383E0,6.272856E-1,-1.5607256E0,3.99707E-1,1.8988626E0,2.9887471E0,1.657721E0,3.159565E-1,-6.9292605E-1,2.2121205E0,-2.4097268E-1,-1.0832905E0,1.0667329E0,-7.685917E-2,1.2730914E0,2.7215686E0,-5.5635395E-3,1.3153993E0,1.5067247E0,2.4113657E0,2.1386368E0,2.8742492E0,1.0788991E0,1.64241E0,2.2422426E0,1.723172E-1,1.5963545E0,2.7358887E0],"categories":[],"categories_nodes":[],"categories_segments":[],"categories_sizes":[],"default_left":[1,1,1,1,1,1,1,1,1,1,1,1,1,0,0,1,1,1,1,1,1,1,1,1,1,0,0,1,1,1,1,1,1,0,1,1,1,1,1,1,0,1,0,1,1,1,0,0,0,0,0,0,0,0,0,0,0,0,0,0,0,0,0,0,0,0,0,0,0,0,0,0,0,0,0,0,0,0,0],"id":7,"left_children":[1,3,5,7,9,11,13,15,17,19,21,23,25,-1,-1,27,29,31,33,35,37,39,41,43,45,-1,-1,47,49,51,53,55,57,-1,59,61,63,65,67,69,-1,71,-1,73,75,77,-1,-1,-1,-1,-1,-1,-1,-1,-1,-1,-1,-1,-1,-1,-1,-1,-1,-1,-1,-1,-1,-1,-1,-1,-1,-1,-1,-1,-1,-1,-1,-1,-1],"loss_changes":[2.8984375E1,3.0453125E1,3.3091797E1,2.390625E2,1.7183276E2,5.734839E1,1.3139E0,1.5674219E2,1.0539404E2,1.9229358E2,2.7690735E1,4.37334E1,8.109451E1,0E0,0E0,8.805469E1,2.30932E2,4.4963623E1,1.3917119E2,2.0124902E2,7.402222E1,5.0263123E1,2.2694397E1,8.3423584E1,1.4885895E1,0E0,0E0,1.5613281E2,1.282113E2,2.8260254E2,1.4653827E2,7.41416E1,4.162082E1,0E0,2.101511E2,1.624564E1,1.6782379E2,7.859973E1,1.05127625E2,2.1148926E1,0E0,5.805176E0,0E0,2.5052246E1,1.301329E2,1.80448E1,0E0,0E0,0E0,0E0,0E0,0E0,0E0,0E0,0E0,0E0,0E0,0E0,0E0,0E0,0E0,0E0,0E0,0E0,0E0,0E0,0E0,0E0,0E0,0E0,0E0,0E0,0E0,0E0,0E0,0E0,0E0,0E0,0E0],"parents":[2147483647,0,0,1,1,2,2,3,3,4,4,5,5,6,6,7,7,8,8,9,9,10,10,11,11,12,12,15,15,16,16,17,17,18,18,19,19,20,20,21,21,22,22,23,23,24,24,27,27,28,28,29,29,30,30,31,31,32,32,34,34,35,35,36,36,37,37,38,38,39,39,41,41,43,43,44,44,45,45],"right_children":[2,4,6,8,10,12,14,16,18,20,22,24,26,-1,-1,28,30,32,34,36,38,40,42,44,46,-1,-1,48,50,52,54,56,58,-1,60,62,64,66,68,70,-1,72,-1,74,76,78,-1,-1,-1,-1,-1,-1,-1,-1,-1,-1,-1,-1,-1,-1,-1,-1,-1,-1,-1,-1,-1,-1,-1,-1,-1,-1,-1,-1,-1,-1,-1,-1,-1],"split_conditions":[5E-1,3.515E2,5.5E0,3.455E2,5.5E0,4.5E0,1.35E1,3.355E2,5.5E0,2.0185E3,3.625E2,2.0195E3,2E0,2.7214086E-1,1.7811446E-1,3.315E2,5.5E0,2.0195E3,3.485E2,3.525E2,3.535E2,3.6E2,3.645E2,2.5E0,2.5E0,1.0061948E0,3.3029845E-1,3.295E2,5.5E0,2.0185E3,3.365E2,3.505E2,3.505E2,7.6004946E-1,3.505E2,5E-1,3.625E2,3.525E2,3.545E2,3.575E2,1.118067E-1,3.635E2,4.4628537E-1,5E-1,2.0175E3,3E0,4.599398E-1,3.725961E-1,1.4762382E-1,5.388382E-1,8.733625E-2,4.713715E-1,1.8818569E-1,-4.682177E-1,1.199121E-1,5.696588E-1,8.9662415E-1,4.9731633E-1,9.478696E-2,-2.0787783E-1,6.636362E-1,-7.229181E-2,-3.2498714E-1,3.2001987E-1,-2.3057751E-2,3.8192746E-1,8.164706E-1,-1.669062E-3,3.946198E-1,4.5201743E-1,7.234098E-1,6.415911E-1,8.622748E-1,3.2366976E-1,4.9272302E-1,6.726728E-1,5.1695164E-2,4.7890636E-1,8.207666E-1],"split_indices":[5,3,0,3,0,0,3,3,0,4,3,4,1,0,0,3,0,4,3,3,3,3,3,0,1,0,0,3,0,4,3,3,3,0,3,0,3,3,3,3,0,3,0,0,4,0,0,0,0,0,0,0,0,0,0,0,0,0,0,0,0,0,0,0,0,0,0,0,0,0,0,0,0,0,0,0,0,0,0],"split_type":[0,0,0,0,0,0,0,0,0,0,0,0,0,0,0,0,0,0,0,0,0,0,0,0,0,0,0,0,0,0,0,0,0,0,0,0,0,0,0,0,0,0,0,0,0,0,0,0,0,0,0,0,0,0,0,0,0,0,0,0,0,0,0,0,0,0,0,0,0,0,0,0,0,0,0,0,0,0,0],"sum_hessian":[5.4503E4,5.36E4,9.03E2,5.1615E4,1.985E3,8.25E2,7.8E1,5.0721E4,8.94E2,1.676E3,3.09E2,7.58E2,6.7E1,4.5E1,3.3E1,4.9201E4,1.52E3,7.48E2,1.46E2,8.57E2,8.19E2,1.78E2,1.31E2,6.2E2,1.38E2,3.7E1,3E1,4.8618E4,5.83E2,1.273E3,2.47E2,5.72E2,1.76E2,4E1,1.06E2,9.4E1,7.63E2,1.56E2,6.63E2,1.46E2,3.2E1,8.9E1,4.2E1,4.54E2,1.66E2,7E1,6.8E1,4.8337E4,2.81E2,5.19E2,6.4E1,6.18E2,6.55E2,4.6E1,2.01E2,4.97E2,7.5E1,1.48E2,2.8E1,6.8E1,3.8E1,4.1E1,5.3E1,6E2,1.63E2,8.4E1,7.2E1,6.7E1,5.96E2,1.06E2,4E1,5.4E1,3.5E1,1.14E2,3.4E2,3.9E1,1.27E2,3.1E1,3.9E1],"tree_param":{"num_deleted":"0","num_feature":"6","num_nodes":"79","size_leaf_vector":"0"}},{"base_weights":[8.6826026E-1,8.663088E-1,1.1939316E0,8.7032413E-1,5.128255E-1,1.9285097E0,6.2543505E-1,8.647425E-1,1.0072653E0,1.7379092E-1,8.924587E-1,5.7107484E-1,2.4849112E0,9.106007E-2,7.7908516E-1,8.721004E-1,6.4461577E-1,1.2325888E0,8.3809024E-1,4.6722484E-1,-3.0952165E-1,1.1726025E0,5.8793086E-1,2.988332E0,2.2114644E0,1.0214311E0,1.3556735E-1,8.683178E-1,1.2985035E0,9.4743836E-1,3.3292586E-1,1.3382072E0,6.860528E-1,1.5475194E-1,9.571877E-1,1.6735983E-1,1.7162155E0,-8.121931E-1,1.2027728E-2,9.6567035E-1,1.508711E0,8.061904E-1,3.449768E-1,7.7768373E-1,1.1252308E0,8.7130594E-1,3.4497887E-1,9.908156E-1,1.6249162E0,1.1391058E0,8.562322E-2,1.7934634E-1,1.9846345E0,1.1274922E0,1.6233721E0,1.791986E0,2.558723E-1,-5.097922E-1,8.956572E-1,1.5421745E0,7.6826936E-1,-3.6864913E-1,4.4870383E-1,-3.369134E-2,6.6546954E-2,1.2890573E0,8.444626E-1,6.884794E-1,9.0804666E-1,4.0937516E-1,2.6427022E-1],"categories":[],"categories_nodes":[],"categories_segments":[],"categories_sizes":[],"default_left":[1,1,1,1,1,1,1,1,1,1,1,0,1,0,1,1,1,1,1,1,1,1,1,0,0,1,0,1,1,1,1,1,1,1,1,1,0,0,1,1,0,1,1,0,0,0,0,0,0,0,0,0,0,0,0,0,0,0,0,0,0,0,0,0,0,0,0,0,0,0,0],"id":8,"left_children":[1,3,5,7,9,11,13,15,17,19,21,-1,23,-1,25,27,29,31,33,35,37,39,41,-1,-1,43,-1,45,47,49,51,53,55,57,59,61,-1,-1,63,65,-1,67,69,-1,-1,-1,-1,-1,-1,-1,-1,-1,-1,-1,-1,-1,-1,-1,-1,-1,-1,-1,-1,-1,-1,-1,-1,-1,-1,-1,-1],"loss_changes":[3.3601562E1,7.646484E1,1.3326263E2,4.007422E1,7.848596E1,1.0432001E2,1.495459E1,8.282422E1,7.871216E1,4.6094395E1,2.3880325E1,0E0,7.0196533E0,0E0,2.200698E1,7.921875E1,1.5721613E2,5.0745117E1,9.734979E1,7.536755E1,1.9890713E1,8.9062805E0,7.145672E0,0E0,0E0,1.7309189E0,0E0,7.691797E1,4.2178894E1,1.3964636E2,2.0866702E2,4.3176025E1,6.947687E1,8.85898E1,1.1154022E2,2.4897089E1,0E0,0E0,1.9167726E-1,2.6351547E0,0E0,2.5007248E-1,2.4523449E-1,0E0,0E0,0E0,0E0,0E0,0E0,0E0,0E0,0E0,0E0,0E0,0E0,0E0,0E0,0E0,0E0,0E0,0E0,0E0,0E0,0E0,0E0,0E0,0E0,0E0,0E0,0E0,0E0],"parents":[2147483647,0,0,1,1,2,2,3,3,4,4,5,5,6,6,7,7,8,8,9,9,10,10,12,12,14,14,15,15,16,16,17,17,18,18,19,19,20,20,21,21,22,22,25,25,27,27,28,28,29,29,30,30,31,31,32,32,33,33,34,34,35,35,38,38,39,39,41,41,42,42],"right_children":[2,4,6,8,10,12,14,16,18,20,22,-1,24,-1,26,28,30,32,34,36,38,40,42,-1,-1,44,-1,46,48,50,52,54,56,58,60,62,-1,-1,64,66,-1,68,70,-1,-1,-1,-1,-1,-1,-1,-1,-1,-1,-1,-1,-1,-1,-1,-1,-1,-1,-1,-1,-1,-1,-1,-1,-1,-1,-1,-1],"split_conditions":[3.635E2,3.595E2,3.645E2,3.455E2,2.0185E3,2.0175E3,5E-1,3.345E2,3.515E2,3.5E0,2.0195E3,1.7132246E-1,5E-1,2.7318023E-2,3.655E2,3.315E2,2.0185E3,5.5E0,3.525E2,3.615E2,2.0175E3,5.5E0,4.5E0,8.9649963E-1,6.6343933E-1,1.5E0,4.067021E-2,3.295E2,2.0185E3,5.5E0,3.445E2,3.5E0,3.485E2,1.5E0,2.0175E3,1.5E0,5.148647E-1,-2.4365793E-1,4.5E0,3.5E0,4.5261332E-1,2E0,5.5E0,2.3330513E-1,3.3756924E-1,2.613918E-1,1.0349367E-1,2.972447E-1,4.874749E-1,3.4173176E-1,2.5686966E-2,5.3803902E-2,5.953904E-1,3.3824766E-1,4.8701164E-1,5.375958E-1,7.676169E-2,-1.5293767E-1,2.6869717E-1,4.6265236E-1,2.3048082E-1,-1.1059474E-1,1.3461116E-1,-1.0107402E-2,1.9964088E-2,3.867172E-1,2.5333878E-1,2.0654383E-1,2.72414E-1,1.22812554E-1,7.928107E-2],"split_indices":[3,3,3,3,4,4,0,3,3,0,4,0,0,0,3,3,4,0,3,3,4,0,0,0,0,0,0,3,4,0,3,0,3,0,4,0,0,0,0,0,0,0,0,0,0,0,0,0,0,0,0,0,0,0,0,0,0,0,0,0,0,0,0,0,0,0,0,0,0,0,0],"split_type":[0,0,0,0,0,0,0,0,0,0,0,0,0,0,0,0,0,0,0,0,0,0,0,0,0,0,0,0,0,0,0,0,0,0,0,0,0,0,0,0,0,0,0,0,0,0,0,0,0,0,0,0,0,0,0,0,0,0,0,0,0,0,0,0,0,0,0,0,0,0,0],"sum_hessian":[5.4503E4,5.4182E4,3.21E2,5.3572E4,6.1E2,1.39E2,1.82E2,5.1481E4,2.091E3,3.23E2,2.87E2,4.1E1,9.8E1,4.1E1,1.41E2,4.9813E4,1.668E3,8.94E2,1.197E3,2.01E2,1.22E2,1.48E2,1.39E2,3.1E1,6.7E1,1.02E2,3.9E1,4.9378E4,4.35E2,8.45E2,8.23E2,7.48E2,1.46E2,1.78E2,1.019E3,1.63E2,3.8E1,4.7E1,7.5E1,9.4E1,5.4E1,7.2E1,6.7E1,3.3E1,6.9E1,4.9097E4,2.81E2,2.26E2,2.09E2,6.91E2,1.54E2,7.54E2,6.9E1,4.33E2,3.15E2,4E1,1.06E2,9.4E1,8.4E1,2.47E2,7.72E2,5.6E1,1.07E2,4.1E1,3.4E1,2.3E1,7.1E1,3.7E1,3.5E1,3.5E1,3.2E1],"tree_param":{"num_deleted":"0","num_feature":"6","num_nodes":"71","size_leaf_vector":"0"}},{"base_weights":[6.079449E-1,5.9372026E-1,6.511485E-1,5.762012E-1,6.245883E-1,2.9492697E-1,6.579073E-1,5.8686906E-1,-2.7421E-1,5.900507E-1,8.280234E-1,-3.7944473E-2,7.5690854E-1,1.1508E0,6.4941216E-1,5.825544E-1,1.7506485E0,3.1107455E-1,-2.2989056E0,1.0569602E0,5.688069E-1,1.3017603E0,6.405096E-1,8.7919044E-1,-2.884605E-1,1.173128E0,5.7717544E-1,1.7805556E0,4.993298E-1,4.007931E-1,6.631269E-1,6.058723E-1,3.716399E-1,2.378006E0,1.4096159E0,8.7780243E-1,-5.2277964E-1,6.570099E-1,2.151674E0,4.4349453E-1,6.150421E-1,3.6995548E-1,1.9719305E0,8.084215E-1,3.6415398E-1,-2.053715E-2,-4.3272784E-1,3.2799113E-1,8.051711E-1,9.950082E-1,2.1811142E0,-5.073812E-1,1.1194637E0,5.331346E-1,-3.4960654E-1,1.2481279E0,6.514146E-1,5.957571E-1,1.591564E0,9.518651E-1,1.8044175E-1,7.873853E-1,1.8146319E0,1.3129435E0,5.054828E-1,-1.2955202E0,-1.5625547E-1,1.2355198E0,-2.4009766E-2,1.6919369E0,2.5155547E0,2.6240328E-1,8.1539905E-1,1.2785792E0,5.893956E-1,1.1061348E0,8.6951755E-2,1.4982377E0,2.968937E0,5.0548404E-1,1.8419427E0,-1.85448E-1,9.8014116E-1,-5.5896014E-1,-2.9178607E-1,3.954624E-1,2.669521E0,-7.5025177E-1,4.5022568E-1,8.3951133E-1,2.2343268E0,-1.1984191E0,6.5780646E-1],"categories":[],"categories_nodes":[],"categories_segments":[],"categories_sizes":[],"default_left":[1,1,1,1,1,1,1,1,1,1,1,1,1,1,1,1,1,1,0,1,1,1,1,0,1,0,1,1,1,1,1,1,1,0,1,1,1,1,1,1,1,1,1,1,1,0,1,0,0,0,0,0,0,1,1,1,1,0,0,0,0,0,0,0,0,0,0,0,0,0,0,0,0,0,0,0,0,0,0,0,0,0,0,0,0,0,0,0,0,0,0,0,0],"id":9,"left_children":[1,3,5,7,9,11,13,15,17,19,21,23,25,27,29,31,33,35,-1,37,39,41,43,-1,45,-1,47,49,51,53,55,57,59,-1,61,63,65,67,69,71,73,75,77,79,81,-1,83,-1,-1,-1,-1,-1,-1,85,87,89,91,-1,-1,-1,-1,-1,-1,-1,-1,-1,-1,-1,-1,-1,-1,-1,-1,-1,-1,-1,-1,-1,-1,-1,-1,-1,-1,-1,-1,-1,-1,-1,-1,-1,-1,-1,-1],"loss_changes":[3.310742E1,2.1820312E1,3.2285156E1,2.3765039E2,1.03765625E2,3.893518E1,5.4683105E1,1.2880078E2,3.8584766E2,1.2525E2,1.9024426E2,3.4257645E1,7.2525864E0,9.060043E1,4.4115234E1,1.2646484E2,1.6973145E1,1.2001872E2,0E0,2.398313E2,7.005298E1,3.7957153E2,7.130603E1,0E0,4.513466E0,0E0,4.053694E0,3.338614E1,6.9864815E1,6.801441E1,8.36958E1,2.3030469E2,2.8460602E2,0E0,1.4700043E1,2.3800072E1,2.8970062E1,1.5959016E2,2.0335388E1,2.203529E2,1.5008887E2,5.3239235E1,1.6273706E2,2.9932434E2,1.9823221E2,0E0,1.1890497E0,0E0,0E0,0E0,0E0,0E0,0E0,1.6982857E2,3.3344025E1,9.524179E1,1.437876E2,0E0,0E0,0E0,0E0,0E0,0E0,0E0,0E0,0E0,0E0,0E0,0E0,0E0,0E0,0E0,0E0,0E0,0E0,0E0,0E0,0E0,0E0,0E0,0E0,0E0,0E0,0E0,0E0,0E0,0E0,0E0,0E0,0E0,0E0,0E0,0E0],"parents":[2147483647,0,0,1,1,2,2,3,3,4,4,5,5,6,6,7,7,8,8,9,9,10,10,11,11,12,12,13,13,14,14,15,15,16,16,17,17,19,19,20,20,21,21,22,22,24,24,26,26,27,27,28,28,29,29,30,30,31,31,32,32,34,34,35,35,36,36,37,37,38,38,39,39,40,40,41,41,42,42,43,43,44,44,46,46,53,53,54,54,55,55,56,56],"right_children":[2,4,6,8,10,12,14,16,18,20,22,24,26,28,30,32,34,36,-1,38,40,42,44,-1,46,-1,48,50,52,54,56,58,60,-1,62,64,66,68,70,72,74,76,78,80,82,-1,84,-1,-1,-1,-1,-1,-1,86,88,90,92,-1,-1,-1,-1,-1,-1,-1,-1,-1,-1,-1,-1,-1,-1,-1,-1,-1,-1,-1,-1,-1,-1,-1,-1,-1,-1,-1,-1,-1,-1,-1,-1,-1,-1,-1,-1],"split_conditions":[2.0195E3,2.335E2,7.5E0,2.305E2,5.5E0,3.5E0,1.35E1,2.295E2,5.5E0,2.395E2,2.725E2,1.5E0,4.5E0,3.5E0,1.5E0,2.065E2,4.5E0,2.325E2,-6.896717E-1,2.375E2,3.5E0,2.515E2,1.15E1,2.6375714E-1,5E-1,3.5193843E-1,5.5E0,8.5E0,4.5E0,2.85E1,3.85E1,2.045E2,1.5E0,7.134018E-1,5.5E0,2.0185E3,5E-1,3.5E0,5E-1,3.5E0,2.765E2,2.385E2,2.0185E3,3.185E2,3.505E2,-6.161145E-3,2E0,9.8397344E-2,2.4155132E-1,2.9850248E-1,6.543343E-1,-1.5221436E-1,3.3583912E-1,2.75E1,3.5E0,3.65E1,3.95E1,1.7872715E-1,4.7746924E-1,2.8555954E-1,5.413253E-2,2.3621559E-1,5.443896E-1,3.9388305E-1,1.5164484E-1,-3.8865608E-1,-4.6876643E-2,3.7065595E-1,-7.2029303E-3,5.0758106E-1,7.5466645E-1,7.872099E-2,2.4461973E-1,3.835738E-1,1.7681868E-1,3.3184046E-1,2.6085528E-2,4.4947132E-1,8.906811E-1,1.5164521E-1,5.525828E-1,-5.5634405E-2,2.9404235E-1,-1.6768804E-1,-8.753583E-2,1.18638724E-1,8.0085635E-1,-2.2507554E-1,1.3506772E-1,2.518534E-1,6.702981E-1,-3.5952574E-1,1.9734195E-1],"split_indices":[4,3,3,3,0,0,3,3,0,3,3,3,0,0,2,3,0,3,0,3,1,3,2,0,0,0,0,3,0,3,3,3,0,0,0,4,0,0,0,0,3,3,4,3,3,0,0,0,0,0,0,0,0,3,0,3,3,0,0,0,0,0,0,0,0,0,0,0,0,0,0,0,0,0,0,0,0,0,0,0,0,0,0,0,0,0,0,0,0,0,0,0,0],"split_type":[0,0,0,0,0,0,0,0,0,0,0,0,0,0,0,0,0,0,0,0,0,0,0,0,0,0,0,0,0,0,0,0,0,0,0,0,0,0,0,0,0,0,0,0,0,0,0,0,0,0,0,0,0,0,0,0,0,0,0,0,0,0,0,0,0,0,0,0,0,0,0,0,0,0,0,0,0,0,0,0,0,0,0,0,0,0,0,0,0,0,0,0,0],"sum_hessian":[5.4503E4,4.1014E4,1.3489E4,2.6177E4,1.4837E4,2.52E2,1.3237E4,2.5853E4,3.24E2,1.2687E4,2.15E3,1.47E2,1.05E2,2.22E2,1.3015E4,2.5759E4,9.4E1,2.52E2,7.2E1,5.5E2,1.2137E4,6.08E2,1.542E3,3.1E1,1.16E2,3E1,7.5E1,1.12E2,1.1E2,6.82E2,1.2333E4,2.3193E4,2.566E3,3.1E1,6.3E1,1.5E2,1.02E2,4.04E2,1.46E2,3.274E3,8.863E3,2.55E2,3.53E2,9.58E2,5.84E2,4.1E1,7.5E1,3.7E1,3.8E1,3.9E1,7.3E1,4.2E1,6.8E1,5.8E2,1.02E2,2.4E2,1.2093E4,2.2959E4,2.34E2,6.35E2,1.931E3,2.6E1,3.7E1,6.8E1,8.2E1,3.2E1,7E1,2.18E2,1.86E2,6.7E1,7.9E1,2.203E3,1.071E3,3.28E2,8.535E3,7E1,1.85E2,2.41E2,1.12E2,7.42E2,2.16E2,3.09E2,2.75E2,3.8E1,3.7E1,5.46E2,3.4E1,6.8E1,3.4E1,1.71E2,6.9E1,4.1E1,1.2052E4],"tree_param":{"num_deleted":"0","num_feature":"6","num_nodes":"93","size_leaf_vector":"0"}},{"base_weights":[4.257537E-1,4.1583708E-1,4.6884847E-1,4.2453343E-1,2.2379391E-1,1.9710939E0,4.4589984E-1,4.2061827E-1,9.564354E-1,-1.0665946E0,3.0878973E-1,2.3843417E0,3.9612186E-1,-1.3828143E-1,4.5459768E-1,4.236496E-1,-3.9168096E-1,8.5332423E-1,1.6913791E0,-3.0548298E-1,-3.314376E0,-6.330226E-2,4.2706826E-1,2.6120076E0,1.893922E0,-4.6503407E-1,1.3432779E0,6.4083487E-1,4.1733125E-1,4.1994774E-1,9.177157E-1,-7.4638367E-1,4.2933935E-1,1.1378475E0,1.8829687E-1,-1.1140038E0,2.0982082E0,1.1784276E-1,-2.9243524E0,1.7527163E-1,6.6676134E-1,3.9824396E-2,-2.242863E0,3.041488E-1,7.656124E-1,1.0464745E-1,4.4186422E-1,4.2695048E-1,-2.730372E-1,2.4697366E0,3.9645356E-1,1.4969455E-1,-1.2213929E0,5.5705863E-1,1.5425373E0,3.828252E-1,5.2251663E-2,2.2802734E-1,-1.8512032E0,5.5585337E-1,-5.2545327E-1,5.816182E-1,-6.345758E-1,4.3588254E-1,1.426129E0,2.4163187E-1,-3.1880096E-1,1.319553E-1,1.170314E0,5.151447E-1,9.8805267E-1,-6.0579985E-1,3.771533E-1,1.0296232E0,4.206138E-1],"categories":[],"categories_nodes":[],"categories_segments":[],"categories_sizes":[],"default_left":[1,1,1,1,1,1,1,1,1,1,1,1,0,1,1,1,1,1,0,1,0,1,1,0,0,1,0,1,1,1,1,1,0,1,1,1,0,1,0,1,1,1,0,1,1,1,1,0,0,0,0,0,0,0,0,0,0,0,0,0,0,0,0,0,0,0,0,0,0,0,0,0,0,0,0],"id":10,"left_children":[1,3,5,7,9,11,13,15,17,19,21,23,-1,25,27,29,31,33,-1,35,-1,37,39,-1,-1,41,-1,43,45,47,49,51,-1,53,55,57,-1,59,-1,61,63,65,-1,67,69,71,73,-1,-1,-1,-1,-1,-1,-1,-1,-1,-1,-1,-1,-1,-1,-1,-1,-1,-1,-1,-1,-1,-1,-1,-1,-1,-1,-1,-1],"loss_changes":[2.3097656E1,7.391797E1,3.5034717E2,8.788721E1,2.1112973E2,9.863605E1,5.1057007E1,1.0380127E2,2.1972992E1,2.0257419E2,7.942197E1,8.562988E0,0E0,7.227197E1,6.836621E1,7.630664E1,4.604169E1,5.1441635E1,0E0,1.772465E2,0E0,2.2630814E2,8.250766E1,0E0,0E0,1.0959065E2,0E0,6.895911E1,6.31864E1,2.0209961E2,2.5062292E2,4.700383E1,0E0,4.403322E1,2.1765625E0,6.7697556E1,0E0,1.1609975E2,0E0,2.2052274E2,1.2227902E2,7.024867E0,0E0,6.6514725E1,6.6403625E1,1.1658271E2,9.502905E1,0E0,0E0,0E0,0E0,0E0,0E0,0E0,0E0,0E0,0E0,0E0,0E0,0E0,0E0,0E0,0E0,0E0,0E0,0E0,0E0,0E0,0E0,0E0,0E0,0E0,0E0,0E0,0E0],"parents":[2147483647,0,0,1,1,2,2,3,3,4,4,5,5,6,6,7,7,8,8,9,9,10,10,11,11,13,13,14,14,15,15,16,16,17,17,19,19,21,21,22,22,25,25,27,27,28,28,29,29,30,30,31,31,33,33,34,34,35,35,37,37,39,39,40,40,41,41,43,43,44,44,45,45,46,46],"right_children":[2,4,6,8,10,12,14,16,18,20,22,24,-1,26,28,30,32,34,-1,36,-1,38,40,-1,-1,42,-1,44,46,48,50,52,-1,54,56,58,-1,60,-1,62,64,66,-1,68,70,72,74,-1,-1,-1,-1,-1,-1,-1,-1,-1,-1,-1,-1,-1,-1,-1,-1,-1,-1,-1,-1,-1,-1,-1,-1,-1,-1,-1,-1],"split_conditions":[2.975E2,2.845E2,2.985E2,2.825E2,2.855E2,4.5E0,2.995E2,2.815E2,4.5E0,5.5E0,2.0175E3,3.5E0,1.1883656E-1,5.5E0,3.105E2,2.795E2,2.5E0,3.5E0,5.0741374E-1,4.5E0,-9.943129E-1,2.965E2,2.5E0,7.836023E-1,5.681766E-1,4.5E0,4.029834E-1,2.0175E3,3.145E2,2.765E2,2.0175E3,5E-1,1.2880181E-1,2.0175E3,2.835E2,3.5E0,6.294625E-1,4.5E0,-8.7730575E-1,1.5E0,2.935E2,3.5E0,-6.728589E-1,5.5E0,1.05E1,2.5E0,3.165E2,1.2808515E-1,-8.191116E-2,7.40921E-1,1.1893607E-1,4.4908367E-2,-3.6641788E-1,1.671176E-1,4.6276122E-1,1.1484756E-1,1.56755E-2,6.8408206E-2,-5.55361E-1,1.6675602E-1,-1.5763599E-1,1.7448546E-1,-1.9037275E-1,1.3076477E-1,4.278387E-1,7.248956E-2,-9.5640294E-2,3.958659E-2,3.510942E-1,1.5454341E-1,2.964158E-1,-1.8173996E-1,1.13146E-1,3.0888695E-1,1.2618415E-1],"split_indices":[3,3,3,3,3,0,3,3,0,0,4,0,0,0,3,3,0,0,0,0,0,3,0,0,0,0,0,4,3,3,4,0,0,4,3,0,0,0,0,0,3,0,0,0,2,0,3,0,0,0,0,0,0,0,0,0,0,0,0,0,0,0,0,0,0,0,0,0,0,0,0,0,0,0,0],"split_type":[0,0,0,0,0,0,0,0,0,0,0,0,0,0,0,0,0,0,0,0,0,0,0,0,0,0,0,0,0,0,0,0,0,0,0,0,0,0,0,0,0,0,0,0,0,0,0,0,0,0,0,0,0,0,0,0,0,0,0,0,0,0,0,0,0,0,0,0,0,0,0,0,0,0,0],"sum_hessian":[5.4503E4,4.4316E4,1.0187E4,4.2395E4,1.921E3,1.52E2,1.0035E4,4.2087E4,3.08E2,1.18E2,1.803E3,1.2E2,3.2E1,1.47E2,9.888E3,4.1931E4,1.56E2,2.72E2,3.6E1,8.9E1,2.9E1,4.35E2,1.368E3,7.9E1,4.1E1,1.21E2,2.6E1,1.646E3,8.242E3,4.1621E4,3.1E2,1.09E2,4.7E1,1.9E2,8.2E1,6.7E1,2.2E1,4.1E2,2.5E1,6.68E2,7E2,9.5E1,2.6E1,4.46E2,1.2E3,6E2,7.642E3,4.1205E4,4.16E2,7.7E1,2.33E2,3.8E1,7.1E1,7.9E1,1.11E2,3.3E1,4.9E1,2.4E1,4.3E1,2.44E2,1.66E2,4.45E2,2.23E2,5.38E2,1.62E2,6.1E1,3.4E1,3.73E2,7.3E1,5.66E2,6.34E2,1.66E2,4.34E2,2.65E2,7.377E3],"tree_param":{"num_deleted":"0","num_feature":"6","num_nodes":"75","size_leaf_vector":"0"}},{"base_weights":[2.9808602E-1,3.6750278E-1,2.9371026E-1,3.224642E-1,6.297991E-1,1.4063215E-1,2.9960746E-1,4.1591004E-1,1.7154825E-1,9.2733234E-1,3.3337012E-1,7.708418E-2,5.1361215E-1,7.338359E-1,2.9576856E-1,2.5239643E-1,5.783609E-1,-3.5681078E-1,4.4076627E-1,1.2603058E0,2.9068324E-1,1.5170169E-1,7.112522E-1,2.830955E-2,6.736493E-1,1.4063207E0,1.1778916E-1,1.4514153E0,4.302818E-1,2.0894901E-1,3.048979E-1,-1.0891119E-1,3.9390454E-1,2.8094822E-1,8.4159446E-1,-1.0260384E-1,-2.5525842E0,7.5378233E-1,1.4304616E-1,1.8398212E0,1.0546039E0,-5.4905075E-1,1.4340131E0,-2.821029E-1,6.586764E-1,8.6172557E-1,5.2528834E-1,-3.0492675E-1,9.97137E-2,1.5884058E-1,1.8210151E0,-9.2892635E-1,3.8039634E-1,8.730099E-1,1.6272665E0,2.1096979E-1,8.521158E-1,3.1356934E-1,-2.004921E-1,8.63881E-1,3.0097604E-1,-6.046537E-1,3.0819255E-1,5.874168E-1,-4.0277854E-1,9.5933676E-2,3.860896E-1,1.7196267E0,6.761969E-1,1.262734E-1,-7.4986786E-1,5.087535E-1,1.0775623E0,3.1499758E-1,-2.2602427E-1,6.1675304E-1,1.707491E0,-3.6292377E-1,-1.9680913E-1,4.0244016E-1,8.975791E-1,-1.5052187E-1,-6.5572155E-1,9.410027E-1,-2.567691E-2,1.0323873E0,-5.87983E-1,-7.2332606E-2,5.034487E-1,4.9799517E-1,-1.3079108E-1,1.8113778E0,2.7236837E-1,1.5341048E-1,4.383368E-1,-1.0266137E0,-4.0412672E-2,1.2108655E0,-1.9279821E-1,-3.4572703E-1,3.031529E-1],"categories":[],"categories_nodes":[],"categories_segments":[],"categories_sizes":[],"default_left":[1,1,1,1,1,1,1,1,1,1,1,1,1,1,1,1,1,1,1,1,1,1,1,1,1,0,1,1,1,1,1,1,1,1,1,1,0,1,1,0,1,0,0,1,1,0,0,1,1,1,0,0,1,0,0,1,1,1,1,1,1,0,0,0,0,0,0,0,0,0,0,0,0,0,0,0,0,0,0,0,0,0,0,0,0,0,0,0,0,0,0,0,0,0,0,0,0,0,0,0,0],"id":11,"left_children":[1,3,5,7,9,11,13,15,17,19,21,23,25,27,29,31,33,35,37,39,41,43,45,47,49,-1,51,53,55,57,59,61,63,65,67,69,-1,71,73,-1,75,-1,-1,77,79,-1,-1,81,83,85,-1,-1,87,-1,-1,89,91,93,95,97,99,-1,-1,-1,-1,-1,-1,-1,-1,-1,-1,-1,-1,-1,-1,-1,-1,-1,-1,-1,-1,-1,-1,-1,-1,-1,-1,-1,-1,-1,-1,-1,-1,-1,-1,-1,-1,-1,-1,-1,-1],"loss_changes":[1.6447754E1,3.7930756E1,4.624707E1,3.8809143E1,4.132007E1,4.508925E1,8.2086914E1,4.5064148E1,1.5036671E2,4.9450638E1,1.6230625E1,4.7351242E1,9.771357E1,9.3475525E1,3.8729004E1,4.350166E1,6.654407E1,1.9900867E2,6.512601E1,1.6417633E1,7.951496E1,3.5814144E1,1.7020073E0,3.5864853E1,7.236366E1,0E0,5.3404236E1,1.1598663E1,2.8036774E1,1.99678E2,9.682178E1,4.9812603E1,9.443323E1,7.782942E0,6.447861E1,4.7648914E1,0E0,2.6505173E1,2.2917585E1,0E0,3.21075E1,0E0,0E0,5.352025E-1,4.2299385E0,0E0,0E0,1.4309036E1,1.3093694E2,5.671216E1,0E0,0E0,8.671368E0,0E0,0E0,1.988013E1,5.734413E1,7.4108185E1,1.25459076E2,1.1316208E2,6.201416E1,0E0,0E0,0E0,0E0,0E0,0E0,0E0,0E0,0E0,0E0,0E0,0E0,0E0,0E0,0E0,0E0,0E0,0E0,0E0,0E0,0E0,0E0,0E0,0E0,0E0,0E0,0E0,0E0,0E0,0E0,0E0,0E0,0E0,0E0,0E0,0E0,0E0,0E0,0E0,0E0],"parents":[2147483647,0,0,1,1,2,2,3,3,4,4,5,5,6,6,7,7,8,8,9,9,10,10,11,11,12,12,13,13,14,14,15,15,16,16,17,17,18,18,19,19,20,20,21,21,22,22,23,23,24,24,26,26,27,27,28,28,29,29,30,30,31,31,32,32,33,33,34,34,35,35,37,37,38,38,40,40,43,43,44,44,47,47,48,48,49,49,52,52,55,55,56,56,57,57,58,58,59,59,60,60],"right_children":[2,4,6,8,10,12,14,16,18,20,22,24,26,28,30,32,34,36,38,40,42,44,46,48,50,-1,52,54,56,58,60,62,64,66,68,70,-1,72,74,-1,76,-1,-1,78,80,-1,-1,82,84,86,-1,-1,88,-1,-1,90,92,94,96,98,100,-1,-1,-1,-1,-1,-1,-1,-1,-1,-1,-1,-1,-1,-1,-1,-1,-1,-1,-1,-1,-1,-1,-1,-1,-1,-1,-1,-1,-1,-1,-1,-1,-1,-1,-1,-1,-1,-1,-1,-1],"split_conditions":[2.15E1,1.85E1,3.45E1,3.5E0,2.0185E3,5.5E0,3.75E1,1.5E0,4.5E0,2.05E1,5.5E0,5E-1,2.0175E3,2.0175E3,6.85E1,2.0175E3,9.5E0,1.75E1,5.5E0,3.5E0,5.5E0,2.05E1,1.95E1,2.35E1,4.5E0,4.2189622E-1,2.0185E3,2.5E0,3.65E1,6.25E1,7.05E1,9.5E0,1.45E1,2.0185E3,1.05E1,1.25E1,-7.6577526E-1,1.15E1,1.25E1,5.519464E-1,4.5E0,-1.6471523E-1,4.3020394E-1,2.5E0,5E-1,2.5851768E-1,1.5758651E-1,2.0195E3,2.45E1,3.5E0,5.463046E-1,-2.786779E-1,2.65E1,2.61903E-1,4.8817998E-1,3.55E1,1.5E0,4.85E1,6.35E1,2.0195E3,7.15E1,-1.8139613E-1,9.245777E-2,1.7622505E-1,-1.2083357E-1,2.8780105E-2,1.1582688E-1,5.1588804E-1,2.0285907E-1,3.788202E-2,-2.2496037E-1,1.5262605E-1,3.232687E-1,9.449928E-2,-6.780729E-2,1.8502592E-1,5.122473E-1,-1.0887714E-1,-5.904274E-2,1.20732054E-1,2.6927373E-1,-4.5156565E-2,-1.9671647E-1,2.8230083E-1,-7.7030733E-3,3.097162E-1,-1.7639491E-1,-2.1699782E-2,1.5103462E-1,1.4939855E-1,-3.9237328E-2,5.4341334E-1,8.171052E-2,4.6023145E-2,1.3150105E-1,-3.079841E-1,-1.2123802E-2,3.6325967E-1,-5.7839464E-2,-1.0371811E-1,9.094587E-2],"split_indices":[3,3,3,0,4,0,3,0,0,3,0,5,4,4,3,4,3,3,0,0,0,3,3,3,0,0,4,0,3,3,3,3,3,4,3,3,0,3,3,0,0,0,0,0,0,0,0,4,3,0,0,0,3,0,0,3,0,3,3,4,3,0,0,0,0,0,0,0,0,0,0,0,0,0,0,0,0,0,0,0,0,0,0,0,0,0,0,0,0,0,0,0,0,0,0,0,0,0,0,0,0],"split_type":[0,0,0,0,0,0,0,0,0,0,0,0,0,0,0,0,0,0,0,0,0,0,0,0,0,0,0,0,0,0,0,0,0,0,0,0,0,0,0,0,0,0,0,0,0,0,0,0,0,0,0,0,0,0,0,0,0,0,0,0,0,0,0,0,0,0,0,0,0,0,0,0,0,0,0,0,0,0,0,0,0,0,0,0,0,0,0,0,0,0,0,0,0,0,0,0,0,0,0,0,0],"sum_hessian":[5.4503E4,3.227E3,5.1276E4,2.756E3,4.71E2,1.903E3,4.9373E4,1.701E3,1.055E3,2.34E2,2.37E2,1.627E3,2.76E2,4.31E2,4.8942E4,8.49E2,8.52E2,3.56E2,6.99E2,1.53E2,8.1E1,1.61E2,7.6E1,1.505E3,1.22E2,8.4E1,1.92E2,1.27E2,3.04E2,4.659E3,4.4283E4,2.39E2,6.1E2,4.01E2,4.51E2,3.2E2,3.6E1,3.4E2,3.59E2,3.8E1,1.15E2,4.7E1,3.4E1,8.7E1,7.4E1,4E1,3.6E1,2.65E2,1.24E3,8.5E1,3.7E1,3.8E1,1.54E2,3.1E1,9.6E1,2.01E2,1.03E2,3.711E3,9.48E2,3.07E2,4.3976E4,1.09E2,1.3E2,4.91E2,1.19E2,1.46E2,2.55E2,7E1,3.81E2,2.37E2,8.3E1,1.95E2,1.45E2,2.45E2,1.14E2,7E1,4.5E1,4.3E1,4.4E1,3.7E1,3.7E1,1.85E2,8E1,1.6E2,1.08E3,3.9E1,4.6E1,3.3E1,1.21E2,1.09E2,9.2E1,3.8E1,6.5E1,1.626E3,2.085E3,1.53E2,7.95E2,2.31E2,7.6E1,1.47E2,4.3829E4],"tree_param":{"num_deleted":"0","num_feature":"6","num_nodes":"101","size_leaf_vector":"0"}},{"base_weights":[2.0875448E-1,1.9799928E-1,2.4143909E-1,2.1312995E-1,1.6731125E-1,2.8105327E-1,1.9251603E-1,4.705789E-2,2.4075022E-1,4.4077393E-1,1.2127172E-1,2.3951773E-1,1.0868697E0,-5.8614653E-1,2.2906049E-1,-1.3211724E-1,5.3215927E-1,3.3496782E-1,1.9360207E-1,7.961209E-1,2.5401834E-1,9.731832E-2,4.5751837E-1,2.5788975E-1,-3.1690618E-1,8.4689295E-1,1.9047542E0,-4.6893147E-1,-1.512143E0,1.237213E0,1.9525187E-1,-1.5601952E-2,-1.6264771E0,3.555405E-3,1.0518308E0,3.6834732E-1,-1.9860183E-1,-3.208162E-1,1.9858557E-1,5.409149E-1,1.3957024E0,-2.662434E-1,4.4759122E-1,1.1081689E-1,-3.7384803E0,6.3474363E-1,-1.153954E-1,2.4793512E-1,2.5166225E0,1.3746443E0,-7.662257E-1,9.615589E-1,7.9278015E-2,2.622979E0,1.3140979E0,-9.458227E-1,-1.8033914E-1,5.361342E-1,2.3005342E0,-9.3510795E-1,2.2025247E-1,-1.3209869E-1,3.9613923E-1,-1.4766877E0,-2.1969252E0,1.200682E0,-1.9553119E-1,2.1350248E0,8.4442914E-1,3.3530894E-1,7.8029305E-1,3.9354137E-1,-7.504413E-1,-1.1417452E-1,-5.6473565E-1,4.4492528E-1,1.8452184E-1,7.83874E-1,-3.6170533E-1,2.1798518E0,7.726861E-1,1.8029194E-1,-8.708877E-1,2.1983125E0,2.8325754E-1,-3.543392E-2,1.8465085E-1,1.1625367E0,2.5809425E-1,-7.481708E-1,4.91681E-1,2.5905427E-1,-4.3400306E-1,-3.6412182E-1,-2.120575E0,6.106121E-1,1.272714E0,-6.4361495E-1,-1.1807607E0,5.522638E-1,-3.7259498E-1,1.3424155E0,1.9107623E-1,-1.190953E0,-3.8724774E-1,1.7816967E-1,4.8776552E-1],"categories":[],"categories_nodes":[],"categories_segments":[],"categories_sizes":[],"default_left":[1,1,1,1,1,1,1,1,1,1,1,1,1,1,1,1,1,1,1,1,1,1,1,1,1,1,1,1,0,1,1,1,1,1,1,1,1,1,1,1,1,1,1,1,0,1,1,1,0,0,1,1,0,0,0,1,1,1,0,1,1,0,0,0,0,0,0,0,0,0,0,0,0,0,0,0,0,0,0,0,0,0,0,0,0,0,0,0,0,0,0,0,0,0,0,0,0,0,0,0,0,0,0,0,0,0,0],"id":12,"left_children":[1,3,5,7,9,11,13,15,17,19,21,23,25,27,29,31,33,35,37,39,41,43,45,47,49,51,53,55,-1,57,59,61,63,65,67,69,71,73,75,77,79,81,83,85,-1,87,89,91,-1,-1,93,95,-1,-1,-1,97,99,101,-1,103,105,-1,-1,-1,-1,-1,-1,-1,-1,-1,-1,-1,-1,-1,-1,-1,-1,-1,-1,-1,-1,-1,-1,-1,-1,-1,-1,-1,-1,-1,-1,-1,-1,-1,-1,-1,-1,-1,-1,-1,-1,-1,-1,-1,-1,-1,-1],"loss_changes":[1.9111816E1,1.900879E1,2.6090149E1,1.2597864E2,1.705297E2,2.4915839E2,1.7197888E2,3.4061545E2,1.04548706E2,1.2933844E2,9.336868E1,7.253967E1,7.002661E1,2.8705444E1,1.9639047E2,4.98294E2,2.9035452E2,1.3993726E2,4.030713E1,1.02072296E2,1.2912683E2,5.610641E2,7.835657E1,1.5366687E2,1.7358388E2,2.4921234E1,3.1339539E1,3.3135204E1,0E0,1.3816986E2,1.5797975E2,1.2745138E2,1.444342E1,1.2535901E2,1.179389E2,1.0033002E2,1.5158891E2,7.5465164E0,5.3783325E1,1.040123E2,9.602319E1,9.4115295E1,2.6809143E2,1.1653073E2,0E0,1.1678903E2,7.0666046E1,5.1924225E1,0E0,0E0,9.725389E1,2.6194992E1,0E0,0E0,0E0,5.70105E0,2.1614542E1,3.1459866E1,0E0,1.6499062E1,6.141388E1,0E0,0E0,0E0,0E0,0E0,0E0,0E0,0E0,0E0,0E0,0E0,0E0,0E0,0E0,0E0,0E0,0E0,0E0,0E0,0E0,0E0,0E0,0E0,0E0,0E0,0E0,0E0,0E0,0E0,0E0,0E0,0E0,0E0,0E0,0E0,0E0,0E0,0E0,0E0,0E0,0E0,0E0,0E0,0E0,0E0,0E0],"parents":[2147483647,0,0,1,1,2,2,3,3,4,4,5,5,6,6,7,7,8,8,9,9,10,10,11,11,12,12,13,13,14,14,15,15,16,16,17,17,18,18,19,19,20,20,21,21,22,22,23,23,24,24,25,25,26,26,27,27,29,29,30,30,31,31,32,32,33,33,34,34,35,35,36,36,37,37,38,38,39,39,40,40,41,41,42,42,43,43,45,45,46,46,47,47,50,50,51,51,55,55,56,56,57,57,59,59,60,60],"right_children":[2,4,6,8,10,12,14,16,18,20,22,24,26,28,30,32,34,36,38,40,42,44,46,48,50,52,54,56,-1,58,60,62,64,66,68,70,72,74,76,78,80,82,84,86,-1,88,90,92,-1,-1,94,96,-1,-1,-1,98,100,102,-1,104,106,-1,-1,-1,-1,-1,-1,-1,-1,-1,-1,-1,-1,-1,-1,-1,-1,-1,-1,-1,-1,-1,-1,-1,-1,-1,-1,-1,-1,-1,-1,-1,-1,-1,-1,-1,-1,-1,-1,-1,-1,-1,-1,-1,-1,-1,-1],"split_conditions":[2.0195E3,2.0185E3,2.015E2,5E-1,5E-1,1.915E2,2.085E2,2.675E2,2.5E0,1.295E2,3.405E2,1.855E2,1.995E2,5.5E0,7.5E0,2.5E2,2.0175E3,3.425E2,5.5E0,9.45E1,1.925E2,3.395E2,5.5E0,1.845E2,5E-1,1.985E2,5.5E0,1.5E0,-4.5364293E-1,2.5E0,2.165E2,1.94E2,2.64E2,2.785E2,2.845E2,3.175E2,2.0175E3,4.5E0,2.55E1,7.35E1,1.085E2,1.645E2,2.065E2,2.5E0,-1.1215441E0,3.515E2,3.525E2,1.815E2,7.549868E-1,4.123933E-1,5.5E0,2.5E0,2.3783406E-2,7.868937E-1,3.9422938E-1,5E-1,2.5E0,5E-1,6.901603E-1,5.5E0,5.5E0,-3.962961E-2,1.18841775E-1,-4.430063E-1,-6.590776E-1,3.6020464E-1,-5.865936E-2,6.4050746E-1,2.5332874E-1,1.0059269E-1,2.3408793E-1,1.18062414E-1,-2.251324E-1,-3.4252357E-2,-1.694207E-1,1.3347758E-1,5.5356555E-2,2.351622E-1,-1.08511604E-1,6.539556E-1,2.3180585E-1,5.4087583E-2,-2.6126632E-1,6.594938E-1,8.497727E-2,-1.06301755E-2,5.5395257E-2,3.4876102E-1,7.742828E-2,-2.2445124E-1,1.4750431E-1,7.771628E-2,-1.3020092E-1,-1.0923655E-1,-6.3617253E-1,1.8318364E-1,3.818142E-1,-1.930845E-1,-3.5422823E-1,1.6567914E-1,-1.117785E-1,4.0272465E-1,5.732287E-2,-3.5728592E-1,-1.16174325E-1,5.34509E-2,1.4632966E-1],"split_indices":[4,4,3,0,0,3,3,3,0,3,3,3,3,0,2,3,4,3,3,3,3,3,0,3,0,3,0,0,0,0,3,3,3,3,3,3,4,3,3,3,3,3,3,0,0,3,3,3,0,0,0,0,0,0,0,0,0,0,0,0,0,0,0,0,0,0,0,0,0,0,0,0,0,0,0,0,0,0,0,0,0,0,0,0,0,0,0,0,0,0,0,0,0,0,0,0,0,0,0,0,0,0,0,0,0,0,0],"split_type":[0,0,0,0,0,0,0,0,0,0,0,0,0,0,0,0,0,0,0,0,0,0,0,0,0,0,0,0,0,0,0,0,0,0,0,0,0,0,0,0,0,0,0,0,0,0,0,0,0,0,0,0,0,0,0,0,0,0,0,0,0,0,0,0,0,0,0,0,0,0,0,0,0,0,0,0,0,0,0,0,0,0,0,0,0,0,0,0,0,0,0,0,0,0,0,0,0,0,0,0,0,0,0,0,0,0,0],"sum_hessian":[5.4503E4,4.1014E4,1.3489E4,2.7466E4,1.3548E4,7.451E3,6.038E3,3.917E3,2.3549E4,1.951E3,1.1597E4,7.087E3,3.64E2,2.7E2,5.768E3,2.861E3,1.056E3,7.852E3,1.5697E4,6.71E2,1.28E3,1.0827E4,7.7E2,6.861E3,2.26E2,2.83E2,8.1E1,2.41E2,2.9E1,1.86E2,5.582E3,2.655E3,2.06E2,5.24E2,5.32E2,7.39E3,4.62E2,1.5E2,1.5547E4,4.72E2,1.99E2,3.47E2,9.33E2,1.079E4,3.7E1,5.88E2,1.82E2,6.832E3,2.9E1,4.7E1,1.79E2,2.46E2,3.7E1,3.5E1,4.6E1,9E1,1.51E2,1.13E2,7.3E1,1.2E2,5.462E3,2.07E3,5.85E2,1.66E2,4E1,7.4E1,4.5E2,8.4E1,4.48E2,6.843E3,5.47E2,2.23E2,2.39E2,8.2E1,6.8E1,8.38E2,1.4709E4,3.72E2,1E2,8.7E1,1.12E2,2E2,1.47E2,7.9E1,8.54E2,3.62E3,7.17E3,2.44E2,3.44E2,8.9E1,9.3E1,6.723E3,1.09E2,1.39E2,4E1,1.17E2,1.29E2,4.1E1,4.9E1,3.1E1,1.2E2,3.3E1,8E1,8.1E1,3.9E1,4.721E3,7.41E2],"tree_param":{"num_deleted":"0","num_feature":"6","num_nodes":"107","size_leaf_vector":"0"}},{"base_weights":[1.4618823E-1,1.6271366E-1,1.2629156E-1,1.474519E-1,6.6359967E-1,-1.2392007E-1,1.5708512E-1,7.4441455E-2,1.7665319E-1,1.0289357E0,4.8135564E-1,1.6888833E-1,-3.1701893E-1,1.3045655E-1,3.1524605E-1,9.996295E-2,-8.8052726E-1,1.4723828E-1,3.995827E-1,8.6083704E-1,2.2386649E0,1.2028521E0,2.4302265E-1,4.3735117E-1,-4.5715977E-2,-5.112053E-1,3.2956657E-1,2.1156187E-1,8.973196E-2,1.1137872E0,2.366644E-1,8.5861295E-2,9.011103E-1,-1.849766E0,-2.200288E-1,1.6104527E-1,-1.193277E0,-8.201824E-2,5.2730966E-1,-4.0584764E-1,1.0814728E0,1.5820665E0,8.519721E-1,-7.302459E-2,5.374015E-1,9.883969E-1,-8.423184E-2,-1.9798069E-1,2.0893846E-1,-2.3706498E0,-3.9121464E-1,1.3477315E0,4.7347415E-2,6.9628745E-1,1.7416266E-1,-1.4628917E-1,1.3320927E-1,1.2914135E0,8.454024E-1,-1.8893113E0,2.916536E-1,1.20417126E-1,-3.7015682E-1,1.9834113E0,5.7208496E-1,-2.3599236E0,-1.2728623E0,2.106402E-1,-1.2569109E0,3.5720068E-1,1.1374541E-1,-1.4651242E0,-1.6440621E-1,1.8869317E0,-3.1219998E-1,7.0823526E-1,2.1090786E-1,1.3717787E0,5.663579E-1,8.5608286E-1,2.3042238E0,3.0163884E-1,-8.7016225E-1,-2.1848552E-1,9.4199777E-1,-2.7683568E-1,2.2238085E0,5.781496E-1,-4.416415E-1,-8.12388E-1,1.9996805E-1,5.7085264E-1,-4.171178E-1,-3.0882517E-1,-1.3639944E0,1.8579433E0,9.2825586E-1,6.200498E-1,-5.180346E-1,2.5534127E-2,1.2403302E0,-5.3350024E-2,2.3013167E-1,2.036657E-1,-4.3112123E-1,3.898195E-1,8.53474E-2,9.110024E-1,2.2044406E0,7.5198567E-1,1.0173635E0,-1.714839E0,-2.2396789E0,6.8729675E-1,1.2865394E-1],"categories":[],"categories_nodes":[],"categories_segments":[],"categories_sizes":[],"default_left":[1,1,1,1,1,1,1,1,1,1,1,1,1,1,1,1,1,1,1,1,0,1,1,1,1,1,1,1,1,1,1,1,1,1,1,1,1,1,1,0,1,1,0,1,1,1,1,1,1,0,1,1,1,1,1,1,1,1,1,1,1,0,0,0,0,0,0,0,0,0,0,0,0,0,0,0,0,0,0,0,0,0,0,0,0,0,0,0,0,0,0,0,0,0,0,0,0,0,0,0,0,0,0,0,0,0,0,0,0,0,0,0,0,0,0],"id":13,"left_children":[1,3,5,7,9,11,13,15,17,19,21,23,25,27,29,31,33,35,37,39,-1,41,43,45,47,49,51,53,55,57,59,61,63,65,67,69,71,73,75,-1,77,79,-1,81,83,85,87,89,91,-1,93,95,97,99,101,103,105,107,109,111,113,-1,-1,-1,-1,-1,-1,-1,-1,-1,-1,-1,-1,-1,-1,-1,-1,-1,-1,-1,-1,-1,-1,-1,-1,-1,-1,-1,-1,-1,-1,-1,-1,-1,-1,-1,-1,-1,-1,-1,-1,-1,-1,-1,-1,-1,-1,-1,-1,-1,-1,-1,-1,-1,-1],"loss_changes":[1.7900269E1,2.2748346E2,1.9059268E2,6.1584595E1,5.8095367E1,1.5333609E2,9.271509E1,2.0130511E2,1.3526727E2,5.745224E1,1.00990005E2,6.2127106E1,2.0533044E2,6.224881E1,1.988443E2,9.077713E1,1.3723186E2,3.376574E2,1.4798303E2,7.254367E1,0E0,1.807869E1,4.1347946E1,1.3775555E2,2.3306297E1,2.7952936E2,1.0855284E2,1.1410553E2,1.2882266E2,1.2447144E1,3.3840845E2,1.2459647E2,4.836384E1,2.2601227E1,5.787009E1,1.6741095E2,5.178253E1,2.2946335E2,1.08673706E2,0E0,3.212207E1,3.4202347E1,0E0,6.4474014E1,7.05465E1,3.6481403E2,5.8730495E1,9.2095436E1,5.121831E1,0E0,9.431232E1,1.5825104E1,9.64885E1,1.6454657E2,7.451692E1,1.9475967E2,1.301543E2,5.668982E1,1.098381E0,6.2176514E-1,1.8164355E2,0E0,0E0,0E0,0E0,0E0,0E0,0E0,0E0,0E0,0E0,0E0,0E0,0E0,0E0,0E0,0E0,0E0,0E0,0E0,0E0,0E0,0E0,0E0,0E0,0E0,0E0,0E0,0E0,0E0,0E0,0E0,0E0,0E0,0E0,0E0,0E0,0E0,0E0,0E0,0E0,0E0,0E0,0E0,0E0,0E0,0E0,0E0,0E0,0E0,0E0,0E0,0E0,0E0,0E0],"parents":[2147483647,0,0,1,1,2,2,3,3,4,4,5,5,6,6,7,7,8,8,9,9,10,10,11,11,12,12,13,13,14,14,15,15,16,16,17,17,18,18,19,19,21,21,22,22,23,23,24,24,25,25,26,26,27,27,28,28,29,29,30,30,31,31,32,32,33,33,34,34,35,35,36,36,37,37,38,38,40,40,41,41,43,43,44,44,45,45,46,46,47,47,48,48,50,50,51,51,52,52,53,53,54,54,55,55,56,56,57,57,58,58,59,59,60,60],"right_children":[2,4,6,8,10,12,14,16,18,20,22,24,26,28,30,32,34,36,38,40,-1,42,44,46,48,50,52,54,56,58,60,62,64,66,68,70,72,74,76,-1,78,80,-1,82,84,86,88,90,92,-1,94,96,98,100,102,104,106,108,110,112,114,-1,-1,-1,-1,-1,-1,-1,-1,-1,-1,-1,-1,-1,-1,-1,-1,-1,-1,-1,-1,-1,-1,-1,-1,-1,-1,-1,-1,-1,-1,-1,-1,-1,-1,-1,-1,-1,-1,-1,-1,-1,-1,-1,-1,-1,-1,-1,-1,-1,-1,-1,-1,-1,-1],"split_conditions":[1.995E2,1.935E2,2.175E2,1.5E0,1.5E0,2.5E0,5.5E0,1.895E2,1.715E2,1.985E2,1.945E2,2.065E2,2.0195E3,1.5E0,2.305E2,1.845E2,5E-1,1.695E2,2.5E0,2.0175E3,6.715995E-1,4.5E0,2.0185E3,2.0185E3,7.5E0,2.005E2,2.03E2,2.285E2,2.415E2,2.245E2,2.34E2,1.725E2,1.865E2,1.905E2,1.915E2,2.5E0,3.5E0,1.74E2,1.855E2,-1.21754296E-1,2.0195E3,3.5E0,2.5559163E-1,1.965E2,2.5E0,2.0175E3,5E-1,2.0185E3,2.0195E3,-7.11195E-1,2.165E2,5.5E0,4.5E0,5E-1,2.565E2,2.0185E3,2.615E2,2.235E2,2.295E2,2.315E2,2.725E2,3.612514E-2,-1.1104705E-1,5.950234E-1,1.716255E-1,-7.079771E-1,-3.818587E-1,6.319206E-2,-3.770733E-1,1.0716021E-1,3.4123626E-2,-4.395373E-1,-4.9321864E-2,5.660795E-1,-9.366E-2,2.1247059E-1,6.3272364E-2,4.1153362E-1,1.6990738E-1,2.5682488E-1,6.9126713E-1,9.049165E-2,-2.6104867E-1,-6.5545656E-2,2.8259933E-1,-8.3050705E-2,6.6714257E-1,1.734449E-1,-1.3249245E-1,-2.437164E-1,5.9990417E-2,1.712558E-1,-1.2513535E-1,-9.264755E-2,-4.091983E-1,5.57383E-1,2.7847677E-1,1.8601494E-1,-1.5541038E-1,7.6602385E-3,3.7209907E-1,-1.6005008E-2,6.90395E-2,6.109971E-2,-1.2933637E-1,1.16945855E-1,2.560422E-2,2.7330074E-1,6.613322E-1,2.2559571E-1,3.0520907E-1,-5.1445174E-1,-6.7190367E-1,2.0618904E-1,3.8596183E-2],"split_indices":[3,3,3,0,0,0,0,3,3,3,3,3,4,0,3,3,0,3,0,4,0,0,4,4,2,3,3,3,3,3,3,3,3,3,3,0,0,3,3,0,4,0,0,3,0,4,0,4,4,0,3,0,0,0,3,4,3,3,3,3,3,0,0,0,0,0,0,0,0,0,0,0,0,0,0,0,0,0,0,0,0,0,0,0,0,0,0,0,0,0,0,0,0,0,0,0,0,0,0,0,0,0,0,0,0,0,0,0,0,0,0,0,0,0,0],"split_type":[0,0,0,0,0,0,0,0,0,0,0,0,0,0,0,0,0,0,0,0,0,0,0,0,0,0,0,0,0,0,0,0,0,0,0,0,0,0,0,0,0,0,0,0,0,0,0,0,0,0,0,0,0,0,0,0,0,0,0,0,0,0,0,0,0,0,0,0,0,0,0,0,0,0,0,0,0,0,0,0,0,0,0,0,0,0,0,0,0,0,0,0,0,0,0,0,0,0,0,0,0,0,0,0,0,0,0,0,0,0,0,0,0,0,0],"sum_hessian":[5.4503E4,2.977E4,2.4733E4,2.8891E4,8.79E2,2.71E3,2.2023E4,8.255E3,2.0636E4,2.91E2,5.88E2,1.077E3,1.633E3,1.8851E4,3.172E3,8.041E3,2.14E2,1.8232E4,2.404E3,2.57E2,3.4E1,1.45E2,4.43E2,4.78E2,5.99E2,1.256E3,3.77E2,6.3E3,1.2551E4,2.83E2,2.889E3,7.903E3,1.38E2,8.6E1,1.28E2,1.8047E4,1.85E2,5.04E2,1.9E3,3.8E1,2.19E2,6.8E1,7.7E1,2.14E2,2.29E2,2.32E2,2.46E2,3.75E2,2.24E2,7.5E1,1.181E3,8.1E1,2.96E2,4.5E2,5.85E3,1.952E3,1.0599E4,1.68E2,1.15E2,7.2E1,2.817E3,7.347E3,5.56E2,3.1E1,1.07E2,4.4E1,4.2E1,9.1E1,3.7E1,3.505E3,1.4542E4,1.46E2,3.9E1,5.2E1,4.52E2,1.208E3,6.92E2,1.39E2,8E1,3.5E1,3.3E1,1.46E2,6.8E1,8E1,1.49E2,1.15E2,1.17E2,8.6E1,1.6E2,1.47E2,2.28E2,1.42E2,8.2E1,1.09E3,9.1E1,3.5E1,4.6E1,1.47E2,1.49E2,2.02E2,2.48E2,1.155E3,4.695E3,8.76E2,1.076E3,1.665E3,8.934E3,1.2E2,4.8E1,7.8E1,3.7E1,5.2E1,2E1,8.21E2,1.996E3],"tree_param":{"num_deleted":"0","num_feature":"6","num_nodes":"115","size_leaf_vector":"0"}},{"base_weights":[1.0239121E-1,1.0511656E-1,2.271776E-2,1.0290405E-1,8.900563E-1,-5.3097194E-1,7.471727E-2,1.0423217E-1,-2.8628224E-1,3.5182636E0,1.6362302E-1,-3.7948084E-1,-7.192108E-1,-9.430219E-2,2.414095E-1,1.01367705E-1,6.1306673E-1,-6.086585E-1,4.916058E-1,-1.5220368E0,1.200487E0,-6.726821E-1,-1.0939716E-1,-9.095047E-1,-4.4785506E-1,1.8863681E-1,-2.2823682E-1,1.7578775E-1,9.5230037E-1,7.081164E-2,1.11724064E-1,1.1773258E0,3.9192373E-1,-4.1580844E-1,-6.9576365E-1,1.0283356E0,1.3401928E0,6.927793E-1,-3.606569E-1,-3.3677453E-1,4.4261366E-1,7.9714045E-2,5.283548E-1,1.7365515E0,1.633812E-1,1.8880287E-1,-2.6371248E-2,5.8493484E-2,1.5564553E-1,1.3954074E0,9.0109724E-1,7.128596E-1,-4.1421014E-1,-8.4766775E-1,-4.2610955E-1,-1.2228084E-1,1.4201928E0,-8.393321E-1,6.638651E-1,-7.0295334E-1,-2.5506303E-1,8.025971E-1,1.3093886E-1,4.7530004E-1,-5.3204183E-2,1.398773E0,-3.3996344E-2],"categories":[],"categories_nodes":[],"categories_segments":[],"categories_sizes":[],"default_left":[1,1,1,1,1,1,1,1,1,0,1,1,1,1,1,1,1,1,0,0,1,0,0,0,0,1,1,1,1,1,1,1,1,0,1,0,0,1,1,1,1,1,1,0,0,0,0,0,0,0,0,0,0,0,0,0,0,0,0,0,0,0,0,0,0,0,0],"id":14,"left_children":[1,3,5,7,9,11,13,15,17,-1,19,21,23,25,27,29,31,33,-1,-1,35,-1,-1,-1,-1,37,39,41,43,45,47,49,51,-1,53,-1,-1,55,57,59,61,63,65,-1,-1,-1,-1,-1,-1,-1,-1,-1,-1,-1,-1,-1,-1,-1,-1,-1,-1,-1,-1,-1,-1,-1,-1],"loss_changes":[1.183252E1,9.143347E1,5.1979706E1,2.7194214E1,2.8198846E2,4.147133E0,4.651024E1,7.627789E1,4.5187523E1,0E0,2.0631976E2,6.89503E0,3.1040115E0,3.1117224E1,3.859867E1,1.647406E1,3.6099678E1,1.8440666E0,0E0,0E0,3.7752533E-1,0E0,0E0,0E0,0E0,7.335734E1,4.070566E1,2.576867E1,4.3026028E1,1.5121674E2,9.0933075E1,3.682312E0,5.5143326E1,0E0,3.1614952E0,0E0,0E0,8.1991905E1,6.283969E1,1.4182793E1,8.646336E0,3.157364E1,7.98329E1,0E0,0E0,0E0,0E0,0E0,0E0,0E0,0E0,0E0,0E0,0E0,0E0,0E0,0E0,0E0,0E0,0E0,0E0,0E0,0E0,0E0,0E0,0E0,0E0],"parents":[2147483647,0,0,1,1,2,2,3,3,4,4,5,5,6,6,7,7,8,8,10,10,11,11,12,12,13,13,14,14,15,15,16,16,17,17,20,20,25,25,26,26,27,27,28,28,29,29,30,30,31,31,32,32,34,34,37,37,38,38,39,39,40,40,41,41,42,42],"right_children":[2,4,6,8,10,12,14,16,18,-1,20,22,24,26,28,30,32,34,-1,-1,36,-1,-1,-1,-1,38,40,42,44,46,48,50,52,-1,54,-1,-1,56,58,60,62,64,66,-1,-1,-1,-1,-1,-1,-1,-1,-1,-1,-1,-1,-1,-1,-1,-1,-1,-1,-1,-1,-1,-1,-1,-1],"split_conditions":[3.535E2,3.525E2,3.545E2,3.515E2,1.5E0,3.5E0,2.0185E3,3.495E2,2.5E0,1.0554792E0,2.5E0,2.5E0,4.5E0,3.585E2,5E-1,2.0175E3,2.0175E3,5E-1,1.4748174E-1,-4.5661107E-1,3.5E0,-2.0180464E-1,-3.281915E-2,-2.7285144E-1,-1.3435653E-1,4.5E0,5.5E0,3.635E2,3E0,1.565E2,1.585E2,5.5E0,1.5E0,-1.2474254E-1,1.5E0,3.0850068E-1,4.0205786E-1,3.555E2,3.575E2,5E-1,3.645E2,3.565E2,3.645E2,5.2096546E-1,4.9014363E-2,5.6640863E-2,-7.911375E-3,1.7548045E-2,4.669366E-2,4.1862226E-1,2.7032918E-1,2.1385787E-1,-1.2426305E-1,-2.5430033E-1,-1.2783287E-1,-3.6684256E-2,4.2605788E-1,-2.5179964E-1,1.9915953E-1,-2.1088602E-1,-7.651891E-2,2.4077915E-1,3.928166E-2,1.4259002E-1,-1.5961256E-2,4.196319E-1,-1.0198903E-2],"split_indices":[3,3,3,3,0,0,4,3,0,0,0,0,0,3,5,4,4,0,0,0,0,0,0,0,0,0,0,3,0,3,3,0,0,0,0,0,0,3,3,0,3,3,3,0,0,0,0,0,0,0,0,0,0,0,0,0,0,0,0,0,0,0,0,0,0,0,0],"split_type":[0,0,0,0,0,0,0,0,0,0,0,0,0,0,0,0,0,0,0,0,0,0,0,0,0,0,0,0,0,0,0,0,0,0,0,0,0,0,0,0,0,0,0,0,0,0,0,0,0,0,0,0,0,0,0,0,0,0,0,0,0,0,0,0,0,0,0],"sum_hessian":[5.4503E4,5.27E4,1.803E3,5.2553E4,1.47E2,1.54E2,1.649E3,5.2375E4,1.78E2,3.1E1,1.16E2,8.7E1,6.7E1,8.19E2,8.3E2,5.2083E4,2.92E2,1.26E2,5.2E1,4.4E1,7.2E1,4.1E1,4.6E1,3.8E1,2.9E1,2.63E2,5.56E2,7.61E2,6.9E1,1.3186E4,3.8897E4,8.1E1,2.11E2,4.1E1,8.5E1,3.6E1,3.6E1,1.37E2,1.26E2,4.79E2,7.7E1,5.99E2,1.62E2,3.4E1,3.5E1,5.955E3,7.231E3,1.7586E4,2.1311E4,4.3E1,3.8E1,1.51E2,6E1,5.3E1,3.2E1,6.5E1,7.2E1,8.6E1,4E1,8.6E1,3.93E2,3.5E1,4.2E1,1.5E2,4.49E2,6.3E1,9.9E1],"tree_param":{"num_deleted":"0","num_feature":"6","num_nodes":"67","size_leaf_vector":"0"}},{"base_weights":[7.172235E-2,8.546451E-2,5.5178754E-2,7.020602E-2,4.0864885E-1,-4.159037E-1,6.368839E-2,7.7826135E-2,-1.2599378E0,1.1394146E-2,5.450322E-1,-8.7433463E-1,1.7840241E-1,-6.143915E-2,7.8550726E-2,6.4732455E-2,3.1063303E-1,-1.7504028E0,-8.276104E-1,-1.673171E-1,1.5939398E0,6.3736635E-1,2.2272722E-1,-1.3253354E0,-4.9317715E-1,-1.2244819E0,4.7726825E-1,5.396837E-2,-3.5850444E-1,1.2598536E0,7.044171E-2,7.4519455E-2,-3.688368E-1,1.3361735E0,1.9019829E-1,-5.295708E-1,-1.1563492E0,-8.985111E-1,8.663456E-2,7.622765E-1,3.0362606E-1,-1.6583177E-1,5.991072E-1,-5.1134485E-1,-1.7148919E0,-4.0376328E-2,-9.3226814E-1,1.8874144E-2,9.074813E-1,1.513473E-1,-2.6420033E-1,3.5849635E-2,-6.2638175E-1,1.7629746E0,7.18798E-1,-3.755876E-1,7.666528E-2,6.0465645E-2,2.0458712E-1,-2.0837207E0,-1.3068202E-1,-1.4623426E-1,1.8568996E0,4.741678E-1,-8.780444E-2,4.581342E-1,-6.7705727E-1,9.4153714E-1,4.0446052E-1,-1.5871352E-1,5.458368E-1,4.7413196E-2,-4.9162328E-1,1.0175256E0,-2.645065E-1,-1.9043127E0,-1.3784969E0,1.7349677E-1,-2.8640532E-1,-6.7002463E-1,-1.292338E0,-3.4015454E-2,6.7433424E-2,1.2706468E0,6.100038E-1,6.0203567E-2,7.28907E-1,-8.8104606E-1,-1.0120275E-1,3.51034E-1,-3.256087E-1,-2.5857084E0,-2.3168005E-1,2.0819626E0,1.4238364E0,-2.7323699E-2,1.5296537E0,-5.3396446E-1,7.1792716E-1,4.5249826E-1,6.87799E-2],"categories":[],"categories_nodes":[],"categories_segments":[],"categories_sizes":[],"default_left":[1,1,1,1,1,1,1,1,1,1,1,1,1,1,1,1,1,0,1,1,0,1,1,1,1,0,1,1,1,1,1,1,1,1,1,0,0,0,1,1,1,1,1,0,1,1,1,1,1,1,1,1,1,1,1,1,1,0,0,0,0,0,0,0,0,0,0,0,0,0,0,0,0,0,0,0,0,0,0,0,0,0,0,0,0,0,0,0,0,0,0,0,0,0,0,0,0,0,0,0,0],"id":15,"left_children":[1,3,5,7,9,11,13,15,17,19,21,23,25,27,29,31,33,-1,35,37,-1,39,41,43,45,-1,47,49,51,53,55,57,59,61,63,-1,-1,-1,65,67,69,71,73,-1,75,77,79,81,83,85,87,89,91,93,95,97,99,-1,-1,-1,-1,-1,-1,-1,-1,-1,-1,-1,-1,-1,-1,-1,-1,-1,-1,-1,-1,-1,-1,-1,-1,-1,-1,-1,-1,-1,-1,-1,-1,-1,-1,-1,-1,-1,-1,-1,-1,-1,-1,-1,-1],"loss_changes":[1.2386505E1,1.4678119E2,9.917863E1,2.882603E2,7.270189E1,1.1976079E2,4.5187798E1,8.615224E1,3.290207E1,9.7556335E1,2.9588043E1,4.1978134E1,8.108506E1,8.847095E1,2.079427E2,1.13600525E2,1.8562947E2,0E0,8.009617E0,5.76411E1,0E0,3.2118073E1,3.285842E1,3.4954865E1,2.700198E1,0E0,3.1338806E1,5.7637245E1,7.629345E1,3.9020813E1,5.990486E1,4.783412E1,2.410967E2,1.2223624E2,1.0645855E2,0E0,0E0,0E0,6.584748E1,3.579547E1,2.3939142E1,7.7348557E0,4.1463257E1,0E0,2.2176666E0,3.6277812E0,5.6494904E0,2.026197E-1,8.083656E0,7.4916824E1,4.3748177E1,3.349462E1,3.3194125E2,5.2573853E0,4.4206573E1,5.1820004E1,6.3016243E1,0E0,0E0,0E0,0E0,0E0,0E0,0E0,0E0,0E0,0E0,0E0,0E0,0E0,0E0,0E0,0E0,0E0,0E0,0E0,0E0,0E0,0E0,0E0,0E0,0E0,0E0,0E0,0E0,0E0,0E0,0E0,0E0,0E0,0E0,0E0,0E0,0E0,0E0,0E0,0E0,0E0,0E0,0E0,0E0],"parents":[2147483647,0,0,1,1,2,2,3,3,4,4,5,5,6,6,7,7,8,8,9,9,10,10,11,11,12,12,13,13,14,14,15,15,16,16,18,18,19,19,21,21,22,22,23,23,24,24,26,26,27,27,28,28,29,29,30,30,31,31,32,32,33,33,34,34,38,38,39,39,40,40,41,41,42,42,44,44,45,45,46,46,47,47,48,48,49,49,50,50,51,51,52,52,53,53,54,54,55,55,56,56],"right_children":[2,4,6,8,10,12,14,16,18,20,22,24,26,28,30,32,34,-1,36,38,-1,40,42,44,46,-1,48,50,52,54,56,58,60,62,64,-1,-1,-1,66,68,70,72,74,-1,76,78,80,82,84,86,88,90,92,94,96,98,100,-1,-1,-1,-1,-1,-1,-1,-1,-1,-1,-1,-1,-1,-1,-1,-1,-1,-1,-1,-1,-1,-1,-1,-1,-1,-1,-1,-1,-1,-1,-1,-1,-1,-1,-1,-1,-1,-1,-1,-1,-1,-1,-1,-1],"split_conditions":[1.995E2,1.905E2,2.025E2,1.895E2,2.0175E3,4.5E0,2.195E2,1.795E2,2.0185E3,1.985E2,1.975E2,2.005E2,2.0185E3,4.5E0,2.205E2,1.755E2,1.805E2,-5.2512085E-1,1.5E0,1.925E2,4.7818196E-1,4.5E0,2.5E0,2.5E0,2.015E2,-3.673446E-1,2.0195E3,2.155E2,2.095E2,2.5E0,2.225E2,1.585E2,5E-1,3.5E0,2.0185E3,-1.5887125E-1,-3.4690475E-1,-2.6955333E-1,1.965E2,2.0195E3,2.0185E3,2.0185E3,3.5E0,-1.5340346E-1,3.5E0,3.5E0,2E0,5.5E0,5.5E0,2.135E2,2.165E2,5.5E0,2.105E2,1.5E0,3.5E0,5.5E0,2.255E2,1.8139694E-2,6.1376136E-2,-6.251162E-1,-3.920461E-2,-4.3870278E-2,5.570699E-1,1.4225034E-1,-2.6341332E-2,1.3744026E-1,-2.0311719E-1,2.8246117E-1,1.2133816E-1,-4.7614057E-2,1.6375105E-1,1.4223959E-2,-1.4748698E-1,3.0525768E-1,-7.935195E-2,-5.7129383E-1,-4.135491E-1,5.2049033E-2,-8.59216E-2,-2.010074E-1,-3.8770142E-1,-1.02046365E-2,2.0230029E-2,3.8119406E-1,1.8300116E-1,1.8061072E-2,2.1867211E-1,-2.6431382E-1,-3.0360825E-2,1.053102E-1,-9.768262E-2,-7.7571255E-1,-6.9504015E-2,6.245888E-1,4.2715093E-1,-8.19711E-3,4.5889613E-1,-1.6018935E-1,2.1537815E-1,1.3574949E-1,2.0633971E-2],"split_indices":[3,3,3,3,4,0,3,3,4,3,3,3,4,0,3,3,3,0,0,3,0,0,0,0,3,0,4,3,3,0,3,3,0,0,4,0,0,0,3,4,4,4,0,0,0,0,0,0,0,3,3,0,3,0,0,0,3,0,0,0,0,0,0,0,0,0,0,0,0,0,0,0,0,0,0,0,0,0,0,0,0,0,0,0,0,0,0,0,0,0,0,0,0,0,0,0,0,0,0,0,0],"split_type":[0,0,0,0,0,0,0,0,0,0,0,0,0,0,0,0,0,0,0,0,0,0,0,0,0,0,0,0,0,0,0,0,0,0,0,0,0,0,0,0,0,0,0,0,0,0,0,0,0,0,0,0,0,0,0,0,0,0,0,0,0,0,0,0,0,0,0,0,0,0,0,0,0,0,0,0,0,0,0,0,0,0,0,0,0,0,0,0,0,0,0,0,0,0,0,0,0,0,0,0,0],"sum_hessian":[5.4503E4,2.977E4,2.4733E4,2.8429E4,1.341E3,4.38E2,2.4295E4,2.8268E4,1.61E2,3.43E2,9.98E2,2.47E2,1.91E2,2.579E3,2.1716E4,2.6764E4,1.504E3,7.4E1,8.7E1,3.09E2,3.4E1,7.75E2,2.23E2,1.12E2,1.35E2,3.3E1,1.58E2,1.858E3,7.21E2,1.47E2,2.1569E4,2.6174E4,5.9E2,1.57E2,1.347E3,4.7E1,4E1,7.9E1,2.3E2,5.63E2,2.12E2,1.1E2,1.13E2,3.7E1,7.5E1,6.7E1,6.8E1,7.7E1,8.1E1,1.423E3,4.35E2,2.92E2,4.29E2,7.5E1,7.2E1,2.96E2,2.1273E4,2.3623E4,2.551E3,7.1E1,5.19E2,4.1E1,1.16E2,6.66E2,6.81E2,1.55E2,7.5E1,3.74E2,1.89E2,7.3E1,1.39E2,6.7E1,4.3E1,7.6E1,3.7E1,4.5E1,3E1,3.6E1,3.1E1,4.1E1,2.7E1,3.7E1,4E1,3.5E1,4.6E1,1.23E3,1.93E2,9E1,3.45E2,1.56E2,1.36E2,7.1E1,3.58E2,3.6E1,3.9E1,3.8E1,3.4E1,2.59E2,3.7E1,4.36E2,2.0837E4],"tree_param":{"num_deleted":"0","num_feature":"6","num_nodes":"101","size_leaf_vector":"0"}},{"base_weights":[5.0188005E-2,7.327076E-2,4.2035017E-2,6.0940422E-2,1.177744E0,-2.1794353E-1,5.0821323E-2,4.119735E-2,2.1158022E-1,1.6535265E0,7.552751E-1,-3.3451714E-2,-7.564942E-1,1.379268E0,4.5651894E-2,1.20947305E-2,1.3118173E-1,5.2122176E-1,-5.7514723E-2,7.4759036E-1,2.6707006E0,1.7306904E-1,1.2451221E0,4.4487926E-1,-4.523839E-1,-1.0849077E0,7.584063E-2,4.505871E-1,1.6555891E0,2.5635473E-2,7.252091E-2,3.1415924E-2,-7.832476E-1,9.356994E-2,1.7026726E0,1.9223247E-1,1.8424422E0,-2.8382877E-1,4.304528E-1,2.9259798E-1,2.0773292E0,-2.6032962E-2,-1.0232733E0,-2.018477E0,-7.502721E-1,6.729166E-1,-3.269491E-1,1.8643931E0,1.1190886E0,-1.2051474E-1,3.7465435E-2,7.870547E-1,6.559407E-2,5.0003447E-2,-1.7396621E-1,-2.4333999E-1,-1.4099036E0,1.08632386E-1,-1.0124701E0,6.260831E-1,-1.470375E-1,1.5698377E0,2.135458E0,4.6118048E-1,-5.2384543E-1,1.2772696E0,-3.0558628E-1,-2.020517E-3,8.96794E-1,-1.4708028E0,3.939259E-1,-3.998122E-1,-1.6773856E0,-4.4753847E-1,-9.642863E-1,4.6909994E-1,-3.2666293E-1,7.417903E-1,1.7401338E-2,-5.857658E-1,2.2201858E0,-2.2600932E-1,7.224087E-2],"categories":[],"categories_nodes":[],"categories_segments":[],"categories_sizes":[],"default_left":[1,1,1,1,1,1,1,1,1,1,1,1,1,1,1,1,1,1,1,0,0,0,0,1,1,1,1,0,1,1,1,1,1,1,0,1,1,1,1,1,0,1,1,0,1,0,0,0,0,1,1,1,1,0,0,0,0,0,0,0,0,0,0,0,0,0,0,0,0,0,0,0,0,0,0,0,0,0,0,0,0,0,0],"id":16,"left_children":[1,3,5,7,9,11,13,15,17,19,21,23,25,27,29,31,33,35,37,-1,-1,-1,-1,39,41,43,45,-1,47,49,51,53,55,57,-1,59,61,63,65,67,-1,69,71,-1,73,-1,-1,-1,-1,75,77,79,81,-1,-1,-1,-1,-1,-1,-1,-1,-1,-1,-1,-1,-1,-1,-1,-1,-1,-1,-1,-1,-1,-1,-1,-1,-1,-1,-1,-1,-1,-1],"loss_changes":[1.0254211E1,1.9365186E2,9.202073E1,4.1833782E1,3.030867E1,1.3082944E2,2.67515E2,3.2576054E1,1.3584642E2,6.527254E1,2.4025814E1,1.9698251E2,9.19279E1,3.8002716E1,2.0873146E1,1.4448943E2,1.7952472E2,3.2912366E2,9.6530975E1,0E0,0E0,0E0,0E0,1.1349571E2,1.27514595E2,7.377527E1,2.3307632E1,0E0,1.0908295E1,3.8465042E1,8.196101E1,3.5049946E1,7.510593E1,4.9589203E1,0E0,8.958508E1,8.7092285E0,1.0699392E2,1.7304172E2,7.494289E1,0E0,1.8320929E2,9.0679596E1,0E0,1.1165733E1,0E0,0E0,0E0,0E0,2.0265222E2,2.9081628E2,3.1412213E2,3.1826561E1,0E0,0E0,0E0,0E0,0E0,0E0,0E0,0E0,0E0,0E0,0E0,0E0,0E0,0E0,0E0,0E0,0E0,0E0,0E0,0E0,0E0,0E0,0E0,0E0,0E0,0E0,0E0,0E0,0E0,0E0],"parents":[2147483647,0,0,1,1,2,2,3,3,4,4,5,5,6,6,7,7,8,8,9,9,10,10,11,11,12,12,13,13,14,14,15,15,16,16,17,17,18,18,23,23,24,24,25,25,26,26,28,28,29,29,30,30,31,31,32,32,33,33,35,35,36,36,37,37,38,38,39,39,41,41,42,42,44,44,49,49,50,50,51,51,52,52],"right_children":[2,4,6,8,10,12,14,16,18,20,22,24,26,28,30,32,34,36,38,-1,-1,-1,-1,40,42,44,46,-1,48,50,52,54,56,58,-1,60,62,64,66,68,-1,70,72,-1,74,-1,-1,-1,-1,76,78,80,82,-1,-1,-1,-1,-1,-1,-1,-1,-1,-1,-1,-1,-1,-1,-1,-1,-1,-1,-1,-1,-1,-1,-1,-1,-1,-1,-1,-1,-1,-1],"split_conditions":[9.55E1,9.45E1,1.045E2,8.35E1,3.5E0,2.0195E3,1.055E2,2.0195E3,8.85E1,2.5E0,4.5E0,3.5E0,1.015E2,2.0175E3,3.5E0,8.15E1,8.15E1,4.5E0,9.25E1,2.2427712E-1,8.012102E-1,5.1920716E-2,3.7353665E-1,1.025E2,1.005E2,1.5E0,1.025E2,1.3517614E-1,2.0195E3,1.235E2,1.095E2,7.45E1,4.5E0,8.05E1,5.108018E-1,2.0185E3,5.5E0,2.0175E3,9.35E1,2.0185E3,6.2319875E-1,4.5E0,2.0185E3,-6.0554314E-1,9.95E1,2.0187499E-1,-9.808473E-2,5.5931795E-1,3.3572662E-1,2.0175E3,1.305E2,1.085E2,1.14E2,1.5001034E-2,-5.2189868E-2,-7.3001996E-2,-4.229711E-1,3.258972E-2,-3.0374104E-1,1.8782493E-1,-4.411125E-2,4.7095132E-1,6.406374E-1,1.3835415E-1,-1.5715364E-1,3.831809E-1,-9.1675885E-2,-6.061551E-4,2.6903823E-1,-4.4124085E-1,1.1817778E-1,-1.1994366E-1,-5.032157E-1,-1.3426155E-1,-2.892859E-1,1.4073E-1,-9.799888E-2,2.225371E-1,5.2204016E-3,-1.7572974E-1,6.6605574E-1,-6.78028E-2,2.167226E-2],"split_indices":[3,3,3,3,0,4,3,4,3,0,0,0,3,4,0,3,3,0,3,0,0,0,0,3,3,0,3,0,4,3,3,3,0,3,0,4,0,4,3,4,0,0,4,0,3,0,0,0,0,4,3,3,3,0,0,0,0,0,0,0,0,0,0,0,0,0,0,0,0,0,0,0,0,0,0,0,0,0,0,0,0,0,0],"split_type":[0,0,0,0,0,0,0,0,0,0,0,0,0,0,0,0,0,0,0,0,0,0,0,0,0,0,0,0,0,0,0,0,0,0,0,0,0,0,0,0,0,0,0,0,0,0,0,0,0,0,0,0,0,0,0,0,0,0,0,0,0,0,0,0,0,0,0,0,0,0,0,0,0,0,0,0,0,0,0,0,0,0,0],"sum_hessian":[5.4503E4,1.4224E4,4.0279E4,1.4068E4,1.56E2,1.316E3,3.8963E4,1.2439E4,1.629E3,7.2E1,8.4E1,9.81E2,3.35E2,1.5E2,3.8813E4,9.4E3,3.039E3,7.57E2,8.72E2,3.9E1,3.3E1,3.9E1,4.5E1,4.58E2,5.23E2,2.4E2,9.5E1,3.5E1,1.15E2,2.2244E4,1.6569E4,9.178E3,2.22E2,2.969E3,7E1,6.07E2,1.5E2,5.96E2,2.76E2,4.2E2,3.8E1,3E2,2.23E2,6.2E1,1.78E2,3.8E1,5.7E1,8.1E1,3.4E1,1.665E3,2.0579E4,1.58E2,1.6411E4,8.417E3,7.61E2,1.2E2,1.02E2,2.93E3,3.9E1,2.66E2,3.41E2,8.1E1,6.9E1,1.45E2,4.51E2,1.28E2,1.48E2,2.83E2,1.37E2,6.7E1,2.33E2,1.15E2,1.08E2,7.5E1,1.03E2,4.31E2,1.234E3,5.69E2,2.001E4,8.1E1,7.7E1,3.65E2,1.6046E4],"tree_param":{"num_deleted":"0","num_feature":"6","num_nodes":"83","size_leaf_vector":"0"}},{"base_weights":[3.5194814E-2,2.8703433E-2,6.3428365E-2,3.1531982E-2,-4.1309348E-1,1.1412625E0,4.6990335E-2,4.0246103E-2,-3.4783278E-2,-1.0716398E0,4.5935765E-1,1.434975E0,2.973337E-2,-3.469053E-1,5.2880675E-2,2.7260695E-2,8.0959946E-1,-1.1741396E0,3.4324666E-3,-5.937485E-1,-3.7748625E0,-4.189047E-1,1.0546147E0,1.8486334E0,1.2380298E0,-5.54477E-1,6.038595E-1,1.9088581E-1,2.5300018E-2,3.9665584E-2,-5.26995E-1,-8.875248E-3,1.5554547E0,8.264426E-1,-1.6767385E0,1.6432478E-1,-1.6744584E-1,3.1989086E-1,-1.5952928E0,1.3564062E0,1.0845395E0,-1.8540262E-1,-1.8462051E0,1.4281891E-1,4.4559047E-1,-1.8908063E-1,4.2154327E-2,2.864144E-2,9.795983E-1,-1.4730628E0,-1.0597524E-1,-9.0911627E-1,2.784735E-1,1.3954774E0,2.8587232E0,-2.2524843E0,6.5947704E-2,2.9277423E-1,-8.492033E-2,4.320563E-1,-2.2211757E-1,6.428536E-1,5.507971E-3,-2.3485973E0,-1.078678E0,-1.6476447E-2,-4.7934604E-1,1.3525299E-2,3.7215874E-1,1.0096246E0,2.801844E-2,-1.2433048E-3,-7.7445555E-1,4.4039997E-1,2.779061E-2],"categories":[],"categories_nodes":[],"categories_segments":[],"categories_sizes":[],"default_left":[1,1,1,1,1,1,1,1,1,1,1,1,0,1,1,1,1,1,1,1,0,0,0,0,1,1,0,1,1,1,1,1,1,0,1,1,1,1,1,0,0,1,0,1,1,1,1,0,0,0,0,0,0,0,0,0,0,0,0,0,0,0,0,0,0,0,0,0,0,0,0,0,0,0,0],"id":17,"left_children":[1,3,5,7,9,11,13,15,17,19,21,23,-1,25,27,29,31,33,35,37,-1,-1,-1,-1,39,41,-1,43,45,47,49,51,53,-1,55,57,59,61,63,-1,-1,65,-1,67,69,71,73,-1,-1,-1,-1,-1,-1,-1,-1,-1,-1,-1,-1,-1,-1,-1,-1,-1,-1,-1,-1,-1,-1,-1,-1,-1,-1,-1,-1],"loss_changes":[9.987396E0,5.5393528E1,1.8045195E2,2.544889E1,1.6251518E2,4.9907227E1,2.3303658E1,3.8882306E2,2.2271802E2,2.0574596E2,6.422238E1,7.5689697E0,0E0,2.9542898E1,3.76354E1,2.6319366E2,3.9437332E2,1.6829713E2,1.3611789E2,1.2678728E2,0E0,0E0,0E0,0E0,7.3349E-2,5.7820446E1,0E0,2.0100365E1,2.9791883E1,3.8792343E2,3.3363043E2,8.018626E1,6.648157E1,0E0,1.3359335E2,8.166412E1,7.879072E1,7.408438E0,2.3151718E1,0E0,0E0,4.758957E0,0E0,4.1122528E1,6.1443695E1,6.6082146E1,4.370792E1,0E0,0E0,0E0,0E0,0E0,0E0,0E0,0E0,0E0,0E0,0E0,0E0,0E0,0E0,0E0,0E0,0E0,0E0,0E0,0E0,0E0,0E0,0E0,0E0,0E0,0E0,0E0,0E0],"parents":[2147483647,0,0,1,1,2,2,3,3,4,4,5,5,6,6,7,7,8,8,9,9,10,10,11,11,13,13,14,14,15,15,16,16,17,17,18,18,19,19,24,24,25,25,27,27,28,28,29,29,30,30,31,31,32,32,34,34,35,35,36,36,37,37,38,38,41,41,43,43,44,44,45,45,46,46],"right_children":[2,4,6,8,10,12,14,16,18,20,22,24,-1,26,28,30,32,34,36,38,-1,-1,-1,-1,40,42,-1,44,46,48,50,52,54,-1,56,58,60,62,64,-1,-1,66,-1,68,70,72,74,-1,-1,-1,-1,-1,-1,-1,-1,-1,-1,-1,-1,-1,-1,-1,-1,-1,-1,-1,-1,-1,-1,-1,-1,-1,-1,-1,-1],"split_conditions":[2.975E2,2.955E2,2.985E2,2.615E2,2.5E0,4.5E0,2.995E2,2.575E2,2.625E2,2.0185E3,2.965E2,2.5E0,8.920011E-3,5.5E0,3.105E2,2.515E2,2.0185E3,1.5E0,2.0185E3,2.965E2,-1.1324588E0,-1.2567142E-1,3.163844E-1,5.5459005E-1,3.5E0,4.5E0,1.8115786E-1,5.5E0,3.145E2,2.485E2,1.5E0,5E-1,4.5E0,2.4793279E-1,3.5E0,2.845E2,2.655E2,5E-1,1.5E0,4.069219E-1,3.2536188E-1,3.5E0,-5.5386156E-1,3.065E2,1.05E1,3.135E2,3.165E2,8.592432E-3,2.938795E-1,-4.4191885E-1,-3.1792574E-2,-2.7273488E-1,8.354205E-2,4.1864324E-1,8.5761696E-1,-6.757453E-1,1.9784313E-2,8.783227E-2,-2.54761E-2,1.296169E-1,-6.663527E-2,1.9285609E-1,1.6523914E-3,-7.0457923E-1,-3.2360342E-1,-4.942934E-3,-1.4380382E-1,4.05759E-3,1.1164763E-1,3.0288738E-1,8.405532E-3,-3.7299146E-4,-2.3233667E-1,1.3212E-1,8.337183E-3],"split_indices":[3,3,3,3,0,0,3,3,3,4,3,0,0,0,3,3,4,0,4,3,0,0,0,0,0,0,0,0,3,3,0,0,0,0,0,3,3,0,0,0,0,0,0,3,2,3,3,0,0,0,0,0,0,0,0,0,0,0,0,0,0,0,0,0,0,0,0,0,0,0,0,0,0,0,0],"split_type":[0,0,0,0,0,0,0,0,0,0,0,0,0,0,0,0,0,0,0,0,0,0,0,0,0,0,0,0,0,0,0,0,0,0,0,0,0,0,0,0,0,0,0,0,0,0,0,0,0,0,0,0,0,0,0,0,0,0,0,0,0,0,0,0,0,0,0,0,0,0,0,0,0,0,0],"sum_hessian":[5.4503E4,4.4316E4,1.0187E4,4.4035E4,2.81E2,1.52E2,1.0035E4,3.8921E4,5.114E3,1.6E2,1.21E2,1.2E2,3.2E1,1.47E2,9.888E3,3.8276E4,6.45E2,1.65E2,4.949E3,1.37E2,2.3E1,4.9E1,7.2E1,3.6E1,8.4E1,1.21E2,2.6E1,1.646E3,8.242E3,3.7439E4,8.37E2,3.08E2,3.37E2,3.3E1,1.32E2,2.549E3,2.4E3,7.2E1,6.5E1,4.3E1,4.1E1,9.5E1,2.6E1,1.386E3,2.6E2,6E2,7.642E3,3.7006E4,4.33E2,2.57E2,5.8E2,7.4E1,2.34E2,3.02E2,3.5E1,9.9E1,3.3E1,1.682E3,8.67E2,2E2,2.2E3,3.5E1,3.7E1,2.5E1,4E1,6.1E1,3.4E1,8.87E2,4.99E2,1.1E2,1.5E2,4.55E2,1.45E2,2.65E2,7.377E3],"tree_param":{"num_deleted":"0","num_feature":"6","num_nodes":"75","size_leaf_vector":"0"}},{"base_weights":[2.4635658E-2,1.4373339E-3,3.2509018E-2,-1.9741328E-1,3.373391E-2,1.16300315E-1,1.864206E-2,-6.4506917E-3,-7.333764E-1,2.399037E0,2.6944542E-2,7.571532E-2,6.0489E-1,-6.511113E-1,2.9221494E-2,-9.175609E-2,8.5798335E-1,-1.2816577E0,-2.2784531E-1,2.1317984E-1,-3.2162696E-2,1.09589726E-1,-6.666482E-1,-1.8783277E-1,7.9638016E-1,-3.1681424E-1,-1.8021132E0,4.6806404E-1,2.561671E-2,-3.0318774E-2,-1.1522045E0,5.273866E-1,9.58201E-1,-2.2298186E0,-1.1059881E0,-1.0168959E-3,-7.716389E-1,1.0741603E-1,7.4288607E-1,-1.4532177E0,-1.973143E-2,4.244755E-2,3.6298192E-1,-1.1668506E0,-2.0198172E-1,5.863465E-1,-9.936522E-1,1.6015882E0,4.5905516E-1,-6.579915E-1,9.1412604E-1,-1.4511378E0,-2.4601102E0,-3.1902328E-1,9.641364E-1,-3.3423063E-1,3.528296E-2,-6.96025E-2,1.3931469E0,-2.0121238E0,-2.1022682E-1,1.0543486E0,8.4673524E-1,-8.8804615E-1,-1.9936948E0,-3.759627E-1,4.8825404E-1,-1.3140651E0,-2.234823E-1,7.0694103E-3,7.118429E-1,-6.089006E-1,8.4190655E-1,-1.07915685E-1,9.704088E-2,1.1949496E-1,-6.9268905E-2,-8.243542E-2,5.780827E-1,-1.4666356E0,-5.6810856E-1,8.421363E-1,-7.4088264E-1,1.8037183E0,1.1059191E0,7.8179693E-1,-4.304893E-1,-4.132394E-1,-1.1736141E0,-4.9398813E-1,1.710088E0,-1.6044049E0,-1.266969E0,1.8891446E-1,-1.3983463E0,1.715046E0,6.845618E-1,-6.2669367E-1,4.674642E-1,1.311737E-1,1.9184135E-2],"categories":[],"categories_nodes":[],"categories_segments":[],"categories_sizes":[],"default_left":[1,1,1,1,1,1,1,1,1,0,1,1,1,1,1,1,1,1,1,1,1,1,1,1,1,1,1,1,1,1,1,0,1,0,1,1,1,1,1,0,1,1,1,1,1,0,0,1,1,1,1,1,0,1,1,1,1,0,0,0,0,0,0,0,0,0,0,0,0,0,0,0,0,0,0,0,0,0,0,0,0,0,0,0,0,0,0,0,0,0,0,0,0,0,0,0,0,0,0,0,0],"id":18,"left_children":[1,3,5,7,9,11,13,15,17,-1,19,21,23,25,27,29,31,33,35,37,39,41,43,45,47,49,51,53,55,57,59,-1,61,-1,63,65,67,69,71,-1,73,75,77,79,81,-1,-1,83,85,87,89,91,-1,93,95,97,99,-1,-1,-1,-1,-1,-1,-1,-1,-1,-1,-1,-1,-1,-1,-1,-1,-1,-1,-1,-1,-1,-1,-1,-1,-1,-1,-1,-1,-1,-1,-1,-1,-1,-1,-1,-1,-1,-1,-1,-1,-1,-1,-1,-1],"loss_changes":[9.95504E0,8.871001E1,4.7280254E1,1.9752866E2,1.9076346E2,1.14528534E2,2.4742021E2,1.05085754E2,1.4023483E2,0E0,1.3044994E2,1.3425813E2,6.739638E1,2.0836272E2,5.4365368E1,8.446605E1,3.7355042E0,3.8008636E1,3.2686394E1,1.5986801E2,1.5889027E2,8.682051E1,5.3919884E1,5.485746E1,9.623198E1,1.7782835E2,2.4604797E1,1.0963423E2,1.18606995E2,6.870961E1,5.7088753E1,0E0,1.4681244E-1,0E0,3.827751E1,3.467218E1,2.2898418E1,1.4440784E2,6.409357E1,0E0,9.185369E1,3.4748E1,1.02468124E2,1.927008E1,6.927042E1,0E0,0E0,8.5251465E0,7.2971115E1,4.128714E1,1.0395886E2,2.8189087E-1,0E0,6.002112E1,3.49348E1,2.0943677E2,5.1255436E1,0E0,0E0,0E0,0E0,0E0,0E0,0E0,0E0,0E0,0E0,0E0,0E0,0E0,0E0,0E0,0E0,0E0,0E0,0E0,0E0,0E0,0E0,0E0,0E0,0E0,0E0,0E0,0E0,0E0,0E0,0E0,0E0,0E0,0E0,0E0,0E0,0E0,0E0,0E0,0E0,0E0,0E0,0E0,0E0],"parents":[2147483647,0,0,1,1,2,2,3,3,4,4,5,5,6,6,7,7,8,8,10,10,11,11,12,12,13,13,14,14,15,15,16,16,17,17,18,18,19,19,20,20,21,21,22,22,23,23,24,24,25,25,26,26,27,27,28,28,29,29,30,30,32,32,34,34,35,35,36,36,37,37,38,38,40,40,41,41,42,42,43,43,44,44,47,47,48,48,49,49,50,50,51,51,53,53,54,54,55,55,56,56],"right_children":[2,4,6,8,10,12,14,16,18,-1,20,22,24,26,28,30,32,34,36,38,40,42,44,46,48,50,52,54,56,58,60,-1,62,-1,64,66,68,70,72,-1,74,76,78,80,82,-1,-1,84,86,88,90,92,-1,94,96,98,100,-1,-1,-1,-1,-1,-1,-1,-1,-1,-1,-1,-1,-1,-1,-1,-1,-1,-1,-1,-1,-1,-1,-1,-1,-1,-1,-1,-1,-1,-1,-1,-1,-1,-1,-1,-1,-1,-1,-1,-1,-1,-1,-1,-1],"split_conditions":[2.0175E3,5.05E1,5.25E1,3.75E1,5.15E1,4.85E1,5.75E1,3.45E1,4.35E1,7.1971107E-1,1.265E2,4.65E1,5E-1,5.5E0,2.5E0,3.25E1,2.5E0,1.5E0,4.5E0,1.145E2,1.285E2,3.65E1,4.75E1,4.95E1,2.0185E3,4.5E0,5.55E1,2.5E0,6.75E1,1.5E0,3.5E0,1.5821598E-1,5.5E0,-6.689456E-1,5.5E0,2.5E0,5.5E0,5.5E0,5E-1,-4.3596533E-1,2.645E2,2.15E1,2.0185E3,5.5E0,2.0185E3,1.7590396E-1,-2.9809567E-1,5.15E1,5.15E1,5.65E1,5.35E1,5.45E1,-7.3803306E-1,2.0185E3,2.0195E3,4.5E0,5E-1,-2.088075E-2,4.1794407E-1,-6.0363716E-1,-6.306805E-2,3.163046E-1,2.5402057E-1,-2.6641387E-1,-5.981085E-1,-1.1278882E-1,1.4647622E-1,-3.9421955E-1,-6.704469E-2,2.1208231E-3,2.1355288E-1,-1.8267019E-1,2.5257197E-1,-3.2374706E-2,2.9112265E-2,3.584849E-2,-2.0780671E-2,-2.4730628E-2,1.7342481E-1,-4.399907E-1,-1.7043257E-1,2.526409E-1,-2.222648E-1,5.411155E-1,3.3177575E-1,2.3453909E-1,-1.291468E-1,-1.2397182E-1,-3.5208425E-1,-1.4819644E-1,5.130264E-1,-4.8132148E-1,-3.800907E-1,5.6674343E-2,-4.195039E-1,5.1451385E-1,2.0536855E-1,-1.8800811E-1,1.4023927E-1,3.935211E-2,5.7552406E-3],"split_indices":[4,3,3,3,3,3,3,3,3,0,3,3,0,0,2,3,0,0,0,3,3,3,3,3,4,0,3,0,3,2,0,0,0,0,0,0,0,0,0,0,3,3,4,0,4,0,0,3,3,3,3,3,0,4,4,0,0,0,0,0,0,0,0,0,0,0,0,0,0,0,0,0,0,0,0,0,0,0,0,0,0,0,0,0,0,0,0,0,0,0,0,0,0,0,0,0,0,0,0,0,0],"split_type":[0,0,0,0,0,0,0,0,0,0,0,0,0,0,0,0,0,0,0,0,0,0,0,0,0,0,0,0,0,0,0,0,0,0,0,0,0,0,0,0,0,0,0,0,0,0,0,0,0,0,0,0,0,0,0,0,0,0,0,0,0,0,0,0,0,0,0,0,0,0,0,0,0,0,0,0,0,0,0,0,0,0,0,0,0,0,0,0,0,0,0,0,0,0,0,0,0,0,0,0,0],"sum_hessian":[5.4503E4,1.3811E4,4.0692E4,1.929E3,1.1882E4,5.777E3,3.4915E4,1.423E3,5.06E2,3.3E1,1.1849E4,5.335E3,4.42E2,5.42E2,3.4373E4,1.296E3,1.27E2,2.42E2,2.64E2,2.854E3,8.995E3,5.103E3,2.32E2,8.6E1,3.56E2,4.21E2,1.21E2,2.79E2,3.4094E4,1.226E3,7E1,3.1E1,9.6E1,3.6E1,2.06E2,1.87E2,7.7E1,2.38E3,4.74E2,7.7E1,8.918E3,4.035E3,1.068E3,1.11E2,1.21E2,4.4E1,4.2E1,1.04E2,2.52E2,3.3E2,9.1E1,8.1E1,4E1,1.08E2,1.71E2,8.91E2,3.3203E4,1.194E3,3.2E1,3.6E1,3.4E1,4.7E1,4.9E1,1.67E2,3.9E1,1.06E2,8.1E1,3.8E1,3.9E1,2.042E3,3.38E2,3.2E1,4.42E2,5.081E3,3.837E3,2.388E3,1.647E3,3.48E2,7.2E2,7.3E1,3.8E1,4.1E1,8E1,7.2E1,3.2E1,1.85E2,6.7E1,2.25E2,1.05E2,3.3E1,5.8E1,4E1,4.1E1,7.4E1,3.4E1,4.5E1,1.26E2,6.53E2,2.38E2,4.772E3,2.8431E4],"tree_param":{"num_deleted":"0","num_feature":"6","num_nodes":"101","size_leaf_vector":"0"}},{"base_weights":[1.7210932E-2,4.01029E-2,9.12614E-3,3.1393506E-2,8.203091E-1,-5.9821784E-1,1.1304887E-2,6.3182833E-3,9.797247E-2,1.1593071E0,5.195189E-1,-1.3566963E-1,-1.0339301E0,-3.2567523E-2,2.4455873E-2,3.0967342E-2,-4.9396807E-1,2.7418342E-1,4.3867696E-2,5.184741E-1,1.8791311E0,1.0845685E-1,8.6567026E-1,-6.621989E-1,3.946282E-1,-1.4618719E0,-4.8747298E-1,-1.0031247E-2,-6.681016E-1,1.7973872E0,1.5163651E-2,1.6849715E-2,4.506575E-1,-9.3313026E-1,-2.8296985E-2,1.7352022E-1,7.710597E-1,-4.180026E-2,2.9341835E-1,-3.427132E-2,6.787706E-1,-2.730375E0,-3.4320754E-1,1.9125013E0,1.3599099E0,-4.5423985E-2,3.5529267E-2,3.1828467E-2,-8.851946E-1,-1.0250987E0,9.7849023E-1,-5.749415E-1,-2.2652817E0,1.9214594E0,-4.042485E-1,6.5554455E-2,8.9445925E-1,1.3533609E0,8.768289E-2,-5.5321866E-1,4.3277185E-2,3.6046958E-1,-8.7977564E-1,1.01511115E-2,-3.0412498E-1,1.8201568E0,-5.207933E-1,8.756135E-1,-8.389345E-1,1.6504667E0,2.4911118E0,-8.031958E-1,-1.0446909E-2,3.4459835E-1,2.2908598E-2],"categories":[],"categories_nodes":[],"categories_segments":[],"categories_sizes":[],"default_left":[1,1,1,1,1,1,1,1,1,1,1,1,1,1,1,1,1,1,1,0,0,0,0,0,0,0,0,1,1,1,1,1,1,1,1,1,1,1,1,1,1,0,1,1,0,1,1,0,0,0,0,0,0,0,0,0,0,0,0,0,0,0,0,0,0,0,0,0,0,0,0,0,0,0,0],"id":19,"left_children":[1,3,5,7,9,11,13,15,17,19,21,23,25,27,29,31,33,35,37,-1,-1,-1,-1,-1,-1,-1,-1,39,41,43,45,47,49,51,53,55,57,59,61,63,65,-1,67,69,-1,71,73,-1,-1,-1,-1,-1,-1,-1,-1,-1,-1,-1,-1,-1,-1,-1,-1,-1,-1,-1,-1,-1,-1,-1,-1,-1,-1,-1,-1],"loss_changes":[1.0087059E1,9.663488E1,5.330725E1,2.3487326E1,1.5406578E1,2.8881195E1,2.3158463E1,1.2605646E2,3.668377E1,3.269967E1,1.2000736E1,2.0085752E1,1.65924E1,1.3257735E2,5.0872095E2,5.7714035E1,9.8136055E1,4.508171E1,6.2993313E1,0E0,0E0,0E0,0E0,0E0,0E0,0E0,0E0,1.4930763E2,2.1145938E2,5.507141E0,3.7908394E1,1.2738756E2,