{"learner":{"attributes":{"best_iteration":"8","best_ntree_limit":"9","best_score":"8.846870416576229","scikit_learn":"{\"n_estimators\": 500, \"objective\": \"reg:squarederror\", \"max_depth\": null, \"max_leaves\": null, \"max_bin\": null, \"grow_policy\": null, \"learning_rate\": null, \"verbosity\": null, \"booster\": null, \"tree_method\": null, \"gamma\": null, \"min_child_weight\": null, \"max_delta_step\": null, \"subsample\": null, \"sampling_method\": null, \"colsample_bytree\": null, \"colsample_bylevel\": null, \"colsample_bynode\": null, \"reg_alpha\": null, \"reg_lambda\": null, \"scale_pos_weight\": null, \"base_score\": null, \"missing\": NaN, \"num_parallel_tree\": null, \"random_state\": null, \"n_jobs\": null, \"monotone_constraints\": null, \"interaction_constraints\": null, \"importance_type\": null, \"gpu_id\": null, \"validate_parameters\": null, \"predictor\": null, \"enable_categorical\": false, \"feature_types\": null, \"max_cat_to_onehot\": null, \"max_cat_threshold\": null, \"eval_metric\": null, \"early_stopping_rounds\": 50, \"callbacks\": null, \"evals_result_\": {\"validation_0\": {\"rmse\": [13.198475384752358, 10.759894323613773, 9.224305981873647, 8.11737849063859, 7.526635279808902, 7.114693686788776, 6.854597557231019, 6.611879230063759, 6.409839233592098, 6.151276971698542, 6.049228376000088, 5.99455395200919, 5.795578174315648, 5.718432687271486, 5.58086392322139, 5.47107967378805, 5.4099746387538845, 5.258226727166485, 5.204966850271686, 5.115336025155255, 5.075394134561821, 4.989444396802279, 4.92128145226505, 4.8643422364438695, 4.81370562358777, 4.732797142402898, 4.697506955015972, 4.640568504936351, 4.5452016061614104, 4.5377877896587675, 4.512368024490596, 4.440002121545538, 4.377873210668812, 4.372574646750637, 4.354463360080756, 4.341220269419377, 4.302599747472118, 4.27233030939285, 4.2258727699935665, 4.21627043059011, 4.195430480153037, 4.141241911599294, 4.084964061695412, 4.081411962703863, 4.064242540831833, 4.043209660346631, 4.017201684377566, 3.960828559946111, 3.9479876187259864, 3.9454821757094654, 3.9002420191920164, 3.8816359576233275, 3.8764926574042233, 3.864860836268235, 3.8487237775767054, 3.821750939564171, 3.8173134196172414, 3.791286054257301, 3.768347826684093]}, \"validation_1\": {\"rmse\": [13.878942761603202, 11.524862724881988, 10.16248756410284, 9.446682235527398, 9.044801949171239, 8.905414132783394, 8.86043558160541, 8.880288432533487, 8.846870416576229, 8.938906765512526, 8.97944805148201, 8.996285466091845, 9.057227991952608, 9.096401869154962, 9.157550596511655, 9.263073691905955, 9.30003783934297, 9.315316543514035, 9.36954554161702, 9.430629855981005, 9.43038283109956, 9.473967146369793, 9.510914950452378, 9.565392071674584, 9.576024816755801, 9.57381827759532, 9.586942412132718, 9.592979644948045, 9.643973941820017, 9.648588058546657, 9.663016613656824, 9.74134390697319, 9.74604348252779, 9.750730693484513, 9.759613236314284, 9.76404887949498, 9.773572315427248, 9.780056927171016, 9.818828681448784, 9.828686474715454, 9.836480314620774, 9.889146947360137, 9.886330930570155, 9.894013175272491, 9.903285646189715, 9.903343840398767, 9.934166298376278, 9.926348092105547, 9.940642248053333, 9.944275190410627, 9.988350371362033, 9.996839177738162, 10.001741176604625, 10.002732716723544, 10.012798742497862, 10.009173827615161, 10.011997115113845, 10.025948858910052, 10.037583804072261]}}, \"_estimator_type\": \"regressor\"}"},"feature_names":["dayofweek","quarter","month","dayofyear","year","Special Day"],"feature_types":["int","int","int","int","int","i"],"gradient_booster":{"model":{"gbtree_model_param":{"num_parallel_tree":"1","num_trees":"59","size_leaf_vector":"0"},"tree_info":[0,0,0,0,0,0,0,0,0,0,0,0,0,0,0,0,0,0,0,0,0,0,0,0,0,0,0,0,0,0,0,0,0,0,0,0,0,0,0,0,0,0,0,0,0,0,0,0,0,0,0,0,0,0,0,0,0,0,0],"trees":[{"base_weights":[1.4805444E1,1.41422415E1,1.6255033E1,1.5007353E1,1.2827586E1,1.5331819E1,1.83875E1,1.2967213E1,1.5767361E1,1.3471312E1,9.020833E0,1.8170732E1,1.345E1,6.75E0,1.3401786E1,1.6103449E1,1.2515958E1,4.25E0,1.0052631E1,1.3610294E1,5.3333335E0,8.625E0,2E0,1.1960227E1,1.7714285E1,4.8E0,7.5E-1,1.1066667E1,5E0,1.2532051E1,6.818182E0,1.25E0,5.375E0],"categories":[],"categories_nodes":[],"categories_segments":[],"categories_sizes":[],"default_left":[1,1,1,1,1,1,0,1,0,1,1,0,1,1,0,0,1,1,1,0,0,0,0,1,0,1,0,0,0,0,0,0,0],"id":0,"left_children":[1,3,5,7,9,11,-1,13,-1,15,17,-1,19,21,-1,-1,23,25,27,-1,-1,-1,-1,29,-1,31,-1,-1,-1,-1,-1,-1,-1],"loss_changes":[2.4696094E2,2.0328125E2,1.1425781E1,1.1184766E2,2.3379883E2,3.4325977E2,0E0,7.434961E1,0E0,1.0523633E2,7.541724E1,0E0,1.8485352E1,3.61875E1,0E0,0E0,5.9686523E1,7.949997E0,4.2014038E1,0E0,0E0,0E0,0E0,1.7330371E2,0E0,3.487503E0,0E0,0E0,0E0,0E0,0E0,0E0,0E0],"parents":[2147483647,0,0,1,1,2,2,3,3,4,4,5,5,7,7,9,9,10,10,12,12,13,13,16,16,17,17,18,18,23,23,25,25],"right_children":[2,4,6,8,10,12,-1,14,-1,16,18,-1,20,22,-1,-1,24,26,28,-1,-1,-1,-1,30,-1,32,-1,-1,-1,-1,-1,-1,-1],"split_conditions":[4.5E0,2.5E0,2.0195E3,5E-1,3.115E2,2.0175E3,5.5162506E0,1.5E0,4.7302084E0,2.0175E3,3.255E2,5.45122E0,3.625E2,2.05E1,4.020536E0,4.8310347E0,2.945E2,2.0195E3,2.0195E3,4.0830884E0,1.6000001E0,2.5875E0,6E-1,2.695E2,5.3142858E0,3.13E2,2.2500001E-1,3.3200002E0,1.5E0,3.7596154E0,2.0454547E0,3.75E-1,1.6125001E0],"split_indices":[0,0,4,0,3,4,0,2,0,4,3,0,3,3,0,0,3,4,4,0,0,0,0,3,0,3,0,0,0,0,0,0,0],"split_type":[0,0,0,0,0,0,0,0,0,0,0,0,0,0,0,0,0,0,0,0,0,0,0,0,0,0,0,0,0,0,0,0,0],"sum_hessian":[4.95E2,3.47E2,1.48E2,2.03E2,1.44E2,1.09E2,3.9E1,6E1,1.43E2,1.21E2,2.3E1,4E1,6.9E1,5E0,5.5E1,2.8E1,9.3E1,5E0,1.8E1,6.7E1,2E0,3E0,2E0,8.7E1,6E0,4E0,1E0,1.4E1,4E0,7.7E1,1E1,1E0,3E0],"tree_param":{"num_deleted":"0","num_feature":"6","num_nodes":"33","size_leaf_vector":"0"}},{"base_weights":[1.0467786E1,1.2242774E1,1.0127521E1,1.2671416E1,8.189457E0,7.6618304E0,1.0460907E1,8.257924E0,1.3055086E1,8.7949095E0,1.3701923E0,5.778092E0,1.1774578E1,9.961395E0,1.1606286E1,3.925E0,1.1609598E1,9.647649E0,4.2956367E0,3.8367255E0,1.2634506E1,2.9863093E0,1.00032425E1,1.3410938E1,1.0644667E1,4.9416666E0,1.6E0,1.1106824E1,4.68218E0,6.63839E0,2.9754856E0,1.0447463E1,8.800278E0,1.1802504E1,9.167844E0,4.5E-1,1.95E0,6.083085E0,2.3973203E-1,-5.5392265E-2,8.31876E0,-1.4013186E-1,3.716815E0,2.6711328E0,9.280612E0,1.7084558E0,1.2029141E1,1.0503507E1,5.50992E0],"categories":[],"categories_nodes":[],"categories_segments":[],"categories_sizes":[],"default_left":[1,1,1,1,1,1,1,1,0,0,0,1,1,1,1,1,0,1,1,0,0,0,1,0,1,0,1,0,1,1,1,0,1,1,1,0,0,0,0,0,0,0,0,0,0,0,0,0,0],"id":1,"left_children":[1,3,5,7,9,11,13,15,-1,-1,-1,17,19,21,23,25,-1,27,29,-1,-1,-1,31,-1,33,-1,35,-1,37,39,41,-1,43,45,47,-1,-1,-1,-1,-1,-1,-1,-1,-1,-1,-1,-1,-1,-1],"loss_changes":[1.7557812E2,2.653418E1,2.667461E2,3.953125E0,2.9236755E1,3.5032178E2,9.55E1,7.061273E1,0E0,0E0,0E0,1.8227856E2,6.074048E1,4.7185547E1,4.119629E1,3.9120865E0,0E0,2.0450745E1,7.303119E1,0E0,0E0,0E0,4.8066406E1,0E0,1.8330078E1,0E0,3.2999992E-1,0E0,2.3435486E1,1.1294107E2,4.902452E1,0E0,2.0190137E2,6.638037E1,1.22899414E2,0E0,0E0,0E0,0E0,0E0,0E0,0E0,0E0,0E0,0E0,0E0,0E0,0E0,0E0],"parents":[2147483647,0,0,1,1,2,2,3,3,4,4,5,5,6,6,7,7,11,11,12,12,13,13,14,14,15,15,17,17,18,18,22,22,24,24,26,26,28,28,29,29,30,30,32,32,33,33,34,34],"right_children":[2,4,6,8,10,12,14,16,-1,-1,-1,18,20,22,24,26,-1,28,30,-1,-1,-1,32,-1,34,-1,36,-1,38,40,42,-1,44,46,48,-1,-1,-1,-1,-1,-1,-1,-1,-1,-1,-1,-1,-1,-1],"split_conditions":[5.35E1,5E-1,1.5E0,5E-1,2.0195E3,2.0195E3,4.5E0,1.5E0,3.916526E0,2.638473E0,4.110577E-1,1.5E0,5.9E1,9.25E1,2.0175E3,2.05E1,3.4828796E0,2.0185E3,7.1E1,1.1510177E0,3.790352E0,8.958928E-1,2.88E2,4.0232816E0,5.5E0,1.4825001E0,2.5E1,3.3320472E0,7.4E1,5.5E1,7.8E1,3.134239E0,2.945E2,1.06E2,2.965E2,1.35E-1,5.8500004E-1,1.8249255E0,7.191961E-2,-1.661768E-2,2.495628E0,-4.203956E-2,1.1150446E0,8.0133986E-1,2.7841837E0,5.1253676E-1,3.6087425E0,3.1510522E0,1.6529762E0],"split_indices":[3,5,1,0,4,4,0,2,0,0,0,0,3,3,4,3,0,4,3,0,0,0,3,0,0,0,3,0,3,3,3,0,3,3,3,0,0,0,0,0,0,0,0,0,0,0,0,0,0],"split_type":[0,0,0,0,0,0,0,0,0,0,0,0,0,0,0,0,0,0,0,0,0,0,0,0,0,0,0,0,0,0,0,0,0,0,0,0,0,0,0,0,0,0,0,0,0,0,0,0,0],"sum_hessian":[4.95E2,7.4E1,4.21E2,6.5E1,9E0,5.3E1,3.68E2,7E0,5.8E1,8E0,1E0,3.8E1,1.5E1,2.63E2,1.05E2,4E0,3E0,9E0,2.9E1,2E0,1.3E1,2E0,2.61E2,3.2E1,7.3E1,2E0,2E0,6E0,3E0,9E0,2E1,1.85E2,7.6E1,3.7E1,3.6E1,1E0,1E0,2E0,1E0,2E0,7E0,4E0,1.6E1,6E0,7E1,1E0,3.6E1,2.5E1,1.1E1],"tree_param":{"num_deleted":"0","num_feature":"6","num_nodes":"49","size_leaf_vector":"0"}},{"base_weights":[7.4220824E0,8.738627E0,7.1705117E0,1.1370502E1,7.948189E0,-4.4313747E-2,7.2049737E0,3.5688438E0,1.2296231E1,6.6300106E0,9.70413E0,6.8030562E0,8.120148E0,9.985157E0,5.8190746E0,3.0653439E0,1.12898445E1,4.9558406E0,7.0702376E0,7.786576E0,1.1110849E1,-1.2448716E0,6.31497E0,-1.350319E-1,9.533611E0,1.1787652E1,1.1646633E0,7.620951E0,2.7505143E0,7.2497287E0,4.9211016E0,8.002801E0,1.4723078E0,3.825E-1,-2.2498074E0,4.411757E0,8.050947E0,-3.7475443E-1,4.1192913E-1,1.2502705E1,4.0448155E0,8.048935E0,1.7261267E-1,4.030979E0,5.5476594E-1,7.5018044E0,6.2135024E0,-8.87961E-1,7.023592E0,8.036083E0,2.1875033E0,-2.6180322E0,3.1494007E0],"categories":[],"categories_nodes":[],"categories_segments":[],"categories_sizes":[],"default_left":[1,1,1,1,1,0,1,0,0,1,1,1,1,0,1,1,1,1,1,1,0,1,1,1,0,1,0,1,1,1,1,1,1,0,0,0,0,0,0,0,0,0,0,0,0,0,0,0,0,0,0,0,0],"id":2,"left_children":[1,3,5,7,9,-1,11,-1,-1,13,15,17,19,-1,21,23,25,27,29,31,-1,33,35,37,-1,39,-1,41,43,45,47,49,51,-1,-1,-1,-1,-1,-1,-1,-1,-1,-1,-1,-1,-1,-1,-1,-1,-1,-1,-1,-1],"loss_changes":[1.0161719E2,6.56499E1,1.0524414E2,6.445007E1,7.685474E1,0E0,9.924219E1,0E0,0E0,4.5286255E1,2.1804614E2,1.1203711E2,3.6190918E1,0E0,1.2345984E2,1.25492676E2,8.2038574E1,2.2001349E2,6.384668E1,1.4386182E2,0E0,5.7667623E0,6.6903076E1,8.099667E-1,0E0,4.9086426E1,0E0,5.5990356E1,6.524162E1,1.5032227E1,2.8714722E2,3.7114258E0,4.2544636E1,0E0,0E0,0E0,0E0,0E0,0E0,0E0,0E0,0E0,0E0,0E0,0E0,0E0,0E0,0E0,0E0,0E0,0E0,0E0,0E0],"parents":[2147483647,0,0,1,1,2,2,3,3,4,4,6,6,9,9,10,10,11,11,12,12,14,14,15,15,16,16,17,17,18,18,19,19,21,21,22,22,23,23,25,25,27,27,28,28,29,29,30,30,31,31,32,32],"right_children":[2,4,6,8,10,-1,12,-1,-1,14,16,18,20,-1,22,24,26,28,30,32,-1,34,36,38,-1,40,-1,42,44,46,48,50,52,-1,-1,-1,-1,-1,-1,-1,-1,-1,-1,-1,-1,-1,-1,-1,-1,-1,-1,-1,-1],"split_conditions":[5.35E1,2.0175E3,5.5E1,6E0,2.0195E3,-1.3294125E-2,4.5E0,1.0706532E0,3.6888695E0,1.85E1,1.3E1,9.75E1,3.45E2,2.9955473E0,2.25E1,4.5E0,5E-1,1.5E0,3.445E2,1.15E1,3.333255E0,3E0,4.15E1,3.5E0,2.8600836E0,5.5E0,3.49399E-1,9.5E1,8.05E1,3.5E0,3.49E2,5E-1,3.365E2,1.14750005E-1,-6.7494226E-1,1.3235271E0,2.4152842E0,-1.1242633E-1,1.2357874E-1,3.7508116E0,1.2134447E0,2.4146805E0,5.1783804E-2,1.2092938E0,1.6642979E-1,2.2505414E0,1.8640507E0,-2.663883E-1,2.1070776E0,2.410825E0,6.56251E-1,-7.854097E-1,9.448202E-1],"split_indices":[3,4,3,3,4,0,0,0,0,3,3,3,3,0,3,0,5,0,3,2,0,0,3,0,0,0,0,3,3,0,3,5,3,0,0,0,0,0,0,0,0,0,0,0,0,0,0,0,0,0,0,0,0],"split_type":[0,0,0,0,0,0,0,0,0,0,0,0,0,0,0,0,0,0,0,0,0,0,0,0,0,0,0,0,0,0,0,0,0,0,0,0,0,0,0,0,0,0,0,0,0,0,0,0,0,0,0,0,0],"sum_hessian":[4.95E2,7.4E1,4.21E2,1.4E1,6E1,2E0,4.19E2,2E0,1.2E1,3.7E1,2.3E1,2.97E2,1.22E2,5E0,3.2E1,5E0,1.8E1,4E1,2.57E2,1.13E2,9E0,2E0,3E1,4E0,1E0,1.7E1,1E0,1.7E1,2.3E1,2.35E2,2.2E1,1.09E2,4E0,1E0,1E0,1.6E1,1.4E1,3E0,1E0,1.5E1,2E0,1.6E1,1E0,1.4E1,9E0,1.84E2,5.1E1,6E0,1.6E1,1.08E2,1E0,1E0,3E0],"tree_param":{"num_deleted":"0","num_feature":"6","num_nodes":"53","size_leaf_vector":"0"}},{"base_weights":[5.266955E0,6.138814E0,4.9846535E0,7.8846097E0,5.328674E0,4.496796E0,5.7706623E0,1.1502377E1,6.569369E0,2.6177955E0,6.147718E0,3.3250203E0,5.6701846E0,7.1196384E0,3.634125E0,2.0133858E0,7.035551E0,3.4457743E0,-3.498669E0,1.0659261E0,6.5674253E0,3.535245E0,-2.3012872E0,9.883999E0,5.144615E0,6.632167E0,1.2513899E1,-4.017909E0,3.842517E0,2.8550751E0,-2.558415E-1,7.4386244E0,3.059761E0,6.272909E-1,4.4075694E0,2.3449762E0,-2.6646624E0,1.0836842E1,6.05049E0,4.4792705E0,2.3334506E0,6.9250536E-1,-3.2228618E0,7.297891E-1,1.1641862E1,-2.093736E0,5.3735456E0,7.2437453E0,-8.679123E-1,3.13295E-1,4.3402977E0,1.894563E-1,5.8353376E0,3.4932315E0,-1.6789873E0,6.4932313E0,3.5188563E0,-1.0766596E0,4.9849534E0,3.1420922E0,1.1975006E1,-7.889948E-1,6.468283E0,7.1857862E0,3.0242107E0,5.3920236E0,9.037351E-1,-4.096264E0,-3.013277E-1,-3.0749464E-1,-2.5866516E0,6.9951754E0,4.555666E0,2.6242802E0,7.536217E0,-5.017909E0,6.60072E-1,-4.1242533E0,5.781906E0,6.5001254E0,3.3798008E0],"categories":[],"categories_nodes":[],"categories_segments":[],"categories_sizes":[],"default_left":[1,1,1,1,1,1,1,0,1,1,1,1,1,1,1,1,1,1,0,1,1,1,1,1,1,1,0,0,1,0,0,0,1,1,1,1,0,1,1,1,1,0,1,0,0,1,1,1,1,1,1,0,0,0,0,0,0,0,0,0,0,0,0,0,0,0,0,0,0,0,0,0,0,0,0,0,0,0,0,0,0],"id":3,"left_children":[1,3,5,7,9,11,13,-1,15,17,19,21,23,25,27,29,31,33,-1,35,37,39,41,43,45,47,-1,-1,49,-1,-1,-1,51,53,55,57,-1,59,61,63,65,-1,67,-1,-1,69,71,73,75,77,79,-1,-1,-1,-1,-1,-1,-1,-1,-1,-1,-1,-1,-1,-1,-1,-1,-1,-1,-1,-1,-1,-1,-1,-1,-1,-1,-1,-1,-1,-1],"loss_changes":[9.147949E1,1.2346338E2,1.1976465E2,9.097485E1,1.6819385E2,3.0975928E2,3.8339014E2,0E0,4.5304443E1,1.1840599E2,1.2737012E2,1.5243591E2,2.1047949E2,1.4314697E2,1.06332275E2,8.370384E0,1.73031E1,4.8740417E1,0E0,3.4878227E1,6.243872E1,1.2342175E2,1.6026863E1,1.8460596E2,1.885581E2,3.7782495E2,0E0,0E0,9.701984E1,0E0,0E0,0E0,3.0761463E1,4.552303E1,3.1010132E0,5.0532295E1,0E0,6.162842E0,1.5940771E2,2.3424792E2,2.3126303E2,0E0,8.972382E0,0E0,0E0,2.7264843E0,1.0606738E2,8.1552734E1,4.770009E1,2.1798386E2,7.96817E1,0E0,0E0,0E0,0E0,0E0,0E0,0E0,0E0,0E0,0E0,0E0,0E0,0E0,0E0,0E0,0E0,0E0,0E0,0E0,0E0,0E0,0E0,0E0,0E0,0E0,0E0,0E0,0E0,0E0,0E0],"parents":[2147483647,0,0,1,1,2,2,3,3,4,4,5,5,6,6,8,8,9,9,10,10,11,11,12,12,13,13,14,14,15,15,16,16,17,17,19,19,20,20,21,21,22,22,23,23,24,24,25,25,28,28,32,32,33,33,34,34,35,35,37,37,38,38,39,39,40,40,42,42,45,45,46,46,47,47,48,48,49,49,50,50],"right_children":[2,4,6,8,10,12,14,-1,16,18,20,22,24,26,28,30,32,34,-1,36,38,40,42,44,46,48,-1,-1,50,-1,-1,-1,52,54,56,58,-1,60,62,64,66,-1,68,-1,-1,70,72,74,76,78,80,-1,-1,-1,-1,-1,-1,-1,-1,-1,-1,-1,-1,-1,-1,-1,-1,-1,-1,-1,-1,-1,-1,-1,-1,-1,-1,-1,-1,-1,-1],"split_conditions":[2.0175E3,1.155E2,2.0195E3,1.5E0,1.5E0,1.675E2,7.5E0,3.4507132E0,2.5E0,3.42E2,1.35E2,1.575E2,1.89E2,2.035E2,2.145E2,2E0,1.08E2,2.265E2,-1.0496007E0,1.285E2,5.5E0,2.0185E3,2.5E0,5E-1,1.97E2,2.5E0,3.7541697E0,-1.2053728E0,5E-1,8.5652256E-1,-7.6752454E-2,2.2315874E0,3.5E0,1.42E2,2.365E2,2.5E0,-7.993987E-1,3.5E0,1.655E2,1.5E0,5E1,2.0775162E-1,4E0,2.1893673E-1,3.4925587E0,1.5E0,2.56E2,1.3E1,1.87E2,3.5E0,2.505E2,5.6836892E-2,1.7506014E0,1.0479695E0,-5.036962E-1,1.9479694E0,1.0556569E0,-3.2299787E-1,1.495486E0,9.426277E-1,3.5925019E0,-2.3669845E-1,1.940485E0,2.155736E0,9.072632E-1,1.6176071E0,2.7112055E-1,-1.2288792E0,-9.039831E-2,-9.2248395E-2,-7.759955E-1,2.0985527E0,1.3666998E0,7.872841E-1,2.2608652E0,-1.5053728E0,1.9802162E-1,-1.2372761E0,1.7345719E0,1.9500377E0,1.0139403E0],"split_indices":[4,3,4,0,0,3,2,0,0,3,3,3,3,3,3,2,3,3,0,3,2,4,0,0,3,1,0,0,0,0,0,0,0,3,3,0,0,0,3,0,3,0,0,0,0,0,3,3,3,1,3,0,0,0,0,0,0,0,0,0,0,0,0,0,0,0,0,0,0,0,0,0,0,0,0,0,0,0,0,0,0],"split_type":[0,0,0,0,0,0,0,0,0,0,0,0,0,0,0,0,0,0,0,0,0,0,0,0,0,0,0,0,0,0,0,0,0,0,0,0,0,0,0,0,0,0,0,0,0,0,0,0,0,0,0,0,0,0,0,0,0,0,0,0,0,0,0,0,0,0,0,0,0,0,0,0,0,0,0,0,0,0,0,0,0],"sum_hessian":[4.95E2,1.16E2,3.79E2,3.4E1,8.2E1,2.38E2,1.41E2,7E0,2.7E1,2E1,6.2E1,1.21E2,1.17E2,8.5E1,5.6E1,3E0,2.4E1,1.8E1,2E0,5E0,5.7E1,1.17E2,4E0,1.1E1,1.06E2,8E1,5E0,1E0,5.5E1,2E0,1E0,2.1E1,3E0,5E0,1.3E1,4E0,1E0,4E0,5.3E1,6.4E1,5.3E1,1E0,3E0,2E0,9E0,3E0,1.03E2,7.4E1,6E0,7E0,4.8E1,2E0,1E0,2E0,3E0,2E0,1.1E1,2E0,2E0,1E0,3E0,3E0,5E1,2.1E1,4.3E1,1.6E1,3.7E1,2E0,1E0,1E0,2E0,3.2E1,7.1E1,5E0,6.9E1,1E0,5E0,4E0,3E0,1.3E1,3.5E1],"tree_param":{"num_deleted":"0","num_feature":"6","num_nodes":"81","size_leaf_vector":"0"}},{"base_weights":[3.757996E0,4.674328E0,3.5862355E0,4.0781784E0,5.925134E0,2.5262165E0,3.7251434E0,4.43047E0,-1.4330809E0,6.624592E0,2.9558158E0,3.373311E0,2.1182932E-1,5.686474E0,3.6148918E0,4.978922E0,1.3178144E0,-3.5232093E0,2.418652E0,3.6031663E0,-1.4046884E-1,2.4109693E0,4.5458455E0,9.233431E-1,-1.9756694E0,1.5174942E0,6.7692184E0,-1.1427304E0,3.6588109E0,3.8775828E0,7.500916E0,-1.6893339E-1,6.6058984E0,9.0438557E-1,4.0517654E0,3.2287416E0,4.7405314E-1,3.5414538E-1,5.119364E0,-1.6322355E0,1.5976824E0,-5.141249E-1,4.8219852E0,7.789145E0,3.375521E0,-3.0882187E0,5.35172E-1,3.556071E0,4.856294E0,2.3554263E0,5.445665E0,8.612854E0,-2.3652024E0,4.60157E0,-2.5260296E0,1.3361801E0,3.967526E0,1.7634312E0,-4.2757964E0,-2.838564E-2,5.596037E-1,5.839225E0,1.8599045E0,2.23777E0,5.1004064E-1,1.448885E0,-1.6514231E0,2.3225193E0,8.865487E0,7.5620728E0,4.3836474E-1,1.11214876E-1,6.915431E-1,3.663361E0,4.3442568E-1,2.812594E0,6.83592E0],"categories":[],"categories_nodes":[],"categories_segments":[],"categories_sizes":[],"default_left":[1,1,1,1,1,1,1,1,1,0,1,1,1,1,1,1,1,0,0,1,0,1,1,1,0,1,1,1,1,1,1,1,0,0,0,1,1,1,1,0,1,1,0,1,1,0,1,1,1,0,0,0,0,0,0,0,0,0,0,0,0,0,0,0,0,0,0,0,0,0,0,0,0,0,0,0,0],"id":4,"left_children":[1,3,5,7,9,11,13,15,17,-1,19,21,23,25,27,29,31,-1,-1,33,-1,35,37,39,-1,41,43,45,47,49,51,53,-1,-1,-1,55,57,59,61,-1,63,65,-1,67,69,-1,71,73,75,-1,-1,-1,-1,-1,-1,-1,-1,-1,-1,-1,-1,-1,-1,-1,-1,-1,-1,-1,-1,-1,-1,-1,-1,-1,-1,-1,-1],"loss_changes":[6.1301758E1,3.176123E1,5.272705E1,1.1119397E2,2.6110962E1,1.0123166E2,5.9669434E1,8.050293E1,4.0723885E1,0E0,1.2532417E1,3.1918518E1,2.5170753E1,7.097864E1,7.8149414E1,9.035022E1,7.187438E1,0E0,0E0,2.3889923E0,0E0,3.4900406E1,3.6651245E1,2.328772E1,0E0,3.6046436E1,2.2166138E1,1.4710088E1,2.5913574E1,6.3552887E1,1.5201733E2,1.0157999E2,0E0,0E0,0E0,1.7069794E1,5.6534885E1,2.516672E-1,2.1988617E1,0E0,5.820507E0,1.1322833E1,0E0,3.824933E1,5.816783E1,0E0,1.2197405E-1,1.0792822E2,8.191742E1,0E0,0E0,0E0,0E0,0E0,0E0,0E0,0E0,0E0,0E0,0E0,0E0,0E0,0E0,0E0,0E0,0E0,0E0,0E0,0E0,0E0,0E0,0E0,0E0,0E0,0E0,0E0,0E0],"parents":[2147483647,0,0,1,1,2,2,3,3,4,4,5,5,6,6,7,7,8,8,10,10,11,11,12,12,13,13,14,14,15,15,16,16,19,19,21,21,22,22,23,23,25,25,26,26,27,27,28,28,29,29,30,30,31,31,35,35,36,36,37,37,38,38,40,40,41,41,43,43,44,44,46,46,47,47,48,48],"right_children":[2,4,6,8,10,12,14,16,18,-1,20,22,24,26,28,30,32,-1,-1,34,-1,36,38,40,-1,42,44,46,48,50,52,54,-1,-1,-1,56,58,60,62,-1,64,66,-1,68,70,-1,72,74,76,-1,-1,-1,-1,-1,-1,-1,-1,-1,-1,-1,-1,-1,-1,-1,-1,-1,-1,-1,-1,-1,-1,-1,-1,-1,-1,-1,-1],"split_conditions":[5.35E1,4.15E1,8.9E1,3.85E1,5E-1,8.05E1,1.025E2,5.5E0,5.5E0,1.9873776E0,3.5E0,2.0195E3,2.0185E3,5E-1,1.055E2,3.5E0,3.5E1,-1.0569628E0,7.2559565E-1,2.5E0,-4.214065E-2,4.5E0,5.9E1,8.15E1,-5.9270084E-1,9.85E1,2.0185E3,2.5E0,3.485E2,2.65E1,3.35E1,2E1,1.9817696E0,2.713157E-1,1.2155297E0,6.6E1,7.3E1,2E0,7.85E1,-4.8967066E-1,4.5E0,9.15E1,1.4465957E0,1.5E0,1.5E0,-9.2646563E-1,1.04E2,3.4E2,3.5E0,7.066279E-1,1.6336995E0,2.5838563E0,-7.0956075E-1,1.3804711E0,-7.578089E-1,4.0085405E-1,1.1902578E0,5.2902937E-1,-1.2827389E0,-8.515692E-3,1.6788112E-1,1.7517675E0,5.5797136E-1,6.7133105E-1,1.530122E-1,4.346655E-1,-4.9542695E-1,6.967558E-1,2.6596463E0,2.268622E0,1.3150942E-1,3.3364464E-2,2.0746294E-1,1.0990083E0,1.3032772E-1,8.437782E-1,2.050776E0],"split_indices":[3,3,3,3,5,3,3,0,0,0,0,4,4,0,3,0,3,0,0,0,0,0,3,3,0,3,4,0,3,3,3,3,0,0,0,3,3,0,3,0,0,3,0,1,0,0,3,3,0,0,0,0,0,0,0,0,0,0,0,0,0,0,0,0,0,0,0,0,0,0,0,0,0,0,0,0,0],"split_type":[0,0,0,0,0,0,0,0,0,0,0,0,0,0,0,0,0,0,0,0,0,0,0,0,0,0,0,0,0,0,0,0,0,0,0,0,0,0,0,0,0,0,0,0,0,0,0,0,0,0,0,0,0,0,0,0,0,0,0,0,0,0,0,0,0,0,0,0,0,0,0,0,0,0,0,0,0],"sum_hessian":[4.95E2,7.4E1,4.21E2,5.3E1,2.1E1,5.1E1,3.7E2,5E1,3E0,1.6E1,5E0,3.7E1,1.4E1,1.7E1,3.53E2,4.2E1,8E0,2E0,1E0,4E0,1E0,2.2E1,1.5E1,1.1E1,3E0,4E0,1.3E1,3E0,3.5E2,3.1E1,1.1E1,7E0,1E0,1E0,3E0,1.5E1,7E0,2E0,1.3E1,2E0,9E0,3E0,1E0,9E0,4E0,1E0,2E0,3.26E2,2.4E1,1.7E1,1.4E1,1E1,1E0,2E0,5E0,5E0,1E1,6E0,1E0,1E0,1E0,1E1,3E0,5E0,4E0,1E0,2E0,2E0,7E0,1E0,3E0,1E0,1E0,3.15E2,1.1E1,1.3E1,1.1E1],"tree_param":{"num_deleted":"0","num_feature":"6","num_nodes":"77","size_leaf_vector":"0"}},{"base_weights":[2.6780746E0,5.9507933E0,2.6326277E0,2.2137601E0,8.949906E0,3.335753E0,2.4111636E0,4.539088E0,2.5540519E0,-1.2006861E0,2.4629376E0,4.046204E0,8.456373E0,8.651607E-1,3.4339905E0,5.5510855E-1,-1.6628668E0,2.1100829E0,3.052797E0,4.627376E0,5.6231266E-1,3.1193614E0,-2.4923275E0,1.1276797E0,4.378253E0,1.2811562E0,2.9281526E0,4.0415964E0,1.5941032E0,6.769017E0,3.7421117E0,-3.6955E0,1.8878647E0,-5.6474984E-1,6.047531E0,-3.3753633E0,3.1690164E0,3.1338596E0,-1.0194602E0,7.271929E0,3.1613998E0,1.443649E0,-2.712413E0,6.220666E0,2.5315328E0,3.6388397E0,8.469584E0,-1.3632622E0,2.0353997E0],"categories":[],"categories_nodes":[],"categories_segments":[],"categories_sizes":[],"default_left":[1,1,1,0,0,1,1,1,1,1,1,1,0,1,1,0,0,1,1,1,1,1,1,1,1,1,1,1,1,0,0,0,0,0,0,0,0,0,0,0,0,0,0,0,0,0,0,0,0],"id":5,"left_children":[1,3,5,-1,-1,7,9,11,13,15,17,19,-1,21,23,-1,-1,25,27,29,31,33,35,37,39,41,43,45,47,-1,-1,-1,-1,-1,-1,-1,-1,-1,-1,-1,-1,-1,-1,-1,-1,-1,-1,-1,-1],"loss_changes":[5.81062E1,4.743376E1,6.841382E1,0E0,0E0,9.658142E1,7.34563E1,5.073755E1,1.0402966E2,5.792038E0,7.0984375E1,8.041235E1,0E0,2.0455421E2,9.741766E1,0E0,0E0,1.5628491E2,1.9116003E2,4.1026733E1,4.6484272E1,1.760186E2,6.5687454E1,6.780809E1,9.320935E1,8.113808E1,1.3834552E2,1.1363611E2,7.716405E1,0E0,0E0,0E0,0E0,0E0,0E0,0E0,0E0,0E0,0E0,0E0,0E0,0E0,0E0,0E0,0E0,0E0,0E0,0E0,0E0],"parents":[2147483647,0,0,1,1,2,2,5,5,6,6,7,7,8,8,9,9,10,10,11,11,13,13,14,14,17,17,18,18,19,19,20,20,21,21,22,22,23,23,24,24,25,25,26,26,27,27,28,28],"right_children":[2,4,6,-1,-1,8,10,12,14,16,18,20,-1,22,24,-1,-1,26,28,30,32,34,36,38,40,42,44,46,48,-1,-1,-1,-1,-1,-1,-1,-1,-1,-1,-1,-1,-1,-1,-1,-1,-1,-1,-1,-1],"split_conditions":[6.5E0,3.5E0,2.0175E3,6.6412807E-1,2.684972E0,1.48E2,1.3E1,1.385E2,2.325E2,1E0,2.0195E3,1.225E2,2.536912E0,2.02E2,1.5E0,1.6653258E-1,-4.9886006E-1,1.675E2,7.5E0,1.5E0,1.235E2,1.78E2,5E-1,5E-1,2.5E0,1.575E2,1.89E2,2.035E2,2.25E2,2.0307052E0,1.1226336E0,-1.10865E0,5.6635946E-1,-1.6942495E-1,1.8142594E0,-1.012609E0,9.5070493E-1,9.4015795E-1,-3.0583808E-1,2.1815786E0,9.4842E-1,4.3309474E-1,-8.13724E-1,1.8661999E0,7.5945985E-1,1.0916519E0,2.5408754E0,-4.0897867E-1,6.106199E-1],"split_indices":[3,0,4,0,0,3,3,3,3,0,4,3,0,3,0,0,0,3,2,0,3,3,5,0,0,3,3,3,3,0,0,0,0,0,0,0,0,0,0,0,0,0,0,0,0,0,0,0,0],"split_type":[0,0,0,0,0,0,0,0,0,0,0,0,0,0,0,0,0,0,0,0,0,0,0,0,0,0,0,0,0,0,0,0,0,0,0,0,0,0,0,0,0,0,0,0,0,0,0,0,0],"sum_hessian":[4.95E2,5E0,4.9E2,3E0,2E0,1.14E2,3.76E2,4.3E1,7.1E1,5E0,3.71E2,4E1,3E0,2.5E1,4.6E1,1E0,4E0,2.35E2,1.36E2,3.4E1,6E0,1.5E1,1E1,1.4E1,3.2E1,1.18E2,1.17E2,8E1,5.6E1,8E0,2.6E1,1E0,5E0,7E0,8E0,9E0,1E0,7E0,7E0,8E0,2.4E1,1.14E2,4E0,1.1E1,1.06E2,7.5E1,5E0,7E0,4.9E1],"tree_param":{"num_deleted":"0","num_feature":"6","num_nodes":"49","size_leaf_vector":"0"}},{"base_weights":[1.9141507E0,2.6015935E0,1.7469337E0,3.9027822E0,2.3088357E0,-2.7140908E0,1.7985874E0,1.8455365E0,5.297803E0,6.0579405E0,2.0840924E0,-6.285216E-1,-3.8949633E0,1.6077931E0,2.2541265E0,2.8450582E0,-7.6868564E-1,1.3759937E0,7.159925E0,-8.95868E-1,2.3034766E0,-9.640393E-1,2.1256924E-2,1.9914584E0,1.0349722E0,2.026521E0,4.441334E0,1.388971E0,5.062747E0,4.718423E-1,-1.2637784E0,1.5870123E0,3.4388056E0,1.3087686E0,3.0370383E0,1.522177E0,-8.9606994E-1,2.1688704E0,-1.2827137E0,5.7410154E0,1.0565572E0,1.7048402E0,6.2747E-2,1.2322842E0,6.2606874E0,3.6222384E0,-6.6522455E-1,2.5002604E0,-7.4116015E-1,4.869978E0,1.9433734E0,-9.627605E-1,2.0510309E0,-3.5813124E0,-9.370603E-4,3.2343342E0,1.8695581E0,2.0463824E0,-2.6265833E0,4.8762817E0,-1.8421116E0],"categories":[],"categories_nodes":[],"categories_segments":[],"categories_sizes":[],"default_left":[1,1,1,1,1,1,1,1,0,1,1,1,0,1,1,1,0,0,0,1,1,0,0,1,1,1,1,1,0,0,0,1,1,1,1,1,1,1,1,0,1,0,0,0,0,0,0,0,0,0,0,0,0,0,0,0,0,0,0,0,0],"id":6,"left_children":[1,3,5,7,9,11,13,15,-1,17,19,21,-1,23,25,27,-1,-1,-1,29,31,-1,-1,33,35,37,39,41,-1,-1,-1,43,45,47,49,51,53,55,57,-1,59,-1,-1,-1,-1,-1,-1,-1,-1,-1,-1,-1,-1,-1,-1,-1,-1,-1,-1,-1,-1],"loss_changes":[5.2471436E1,2.7177734E1,9.751367E1,3.6141098E1,5.4781677E1,9.8658905E0,3.0967773E1,2.3090729E1,0E0,1.0785706E1,5.2402863E1,6.745292E-1,0E0,6.0354004E1,4.82489E1,1.234288E1,0E0,0E0,0E0,3.6154742E0,5.310898E1,0E0,0E0,1.1665857E2,1.1049827E2,5.271524E1,3.7925613E1,1.9875937E0,0E0,0E0,0E0,6.854772E1,2.2735596E1,2.5587035E2,1.2284088E2,1.2419238E2,5.768422E1,2.648169E1,2.774435E1,0E0,5.3271122E1,0E0,0E0,0E0,0E0,0E0,0E0,0E0,0E0,0E0,0E0,0E0,0E0,0E0,0E0,0E0,0E0,0E0,0E0,0E0,0E0],"parents":[2147483647,0,0,1,1,2,2,3,3,4,4,5,5,6,6,7,7,9,9,10,10,11,11,13,13,14,14,15,15,19,19,20,20,23,23,24,24,25,25,26,26,27,27,31,31,32,32,33,33,34,34,35,35,36,36,37,37,38,38,40,40],"right_children":[2,4,6,8,10,12,14,16,-1,18,20,22,-1,24,26,28,-1,-1,-1,30,32,-1,-1,34,36,38,40,42,-1,-1,-1,44,46,48,50,52,54,56,58,-1,60,-1,-1,-1,-1,-1,-1,-1,-1,-1,-1,-1,-1,-1,-1,-1,-1,-1,-1,-1,-1],"split_conditions":[7.1E1,2.0175E3,7.45E1,2.65E1,6.5E0,2.0185E3,4.5E0,2.1E1,1.5893409E0,2.5E0,1.3E1,2.5E0,-1.168489E0,2.5E0,3.45E2,1.65E1,-2.306057E-1,4.1279814E-1,2.1479776E0,1E0,2.0195E3,-2.892118E-1,6.377077E-3,2.525E2,3.115E2,1.15E1,3.625E2,1.05E1,1.5188242E0,1.4155269E-1,-3.7913355E-1,6.6E1,5E-1,1.835E2,2.88E2,1.105E2,3.255E2,1.115E2,2.0175E3,1.7223047E0,5.5E0,5.114521E-1,1.88241E-2,3.6968526E-1,1.8782063E0,1.0866716E0,-1.9956738E-1,7.5007814E-1,-2.2234805E-1,1.4609934E0,5.8301204E-1,-2.8882816E-1,6.153093E-1,-1.0743937E0,-2.811181E-4,9.703003E-1,5.608674E-1,6.139147E-1,-7.87975E-1,1.4628845E0,-5.526335E-1],"split_indices":[3,4,3,3,3,4,0,3,0,0,3,0,0,0,3,3,0,0,0,0,4,0,0,3,3,2,3,3,0,0,0,3,5,3,3,3,3,3,4,0,0,0,0,0,0,0,0,0,0,0,0,0,0,0,0,0,0,0,0,0,0],"split_type":[0,0,0,0,0,0,0,0,0,0,0,0,0,0,0,0,0,0,0,0,0,0,0,0,0,0,0,0,0,0,0,0,0,0,0,0,0,0,0,0,0,0,0,0,0,0,0,0,0,0,0,0,0,0,0,0,0,0,0,0,0],"sum_hessian":[4.95E2,9.4E1,4.01E2,1.5E1,7.9E1,4E0,3.97E2,7E0,8E0,3E0,7.6E1,2E0,2E0,2.83E2,1.14E2,5E0,2E0,1E0,2E0,5E0,7.1E1,1E0,1E0,1.68E2,1.15E2,1.05E2,9E0,4E0,1E0,1E0,4E0,4.5E1,2.6E1,1.03E2,6.5E1,9.2E1,2.3E1,1.01E2,4E0,6E0,3E0,3E0,1E0,4.3E1,2E0,2.5E1,1E0,6.5E1,3.8E1,2.3E1,4.2E1,1.6E1,7.6E1,5E0,1.8E1,2E1,8.1E1,1E0,3E0,1E0,2E0],"tree_param":{"num_deleted":"0","num_feature":"6","num_nodes":"61","size_leaf_vector":"0"}},{"base_weights":[1.3665746E0,2.017396E0,1.247669E0,1.816859E0,5.1227107E0,1.0198628E0,1.5512279E0,1.9765756E0,-2.5154808E0,1.2190317E0,-6.969787E-1,6.215161E0,1.3252821E0,1.5617689E0,3.177928E0,1.0531311E0,-4.826352E0,8.9004964E-1,2.0195262E0,-4.461411E0,1.9025494E-1,2.222429E0,9.801139E-1,1.7860364E0,-1.6880834E0,1.5663933E0,5.8713427E0,1.8968911E0,4.1567817E-1,1.54434E0,6.2764063E0,-1.8437811E0,-5.5919037E0,-9.4796026E-1,2.3006268E0,-1.8542439E0,2.864241E0,-2.3025079E0,1.3458505E0,2.1458957E0,-1.3174015E-1,-3.353754E0,1.6544642E0,3.837017E0,-2.3798833E0,2.077911E0,-3.486539E0,1.4677894E0,-1.08865425E-1,2.101757E0,-2.8170917E0,7.0890265E0,1.1066523E0,-1.8381238E0,1.1999915E0,6.37856E0,-1.4218454E0,1.5870247E0,-3.5481563E0,2.1258583E0,5.2533946E0,1.5412685E-1,-4.430213E0,3.7190535E0,1.1070136E0],"categories":[],"categories_nodes":[],"categories_segments":[],"categories_sizes":[],"default_left":[1,1,1,1,0,1,1,1,1,1,1,0,1,1,1,0,0,1,1,1,1,1,1,1,1,1,0,1,1,1,1,0,0,1,1,1,1,1,1,0,0,0,0,0,0,0,0,0,0,0,0,0,0,0,0,0,0,0,0,0,0,0,0,0,0],"id":7,"left_children":[1,3,5,7,-1,9,11,13,15,17,19,-1,21,23,25,-1,-1,27,29,31,33,35,37,39,41,43,-1,45,47,49,51,-1,-1,53,55,57,59,61,63,-1,-1,-1,-1,-1,-1,-1,-1,-1,-1,-1,-1,-1,-1,-1,-1,-1,-1,-1,-1,-1,-1,-1,-1,-1,-1],"loss_changes":[3.5866577E1,3.739749E1,2.7600342E1,5.479219E1,0E0,8.428339E1,1.803927E2,2.991983E1,2.982259E1,5.5875793E1,8.768701E1,0E0,5.1084442E1,4.237213E1,6.459219E1,0E0,0E0,7.419736E1,1.177442E2,4.4858093E0,5.502616E1,1.2828444E2,1.5437128E2,3.5479324E1,2.7819E1,1.1665776E2,0E0,5.5970078E1,5.976264E1,1.4692673E2,1.7361176E1,0E0,0E0,3.0886154E1,1.3050926E2,4.6435455E1,6.1160522E1,6.863375E1,6.049913E1,0E0,0E0,0E0,0E0,0E0,0E0,0E0,0E0,0E0,0E0,0E0,0E0,0E0,0E0,0E0,0E0,0E0,0E0,0E0,0E0,0E0,0E0,0E0,0E0,0E0,0E0],"parents":[2147483647,0,0,1,1,2,2,3,3,5,5,6,6,7,7,8,8,9,9,10,10,12,12,13,13,14,14,17,17,18,18,19,19,20,20,21,21,22,22,23,23,24,24,25,25,27,27,28,28,29,29,30,30,33,33,34,34,35,35,36,36,37,37,38,38],"right_children":[2,4,6,8,-1,10,12,14,16,18,20,-1,22,24,26,-1,-1,28,30,32,34,36,38,40,42,44,-1,46,48,50,52,-1,-1,54,56,58,60,62,64,-1,-1,-1,-1,-1,-1,-1,-1,-1,-1,-1,-1,-1,-1,-1,-1,-1,-1,-1,-1,-1,-1,-1,-1,-1,-1],"split_conditions":[5.35E1,5.25E1,2.325E2,5.05E1,1.5368133E0,2.115E2,2.365E2,4.15E1,2E0,2.0195E3,5E-1,1.8645483E0,3.5E0,3.85E1,5.5E0,3.1593934E-1,-1.4479057E0,2.0175E3,2.035E2,2.018E3,2.275E2,5E-1,2.82E2,5.5E0,5.5E0,3.5E0,1.7614028E0,2.09E2,1.5E0,2.5E0,2.105E2,-5.531344E-1,-1.6775712E0,5.5E0,3.5E0,2.0175E3,2.625E2,2.5E0,2.865E2,6.437687E-1,-3.9522048E-2,-1.0061263E0,4.963393E-1,1.1511052E0,-7.13965E-1,6.2337327E-1,-1.0459617E0,4.4033685E-1,-3.2659627E-2,6.3052714E-1,-8.451275E-1,2.126708E0,3.319957E-1,-5.5143714E-1,3.5999745E-1,1.9135681E0,-4.2655364E-1,4.7610742E-1,-1.0644469E0,6.3775754E-1,1.5760185E0,4.6238057E-2,-1.3290639E0,1.1157161E0,3.321041E-1],"split_indices":[3,3,3,3,0,3,3,3,0,4,0,0,1,3,0,0,0,4,3,4,3,0,3,0,0,0,0,3,0,1,3,0,0,0,0,4,3,0,3,0,0,0,0,0,0,0,0,0,0,0,0,0,0,0,0,0,0,0,0,0,0,0,0,0,0],"split_type":[0,0,0,0,0,0,0,0,0,0,0,0,0,0,0,0,0,0,0,0,0,0,0,0,0,0,0,0,0,0,0,0,0,0,0,0,0,0,0,0,0,0,0,0,0,0,0,0,0,0,0,0,0,0,0,0,0,0,0,0,0,0,0,0,0],"sum_hessian":[4.95E2,7.4E1,4.21E2,7.1E1,3E0,2.43E2,1.78E2,6.9E1,2E0,2.18E2,2.5E1,7E0,1.71E2,5.3E1,1.6E1,1E0,1E0,1.56E2,6.2E1,4E0,2.1E1,4.6E1,1.25E2,5E1,3E0,1.1E1,5E0,4.9E1,1.07E2,5.7E1,5E0,2E0,2E0,1.4E1,7E0,6E0,4E1,1.2E1,1.13E2,4.2E1,8E0,2E0,1E0,7E0,4E0,4.8E1,1E0,3.5E1,7.2E1,5.1E1,6E0,4E0,1E0,1E1,4E0,3E0,4E0,2E0,4E0,3.2E1,8E0,6E0,6E0,9E0,1.04E2],"tree_param":{"num_deleted":"0","num_feature":"6","num_nodes":"65","size_leaf_vector":"0"}},{"base_weights":[9.720194E-1,3.2319887E0,9.424229E-1,8.7391233E-1,5.298761E0,8.4613293E-1,1.4414184E0,1.0047635E0,-4.5517216E0,5.058455E0,7.0713204E-1,8.9602685E-1,5.665455E0,-6.109764E0,9.180498E-2,5.8370733E-1,6.342509E0,-1.7099226E0,1.2759205E0,9.86749E-1,-4.273536E0,7.006196E0,6.4857453E-1,-1.2763971E0,-7.3083835E0,3.4892035E0,-2.203729E0,-2.46632E0,4.8668947E0,7.803864E0,4.067628E0,1.2194178E0,-3.1473424E0,4.1109195E0,9.027386E-1,8.4570545E-1,1.5472668E0,-3.3491006E-1,-5.7820044E0,-9.6038675E-1,1.9332485E0,1.3975887E0,5.0532503E0,-2.4896057E0,4.5219684E0,-3.4451315E0,-3.8251448E-1,7.613943E0,-1.9300848E0,-3.55553E0,1.3780409E0],"categories":[],"categories_nodes":[],"categories_segments":[],"categories_sizes":[],"default_left":[1,1,1,0,0,1,1,1,1,1,1,1,1,1,1,1,1,1,1,1,1,0,1,0,0,0,0,0,0,0,1,1,1,1,1,0,0,0,0,0,0,0,0,0,0,0,0,0,0,0,0],"id":8,"left_children":[1,3,5,-1,-1,7,9,11,13,15,17,19,21,23,25,27,29,31,33,35,37,-1,39,-1,-1,-1,-1,-1,-1,-1,41,43,45,47,49,-1,-1,-1,-1,-1,-1,-1,-1,-1,-1,-1,-1,-1,-1,-1,-1],"loss_changes":[3.0130035E1,2.4610992E1,2.237204E1,0E0,0E0,3.5906702E2,2.0358635E2,1.9915918E2,8.737865E1,7.099344E1,9.2918045E1,1.8946945E2,5.599298E1,4.281192E1,3.8884632E1,6.425868E1,1.500885E0,5.8576923E1,5.341931E1,2.9444794E1,3.965258E1,0E0,8.057638E0,0E0,0E0,0E0,0E0,0E0,0E0,0E0,8.727539E0,7.250411E1,6.092209E0,1.4166626E2,1.0873192E2,0E0,0E0,0E0,0E0,0E0,0E0,0E0,0E0,0E0,0E0,0E0,0E0,0E0,0E0,0E0,0E0],"parents":[2147483647,0,0,1,1,2,2,5,5,6,6,7,7,8,8,9,9,10,10,11,11,12,12,13,13,14,14,15,15,16,16,17,17,18,18,19,19,20,20,22,22,30,30,31,31,32,32,33,33,34,34],"right_children":[2,4,6,-1,-1,8,10,12,14,16,18,20,22,24,26,28,30,32,34,36,38,-1,40,-1,-1,-1,-1,-1,-1,-1,42,44,46,48,50,-1,-1,-1,-1,-1,-1,-1,-1,-1,-1,-1,-1,-1,-1,-1,-1],"split_conditions":[6.5E0,3.5E0,3.08E2,2.621737E-1,1.5896283E0,2.995E2,3.165E2,2.925E2,1.05E1,2.0185E3,3.255E2,2.88E2,2.0195E3,2.0175E3,3.5E0,4.5E0,2.0195E3,1.5E0,3.285E2,2.325E2,1.5E0,2.1018589E0,2.5E0,-3.8291916E-1,-2.1925151E0,1.046761E0,-6.611187E-1,-7.3989606E-1,1.4600685E0,2.3411593E0,2E0,3.23E2,5.5E0,2.0185E3,3.315E2,2.5371164E-1,4.6418008E-1,-1.00473024E-1,-1.7346014E0,-2.8811604E-1,5.799746E-1,4.1927662E-1,1.5159751E0,-7.468817E-1,1.3565905E0,-1.0335395E0,-1.1475435E-1,2.284183E0,-5.7902545E-1,-1.0666591E0,4.134123E-1],"split_indices":[3,0,3,0,0,3,3,3,2,4,3,3,4,4,0,0,4,0,3,3,0,0,0,0,0,0,0,0,0,0,0,3,0,4,3,0,0,0,0,0,0,0,0,0,0,0,0,0,0,0,0],"split_type":[0,0,0,0,0,0,0,0,0,0,0,0,0,0,0,0,0,0,0,0,0,0,0,0,0,0,0,0,0,0,0,0,0,0,0,0,0,0,0,0,0,0,0,0,0,0,0,0,0,0,0],"sum_hessian":[4.95E2,5E0,4.9E2,3E0,2E0,4.13E2,7.7E1,4.02E2,1.1E1,1.2E1,6.5E1,3.94E2,8E0,8E0,3E0,3E0,9E0,1.2E1,5.3E1,3.88E2,6E0,6E0,2E0,2E0,6E0,1E0,2E0,2E0,1E0,4E0,5E0,4E0,8E0,5E0,4.8E1,3.12E2,7.6E1,2E0,4E0,1E0,1E0,2E0,3E0,2E0,2E0,7E0,1E0,3E0,2E0,4E0,4.4E1],"tree_param":{"num_deleted":"0","num_feature":"6","num_nodes":"51","size_leaf_vector":"0"}},{"base_weights":[6.9341445E-1,5.3758806E-1,1.0527042E0,8.334074E-1,1.1769332E-1,4.2390084E0,9.805164E-1,6.2881327E-1,3.046954E0,5.976041E-1,-7.5210106E-1,8.6952496E-1,3.0761268E0,7.616394E-1,-2.4549797E0,-1.5488652E0,5.69457E0,-1.0163987E-1,3.7707467E0,-1.7780781E0,-1.0750583E-1,5.708724E-1,1.6359785E0,4.631756E0,-5.419639E-1,6.328237E-1,3.153136E0,-1.1609869E0,-4.2246385E0,3.510694E0,-2.9772408E0,6.206021E0,2.900324E-1,5.5152315E-1,-3.7399967E0,8.537727E0,2.1394134E0,8.546467E-1,-2.29295E0,2.5829453E0,-1.2240478E0,1.1642685E0,1.756325E-1,2.4486313E0,6.5167916E-1,2.415079E0,-3.228025E0,7.948939E-1,-4.971713E0,5.196791E0,-7.006304E-1,-1.9254726E0,1.3307209E0,8.920479E0,4.4123464E0,-3.523744E-2,9.801811E0,-5.9111013E0,-1.3447644E0,-7.499271E-1,4.40016E0,1.9770101E0,-1.2562218E0,-3.8572521E0,-1.3197198E0,-1.5792074E0,4.592326E0,-1.5942838E0,1.0257034E0,3.332917E-1,3.4002697E0,-1.8692317E0,1.0351167E0,1.8045344E0,5.7117004E0,-4.6948366E0,1.5568478E0],"categories":[],"categories_nodes":[],"categories_segments":[],"categories_sizes":[],"default_left":[1,1,1,1,1,0,1,1,1,1,1,1,1,1,1,1,1,1,1,1,1,1,1,0,1,1,1,1,0,0,0,1,0,1,1,0,1,1,1,1,1,1,1,1,1,0,0,0,0,0,0,0,0,0,0,0,0,0,0,0,0,0,0,0,0,0,0,0,0,0,0,0,0,0,0,0,0],"id":9,"left_children":[1,3,5,7,9,-1,11,13,15,17,19,21,23,25,27,29,31,33,35,37,39,41,43,-1,45,47,49,51,-1,-1,-1,53,-1,55,57,-1,59,61,63,65,67,69,71,73,75,-1,-1,-1,-1,-1,-1,-1,-1,-1,-1,-1,-1,-1,-1,-1,-1,-1,-1,-1,-1,-1,-1,-1,-1,-1,-1,-1,-1,-1,-1,-1,-1],"loss_changes":[2.7203583E1,4.3128036E1,3.0115448E1,9.047128E1,6.09759E1,0E0,3.1516663E1,7.8876175E1,2.156755E2,2.0895055E2,3.4198524E1,3.134143E1,4.1909096E1,5.376387E1,1.3414658E1,6.1040833E1,2.8605743E1,1.8742502E2,1.1393535E2,2.9069977E1,1.0229369E2,2.3952503E1,2.9600113E1,0E0,3.162433E1,1.6109279E2,7.452296E1,1.3991516E1,0E0,0E0,0E0,9.328308E0,0E0,3.640016E2,5.4454575E1,0E0,9.474872E1,1.1960209E1,2.0790749E1,9.088574E1,2.1625797E1,7.504739E1,1.1265917E2,3.382943E1,9.925963E1,0E0,0E0,0E0,0E0,0E0,0E0,0E0,0E0,0E0,0E0,0E0,0E0,0E0,0E0,0E0,0E0,0E0,0E0,0E0,0E0,0E0,0E0,0E0,0E0,0E0,0E0,0E0,0E0,0E0,0E0,0E0,0E0],"parents":[2147483647,0,0,1,1,2,2,3,3,4,4,6,6,7,7,8,8,9,9,10,10,11,11,12,12,13,13,14,14,15,15,16,16,17,17,18,18,19,19,20,20,21,21,22,22,24,24,25,25,26,26,27,27,31,31,33,33,34,34,36,36,37,37,38,38,39,39,40,40,41,41,42,42,43,43,44,44],"right_children":[2,4,6,8,10,-1,12,14,16,18,20,22,24,26,28,30,32,34,36,38,40,42,44,-1,46,48,50,52,-1,-1,-1,54,-1,56,58,-1,60,62,64,66,68,70,72,74,76,-1,-1,-1,-1,-1,-1,-1,-1,-1,-1,-1,-1,-1,-1,-1,-1,-1,-1,-1,-1,-1,-1,-1,-1,-1,-1,-1,-1,-1,-1,-1,-1],"split_conditions":[4.5E0,2.5E0,7E0,3.315E2,2.46E2,1.2717025E0,3.495E2,3.245E2,2.0175E3,1.795E2,2.945E2,2.0195E3,2.0185E3,1.05E1,2.0195E3,5E-1,3.59E2,1.48E2,7.5E0,2.0175E3,3.115E2,1.115E2,2.5E0,1.3895268E0,5.5E0,2.99E2,2.0195E3,2.0185E3,-1.2673916E0,1.0532082E0,-8.9317226E-1,2.0185E3,8.700972E-2,1.385E2,2.019E3,2.5613184E0,2.0175E3,3.5E0,2.0185E3,2.0175E3,3.62E2,1.5E0,1.85E2,1.655E2,1.935E2,7.245238E-1,-9.684075E-1,2.3846819E-1,-1.491514E0,1.5590374E0,-2.1018913E-1,-5.776418E-1,3.992163E-1,2.6761436E0,1.323704E0,-1.0571232E-2,2.9405434E0,-1.7733305E0,-4.0342933E-1,-2.2497813E-1,1.320048E0,5.9310305E-1,-3.7686655E-1,-1.1571757E0,-3.9591596E-1,-4.7376224E-1,1.377698E0,-4.7828516E-1,3.0771104E-1,9.9987514E-2,1.0200809E0,-5.6076956E-1,3.10535E-1,5.413604E-1,1.7135102E0,-1.4084511E0,4.6705437E-1],"split_indices":[0,0,3,3,3,0,3,3,4,3,3,4,4,2,4,0,3,3,2,4,3,3,1,0,0,3,4,4,0,0,0,4,0,3,4,0,4,1,4,4,3,1,3,3,3,0,0,0,0,0,0,0,0,0,0,0,0,0,0,0,0,0,0,0,0,0,0,0,0,0,0,0,0,0,0,0,0],"split_type":[0,0,0,0,0,0,0,0,0,0,0,0,0,0,0,0,0,0,0,0,0,0,0,0,0,0,0,0,0,0,0,0,0,0,0,0,0,0,0,0,0,0,0,0,0,0,0,0,0,0,0,0,0,0,0,0,0,0,0,0,0,0,0,0,0,0,0,0,0,0,0,0,0,0,0,0,0],"sum_hessian":[4.95E2,3.47E2,1.48E2,2.03E2,1.44E2,2E0,1.46E2,1.87E2,1.6E1,9.3E1,5.1E1,1.4E2,6E0,1.8E2,7E0,6E0,1E1,7.7E1,1.6E1,1.9E1,3.2E1,1.02E2,3.8E1,4E0,2E0,1.72E2,8E0,5E0,2E0,1E0,5E0,9E0,1E0,6.6E1,1.1E1,3E0,1.3E1,3E0,1.6E1,9E0,2.3E1,4E1,6.2E1,2E1,1.8E1,1E0,1E0,1.68E2,4E0,5E0,3E0,4E0,1E0,2E0,7E0,6.3E1,3E0,5E0,6E0,6E0,7E0,2E0,1E0,5E0,1.1E1,3E0,6E0,2E1,3E0,3E1,1E1,1.8E1,4.4E1,1.8E1,2E0,2E0,1.6E1],"tree_param":{"num_deleted":"0","num_feature":"6","num_nodes":"77","size_leaf_vector":"0"}},{"base_weights":[5.0817966E-1,9.300692E-1,4.0721527E-1,2.2457647E0,6.553042E-1,-7.206816E-1,5.034026E-1,1.0071723E0,3.694359E0,4.606977E-1,2.978668E0,6.749013E-1,-1.4838394E0,2.2074075E0,4.1533622E-1,1.4969249E0,-1.7003002E0,4.816563E0,1.6485653E0,2.8421004E0,3.2199898E-1,5.566042E0,-1.4640528E0,1.6768287E0,-1.0631628E0,-2.2882373E0,1.5478815E0,-8.79018E-1,3.1520302E0,-3.1589E0,4.5488495E-1,2.343743E0,-1.4753342E-1,6.33866E-1,2.3463316E0,5.973897E-1,3.3912075E0,-1.4888083E0,4.7935486E-1,-1.9616127E-2,7.4344664E0,-2.4169922E0,2.2091293E-1,-1.0491934E0,2.2161453E0,-3.0532193E-1,-2.0472631E0,-4.189053E0,-1.3811361E0,3.188258E0,-6.0845536E-1,-2.1740322E0,2.1505194E0,5.9087067E0,1.8630542E0,2.111147E0,4.2484894E-1,4.676342E-3,4.681251E0,9.4153214E-1,-8.243993E-1,-1.6690826E-1,-1.7198067E0,-3.5505837E-3,1.3447084E0,-1.9006228E0,8.59986E-1,-1.8690999E0,1.8405747E-1,-9.4683456E-1,3.4151554E-2,1.7370701E-1,-3.0145142E0,1.6449003E0,6.7816753E0,-4.830157E0,3.0153909E0,3.2616494E0,7.204833E-1,-2.4019973E0,4.649349E-1],"categories":[],"categories_nodes":[],"categories_segments":[],"categories_sizes":[],"default_left":[1,1,1,1,1,1,1,1,1,1,1,1,1,1,1,1,0,0,1,1,1,1,1,1,1,1,1,1,1,0,1,1,1,0,0,0,0,1,1,0,0,0,0,0,0,1,0,0,1,0,1,1,0,1,1,1,1,0,0,0,0,0,0,0,0,0,0,0,0,0,0,0,0,0,0,0,0,0,0,0,0],"id":10,"left_children":[1,3,5,7,9,11,13,15,17,19,21,23,25,27,29,31,-1,-1,33,35,37,39,41,43,45,47,49,51,53,-1,55,57,59,-1,-1,-1,-1,61,63,-1,-1,-1,-1,-1,-1,65,-1,-1,67,-1,69,71,-1,73,75,77,79,-1,-1,-1,-1,-1,-1,-1,-1,-1,-1,-1,-1,-1,-1,-1,-1,-1,-1,-1,-1,-1,-1,-1,-1],"loss_changes":[2.074878E1,3.287152E1,4.397551E1,2.4986626E1,3.4799072E1,3.5083042E1,5.4757477E1,1.5805139E1,8.130165E0,2.3857159E1,7.711885E1,2.2679712E1,5.475483E1,5.524984E1,5.1477154E1,1.2878794E1,0E0,0E0,1.3448324E0,2.9044724E0,2.1229433E1,4.1891357E1,5.3509555E0,1.4086674E1,3.1038828E0,2.3526299E1,1.962593E1,2.4291769E1,3.873781E1,0E0,1.6564453E1,3.2783627E1,3.7248037E0,0E0,0E0,0E0,0E0,1.5450907E0,2.8002998E1,0E0,0E0,0E0,0E0,0E0,0E0,9.070577E0,0E0,0E0,1.0272873E1,0E0,6.846703E-1,8.416573E0,0E0,3.73349E0,9.9405975E1,7.2498074E0,4.032436E1,0E0,0E0,0E0,0E0,0E0,0E0,0E0,0E0,0E0,0E0,0E0,0E0,0E0,0E0,0E0,0E0,0E0,0E0,0E0,0E0,0E0,0E0,0E0,0E0],"parents":[2147483647,0,0,1,1,2,2,3,3,4,4,5,5,6,6,7,7,8,8,9,9,10,10,11,11,12,12,13,13,14,14,15,15,18,18,19,19,20,20,21,21,22,22,23,23,24,24,25,25,26,26,27,27,28,28,30,30,31,31,32,32,37,37,38,38,45,45,48,48,50,50,51,51,53,53,54,54,55,55,56,56],"right_children":[2,4,6,8,10,12,14,16,18,20,22,24,26,28,30,32,-1,-1,34,36,38,40,42,44,46,48,50,52,54,-1,56,58,60,-1,-1,-1,-1,62,64,-1,-1,-1,-1,-1,-1,66,-1,-1,68,-1,70,72,-1,74,76,78,80,-1,-1,-1,-1,-1,-1,-1,-1,-1,-1,-1,-1,-1,-1,-1,-1,-1,-1,-1,-1,-1,-1,-1,-1],"split_conditions":[7.1E1,2.0175E3,8.9E1,3.45E1,6.6E1,2.5E0,1.025E2,1.5E0,4.75E1,6.5E0,4.5E0,8.2E1,5.5E0,5E-1,1.055E2,5E0,-5.100901E-1,1.4449689E0,4.5E0,2.5E0,1.3E1,5E-1,6.8E1,7.5E1,1E0,7.85E1,7.95E1,9.85E1,1.5E0,-9.4767004E-1,1.075E2,1.65E1,1.5E1,1.9015981E-1,7.038995E-1,1.7921692E-1,1.0173622E0,1E0,2.0195E3,-5.8848383E-3,2.23034E0,-7.2509766E-1,6.627388E-2,-3.1475803E-1,6.648436E-1,8.45E1,-6.1417896E-1,-1.256716E0,2.0195E3,9.564774E-1,8.45E1,9.15E1,6.4515585E-1,9.55E1,2.5E0,4E0,1.105E2,1.4029026E-3,1.4043753E0,2.8245965E-1,-2.473198E-1,-5.007248E-2,-5.1594204E-1,-1.0651752E-3,4.0341255E-1,-5.7018685E-1,2.579958E-1,-5.6073E-1,5.5217244E-2,-2.8405038E-1,1.0245467E-2,5.2112106E-2,-9.043543E-1,4.934701E-1,2.0345027E0,-1.4490471E0,9.046173E-1,9.784948E-1,2.16145E-1,-7.2059923E-1,1.3948047E-1],"split_indices":[3,4,3,3,3,0,3,2,3,3,0,3,0,0,3,0,0,0,0,0,3,0,3,3,0,3,3,3,0,0,3,3,3,0,0,0,0,0,4,0,0,0,0,0,0,3,0,0,4,0,3,3,0,3,0,0,3,0,0,0,0,0,0,0,0,0,0,0,0,0,0,0,0,0,0,0,0,0,0,0,0],"split_type":[0,0,0,0,0,0,0,0,0,0,0,0,0,0,0,0,0,0,0,0,0,0,0,0,0,0,0,0,0,0,0,0,0,0,0,0,0,0,0,0,0,0,0,0,0,0,0,0,0,0,0,0,0,0,0,0,0,0,0,0,0,0,0,0,0,0,0,0,0,0,0,0,0,0,0,0,0,0,0,0,0],"sum_hessian":[4.95E2,9.4E1,4.01E2,1.5E1,7.9E1,3.1E1,3.7E2,9E0,6E0,7.4E1,5E0,1.1E1,2E1,1.7E1,3.53E2,8E0,1E0,3E0,3E0,3E0,7.1E1,3E0,2E0,7E0,4E0,1.6E1,4E0,4E0,1.3E1,3E0,3.5E2,5E0,3E0,2E0,1E0,1E0,2E0,5E0,6.6E1,1E0,2E0,1E0,1E0,1E0,6E0,3E0,1E0,4E0,1.2E1,2E0,2E0,3E0,1E0,3E0,1E1,5E0,3.45E2,3E0,2E0,1E0,2E0,1E0,4E0,4.3E1,2.3E1,1E0,2E0,9E0,3E0,1E0,1E0,1E0,2E0,1E0,2E0,1E0,9E0,2E0,3E0,4E0,3.41E2],"tree_param":{"num_deleted":"0","num_feature":"6","num_nodes":"81","size_leaf_vector":"0"}},{"base_weights":[3.671266E-1,3.9692235E-1,-7.704318E-1,3.496352E-1,4.8571014E0,-2.5282867E0,1.0974848E0,3.6675423E-1,-3.9251876E0,8.0376005E-1,5.669497E0,-7.4268055E-1,-3.6818213E0,2.8589149E0,-2.2040603E0,3.3975893E-1,2.4382575E0,1.7678738E-1,-1.108099E0,-4.3917537E0,-7.760124E-1,-2.8135614E0,-4.9252892E-1,3.8388908E-1,-1.137652E0,5.6942735E0,-2.7158499E0,3.0572742E-1,1.1365832E0,-2.5969875E0,2.0085495E0],"categories":[],"categories_nodes":[],"categories_segments":[],"categories_sizes":[],"default_left":[1,1,1,1,1,1,1,1,0,0,0,1,1,0,1,1,1,0,0,0,0,0,0,1,1,0,0,0,0,0,0],"id":11,"left_children":[1,3,5,7,9,11,13,15,-1,-1,-1,17,19,-1,21,23,25,-1,-1,-1,-1,-1,-1,27,29,-1,-1,-1,-1,-1,-1],"loss_changes":[1.7117416E1,1.0038176E2,4.54606E1,3.6566353E1,1.1907661E1,1.1683891E1,4.7009308E1,2.5957672E1,0E0,0E0,0E0,1.53986E0,4.8436584E0,0E0,1.743783E0,3.1340748E1,1.1615593E2,0E0,0E0,0E0,0E0,0E0,0E0,2.677398E1,6.949527E1,0E0,0E0,0E0,0E0,0E0,0E0],"parents":[2147483647,0,0,1,1,2,2,3,3,4,4,5,5,6,6,7,7,11,11,12,12,14,14,15,15,16,16,23,23,24,24],"right_children":[2,4,6,8,10,12,14,16,-1,-1,-1,18,20,-1,22,24,26,-1,-1,-1,-1,-1,-1,28,30,-1,-1,-1,-1,-1,-1],"split_conditions":[3.59E2,3.555E2,3.5E0,3.535E2,5E-1,2.5E0,5.5E0,3.495E2,-1.1775563E0,2.4112803E-1,1.7008492E0,3.605E2,3.635E2,8.576745E-1,3.635E2,3.4E2,2.019E3,5.3036217E-2,-3.324297E-1,-1.3175261E0,-2.3280373E-1,-8.4406847E-1,-1.4775868E-1,3.08E2,2.0195E3,1.7082821E0,-8.14755E-1,9.171823E-2,3.40975E-1,-7.790963E-1,6.025649E-1],"split_indices":[3,3,0,3,0,0,0,3,0,0,0,3,3,0,3,3,4,0,0,0,0,0,0,3,4,0,0,0,0,0,0],"split_type":[0,0,0,0,0,0,0,0,0,0,0,0,0,0,0,0,0,0,0,0,0,0,0,0,0,0,0,0,0,0,0],"sum_hessian":[4.95E2,4.83E2,1.2E1,4.79E2,4E0,6E0,6E0,4.78E2,1E0,1E0,3E0,3E0,3E0,4E0,2E0,4.73E2,5E0,1E0,2E0,2E0,1E0,1E0,1E0,4.6E2,1.3E1,3E0,2E0,4.18E2,4.2E1,9E0,4E0],"tree_param":{"num_deleted":"0","num_feature":"6","num_nodes":"31","size_leaf_vector":"0"}},{"base_weights":[2.5688794E-1,7.0767146E-1,1.7616367E-1,3.067399E-1,1.6596093E0,3.8359714E-1,-3.9097663E-2,4.514289E-1,-1.6147299E0,7.242426E-1,4.033213E0,2.8327405E-2,8.154889E-1,-1.3895303E0,1.5298073E-1,7.064169E-1,-8.170059E-1,-2.9423854E0,1.1841183E0,-4.671969E-2,3.24155E0,5.5511684E0,1.8864436E0,3.9564696E-1,-2.544798E0,2.0955498E0,1.8249734E-1,-2.2870424E0,2.8374283E0,8.3941E-1,-2.2324519E-1,1.9514188E-1,2.010949E0,-1.7525302E0,3.3335943E0,1.0889385E0,-2.3086922E0,1.6137849E0,-6.827056E-2,-4.5666833E0,-1.394414E0,7.2163117E-1,3.604549E0,-1.6164099E0,6.9790334E-1,-3.309685E-1,-3.889523E0,4.760832E0,-3.1784695E-2,-1.1875952E0,1.8338351E0,5.032789E-2,-1.7610902E0,6.4835316E-1,-1.2455361E0,2.7311938E0,-2.955873E0,1.7641081E0,-3.218761E0,2.2441561E0,-2.3546212E0,4.4594637E-1,-4.2937665E0,2.0065289E0,-6.726915E-1,-3.7686828E-1,3.6462805E0,3.9861937E0,-2.331094E0,-6.3354975E-1,2.9417083E0,4.8922577E0,5.068016E-2,2.8147078E-1,-3.3122394E0,3.8729246E0,2.7773246E-1,-1.3765482E0,1.1990368E0,-2.1812634E0,-4.470995E0,-7.308731E-1,6.8319607E-1,-1.7329362E-1,-5.708629E0,5.276664E0,9.221881E-1,-1.12857066E-1,3.2386875E0,-2.772767E0,-8.6522603E-1],"categories":[],"categories_nodes":[],"categories_segments":[],"categories_sizes":[],"default_left":[1,1,1,1,1,1,1,1,1,1,1,1,1,1,1,1,1,0,0,1,0,0,0,1,1,1,1,1,1,1,1,1,1,1,0,1,1,1,1,0,1,1,1,1,1,1,1,0,1,1,1,1,1,0,0,0,0,0,0,0,0,0,0,0,0,0,0,0,0,0,0,0,0,0,0,0,0,0,0,0,0,0,0,0,0,0,0,0,0,0,0],"id":12,"left_children":[1,3,5,7,9,11,13,15,17,19,21,23,25,27,29,31,33,-1,-1,35,-1,-1,-1,37,39,41,43,45,47,49,51,53,55,57,-1,59,61,63,65,-1,67,69,71,73,75,77,79,-1,81,83,85,87,89,-1,-1,-1,-1,-1,-1,-1,-1,-1,-1,-1,-1,-1,-1,-1,-1,-1,-1,-1,-1,-1,-1,-1,-1,-1,-1,-1,-1,-1,-1,-1,-1,-1,-1,-1,-1,-1,-1],"loss_changes":[1.7924366E1,2.8115578E1,1.8858313E1,1.57417755E1,4.5923157E1,3.296608E1,5.4165474E1,1.7072365E1,1.8347755E1,3.314418E1,9.080231E0,1.1348079E2,7.821355E1,1.0512672E2,4.74476E1,2.828749E1,4.0789112E1,0E0,0E0,3.847761E1,0E0,0E0,0E0,5.9447304E1,2.8521317E1,6.37426E1,6.2321163E1,6.7673225E1,2.774459E1,1.3319867E2,5.0153477E1,2.1701355E1,5.1001003E1,4.6927864E1,0E0,4.5064743E1,2.92556E1,2.739177E1,8.963941E1,0E0,6.4731186E1,5.601863E1,6.839728E1,4.9209522E1,6.829503E1,1.92477E1,2.1672516E0,0E0,1.9988341E0,9.9895966E1,1.3323427E2,5.343533E1,1.3914776E1,0E0,0E0,0E0,0E0,0E0,0E0,0E0,0E0,0E0,0E0,0E0,0E0,0E0,0E0,0E0,0E0,0E0,0E0,0E0,0E0,0E0,0E0,0E0,0E0,0E0,0E0,0E0,0E0,0E0,0E0,0E0,0E0,0E0,0E0,0E0,0E0,0E0,0E0],"parents":[2147483647,0,0,1,1,2,2,3,3,4,4,5,5,6,6,7,7,8,8,9,9,10,10,11,11,12,12,13,13,14,14,15,15,16,16,19,19,23,23,24,24,25,25,26,26,27,27,28,28,29,29,30,30,31,31,32,32,33,33,35,35,36,36,37,37,38,38,40,40,41,41,42,42,43,43,44,44,45,45,46,46,48,48,49,49,50,50,51,51,52,52],"right_children":[2,4,6,8,10,12,14,16,18,20,22,24,26,28,30,32,34,-1,-1,36,-1,-1,-1,38,40,42,44,46,48,50,52,54,56,58,-1,60,62,64,66,-1,68,70,72,74,76,78,80,-1,82,84,86,88,90,-1,-1,-1,-1,-1,-1,-1,-1,-1,-1,-1,-1,-1,-1,-1,-1,-1,-1,-1,-1,-1,-1,-1,-1,-1,-1,-1,-1,-1,-1,-1,-1,-1,-1,-1,-1,-1,-1],"split_conditions":[5.35E1,4.15E1,2.0185E3,3.85E1,5.5E0,2.275E2,5E-1,5.5E0,5.5E0,5.25E1,4.85E1,2.04E2,3.5E0,2.83E2,2.5E0,3.5E0,3.5E1,-8.8271564E-1,3.552355E-1,4.75E1,9.7246504E-1,1.6653506E0,5.659331E-1,1.5E0,2.075E2,2.0175E3,2.935E2,2.5E0,2.935E2,1.555E2,3.165E2,2.5E0,3.35E1,2E1,1.0000783E0,3.5E0,2.0175E3,2.5E0,1.965E2,-1.370005E0,2.09E2,2.565E2,2.56E2,2.5E0,2.995E2,1.12E2,7.5E0,1.4282496E0,1.1E1,5.5E0,2.045E2,3.08E2,1.15E1,1.9450596E-1,-3.7366083E-1,8.1935817E-1,-8.8676196E-1,5.2923244E-1,-9.656283E-1,6.7324686E-1,-7.063864E-1,1.3378392E-1,-1.28813E0,6.019587E-1,-2.0180747E-1,-1.1306049E-1,1.0938842E0,1.1958581E0,-6.9932824E-1,-1.9006494E-1,8.825125E-1,1.4676774E0,1.5204049E-2,8.444124E-2,-9.9367183E-1,1.1618774E0,8.331974E-2,-4.1296446E-1,3.5971105E-1,-6.5437907E-1,-1.3412986E0,-2.1926194E-1,2.0495883E-1,-5.1988088E-2,-1.7125888E0,1.5829992E0,2.7665645E-1,-3.3857122E-2,9.716063E-1,-8.3183014E-1,-2.5956783E-1],"split_indices":[3,3,4,3,0,3,0,0,0,3,3,3,1,3,0,0,3,0,0,3,0,0,0,0,3,4,3,1,3,3,3,0,3,3,0,0,4,1,3,0,3,3,3,0,3,3,2,0,2,2,3,3,2,0,0,0,0,0,0,0,0,0,0,0,0,0,0,0,0,0,0,0,0,0,0,0,0,0,0,0,0,0,0,0,0,0,0,0,0,0,0],"split_type":[0,0,0,0,0,0,0,0,0,0,0,0,0,0,0,0,0,0,0,0,0,0,0,0,0,0,0,0,0,0,0,0,0,0,0,0,0,0,0,0,0,0,0,0,0,0,0,0,0,0,0,0,0,0,0,0,0,0,0,0,0,0,0,0,0,0,0,0,0,0,0,0,0,0,0,0,0,0,0,0,0,0,0,0,0,0,0,0,0,0,0],"sum_hessian":[4.95E2,7.4E1,4.21E2,5.3E1,2.1E1,2.14E2,2.07E2,5E1,3E0,1.6E1,5E0,1.18E2,9.6E1,2.5E1,1.82E2,4.2E1,8E0,2E0,1E0,1.3E1,3E0,2E0,3E0,1.04E2,1.4E1,3.1E1,6.5E1,2.1E1,4E0,6.4E1,1.18E2,3.1E1,1.1E1,7E0,1E0,9E0,4E0,2.8E1,7.6E1,4E0,1E1,1.7E1,1.4E1,1.4E1,5.1E1,1E1,1.1E1,2E0,2E0,2.1E1,4.3E1,1.01E2,1.7E1,2.4E1,7E0,1E1,1E0,2E0,5E0,7E0,2E0,2E0,2E0,2.4E1,4E0,7.1E1,5E0,1E0,9E0,1.1E1,6E0,1E1,4E0,7E0,7E0,5E0,4.6E1,6E0,4E0,4E0,7E0,1E0,1E0,1.8E1,3E0,8E0,3.5E1,9.7E1,4E0,7E0,1E1],"tree_param":{"num_deleted":"0","num_feature":"6","num_nodes":"91","size_leaf_vector":"0"}},{"base_weights":[1.8815053E-1,6.4280435E-2,4.7619513E-1,9.991408E-2,-1.2890217E0,3.8931555E-1,1.6448896E0,4.723377E-2,3.620048E0,-2.004639E0,8.1042546E-1,6.900612E-1,-2.204591E-1,2.4026914E0,-9.2485905E-2,1.0716956E-1,-1.450184E0,4.765944E0,1.267469E0,-6.522145E-1,-2.8559034E0,3.998404E-1,3.7599547E0,-4.823749E0,9.132599E-2,1.2553363E0,2.9493737E0,2.5370808E0,-1.8147017E0,5.0729316E-2,4.609707E0,-3.0878997E0,-3.7921035E-1,1.086092E-1,-9.420255E-1,-3.4546535E0,-5.2982664E-1,7.990822E-1,-8.92971E-1,5.4714155E0,-1.5529913E-1,1.9347544E0,3.8394547E-1,-2.261743E0,-4.603095E-1,4.8499927E-1,-6.357192E-2,5.3355193E0,1.2161345E0,1.8893003E0,-1.2972564E0,5.464079E-1,4.6421003E0,-3.3359914E0,5.6682426E-1,-2.3128004E0,1.18271016E-1],"categories":[],"categories_nodes":[],"categories_segments":[],"categories_sizes":[],"default_left":[1,1,1,1,1,1,1,1,1,1,0,1,1,1,1,1,1,0,0,1,1,1,0,0,1,1,0,0,1,1,1,0,1,0,0,0,0,1,1,0,1,0,0,0,0,0,0,0,0,0,0,0,0,0,0,0,0],"id":13,"left_children":[1,3,5,7,9,11,13,15,17,19,-1,21,23,25,27,29,31,-1,-1,33,35,37,-1,-1,39,41,-1,-1,43,45,47,-1,49,-1,-1,-1,-1,51,53,-1,55,-1,-1,-1,-1,-1,-1,-1,-1,-1,-1,-1,-1,-1,-1,-1,-1],"loss_changes":[1.7666725E1,1.6910425E1,1.4488434E1,6.28792E1,1.5146212E1,2.5826324E1,1.3388079E1,3.031105E1,7.4383698E0,6.1962337E0,0E0,8.2245636E1,6.789669E1,6.8821716E-1,2.2718771E1,8.2102425E1,2.163039E1,0E0,0E0,9.842931E-1,3.7405853E0,4.5618114E1,0E0,0E0,6.055864E1,1.6253142E0,0E0,0E0,7.753067E-1,1.59644985E1,3.363678E0,0E0,2.119428E1,0E0,0E0,0E0,0E0,6.252265E1,7.678342E1,0E0,2.6243567E1,0E0,0E0,0E0,0E0,0E0,0E0,0E0,0E0,0E0,0E0,0E0,0E0,0E0,0E0,0E0,0E0],"parents":[2147483647,0,0,1,1,2,2,3,3,4,4,5,5,6,6,7,7,8,8,9,9,11,11,12,12,13,13,14,14,15,15,16,16,19,19,20,20,21,21,24,24,25,25,28,28,29,29,30,30,32,32,37,37,38,38,40,40],"right_children":[2,4,6,8,10,12,14,16,18,20,-1,22,24,26,28,30,32,-1,-1,34,36,38,-1,-1,40,42,-1,-1,44,46,48,-1,50,-1,-1,-1,-1,52,54,-1,56,-1,-1,-1,-1,-1,-1,-1,-1,-1,-1,-1,-1,-1,-1,-1,-1],"split_conditions":[4.5E0,3.59E2,3.45E2,3.555E2,3.5E0,2.085E2,3.625E2,3.415E2,2.0195E3,2.5E0,2.4312764E-1,1.965E2,2.145E2,3.495E2,5.5E0,1.15E1,2.0175E3,1.4297832E0,3.8024074E-1,3.605E2,3.635E2,5.5E0,1.1279864E0,-1.4471247E0,2.155E2,3.48E2,8.848122E-1,7.6112425E-1,3.635E2,2.0175E3,2E0,-9.2636997E-1,2.0185E3,3.258276E-2,-2.8260764E-1,-1.0363961E0,-1.58948E-1,1.405E2,1.655E2,1.6414248E0,2.25E2,5.8042634E-1,1.15183644E-1,-6.7852294E-1,-1.3809286E-1,1.4549978E-1,-1.9071577E-2,1.6006559E0,3.648404E-1,5.667901E-1,-3.8917693E-1,1.6392237E-1,1.3926301E0,-1.0007975E0,1.7004728E-1,-6.9384015E-1,3.5481308E-2],"split_indices":[0,3,3,3,0,3,3,3,4,0,0,3,3,3,0,2,4,0,0,3,3,2,0,0,3,3,0,0,3,4,0,0,4,0,0,0,0,3,3,0,3,0,0,0,0,0,0,0,0,0,0,0,0,0,0,0,0],"split_type":[0,0,0,0,0,0,0,0,0,0,0,0,0,0,0,0,0,0,0,0,0,0,0,0,0,0,0,0,0,0,0,0,0,0,0,0,0,0,0,0,0,0,0,0,0,0,0,0,0,0,0,0,0,0,0,0,0],"sum_hessian":[4.95E2,3.47E2,1.48E2,3.39E2,8E0,1.39E2,9E0,3.35E2,4E0,6E0,2E0,9.3E1,4.6E1,6E0,3E0,3.23E2,1.2E1,2E0,2E0,3E0,3E0,8.6E1,7E0,2E0,4.4E1,3E0,3E0,1E0,2E0,3.2E2,3E0,4E0,8E0,1E0,2E0,2E0,1E0,6.6E1,2E1,1E0,4.3E1,1E0,2E0,1E0,1E0,6.6E1,2.54E2,2E0,1E0,2E0,6E0,6.3E1,3E0,7E0,1.3E1,4E0,3.9E1],"tree_param":{"num_deleted":"0","num_feature":"6","num_nodes":"57","size_leaf_vector":"0"}},{"base_weights":[1.4151499E-1,-2.4264437E-1,1.9493748E-1,4.8983636E-1,-1.015869E0,3.0618557E-1,-1.2576441E-1,-2.159535E0,1.0604434E0,-2.1791844E0,1.1916015E0,2.2760224E-1,3.0313125E0,-1.1447718E0,4.2674989E-1,6.583754E-2,-3.2886806E0,6.2089527E-1,3.4326215E0,-3.839922E-2,-2.8902194E0,3.82138E0,1.826085E-1,2.6714796E-1,-3.987383E0,-1.0098978E0,4.330215E0,-2.5848404E-1,-3.45785E0,2.4341724E0,-1.0443426E-3,3.7420464E-1,-2.7544832E-1,2.887216E0,2.3270298E-2,-1.5880591E0,1.1334455E0,-1.6689968E0,-3.333931E0,-4.2020935E-1,1.528314E0,1.433987E-1,1.0232593E0,-2.2313452E0,7.164984E-1,6.0726585E0,1.5052176E0,-1.2225416E0,3.0837824E0,-4.5399704E0,-4.291463E-1,2.8683817E-1,3.0496888E0,-1.5472527E0,3.6278987E-1,-1.6059732E-1,3.689319E0,-1.0119896E0,1.1597292E0,-1.9410443E0,-4.4104433E-1,1.7880325E0,3.19239E-1,-2.1475058E0,3.6177397E-1,-4.155383E0,-1.6814024E0,9.9968815E-1,-1.7350545E0,1.9018745E0,3.905964E-1,9.5386773E-1,-9.411635E-3,2.0432441E0,1.6634113E-1,-1.4718374E0,5.218191E0,-1.715206E-1,-3.7505183E0,4.4431663E0,-2.0978482E-1,-1.0119553E0,-5.5473166E0,2.1292496E0,-1.9916948E0,-2.0721924E0,3.6819649E0,4.1930737E0,1.5885868E0,-3.6152595E-1,-3.8283248E0,3.1304128E0,-6.0911803E-3],"categories":[],"categories_nodes":[],"categories_segments":[],"categories_sizes":[],"default_left":[1,1,1,1,1,1,1,1,1,1,1,1,1,1,1,1,0,1,0,1,1,0,1,1,0,1,1,1,1,1,1,0,0,1,1,1,1,1,1,1,1,1,1,0,0,0,1,1,1,1,1,1,1,1,1,0,0,0,0,0,0,0,0,0,0,0,0,0,0,0,0,0,0,0,0,0,0,0,0,0,0,0,0,0,0,0,0,0,0,0,0,0,0],"id":14,"left_children":[1,3,5,7,9,11,13,15,17,19,21,23,25,27,29,31,-1,33,-1,35,37,-1,39,41,-1,43,45,47,49,51,53,-1,-1,55,57,59,61,63,65,67,69,71,73,-1,-1,-1,75,77,79,81,83,85,87,89,91,-1,-1,-1,-1,-1,-1,-1,-1,-1,-1,-1,-1,-1,-1,-1,-1,-1,-1,-1,-1,-1,-1,-1,-1,-1,-1,-1,-1,-1,-1,-1,-1,-1,-1,-1,-1,-1,-1],"loss_changes":[1.0226584E1,3.504631E1,1.55938835E1,5.066606E1,7.9636246E1,6.8694496E1,6.410936E1,1.5293137E1,2.6021236E1,3.0332489E1,2.8489893E1,5.3737553E1,5.1615326E1,8.1108315E1,6.3551064E1,4.1879803E-1,0E0,3.2438656E1,0E0,1.2695743E1,2.5637436E0,0E0,7.9431496E0,2.9233683E1,0E0,7.924862E0,2.5316116E1,1.0043418E2,3.4103348E1,1.6307587E1,3.544026E1,0E0,0E0,1.2815788E1,2.470424E1,3.5855055E-1,1.5610662E0,6.6073627E0,6.5878525E0,1.480313E1,5.321536E-1,3.35718E1,3.811804E1,0E0,0E0,0E0,5.1895233E1,6.312367E1,3.227266E1,2.2817825E1,2.0231287E1,3.966657E1,1.0044952E1,3.1072697E1,5.2086174E1,0E0,0E0,0E0,0E0,0E0,0E0,0E0,0E0,0E0,0E0,0E0,0E0,0E0,0E0,0E0,0E0,0E0,0E0,0E0,0E0,0E0,0E0,0E0,0E0,0E0,0E0,0E0,0E0,0E0,0E0,0E0,0E0,0E0,0E0,0E0,0E0,0E0,0E0],"parents":[2147483647,0,0,1,1,2,2,3,3,4,4,5,5,6,6,7,7,8,8,9,9,10,10,11,11,12,12,13,13,14,14,15,15,17,17,19,19,20,20,22,22,23,23,25,25,26,26,27,27,28,28,29,29,30,30,33,33,34,34,35,35,36,36,37,37,38,38,39,39,40,40,41,41,42,42,46,46,47,47,48,48,49,49,50,50,51,51,52,52,53,53,54,54],"right_children":[2,4,6,8,10,12,14,16,18,20,22,24,26,28,30,32,-1,34,-1,36,38,-1,40,42,-1,44,46,48,50,52,54,-1,-1,56,58,60,62,64,66,68,70,72,74,-1,-1,-1,76,78,80,82,84,86,88,90,92,-1,-1,-1,-1,-1,-1,-1,-1,-1,-1,-1,-1,-1,-1,-1,-1,-1,-1,-1,-1,-1,-1,-1,-1,-1,-1,-1,-1,-1,-1,-1,-1,-1,-1,-1,-1,-1,-1],"split_conditions":[5E-1,1.645E2,3.5E0,1.5E0,2.835E2,2.625E2,3.08E2,1.35E1,5.5E0,2.0175E3,2.88E2,2.605E2,1.5E0,2.995E2,3.175E2,4E0,-9.866042E-1,2.5E0,1.0297865E0,2.295E2,7.5E0,1.146414E0,1.15E1,2.275E2,-1.1962149E0,2.71E2,3.5E0,2.925E2,1.05E1,2.0185E3,3.255E2,1.1226139E-1,-8.26345E-2,2.0185E3,1.055E2,7.5E0,2.365E2,1.915E2,2.625E2,2.975E2,3.47E2,1.5E0,3.5E0,-6.6940355E-1,2.1494952E-1,1.8217976E0,5E0,2.865E2,2.0195E3,2.0175E3,3.5E0,4.5E0,2.0195E3,2.0195E3,3.285E2,-4.8179198E-2,1.1067957E0,-3.0359688E-1,3.4791878E-1,-5.823133E-1,-1.3231331E-1,5.364098E-1,9.57717E-2,-6.4425176E-1,1.085322E-1,-1.2466149E0,-5.0442076E-1,2.9990646E-1,-5.205164E-1,5.7056236E-1,1.17178924E-1,2.8616032E-1,-2.8234906E-3,6.129733E-1,4.990234E-2,-4.4155124E-1,1.5654575E0,-5.1456183E-2,-1.1251556E0,1.3329499E0,-6.293545E-2,-3.035866E-1,-1.6641951E0,6.387749E-1,-5.975085E-1,-6.216577E-1,1.1045895E0,1.2579222E0,4.7657606E-1,-1.0845779E-1,-1.1484975E0,9.3912387E-1,-1.8273542E-3],"split_indices":[0,3,1,2,3,3,3,3,2,4,3,3,0,3,3,3,0,2,0,3,2,0,2,3,0,3,0,3,2,4,3,0,0,4,3,2,3,3,3,3,3,0,0,0,0,0,0,3,4,4,0,0,4,4,3,0,0,0,0,0,0,0,0,0,0,0,0,0,0,0,0,0,0,0,0,0,0,0,0,0,0,0,0,0,0,0,0,0,0,0,0,0,0],"split_type":[0,0,0,0,0,0,0,0,0,0,0,0,0,0,0,0,0,0,0,0,0,0,0,0,0,0,0,0,0,0,0,0,0,0,0,0,0,0,0,0,0,0,0,0,0,0,0,0,0,0,0,0,0,0,0,0,0,0,0,0,0,0,0,0,0,0,0,0,0,0,0,0,0,0,0,0,0,0,0,0,0,0,0,0,0,0,0,0,0,0,0,0,0],"sum_hessian":[4.95E2,6E1,4.35E2,3.1E1,2.9E1,3.23E2,1.12E2,5E0,2.6E1,1.9E1,1E1,3.15E2,8E0,3.9E1,7.3E1,2E0,3E0,2.3E1,3E0,5E0,1.4E1,2E0,8E0,3.13E2,2E0,2E0,6E0,2.9E1,1E1,1.2E1,6.1E1,1E0,1E0,4E0,1.9E1,2E0,3E0,5E0,9E0,6E0,2E0,2.7E2,4.3E1,1E0,1E0,3E0,3E0,2.3E1,6E0,7E0,3E0,3E0,9E0,1.1E1,5E1,1E0,3E0,1E1,9E0,1E0,1E0,1E0,2E0,4E0,1E0,5E0,4E0,3E0,3E0,1E0,1E0,4.2E1,2.28E2,1.9E1,2.4E1,2E0,1E0,1.7E1,6E0,4E0,2E0,2E0,5E0,1E0,2E0,2E0,1E0,4E0,5E0,8E0,3E0,5E0,4.5E1],"tree_param":{"num_deleted":"0","num_feature":"6","num_nodes":"93","size_leaf_vector":"0"}},{"base_weights":[1.04556434E-1,1.1317785E-3,3.454103E-1,5.7062244E-1,-5.8343932E-2,1.611764E-1,8.434182E-1,-8.810276E-1,1.1517007E0,-2.397449E0,-1.3028902E-2,1.1200683E0,-3.8607534E-2,1.3663558E0,1.935211E-1,2.124462E-2,-1.4860831E0,7.5179183E-1,2.9632974E0,2.9604116E-1,-3.8182044E0,1.9168917E0,-3.172383E-2,3.84583E-1,2.6495225E0,4.0955248E-1,-1.0776001E0,-2.1063285E-2,2.5242937E0,-3.9989128E0,9.219788E-1,3.1807375E-1,-1.324811E-1,2.4894561E-1,2.8266518E0,-5.647516E-1,4.3275642E0,-1.3650751E-1,5.8056927E-1,-4.4995646E0,-8.870621E-1,-1.7753792E-1,3.0528755E0,-1.6418786E-3,-1.0342731E0,-1.3460815E0,1.211457E0,3.828708E0,1.1027529E0,-1.6956993E0,6.5238655E-1,4.081178E-1,-2.5924695E0,7.511085E-1,-1.5601411E0,3.7521863E0,6.710364E-1,-4.823336E0,-1.1750331E0,2.47767E0,4.1163996E-1,-2.3413086E-1,-2.0554224E-2,-2.5487275E0,9.783954E-1,5.5506945E-1,3.3988228E0,-5.004276E-2,2.8736987E0,-1.6081622E0,6.49559E-1,1.7930651E0,-2.5791345E0,-8.223177E-1,2.7043598E0,1.910448E-1,5.552017E0,-2.5430107E0,3.1656778E0,1.3616003E0,-3.1909392E0,1.9150623E0,2.8925523E-1,-1.0357069E0,1.8009278E0,-3.9925084E0,-6.220719E-1,-6.786596E-1,2.3505416E0,-2.1639242E0,-6.37572E-1,-7.128588E-2,5.2958326E0,2.6472123E0,-4.6049213E0,3.5595207E0,-3.8394117E-1,-3.4990325E0,9.816173E-1],"categories":[],"categories_nodes":[],"categories_segments":[],"categories_sizes":[],"default_left":[1,1,1,1,1,1,1,1,1,1,1,1,1,1,1,1,0,1,1,1,1,1,1,1,1,1,1,1,1,1,1,0,1,1,1,0,0,0,0,0,0,0,0,1,1,1,1,1,1,1,1,1,1,1,1,1,1,0,0,1,1,0,0,0,0,0,0,0,0,0,0,0,0,0,0,0,0,0,0,0,0,0,0,0,0,0,0,0,0,0,0,0,0,0,0,0,0,0,0],"id":15,"left_children":[1,3,5,7,9,11,13,15,17,19,21,23,25,27,29,31,-1,33,35,37,39,41,43,45,47,49,51,53,55,57,59,-1,61,63,65,-1,-1,-1,-1,-1,-1,-1,-1,67,69,71,73,75,77,79,81,83,85,87,89,91,93,-1,-1,95,97,-1,-1,-1,-1,-1,-1,-1,-1,-1,-1,-1,-1,-1,-1,-1,-1,-1,-1,-1,-1,-1,-1,-1,-1,-1,-1,-1,-1,-1,-1,-1,-1,-1,-1,-1,-1,-1,-1],"loss_changes":[1.2355082E1,1.18203535E1,1.3534798E1,2.8850916E1,3.346369E1,2.1116077E1,1.3329809E1,5.49082E0,1.515959E1,2.4091091E1,1.1281608E1,2.0353968E1,4.3279747E1,3.5397163E1,6.1713116E1,2.7029014E-1,0E0,2.1206364E1,2.16968E1,4.4846877E-1,3.9972572E0,7.679716E0,9.317323E0,2.16653E1,6.721451E0,3.4336E1,6.407675E1,1.4244594E1,2.4789352E1,1.316639E0,1.2476895E1,0E0,4.069698E-2,3.922738E1,3.3123474E0,0E0,0E0,0E0,0E0,0E0,0E0,0E0,0E0,4.203368E1,9.741592E0,2.3978226E1,3.2586117E1,1.7745773E1,3.8134094E1,3.634456E1,2.6498566E1,3.2029835E1,3.6137245E1,1.9889767E1,8.484688E-1,4.1692146E1,7.474753E1,0E0,0E0,1.3749992E1,3.4640633E1,0E0,0E0,0E0,0E0,0E0,0E0,0E0,0E0,0E0,0E0,0E0,0E0,0E0,0E0,0E0,0E0,0E0,0E0,0E0,0E0,0E0,0E0,0E0,0E0,0E0,0E0,0E0,0E0,0E0,0E0,0E0,0E0,0E0,0E0,0E0,0E0,0E0,0E0],"parents":[2147483647,0,0,1,1,2,2,3,3,4,4,5,5,6,6,7,7,8,8,9,9,10,10,11,11,12,12,13,13,14,14,15,15,17,17,18,18,19,19,20,20,21,21,22,22,23,23,24,24,25,25,26,26,27,27,28,28,29,29,30,30,32,32,33,33,34,34,43,43,44,44,45,45,46,46,47,47,48,48,49,49,50,50,51,51,52,52,53,53,54,54,55,55,56,56,59,59,60,60],"right_children":[2,4,6,8,10,12,14,16,18,20,22,24,26,28,30,32,-1,34,36,38,40,42,44,46,48,50,52,54,56,58,60,-1,62,64,66,-1,-1,-1,-1,-1,-1,-1,-1,68,70,72,74,76,78,80,82,84,86,88,90,92,94,-1,-1,96,98,-1,-1,-1,-1,-1,-1,-1,-1,-1,-1,-1,-1,-1,-1,-1,-1,-1,-1,-1,-1,-1,-1,-1,-1,-1,-1,-1,-1,-1,-1,-1,-1,-1,-1,-1,-1,-1,-1],"split_conditions":[4.5E0,3.55E1,2.0195E3,1.45E1,4.15E1,5.15E1,2.5E0,7.5E0,3.5E0,2.0185E3,4.45E1,2.0185E3,2.0185E3,7.1E1,1.935E2,2.5E0,-4.4582495E-1,3.35E1,1.85E1,5E-1,2.0195E3,2.5E0,3.59E2,5.5E0,5.5E0,8.45E1,5.5E0,2.5E0,5.5E0,1.895E2,7.5E0,9.542213E-2,1E0,5E-1,2.0195E3,-1.6942549E-1,1.2982693E0,-4.0952254E-2,1.7417079E-1,-1.3498695E0,-2.6611865E-1,-5.3261377E-2,9.158627E-1,3.555E2,3.5E0,1.5E0,1.5E0,1.5E0,3.75E1,7.3E1,1.115E2,2.5E0,3.5E0,4.3E1,5.5E0,4.5E0,5.5E0,-1.4470009E0,-3.5250995E-1,5.5E0,2.145E2,-7.023926E-2,-6.1662677E-3,-7.646183E-1,2.9351863E-1,1.6652083E-1,1.0196469E0,-1.5012829E-2,8.6210966E-1,-4.8244867E-1,1.9486772E-1,5.379195E-1,-7.7374035E-1,-2.4669532E-1,8.1130797E-1,5.7313446E-2,1.6656052E0,-7.629033E-1,9.497034E-1,4.084801E-1,-9.5728177E-1,5.7451874E-1,8.677657E-2,-3.1071207E-1,5.402784E-1,-1.1977526E0,-1.8662158E-1,-2.0359789E-1,7.051625E-1,-6.491773E-1,-1.912716E-1,-2.1385765E-2,1.5887499E0,7.941637E-1,-1.3814764E0,1.0678563E0,-1.15182355E-1,-1.0497098E0,2.9448518E-1],"split_indices":[0,3,4,3,3,3,1,3,0,4,3,4,4,3,3,3,0,3,3,0,4,0,3,0,0,3,0,2,0,3,2,0,0,0,4,0,0,0,0,0,0,0,0,3,0,2,2,2,3,3,3,1,1,3,0,2,2,0,0,0,3,0,0,0,0,0,0,0,0,0,0,0,0,0,0,0,0,0,0,0,0,0,0,0,0,0,0,0,0,0,0,0,0,0,0,0,0,0,0],"split_type":[0,0,0,0,0,0,0,0,0,0,0,0,0,0,0,0,0,0,0,0,0,0,0,0,0,0,0,0,0,0,0,0,0,0,0,0,0,0,0,0,0,0,0,0,0,0,0,0,0,0,0,0,0,0,0,0,0,0,0,0,0,0,0,0,0,0,0,0,0,0,0,0,0,0,0,0,0,0,0,0,0,0,0,0,0,0,0,0,0,0,0,0,0,0,0,0,0,0,0],"sum_hessian":[4.95E2,3.47E2,1.48E2,3.2E1,3.15E2,1.09E2,3.9E1,9E0,2.3E1,5E0,3.1E2,1.8E1,9.1E1,2.1E1,1.8E1,4E0,5E0,2E1,3E0,2E0,3E0,2E0,3.08E2,1.3E1,5E0,6.4E1,2.7E1,1E1,1.1E1,2E0,1.6E1,1E0,3E0,1.7E1,3E0,1E0,2E0,1E0,1E0,2E0,1E0,1E0,1E0,3E2,8E0,4E0,9E0,2E0,3E0,6E0,5.8E1,1.4E1,1.3E1,7E0,3E0,6E0,5E0,1E0,1E0,3E0,1.3E1,1E0,2E0,3E0,1.4E1,1E0,2E0,2.96E2,4E0,6E0,2E0,1E0,3E0,4E0,5E0,1E0,1E0,1E0,2E0,2E0,4E0,1.2E1,4.6E1,7E0,7E0,7E0,6E0,4E0,3E0,1E0,2E0,2E0,4E0,4E0,1E0,2E0,1E0,1E0,1.2E1],"tree_param":{"num_deleted":"0","num_feature":"6","num_nodes":"99","size_leaf_vector":"0"}},{"base_weights":[7.639862E-2,3.4298456E-1,1.3209408E-2,2.031039E-1,2.3840306E0,-6.293626E-1,7.238079E-2,1.2151598E0,-1.5509402E-2,4.538884E0,-1.2837849E0,-8.525194E-1,8.3545077E-1,1.543015E0,5.706977E-3,4.3936157E-1,2.1498487E0,1.5502362E0,-1.02279864E-1,3.1278896E-1,5.84332E0,-1.8393354E0,-8.634186E-2,1.7647083E-1,-1.4575385E0,1.8751882E0,-4.827703E-1,-5.684721E-1,2.2942166E0,-2.439047E0,3.3551164E-2,8.264866E-1,-1.5223818E0,4.842669E-1,2.719228E0,2.7036285E-1,1.8867397E0,-4.4375204E-2,-2.1067553E0,8.655596E-1,-9.6136534E-1,-3.0169067E0,-8.4057987E-1,-1.4944189E0,1.5676575E0,4.2222605E0,1.1823955E0,-7.080202E-1,-2.7800493E0,9.344271E-1,1.6568619E-3,-7.473068E-2,1.5624065E0,3.3651626E0,1.1668841E0,-6.0176885E-1,1.1567253E-1,-8.62689E-1,1.2356936E0,-3.050394E-1,-1.7933345E0,-1.2307801E0,-3.7973976E0,5.617399E-1,-1.0995321E0,4.771142E-1,-2.3106346E0,9.2528915E-1,5.012821E0,-4.1070447E0,2.356956E0,-2.6504707E-1,4.6211987E0,-4.4176993E0,4.0877018E-2],"categories":[],"categories_nodes":[],"categories_segments":[],"categories_sizes":[],"default_left":[1,1,1,1,1,1,1,1,1,1,1,1,1,1,1,1,1,1,1,0,0,0,0,1,1,0,0,1,1,1,1,1,0,0,1,0,0,1,0,1,1,1,1,1,0,1,1,0,0,1,1,0,0,0,0,0,0,0,0,0,0,0,0,0,0,0,0,0,0,0,0,0,0,0,0],"id":16,"left_children":[1,3,5,7,9,11,13,15,17,19,21,23,25,27,29,31,33,35,37,-1,-1,-1,-1,39,41,-1,-1,43,45,47,49,51,-1,-1,53,-1,-1,55,-1,57,59,61,63,65,-1,67,69,-1,-1,71,73,-1,-1,-1,-1,-1,-1,-1,-1,-1,-1,-1,-1,-1,-1,-1,-1,-1,-1,-1,-1,-1,-1,-1,-1],"loss_changes":[8.350765E0,2.6638569E1,1.5330345E1,1.9931244E1,5.324859E1,1.1826261E1,3.6172672E1,1.06575165E1,1.0348093E1,2.0222954E1,1.8369088E0,1.8933977E1,7.7583036E0,2.6682636E1,2.4179386E1,8.852628E0,5.3216057E0,1.2126236E0,8.263442E0,0E0,0E0,0E0,0E0,1.0240959E1,1.5743294E1,0E0,0E0,1.2232449E1,2.07313E1,3.928032E-1,1.0083668E1,6.085774E0,0E0,0E0,1.0868073E0,0E0,0E0,6.403489E0,0E0,6.1834865E0,2.183177E0,2.2965164E0,6.06466E0,7.5392227E0,0E0,5.787506E0,6.559504E1,0E0,0E0,5.429108E1,5.9112045E1,0E0,0E0,0E0,0E0,0E0,0E0,0E0,0E0,0E0,0E0,0E0,0E0,0E0,0E0,0E0,0E0,0E0,0E0,0E0,0E0,0E0,0E0,0E0,0E0],"parents":[2147483647,0,0,1,1,2,2,3,3,4,4,5,5,6,6,7,7,8,8,9,9,10,10,11,11,12,12,13,13,14,14,15,15,16,16,17,17,18,18,23,23,24,24,27,27,28,28,29,29,30,30,31,31,34,34,37,37,39,39,40,40,41,41,42,42,43,43,45,45,46,46,49,49,50,50],"right_children":[2,4,6,8,10,12,14,16,18,20,22,24,26,28,30,32,34,36,38,-1,-1,-1,-1,40,42,-1,-1,44,46,48,50,52,-1,-1,54,-1,-1,56,-1,58,60,62,64,66,-1,68,70,-1,-1,72,74,-1,-1,-1,-1,-1,-1,-1,-1,-1,-1,-1,-1,-1,-1,-1,-1,-1,-1,-1,-1,-1,-1,-1,-1],"split_conditions":[7.1E1,6.6E1,1.5E0,2.0175E3,4.5E0,5.5E0,1.025E2,3.45E1,6.5E0,5E-1,6.8E1,2.5E0,7.95E1,5E-1,1.055E2,1.5E0,2E0,2.5E0,6.45E1,9.3836695E-2,1.7529961E0,-5.5180067E-1,-2.5902558E-2,8.2E1,7.85E1,5.625565E-1,-1.4483109E-1,9.85E1,1.5E0,1.04E2,1.115E2,1.65E1,-4.5671454E-1,1.4528008E-1,4.75E1,8.110886E-2,5.660219E-1,2.25E1,-6.320266E-1,7.5E1,1E0,3.5E0,2.0175E3,9.15E1,4.7029725E-1,9.55E1,2.5E0,-2.1240607E-1,-8.3401483E-1,1.105E2,1.135E2,-2.2419205E-2,4.68722E-1,1.0095488E0,3.5006523E-1,-1.8053067E-1,3.470176E-2,-2.588067E-1,3.7070808E-1,-9.151182E-2,-5.3800035E-1,-3.6923406E-1,-1.1392193E0,1.6852199E-1,-3.2985964E-1,1.4313427E-1,-6.931904E-1,2.7758676E-1,1.5038464E0,-1.2321135E0,7.070868E-1,-7.951412E-2,1.3863597E0,-1.3253099E0,1.2263106E-2],"split_indices":[3,3,1,4,0,0,3,3,3,0,3,0,3,0,3,2,0,0,3,0,0,0,0,3,3,0,0,3,0,3,3,3,0,0,3,0,0,3,0,3,0,0,4,3,0,3,0,0,0,3,3,0,0,0,0,0,0,0,0,0,0,0,0,0,0,0,0,0,0,0,0,0,0,0,0],"split_type":[0,0,0,0,0,0,0,0,0,0,0,0,0,0,0,0,0,0,0,0,0,0,0,0,0,0,0,0,0,0,0,0,0,0,0,0,0,0,0,0,0,0,0,0,0,0,0,0,0,0,0,0,0,0,0,0,0,0,0,0,0,0,0,0,0,0,0,0,0,0,0,0,0,0,0],"sum_hessian":[4.95E2,9.4E1,4.01E2,8.9E1,5E0,3.3E1,3.68E2,1.5E1,7.4E1,3E0,2E0,2.9E1,4E0,1.5E1,3.53E2,9E0,6E0,3E0,7.1E1,1E0,2E0,1E0,1E0,1.1E1,1.8E1,2E0,2E0,4E0,1.1E1,3E0,3.5E2,8E0,1E0,2E0,4E0,1E0,2E0,7E1,1E0,7E0,4E0,4E0,1.4E1,3E0,1E0,3E0,8E0,1E0,2E0,1.1E1,3.39E2,4E0,4E0,2E0,2E0,1.5E1,5.5E1,1E0,6E0,3E0,1E0,2E0,2E0,2E0,1.2E1,1E0,2E0,1E0,2E0,1E0,7E0,9E0,2E0,2E0,3.37E2],"tree_param":{"num_deleted":"0","num_feature":"6","num_nodes":"75","size_leaf_vector":"0"}},{"base_weights":[5.546955E-2,1.8634881E-1,-4.1282177E-2,1.1388955E-3,6.5141644E0,-4.2852135E0,8.055558E-2,1.7112334E-1,-1.1822582E0,2.6909304E0,7.753049E0,-5.191627E0,-1.0439821E0,1.8896192E0,6.279536E-3,5.6637414E-2,2.639802E0,1.3381006E0,-1.8460627E0,-1.292703E0,-6.8179135E0,-2.861125E0,1.2951517E0,-3.5302353E-1,3.8173254E0,-1.820046E0,8.382124E-2,1.5201388E-1,-5.4304924E0,-2.280351E0,4.6599116E0,3.9266825E0,3.504772E-2,7.3089063E-1,-2.4953983E0,-1.7603307E0,-1.7872381E-1,2.662344E0,-4.255839E0,6.4059653E0,9.215143E-1,-9.532885E-1,-2.669497E0,1.1650866E0,-4.7037605E-2,7.051119E-2,4.719828E0,-9.60186E-1,-7.1855526E0,7.8249645E-1,-4.203023E0,5.986783E0,1.3374456E0,-9.8491573E-1,1.0433286E0,-3.9675913E0,2.897409E0,-4.5761843E0,-1.9128811E0,1.3212762E0,3.4783491E-1,-2.098102E0,1.2724968E0,-3.9203148E0,-1.376714E0,2.3121595E0,-1.1308606E0,-2.5993204E0,4.391928E-2],"categories":[],"categories_nodes":[],"categories_segments":[],"categories_sizes":[],"default_left":[1,1,1,1,1,1,1,1,1,0,0,1,1,1,1,1,1,1,1,1,0,0,0,1,1,1,1,1,1,1,1,0,1,1,1,0,0,0,0,0,1,1,1,1,1,0,0,0,0,0,0,0,0,0,0,0,0,0,0,0,0,0,0,0,0,0,0,0,0],"id":17,"left_children":[1,3,5,7,9,11,13,15,17,-1,-1,19,21,23,25,27,29,31,33,35,-1,-1,-1,37,39,41,43,45,47,49,51,-1,53,55,57,-1,-1,-1,-1,-1,59,61,63,65,67,-1,-1,-1,-1,-1,-1,-1,-1,-1,-1,-1,-1,-1,-1,-1,-1,-1,-1,-1,-1,-1,-1,-1,-1],"loss_changes":[6.2884398E0,2.4727914E2,1.4822752E2,4.1641087E1,7.556381E0,1.8083206E1,3.747739E1,5.1006332E1,4.5968887E1,0E0,0E0,2.9231064E1,1.645721E1,4.8902336E1,3.824736E1,9.18872E1,9.014022E1,2.0100735E1,3.696331E1,1.2481694E0,0E0,0E0,0E0,8.194104E1,3.9074074E1,5.5541496E0,3.6701523E1,6.3700924E1,1.6637512E1,2.0955402E1,1.8443924E1,0E0,6.169639E0,6.239247E1,1.1851898E1,0E0,0E0,0E0,0E0,0E0,4.577546E-1,2.050659E1,2.6880264E0,7.635605E1,5.397242E1,0E0,0E0,0E0,0E0,0E0,0E0,0E0,0E0,0E0,0E0,0E0,0E0,0E0,0E0,0E0,0E0,0E0,0E0,0E0,0E0,0E0,0E0,0E0,0E0],"parents":[2147483647,0,0,1,1,2,2,3,3,4,4,5,5,6,6,7,7,8,8,11,11,12,12,13,13,14,14,15,15,16,16,17,17,18,18,19,19,23,23,24,24,25,25,26,26,27,27,28,28,29,29,30,30,32,32,33,33,34,34,40,40,41,41,42,42,43,43,44,44],"right_children":[2,4,6,8,10,12,14,16,18,-1,-1,20,22,24,26,28,30,32,34,36,-1,-1,-1,38,40,42,44,46,48,50,52,-1,54,56,58,-1,-1,-1,-1,-1,60,62,64,66,68,-1,-1,-1,-1,-1,-1,-1,-1,-1,-1,-1,-1,-1,-1,-1,-1,-1,-1,-1,-1,-1,-1,-1,-1],"split_conditions":[1.485E2,1.425E2,1.545E2,1.285E2,2.5E0,2.0195E3,1.575E2,1.225E2,5E-1,8.0727917E-1,2.3259149E0,2.5E0,3.5E0,1.5E0,1.665E2,1.215E2,2.5E0,1.335E2,2.0175E3,1E0,-2.0453742E0,-8.583375E-1,3.8854554E-1,5E-1,1.565E2,5.5E0,1.905E2,1.205E2,2.5E0,1E0,1.245E2,1.1780047E0,1.4E2,1.35E2,1.295E2,-5.2809924E-1,-5.3617146E-2,7.9870325E-1,-1.2767518E0,1.9217896E0,3E0,4E0,1.605E2,2.0195E3,1.965E2,2.1153359E-2,1.4159485E0,-2.880558E-1,-2.1556659E0,2.3474894E-1,-1.2609069E0,1.7960349E0,4.012337E-1,-2.9547474E-1,3.129986E-1,-1.1902775E0,8.692227E-1,-1.3728553E0,-5.7386434E-1,3.9638287E-1,1.0435048E-1,-6.2943065E-1,3.8174906E-1,-1.1760945E0,-4.130142E-1,6.9364786E-1,-3.392582E-1,-7.797962E-1,1.3175785E-2],"split_indices":[3,3,3,3,0,4,3,3,0,0,0,0,0,0,3,3,0,3,4,0,0,0,0,0,3,0,3,3,0,0,3,0,3,3,3,0,0,0,0,0,0,0,3,4,3,0,0,0,0,0,0,0,0,0,0,0,0,0,0,0,0,0,0,0,0,0,0,0,0],"split_type":[0,0,0,0,0,0,0,0,0,0,0,0,0,0,0,0,0,0,0,0,0,0,0,0,0,0,0,0,0,0,0,0,0,0,0,0,0,0,0,0,0,0,0,0,0,0,0,0,0,0,0,0,0,0,0,0,0,0,0,0,0,0,0,0,0,0,0,0,0],"sum_hessian":[4.95E2,2.1E2,2.85E2,2.05E2,5E0,7E0,2.78E2,1.8E2,2.5E1,2E0,3E0,5E0,2E0,1E1,2.68E2,1.73E2,7E0,5E0,2E1,2E0,3E0,1E0,1E0,5E0,5E0,1E1,2.58E2,1.71E2,2E0,2E0,5E0,1E0,4E0,4E0,1.6E1,1E0,1E0,3E0,2E0,2E0,3E0,6E0,4E0,2.7E1,2.31E2,1.69E2,2E0,1E0,1E0,1E0,1E0,3E0,2E0,2E0,2E0,1E0,3E0,2E0,1.4E1,1E0,2E0,4E0,2E0,1E0,3E0,1.8E1,9E0,7E0,2.24E2],"tree_param":{"num_deleted":"0","num_feature":"6","num_nodes":"69","size_leaf_vector":"0"}},{"base_weights":[3.6457773E-2,-3.23356E-2,1.9688487E-1,4.5885614E-1,-8.3528616E-2,1.2627132E-1,1.1657859E0,-5.895581E-1,8.765764E-1,-1.990318E0,-4.64731E-2,2.0055E-1,-1.919363E0,1.7185824E0,-9.305453E-2,3.060379E-2,-1.0081E0,5.713385E-1,2.2599316E0,1.7753887E-1,-3.118631E0,1.5921211E0,-6.2231384E-2,1.315571E-1,1.2879918E0,-4.326772E0,-2.3581767E-1,4.8446655E-1,1.843524E0,2.101325E0,-1.5249561E0,2.192316E-1,-7.1361065E-2,-5.5312014E-1,-1.2787066E0,1.119048E0,-9.8444337E-1,-4.0034962E-1,3.2801418E0,-1.4395857E-1,4.1026688E-1,-3.636888E0,-7.8192997E-1,-1.7883492E-1,2.5670166E0,-2.898833E-1,3.7127458E-2,2.4127142E-1,-3.357333E0,3.645053E0,-8.552555E-1,8.565769E-1,-8.8547486E-1,9.179201E-1,2.4631546E0,-1.8409767E0,-4.464574E-1,-1.1932278E-1,-1.5599568E-2,4.6276662E-1,2.4703135E0,1.1326599E0,-2.32616E0,8.875883E-1,-8.556917E-1,2.035675E0,-1.0088631E-1,9.890459E-2,1.5855143E0,1.9994965E0,-2.0688176E0,-1.8070126E-1,-1.147511E0,1.4854927E0,2.3356502E-1],"categories":[],"categories_nodes":[],"categories_segments":[],"categories_sizes":[],"default_left":[1,1,1,1,1,1,1,1,1,1,1,1,1,1,1,1,1,1,1,1,1,1,1,1,1,0,1,0,1,0,1,0,1,0,0,1,1,0,0,0,0,0,0,0,0,1,1,1,0,0,1,0,1,1,0,0,0,0,0,0,0,0,0,0,0,0,0,0,0,0,0,0,0,0,0],"id":18,"left_children":[1,3,5,7,9,11,13,15,17,19,21,23,25,27,29,31,33,35,37,39,41,43,45,47,49,-1,51,-1,53,-1,55,-1,57,-1,-1,59,61,-1,-1,-1,-1,-1,-1,-1,-1,63,65,67,-1,-1,69,-1,71,73,-1,-1,-1,-1,-1,-1,-1,-1,-1,-1,-1,-1,-1,-1,-1,-1,-1,-1,-1,-1,-1],"loss_changes":[5.480382E0,8.788991E0,1.0047005E1,1.4968942E1,2.2235132E1,2.165751E1,7.1187496E0,2.6264892E0,8.842873E0,1.5229807E1,8.129545E0,1.003406E1,1.9244583E1,1.8622208E-1,1.577297E1,1.1181164E-1,3.1445026E-2,1.8996086E1,1.216939E1,2.8352582E-1,2.0002518E0,5.6385636E0,7.000104E0,5.0188797E1,4.353157E1,0E0,3.597205E0,0E0,1.1802139E0,0E0,2.0056581E-1,0E0,8.836284E-3,0E0,0E0,1.3045788E1,1.9678064E1,0E0,0E0,0E0,0E0,0E0,0E0,0E0,0E0,6.3384495E1,5.978402E1,2.395651E1,0E0,0E0,2.1458687E1,0E0,3.4667206E-1,1.2067256E0,0E0,0E0,0E0,0E0,0E0,0E0,0E0,0E0,0E0,0E0,0E0,0E0,0E0,0E0,0E0,0E0,0E0,0E0,0E0,0E0,0E0],"parents":[2147483647,0,0,1,1,2,2,3,3,4,4,5,5,6,6,7,7,8,8,9,9,10,10,11,11,12,12,13,13,14,14,15,15,16,16,17,17,18,18,19,19,20,20,21,21,22,22,23,23,24,24,26,26,28,28,30,30,32,32,35,35,36,36,45,45,46,46,47,47,50,50,52,52,53,53],"right_children":[2,4,6,8,10,12,14,16,18,20,22,24,26,28,30,32,34,36,38,40,42,44,46,48,50,-1,52,-1,54,-1,56,-1,58,-1,-1,60,62,-1,-1,-1,-1,-1,-1,-1,-1,64,66,68,-1,-1,70,-1,72,74,-1,-1,-1,-1,-1,-1,-1,-1,-1,-1,-1,-1,-1,-1,-1,-1,-1,-1,-1,-1,-1],"split_conditions":[4.5E0,3.55E1,3.45E2,1.45E1,4.15E1,1.15E1,3.625E2,7.5E0,3.5E0,2.0185E3,4.45E1,3.1E2,3.365E2,2.0175E3,5.5E0,2.5E0,3.5E0,2.5E0,1.85E1,5E-1,2.0195E3,2.5E0,1.355E2,2.975E2,2.0185E3,-1.2980317E0,3.39E2,1.4533997E-1,3.495E2,6.3039756E-1,3.635E2,6.5769486E-2,1E0,-1.6593605E-1,-3.8361198E-1,3.05E1,2.4E1,-1.2010489E-1,9.840426E-1,-4.3187574E-2,1.2308007E-1,-1.0910665E0,-2.34579E-1,-5.3650476E-2,7.70105E-1,1.5E0,1.485E2,2.585E2,-1.0071999E0,1.0935159E0,3.165E2,2.569731E-1,5.5E0,3.48E2,7.389464E-1,-5.5229306E-1,-1.3393722E-1,-3.5796836E-2,-4.679871E-3,1.3882999E-1,7.410941E-1,3.3979797E-1,-6.97848E-1,2.662765E-1,-2.5670752E-1,6.107025E-1,-3.0265894E-2,2.9671377E-2,4.756543E-1,5.99849E-1,-6.206453E-1,-5.421038E-2,-3.442533E-1,4.4564784E-1,7.006951E-2],"split_indices":[0,3,3,3,3,2,3,3,0,4,3,3,3,4,0,3,0,0,3,0,4,0,3,3,4,0,3,0,3,0,3,0,0,0,0,3,3,0,0,0,0,0,0,0,0,0,3,3,0,0,3,0,0,3,0,0,0,0,0,0,0,0,0,0,0,0,0,0,0,0,0,0,0,0,0],"split_type":[0,0,0,0,0,0,0,0,0,0,0,0,0,0,0,0,0,0,0,0,0,0,0,0,0,0,0,0,0,0,0,0,0,0,0,0,0,0,0,0,0,0,0,0,0,0,0,0,0,0,0,0,0,0,0,0,0,0,0,0,0,0,0,0,0,0,0,0,0,0,0,0,0,0,0],"sum_hessian":[4.95E2,3.47E2,1.48E2,3.2E1,3.15E2,1.39E2,9E0,9E0,2.3E1,5E0,3.1E2,1.35E2,4E0,6E0,3E0,4E0,5E0,2E1,3E0,2E0,3E0,2E0,3.08E2,1.28E2,7E0,1E0,3E0,1E0,5E0,1E0,2E0,1E0,3E0,3E0,2E0,1.5E1,5E0,1E0,2E0,1E0,1E0,2E0,1E0,1E0,1E0,9.3E1,2.15E2,1.25E2,3E0,3E0,4E0,1E0,2E0,3E0,2E0,1E0,1E0,1E0,2E0,1.1E1,4E0,2E0,3E0,3E1,6.3E1,1.3E1,2.02E2,1.14E2,1.1E1,1E0,3E0,1E0,1E0,1E0,2E0],"tree_param":{"num_deleted":"0","num_feature":"6","num_nodes":"75","size_leaf_vector":"0"}},{"base_weights":[2.8338468E-2,-3.0500606E-1,7.4911125E-2,-5.6304944E-1,9.191048E-1,1.54316E-1,-1.5342596E-1,1.1401279E-1,-1.6181966E0,3.0703309E0,9.990671E-2,9.132549E-2,2.3488362E0,-9.866723E-1,2.489577E-1,-1.6191901E-1,2.0860152E0,-2.408711E-2,-2.1479607E0,-3.086567E-1,1.019919E0,1.22257635E-1,-3.1766803E0,-8.4518623E-1,3.382155E0,-3.7592742E-1,-3.1536317E0,1.4055634E0,-5.3536654E-2,-1.3141335E0,1.3288124E-1,-1.3366238E0,9.663372E-1,-1.2182351E0,-2.4909997E0,7.896385E-1,-1.3297877E0,1.6265135E0,-9.6634865E-2,9.853948E-2,2.548193E0,-1.8867235E0,6.1894417E-1,4.7211905E0,1.1975808E0,-1.118141E0,2.2225091E0,-7.963378E-1,-3.8066733E0,1.8953419E-1,1.9410735E0,4.972309E-1,-7.4008405E-1,5.6615192E-2,-2.0136619E0,2.721489E0,-9.7992525E-2,-1.6399679E0,-3.6496782E-1,1.529748E0,2.6861763E-1,-1.7474477E0,7.139139E-1,-3.5028934E0,-1.5569177E0,-2.3077965E-1,1.2067045E0,-3.4152842E-1,-1.5453647E0,1.3612168E-1,-2.8293204E0,-1.1093807E-1,3.9332275E0,-1.1642437E0,4.141527E0,-3.2126698E-1,-3.0075116E0,-1.138567E0,2.9724495E0,-7.8328097E-1,2.526805E0,-2.4403413E-1,2.453768E0,2.364392E0,-4.570677E-1,-2.932815E0,4.5293668E-1],"categories":[],"categories_nodes":[],"categories_segments":[],"categories_sizes":[],"default_left":[1,1,1,1,1,1,1,1,1,0,1,1,1,1,1,1,0,1,1,1,1,1,0,1,1,1,1,1,1,1,1,1,1,1,1,1,1,0,0,1,1,0,0,0,1,1,1,0,0,1,1,1,1,0,0,0,0,0,0,0,0,0,0,0,0,0,0,0,0,0,0,0,0,0,0,0,0,0,0,0,0,0,0,0,0,0,0],"id":19,"left_children":[1,3,5,7,9,11,13,15,17,-1,19,21,23,25,27,29,-1,31,33,35,37,39,-1,41,43,45,47,49,51,53,55,57,59,61,63,65,67,-1,-1,69,71,-1,-1,-1,73,75,77,-1,-1,79,81,83,85,-1,-1,-1,-1,-1,-1,-1,-1,-1,-1,-1,-1,-1,-1,-1,-1,-1,-1,-1,-1,-1,-1,-1,-1,-1,-1,-1,-1,-1,-1,-1,-1,-1,-1],"loss_changes":[7.723119E0,1.9785797E1,7.9288254E0,3.661891E1,1.9078339E1,4.4573284E1,3.8132812E1,1.7750187E1,1.6838299E1,0E0,3.697755E0,3.233168E1,3.2562542E1,4.7782448E1,2.7014982E1,1.0025146E1,0E0,9.091439E0,1.7493591E0,8.900576E0,2.1890645E0,1.7816055E1,0E0,5.7426157E0,1.4822548E1,6.034293E1,9.283897E0,1.0051237E1,2.381193E1,5.8672667E0,1.4610085E1,2.8570318E-1,1.1614938E0,7.3826323E0,3.9982033E0,1.980809E0,3.2439756E-1,0E0,0E0,3.4716183E1,1.148531E1,0E0,0E0,0E0,3.2634087E1,3.516796E1,2.1028584E1,0E0,0E0,1.56215925E1,1.292202E1,6.3444717E1,7.457564E1,0E0,0E0,0E0,0E0,0E0,0E0,0E0,0E0,0E0,0E0,0E0,0E0,0E0,0E0,0E0,0E0,0E0,0E0,0E0,0E0,0E0,0E0,0E0,0E0,0E0,0E0,0E0,0E0,0E0,0E0,0E0,0E0,0E0,0E0],"parents":[2147483647,0,0,1,1,2,2,3,3,4,4,5,5,6,6,7,7,8,8,10,10,11,11,12,12,13,13,14,14,15,15,17,17,18,18,19,19,20,20,21,21,23,23,24,24,25,25,26,26,27,27,28,28,29,29,30,30,31,31,32,32,33,33,34,34,35,35,36,36,39,39,40,40,44,44,45,45,46,46,49,49,50,50,51,51,52,52],"right_children":[2,4,6,8,10,12,14,16,18,-1,20,22,24,26,28,30,-1,32,34,36,38,40,-1,42,44,46,48,50,52,54,56,58,60,62,64,66,68,-1,-1,70,72,-1,-1,-1,74,76,78,-1,-1,80,82,84,86,-1,-1,-1,-1,-1,-1,-1,-1,-1,-1,-1,-1,-1,-1,-1,-1,-1,-1,-1,-1,-1,-1,-1,-1,-1,-1,-1,-1,-1,-1,-1,-1,-1,-1],"split_conditions":[5E-1,2.835E2,3.5E0,1.645E2,2.88E2,2.625E2,1.05E1,5.5E0,2.0175E3,9.210993E-1,1.15E1,2.605E2,1.5E0,2.995E2,3.175E2,1.5E0,6.258046E-1,2.295E2,7.5E0,2.975E2,3.47E2,2.585E2,-9.530041E-1,2.71E2,3.5E0,2.925E2,2.0175E3,2.0185E3,2.0185E3,1.35E1,3.45E1,7.5E0,2.365E2,1.915E2,8.5E0,2.92E2,1.05E1,4.8795405E-1,-2.899046E-2,2.575E2,3E0,-5.660171E-1,1.8568325E-1,1.4163572E0,5E0,2.865E2,1.5E0,-2.3890135E-1,-1.142002E0,4.5E0,3.095E2,3.335E2,3.305E2,1.6984558E-2,-6.0409856E-1,8.164467E-1,-2.9397758E-2,-4.919904E-1,-1.0949035E-1,4.589244E-1,8.058529E-2,-5.2423435E-1,2.1417418E-1,-1.050868E0,-4.6707532E-1,-6.9233894E-2,3.6201137E-1,-1.0245853E-1,-4.6360943E-1,4.0836506E-2,-8.487962E-1,-3.3281423E-2,1.1799684E0,-3.4927312E-1,1.2424582E0,-9.63801E-2,-9.022535E-1,-3.415701E-1,8.917349E-1,-2.349843E-1,7.580415E-1,-7.321024E-2,7.361304E-1,7.093176E-1,-1.3712032E-1,-8.7984455E-1,1.35881E-1],"split_indices":[0,3,1,3,3,3,2,2,4,0,2,3,0,3,3,2,0,3,2,3,3,3,0,3,0,3,4,4,4,3,3,2,3,3,2,3,2,0,0,3,0,0,0,0,0,3,0,0,0,0,3,3,3,0,0,0,0,0,0,0,0,0,0,0,0,0,0,0,0,0,0,0,0,0,0,0,0,0,0,0,0,0,0,0,0,0,0],"split_type":[0,0,0,0,0,0,0,0,0,0,0,0,0,0,0,0,0,0,0,0,0,0,0,0,0,0,0,0,0,0,0,0,0,0,0,0,0,0,0,0,0,0,0,0,0,0,0,0,0,0,0,0,0,0,0,0,0,0,0,0,0,0,0,0,0,0,0,0,0,0,0,0,0,0,0,0,0,0,0,0,0,0,0,0,0,0,0],"sum_hessian":[4.95E2,6E1,4.35E2,5E1,1E1,3.23E2,1.12E2,3.1E1,1.9E1,2E0,8E0,3.15E2,8E0,3.6E1,7.6E1,2.8E1,3E0,5E0,1.4E1,6E0,2E0,3.13E2,2E0,2E0,6E0,2.9E1,7E0,1.5E1,6.1E1,5E0,2.3E1,2E0,3E0,5E0,9E0,3E0,3E0,1E0,1E0,3.11E2,2E0,1E0,1E0,3E0,3E0,2.3E1,6E0,2E0,5E0,5E0,1E1,3.4E1,2.7E1,2E0,3E0,1E0,2.2E1,1E0,1E0,1E0,2E0,4E0,1E0,3E0,6E0,1E0,2E0,1E0,2E0,3.08E2,3E0,1E0,1E0,2E0,1E0,1.7E1,6E0,1E0,5E0,4E0,1E0,2E0,8E0,1.1E1,2.3E1,9E0,1.8E1],"tree_param":{"num_deleted":"0","num_feature":"6","num_nodes":"87","size_leaf_vector":"0"}},{"base_weights":[2.0930419E-2,2.4626845E-1,-1.9167408E-2,1.4180076E-1,2.0651197E0,-1.0895956E0,1.5135375E-3,2.4672724E-1,-2.3537505E0,3.0325012E0,7.3182553E-1,1.4994001E0,-1.673652E0,2.356059E0,-9.8647345E-3,5.482581E-3,9.9852043E-1,-3.856659E-3,-3.5267692E0,1.3947272E0,-2.417503E0,-1.20253414E-1,1.3573076E-1,2.4486075E-1,-6.9594514E-1,2.8635943E-1,2.2564223E0,-1.9051338E-2,-1.0566443E0,2.6188614E0,1.9447174E-2,-1.017746E0,4.4849354E-1,1.1468167E0,-1.3027726E0,1.4196341E0,-1.584152E0,3.6622899E0,6.379161E-1,-6.0989603E-2,4.4568996E0,-2.2356963E0,-1.3898979E-1,3.1577785E0,6.6807365E-1,4.0047964E-1,-2.655614E-1],"categories":[],"categories_nodes":[],"categories_segments":[],"categories_sizes":[],"default_left":[1,1,1,1,1,1,1,1,1,0,0,0,1,0,1,1,1,0,0,0,0,1,1,1,1,1,1,1,1,1,1,0,0,0,0,0,0,0,0,0,0,0,0,0,0,0,0],"id":20,"left_children":[1,3,5,7,9,11,13,15,17,-1,-1,-1,19,-1,21,23,25,-1,-1,-1,-1,27,29,31,33,35,37,39,41,43,45,-1,-1,-1,-1,-1,-1,-1,-1,-1,-1,-1,-1,-1,-1,-1,-1],"loss_changes":[4.4863605E0,1.3958004E1,9.343659E0,1.943389E1,2.9399548E0,1.4606432E1,1.1141366E1,1.2690152E1,8.255808E0,0E0,0E0,0E0,1.934868E1,0E0,6.6701694E0,9.23736E0,1.4582939E1,0E0,0E0,0E0,0E0,2.234434E1,5.1634842E1,1.0997885E1,1.714938E1,2.7686554E1,1.1316198E1,4.044254E1,2.4574394E1,6.300873E0,1.8785126E1,0E0,0E0,0E0,0E0,0E0,0E0,0E0,0E0,0E0,0E0,0E0,0E0,0E0,0E0,0E0,0E0],"parents":[2147483647,0,0,1,1,2,2,3,3,4,4,5,5,6,6,7,7,8,8,12,12,14,14,15,15,16,16,21,21,22,22,23,23,24,24,25,25,26,26,27,27,28,28,29,29,30,30],"right_children":[2,4,6,8,10,12,14,16,18,-1,-1,-1,20,-1,22,24,26,-1,-1,-1,-1,28,30,32,34,36,38,40,42,44,46,-1,-1,-1,-1,-1,-1,-1,-1,-1,-1,-1,-1,-1,-1,-1,-1],"split_conditions":[5.35E1,5.25E1,5.9E1,5.05E1,4E0,2.018E3,2.5E0,4.15E1,2E0,9.097504E-1,2.1954767E-1,4.4982007E-1,5E-1,7.0681775E-1,2.325E2,3.35E1,5.5E0,-1.1569978E-3,-1.0580308E0,4.184182E-1,-7.2525096E-1,2.155E2,2.365E2,5E-1,5E-1,3.5E0,4.85E1,2.145E2,2.245E2,2.0185E3,2.5E0,-3.053238E-1,1.3454807E-1,3.4404504E-1,-3.908318E-1,4.2589024E-1,-4.7524562E-1,1.098687E0,1.9137484E-1,-1.8296883E-2,1.33707E0,-6.707089E-1,-4.169694E-2,9.473336E-1,2.0042211E-1,1.201439E-1,-7.9668425E-2],"split_indices":[3,3,3,3,0,4,2,3,0,0,0,0,0,0,3,3,0,0,0,0,0,3,3,0,0,0,3,3,3,4,0,0,0,0,0,0,0,0,0,0,0,0,0,0,0,0,0],"split_type":[0,0,0,0,0,0,0,0,0,0,0,0,0,0,0,0,0,0,0,0,0,0,0,0,0,0,0,0,0,0,0,0,0,0,0,0,0,0,0,0,0,0,0,0,0,0,0],"sum_hessian":[4.95E2,7.4E1,4.21E2,7.1E1,3E0,7E0,4.14E2,6.9E1,2E0,1E0,2E0,1E0,6E0,1E0,4.13E2,5.3E1,1.6E1,1E0,1E0,1E0,5E0,2.35E2,1.78E2,4E1,1.3E1,1.1E1,5E0,2.13E2,2.2E1,7E0,1.71E2,5E0,3.5E1,3E0,1E1,7E0,4E0,2E0,3E0,2.12E2,1E0,9E0,1.3E1,5E0,2E0,7.3E1,9.8E1],"tree_param":{"num_deleted":"0","num_feature":"6","num_nodes":"47","size_leaf_vector":"0"}},{"base_weights":[2.218692E-2,-2.4375075E-1,5.9342906E-2,-4.2845568E-1,6.347676E-1,-7.587659E-2,1.6506863E-1,1.0957038E-1,-1.3403717E0,2.3761692E0,-1.6229311E-2,1.0545504E-1,-4.259686E0,5.1299233E0,1.0309482E-1,-3.789938E-1,7.9969275E-1,-2.1512778E-1,-1.7268782E0,-3.580814E-1,7.868354E-1,-4.52638E-2,3.9444861E0,-5.228475E0,-9.022128E-1,-9.306676E-1,1.6557126E-1,7.4038535E-2,-1.7528986E0,-1.2152733E0,1.2367932E0,-1.1161324E0,5.1440763E-1,-2.1078856E0,-1.0447444E0,5.358336E-1,-1.1624761E0,1.322465E0,-1.4221191E-1,1.480632E-1,-1.5068699E0,1.223911E0,5.67894E0,-2.428093E0,1.0747738E0,3.6358008E-1,-1.6900918E0,1.317781E0,3.1181864E-2,-7.6330966E-1,5.2404314E-1,1.2126417E0,-2.797444E0,-3.6560917E-1,-1.4573007E0,1.9197162E0,6.5536714E-1,-1.3848243E0,-2.8937435E-1,8.266182E-1,1.3479805E-1,1.7151864E-1,-1.5655532E0,-2.5623465E-1,8.852679E-1,-3.5037088E-1,-1.3163875E0,5.0978184E-2,2.2489123E0,2.3050746E-1,-1.9292239E0,1.7305826E0,-1.4805174E-1,-2.2320327E-1,1.6487484E0,1.1301994E-1,-1.9296083E0,2.22955E0,-7.8445077E-1,-2.4095714E0,1.1602809E-1],"categories":[],"categories_nodes":[],"categories_segments":[],"categories_sizes":[],"default_left":[1,1,1,1,1,1,1,1,1,0,1,1,1,0,1,1,1,1,1,1,1,1,1,0,1,1,1,1,1,1,1,1,1,0,1,1,1,0,0,1,1,1,0,0,0,1,1,1,1,0,0,0,0,0,0,0,0,0,0,0,0,0,0,0,0,0,0,0,0,0,0,0,0,0,0,0,0,0,0,0,0],"id":21,"left_children":[1,3,5,7,9,11,13,15,17,-1,19,21,23,-1,25,27,29,31,33,35,37,39,41,-1,43,45,47,49,51,53,55,57,59,-1,61,63,65,-1,-1,67,69,71,-1,-1,-1,73,75,77,79,-1,-1,-1,-1,-1,-1,-1,-1,-1,-1,-1,-1,-1,-1,-1,-1,-1,-1,-1,-1,-1,-1,-1,-1,-1,-1,-1,-1,-1,-1,-1,-1],"loss_changes":[4.9155283E0,1.0170237E1,6.245659E0,2.5169226E1,1.2508681E1,1.4611136E2,7.48554E1,1.1429659E1,7.8918686E0,0E0,2.7525153E0,1.0722219E2,2.1304276E1,0E0,1.5848439E1,1.2578249E1,1.3833437E1,4.518036E0,1.4363708E0,5.6563163E0,1.6809458E0,5.080277E1,2.6080475E1,0E0,1.1659586E1,1.4374846E1,3.5573204E1,6.4289756E0,1.8880507E1,8.412361E-2,3.506712E0,2.6569676E-1,3.6264598E-1,0E0,4.7026057E0,1.3339397E0,3.8745403E-2,0E0,0E0,3.231515E1,1.5854252E1,3.0367532E0,0E0,0E0,0E0,4.8926983E0,4.1049595E0,4.7750973E1,4.3146942E1,0E0,0E0,0E0,0E0,0E0,0E0,0E0,0E0,0E0,0E0,0E0,0E0,0E0,0E0,0E0,0E0,0E0,0E0,0E0,0E0,0E0,0E0,0E0,0E0,0E0,0E0,0E0,0E0,0E0,0E0,0E0,0E0],"parents":[2147483647,0,0,1,1,2,2,3,3,4,4,5,5,6,6,7,7,8,8,10,10,11,11,12,12,14,14,15,15,16,16,17,17,18,18,19,19,20,20,21,21,22,22,24,24,25,25,26,26,27,27,28,28,29,29,30,30,31,31,32,32,34,34,35,35,36,36,39,39,40,40,41,41,45,45,46,46,47,47,48,48],"right_children":[2,4,6,8,10,12,14,16,18,-1,20,22,24,-1,26,28,30,32,34,36,38,40,42,-1,44,46,48,50,52,54,56,58,60,-1,62,64,66,-1,-1,68,70,72,-1,-1,-1,74,76,78,80,-1,-1,-1,-1,-1,-1,-1,-1,-1,-1,-1,-1,-1,-1,-1,-1,-1,-1,-1,-1,-1,-1,-1,-1,-1,-1,-1,-1,-1,-1,-1,-1],"split_conditions":[5E-1,2.835E2,1.555E2,2.5E0,2.88E2,1.505E2,1.565E2,1.055E2,2.0175E3,7.128508E-1,1.15E1,1.425E2,2.0195E3,1.538977E0,1.665E2,9.15E1,2.0175E3,2.295E2,2.0195E3,2.975E2,3.47E2,1.285E2,3E0,-1.5685426E0,3.5E0,1.585E2,1.905E2,1.5E0,2.0175E3,1.42E2,1.355E2,7.5E0,2.365E2,-6.323657E-1,7.5E0,2.92E2,1.05E1,3.967395E-1,-4.2663574E-2,1.225E2,2.0175E3,1.5E0,1.7036821E0,-7.284279E-1,3.2243216E-1,4.5E0,2.5E0,2.0195E3,1.965E2,-2.2899291E-1,1.5721294E-1,3.6379254E-1,-8.392333E-1,-1.0968275E-1,-4.371902E-1,5.759149E-1,1.9661015E-1,-4.154473E-1,-8.681231E-2,2.4798547E-1,4.0439416E-2,5.1455595E-2,-4.6966597E-1,-7.68704E-2,2.655804E-1,-1.0511127E-1,-3.9491627E-1,1.5293456E-2,6.7467374E-1,6.915224E-2,-5.787672E-1,5.191748E-1,-4.4415522E-2,-6.696098E-2,4.9462453E-1,3.3905983E-2,-5.788825E-1,6.6886497E-1,-2.3533525E-1,-7.228714E-1,3.480843E-2],"split_indices":[0,3,3,1,3,3,3,3,4,0,2,3,4,0,3,3,4,3,4,3,3,3,0,0,0,3,3,2,4,3,3,2,3,0,2,3,2,0,0,3,4,0,0,0,0,0,0,4,3,0,0,0,0,0,0,0,0,0,0,0,0,0,0,0,0,0,0,0,0,0,0,0,0,0,0,0,0,0,0,0,0],"split_type":[0,0,0,0,0,0,0,0,0,0,0,0,0,0,0,0,0,0,0,0,0,0,0,0,0,0,0,0,0,0,0,0,0,0,0,0,0,0,0,0,0,0,0,0,0,0,0,0,0,0,0,0,0,0,0,0,0,0,0,0,0,0,0,0,0,0,0,0,0,0,0,0,0,0,0,0,0,0,0,0,0],"sum_hessian":[4.95E2,6E1,4.35E2,5E1,1E1,1.91E2,2.44E2,3.2E1,1.8E1,2E0,8E0,1.84E2,7E0,2E0,2.42E2,1.9E1,1.3E1,5E0,1.3E1,6E0,2E0,1.78E2,6E0,5E0,2E0,1.3E1,2.29E2,1.5E1,4E0,2E0,1.1E1,2E0,3E0,7E0,6E0,3E0,3E0,1E0,1E0,1.58E2,2E1,3E0,3E0,1E0,1E0,5E0,8E0,2.3E1,2.06E2,5E0,1E1,1E0,3E0,1E0,1E0,4E0,7E0,1E0,1E0,1E0,2E0,2E0,4E0,1E0,2E0,1E0,2E0,1.52E2,6E0,4E0,1.6E1,2E0,1E0,4E0,1E0,1E0,7E0,1.6E1,7E0,6E0,2E2],"tree_param":{"num_deleted":"0","num_feature":"6","num_nodes":"81","size_leaf_vector":"0"}},{"base_weights":[1.698449E-2,-3.7255533E-2,1.435519E-1,-1.914835E-2,-7.1716523E-1,-2.8830355E-3,5.4265916E-1,-4.4935454E-2,2.8925812E0,-1.198149E0,6.4418536E-1,-1.7902629E-1,4.7279987E-1,2.9249063E-1,1.6802409E0,-7.60266E-3,-8.4832805E-1,3.7816505E0,5.572214E-1,-1.656034E-1,-1.9311574E0,-2.3890365E-2,-6.2949505E0,4.6056004E0,1.31141115E-2,5.2722186E-1,-3.72682E0,5.27318E0,2.0255439E-1,-4.810547E-2,3.2446485E0,-1.395024E0,2.0421965E-1,3.2795286E-1,-4.3943977E-1,-2.407335E0,-2.5131226E-1,-2.4032155E-1,5.9562206E-1,-4.0239716E0,3.116718E-1,-2.782898E-1,8.895439E-1,-2.4379769E-1,1.2171574E0,-3.1688895E-2,-2.6507049E0,4.366165E0,1.4154211E0,-3.071518E0,2.3455842E-1,2.7227077E0,-1.7357013E0,2.8703824E-1,-1.3934157E0,4.242867E0,-1.1607271E-2,1.3184081E0,-4.6285993E-1,2.4140358E-1,-1.2481041E0,1.6932542E0,1.1704843E-2,8.3652115E-1,-1.2428507E0],"categories":[],"categories_nodes":[],"categories_segments":[],"categories_sizes":[],"default_left":[1,1,1,1,1,1,1,1,1,1,0,1,1,1,1,1,1,0,0,1,1,1,0,0,1,1,0,0,1,1,1,1,1,0,0,0,0,1,1,0,1,1,1,1,0,0,0,0,0,0,0,0,0,0,0,0,0,0,0,0,0,0,0,0,0],"id":22,"left_children":[1,3,5,7,9,11,13,15,17,19,-1,21,23,25,27,29,31,-1,-1,33,35,37,-1,-1,39,41,-1,-1,43,45,47,49,51,-1,-1,-1,-1,53,55,-1,57,59,61,63,-1,-1,-1,-1,-1,-1,-1,-1,-1,-1,-1,-1,-1,-1,-1,-1,-1,-1,-1,-1,-1],"loss_changes":[3.410398E0,4.2705827E0,8.709609E0,2.5658903E1,6.6649184E0,9.30136E0,1.0892033E1,1.0131147E1,4.1216717E0,4.9782457E0,0E0,7.670238E1,5.6933285E1,3.4042423E1,3.6096558E1,4.2835083E1,8.916245E0,0E0,0E0,6.847302E-1,2.5946274E0,1.0869685E1,0E0,0E0,3.500264E1,9.878754E0,0E0,0E0,3.013961E0,1.3630974E1,2.0260735E0,2.8040298E1,3.4039814E1,0E0,0E0,0E0,0E0,3.688569E1,4.6558247E1,0E0,2.1663467E1,5.8453636E0,1.6207333E1,6.436149E0,0E0,0E0,0E0,0E0,0E0,0E0,0E0,0E0,0E0,0E0,0E0,0E0,0E0,0E0,0E0,0E0,0E0,0E0,0E0,0E0,0E0],"parents":[2147483647,0,0,1,1,2,2,3,3,4,4,5,5,6,6,7,7,8,8,9,9,11,11,12,12,13,13,14,14,15,15,16,16,19,19,20,20,21,21,24,24,25,25,28,28,29,29,30,30,31,31,32,32,37,37,38,38,40,40,41,41,42,42,43,43],"right_children":[2,4,6,8,10,12,14,16,18,20,-1,22,24,26,28,30,32,-1,-1,34,36,38,-1,-1,40,42,-1,-1,44,46,48,50,52,-1,-1,-1,-1,54,56,-1,58,60,62,64,-1,-1,-1,-1,-1,-1,-1,-1,-1,-1,-1,-1,-1,-1,-1,-1,-1,-1,-1,-1,-1],"split_conditions":[4.5E0,3.59E2,2.0195E3,3.57E2,3.5E0,2.585E2,8.5E0,3.415E2,1.5E0,2.5E0,1.9325562E-1,2.575E2,3.5E0,2.39E2,3.5E0,1.15E1,3.51E2,1.1344953E0,1.6716643E-1,3.605E2,3.635E2,1.85E2,-1.8884852E0,1.3816801E0,2.825E2,7.1E1,-1.118046E0,1.5819541E0,1.15E1,3.335E2,3.37E2,1.5E0,2E0,9.838586E-2,-1.3183194E-1,-7.222005E-1,-7.539368E-2,1.115E2,1.93E2,-1.2071915E0,5.5E0,2.5E0,2.5E0,1.05E1,3.6514723E-1,-9.506669E-3,-7.952115E-1,1.3098496E0,4.2462635E-1,-9.2145544E-1,7.036753E-2,8.1681234E-1,-5.207104E-1,8.611147E-2,-4.1802472E-1,1.2728602E0,-3.4821813E-3,3.9552245E-1,-1.3885799E-1,7.2421074E-2,-3.7443125E-1,5.079763E-1,3.5114528E-3,2.5095636E-1,-3.7285522E-1],"split_indices":[0,3,4,3,0,3,2,3,0,0,0,3,1,3,1,2,3,0,0,3,3,3,0,0,3,3,0,0,2,3,3,0,0,0,0,0,0,3,3,0,0,2,1,2,0,0,0,0,0,0,0,0,0,0,0,0,0,0,0,0,0,0,0,0,0],"split_type":[0,0,0,0,0,0,0,0,0,0,0,0,0,0,0,0,0,0,0,0,0,0,0,0,0,0,0,0,0,0,0,0,0,0,0,0,0,0,0,0,0,0,0,0,0,0,0,0,0,0,0,0,0,0,0,0,0,0,0,0,0,0,0,0,0],"sum_hessian":[4.95E2,3.47E2,1.48E2,3.39E2,8E0,1.09E2,3.9E1,3.37E2,2E0,6E0,2E0,8E1,2.9E1,3.3E1,6E0,3.23E2,1.4E1,1E0,1E0,3E0,3E0,7.9E1,1E0,2E0,2.7E1,3.2E1,1E0,1E0,5E0,3.2E2,3E0,9E0,5E0,1E0,2E0,2E0,1E0,5.9E1,2E1,1E0,2.6E1,1E1,2.2E1,4E0,1E0,3.19E2,1E0,1E0,2E0,4E0,5E0,2E0,3E0,4.1E1,1.8E1,2E0,1.8E1,1.1E1,1.5E1,7E0,3E0,1.1E1,1.1E1,2E0,2E0],"tree_param":{"num_deleted":"0","num_feature":"6","num_nodes":"65","size_leaf_vector":"0"}},{"base_weights":[1.47829E-2,7.31065E-1,5.999855E-3,-1.3326073E-1,1.196543E0,-2.1380225E-1,3.6514036E-2,-3.4612128E-1,4.0708438E-1,-7.036301E-2,1.3982448E-1,5.044307E-2,-9.9580216E-1,2.4297934E0,-3.8165856E-2,7.1849626E-1,-1.9859897E-1,2.886359E0,6.252666E-2,-3.458973E-1,5.847305E-1,-1.7830682E-1,-1.2750286E0,5.159586E-1,-4.9357525E-1,1.4118224E0,-8.093384E-1,-8.6409986E-2,-1.1683238E0,6.8885565E-1,4.8542438E0,3.4648916E-1,-8.896068E-2,-1.2533355E-1,-2.1580224E0,-1.0266447E0,9.3884677E-1,-9.42375E-1,4.3932104E-1,-1.5332942E0,-5.0349176E-1,-2.1304655E-1,7.514715E-1,-9.3161035E-1,2.5499663E-1,5.1066804E-1,4.193383E0,-1.808656E0,2.125288E0,-1.8638785E-1,2.610731E0,1.3418157E0,-1.7228384E0,1.7139479E0,-1.1932106E0,-6.947758E-2,1.5761532E0,-3.7424488E0,7.287675E-2],"categories":[],"categories_nodes":[],"categories_segments":[],"categories_sizes":[],"default_left":[1,1,1,0,0,1,1,1,1,1,1,1,1,0,1,1,1,1,1,1,1,1,1,1,1,1,1,1,1,1,0,1,1,0,0,0,0,0,0,0,0,0,0,0,0,0,0,0,0,0,0,0,0,0,0,0,0,0,0],"id":23,"left_children":[1,3,5,-1,-1,7,9,11,13,15,17,19,21,-1,23,25,27,29,31,33,35,37,39,41,43,45,47,49,51,53,-1,55,57,-1,-1,-1,-1,-1,-1,-1,-1,-1,-1,-1,-1,-1,-1,-1,-1,-1,-1,-1,-1,-1,-1,-1,-1,-1,-1],"loss_changes":[3.116018E0,2.5733998E0,3.3009837E0,0E0,0E0,5.0702066E0,4.7797728E0,1.2932247E1,9.999464E0,2.1689798E1,4.6525772E1,6.9785657E0,4.1097126E0,0E0,2.7781992E0,3.2921276E1,1.9916851E1,2.260273E1,9.279419E0,7.323621E0,8.95246E0,3.245464E0,2.0176582E0,1.018549E0,2.2049618E0,5.04975E1,3.3170155E1,4.5249233E1,2.8758001E1,9.762266E0,0E0,3.847196E1,8.364196E1,0E0,0E0,0E0,0E0,0E0,0E0,0E0,0E0,0E0,0E0,0E0,0E0,0E0,0E0,0E0,0E0,0E0,0E0,0E0,0E0,0E0,0E0,0E0,0E0,0E0,0E0],"parents":[2147483647,0,0,1,1,2,2,5,5,6,6,7,7,8,8,9,9,10,10,11,11,12,12,14,14,15,15,16,16,17,17,18,18,19,19,20,20,21,21,22,22,23,23,24,24,25,25,26,26,27,27,28,28,29,29,31,31,32,32],"right_children":[2,4,6,-1,-1,8,10,12,14,16,18,20,22,-1,24,26,28,30,32,34,36,38,40,42,44,46,48,50,52,54,-1,56,58,-1,-1,-1,-1,-1,-1,-1,-1,-1,-1,-1,-1,-1,-1,-1,-1,-1,-1,-1,-1,-1,-1,-1,-1,-1,-1],"split_conditions":[6.5E0,2.0175E3,5E-1,-3.997822E-2,3.589629E-1,2.835E2,1.755E2,2.5E0,2.865E2,1.5E0,2.5E0,1.055E2,2.0175E3,7.2893804E-1,2.975E2,1.215E2,1.575E2,1.785E2,2.495E2,1.025E2,2.0175E3,2.295E2,2.625E2,2.0175E3,1.15E1,9.55E1,1.615E2,1.545E2,2.5E0,3E0,1.4562732E0,2.335E2,2.525E2,-3.7600067E-2,-6.4740676E-1,-3.079934E-1,2.8165403E-1,-2.8271252E-1,1.3179632E-1,-4.5998827E-1,-1.5104753E-1,-6.391397E-2,2.2544147E-1,-2.794831E-1,7.649899E-2,1.5320042E-1,1.258015E0,-5.425968E-1,6.375864E-1,-5.5916358E-2,7.832193E-1,4.0254474E-1,-5.1685154E-1,5.141844E-1,-3.579632E-1,-2.0843275E-2,4.7284597E-1,-1.1227347E0,2.1863027E-2],"split_indices":[3,4,0,0,0,3,3,1,3,0,1,3,4,0,3,3,3,3,3,3,4,3,3,4,2,3,3,3,0,0,0,3,3,0,0,0,0,0,0,0,0,0,0,0,0,0,0,0,0,0,0,0,0,0,0,0,0,0,0],"split_type":[0,0,0,0,0,0,0,0,0,0,0,0,0,0,0,0,0,0,0,0,0,0,0,0,0,0,0,0,0,0,0,0,0,0,0,0,0,0,0,0,0,0,0,0,0,0,0,0,0,0,0,0,0,0,0,0,0,0,0],"sum_hessian":[4.95E2,5E0,4.9E2,2E0,3E0,5.9E1,4.31E2,4.9E1,1E1,2.12E2,2.19E2,3.1E1,1.8E1,1E0,9E0,2.9E1,1.83E2,5E0,2.14E2,1.8E1,1.3E1,5E0,1.3E1,4E0,5E0,2E1,9E0,1.65E2,1.8E1,3E0,2E0,7.4E1,1.4E2,1.7E1,1E0,2E0,1.1E1,2E0,3E0,9E0,4E0,1E0,3E0,3E0,2E0,1.6E1,4E0,7E0,2E0,1.6E2,5E0,3E0,1.5E1,2E0,1E0,5.6E1,1.8E1,5E0,1.35E2],"tree_param":{"num_deleted":"0","num_feature":"6","num_nodes":"59","size_leaf_vector":"0"}},{"base_weights":[1.5622169E-2,-4.170878E-2,1.4941779E-1,3.142785E-1,-7.8752674E-2,-4.6878868E-1,2.1195804E-1,1.0662259E0,-1.6617839E-1,-1.8087735E0,-5.6392178E-2,1.4453793E-1,-2.7658322E0,1.1279335E0,8.908558E-2,3.7296057E-2,2.2604282E0,1.6230965E-1,-2.1912098E0,-3.347416E-1,-2.188537E0,2.9256487E-1,-8.7699436E-2,1.4706966E0,-1.0128177E0,2.719251E-1,1.9499514E0,-9.648734E-1,2.2488502E-1,-5.993207E-1,1.2980976E0,2.450253E0,6.5565205E-1,-7.162087E-1,7.3446274E-1,-2.8182268E0,-4.6457863E-1,-2.7797255E-1,3.5000138E0,-1.8013369E0,-6.941758E-2,-6.1570168E-2,4.5660152E0,1.3450661E0,-2.2249846E0,-5.756671E-1,2.1589985E0,2.7517078E0,4.6026802E-1,-2.2400472E0,-7.549286E-3,1.1231505E0,9.014185E-2,3.0071926E-1,-1.1245205E0,2.0861893E0,-1.3904285E-1,-1.0660871E-1,-9.016406E-1,2.2195265E-1,1.7039948E0,1.0726544E0,-6.1877054E-1,9.095001E-2,4.606052E0,-3.163963E-1,1.2086614E-2,1.0562382E0,-1.1588551E0,4.079857E-1,1.6096134E0,-5.134608E-1,-3.1948469E0,-1.1444914E0,5.642624E-1,3.1593394E0,5.6059074E-1,-2.519894E0,-4.204073E-1,-5.141533E-1,5.005646E-1,5.9649587E-1,2.8553855E0,-2.941582E0,1.8697013E-1],"categories":[],"categories_nodes":[],"categories_segments":[],"categories_sizes":[],"default_left":[1,1,1,1,1,1,1,1,1,1,1,1,0,1,1,1,1,1,0,0,1,1,1,1,1,1,1,1,1,1,1,0,0,1,1,0,0,1,1,0,1,1,0,1,1,1,0,1,0,1,1,1,1,0,0,0,0,0,0,0,0,0,0,0,0,0,0,0,0,0,0,0,0,0,0,0,0,0,0,0,0,0,0,0,0],"id":24,"left_children":[1,3,5,7,9,11,13,15,17,19,21,23,-1,25,27,29,31,33,-1,-1,35,37,39,41,43,45,47,49,51,53,55,-1,-1,57,59,-1,-1,61,63,-1,65,67,-1,69,71,73,-1,75,-1,77,79,81,83,-1,-1,-1,-1,-1,-1,-1,-1,-1,-1,-1,-1,-1,-1,-1,-1,-1,-1,-1,-1,-1,-1,-1,-1,-1,-1,-1,-1,-1,-1,-1,-1],"loss_changes":[3.8108644E0,4.6138806E0,5.860118E0,1.2099369E1,1.2122183E1,2.0123499E1,1.5206066E1,1.5889448E1,1.4324824E1,1.5065403E0,3.4451478E0,1.9907597E1,0E0,1.0728228E1,1.7535357E1,7.1991563E0,2.2124481E-1,1.0076322E1,0E0,0E0,1.9473886E0,4.855212E1,8.897558E0,2.8738255E1,2.299979E1,1.56380825E1,8.28838E0,1.7073658E1,1.2970551E1,3.1743696E0,3.6878648E0,0E0,0E0,8.081918E-1,5.584533E0,0E0,0E0,1.1250419E1,1.4663296E1,0E0,5.760947E0,7.3567986E0,0E0,8.7007046E-2,6.6592827E0,5.18473E0,0E0,2.694748E0,0E0,1.9959373E0,2.5740798E0,1.1068829E1,2.8437866E1,0E0,0E0,0E0,0E0,0E0,0E0,0E0,0E0,0E0,0E0,0E0,0E0,0E0,0E0,0E0,0E0,0E0,0E0,0E0,0E0,0E0,0E0,0E0,0E0,0E0,0E0,0E0,0E0,0E0,0E0,0E0,0E0],"parents":[2147483647,0,0,1,1,2,2,3,3,4,4,5,5,6,6,7,7,8,8,9,9,10,10,11,11,13,13,14,14,15,15,16,16,17,17,20,20,21,21,22,22,23,23,24,24,25,25,26,26,27,27,28,28,29,29,30,30,33,33,34,34,37,37,38,38,40,40,41,41,43,43,44,44,45,45,47,47,49,49,50,50,51,51,52,52],"right_children":[2,4,6,8,10,12,14,16,18,20,22,24,-1,26,28,30,32,34,-1,-1,36,38,40,42,44,46,48,50,52,54,56,-1,-1,58,60,-1,-1,62,64,-1,66,68,-1,70,72,74,-1,76,-1,78,80,82,84,-1,-1,-1,-1,-1,-1,-1,-1,-1,-1,-1,-1,-1,-1,-1,-1,-1,-1,-1,-1,-1,-1,-1,-1,-1,-1,-1,-1,-1,-1,-1,-1],"split_conditions":[4.5E0,3.55E1,3.5E1,1.5E0,3.7E1,3.35E1,2.5E0,5E-1,2.95E1,5E-1,7.1E1,5.5E0,-8.297497E-1,5.5E0,8.75E1,1.5E0,1.5E0,1.45E1,-6.5736294E-1,-1.0042248E-1,1.5E0,6.6E1,7.35E1,1.5E0,2E1,5.5E1,4.85E1,5.5E0,1.115E2,1.35E1,3.45E1,7.3507595E-1,1.9669563E-1,6E0,3.5E0,-8.454681E-1,-1.393736E-1,2.0175E3,5E-1,-5.404011E-1,1.355E2,1.2E1,1.3698046E0,1.35E1,2.0175E3,2.0195E3,6.476996E-1,5E-1,1.3808042E-1,8.35E1,2.0195E3,1.075E2,1.165E2,9.021578E-2,-3.3735618E-1,6.258568E-1,-4.1712858E-2,-3.1982616E-2,-2.704922E-1,6.6585794E-2,5.1119846E-1,3.2179633E-1,-1.8563117E-1,2.7285004E-2,1.3818157E0,-9.491889E-2,3.6259843E-3,3.1687146E-1,-3.4765655E-1,1.2239571E-1,4.8288405E-1,-1.5403825E-1,-9.584541E-1,-3.4334743E-1,1.6927873E-1,9.478019E-1,1.6817723E-1,-7.559682E-1,-1.2612219E-1,-1.54246E-1,1.5016937E-1,1.7894876E-1,8.566157E-1,-8.824746E-1,5.609104E-2],"split_indices":[0,3,3,0,3,3,2,0,3,0,3,0,0,0,3,2,2,3,0,0,0,3,3,2,3,3,3,0,3,3,3,0,0,3,0,0,0,4,0,0,3,3,0,3,4,4,0,5,0,3,4,3,3,0,0,0,0,0,0,0,0,0,0,0,0,0,0,0,0,0,0,0,0,0,0,0,0,0,0,0,0,0,0,0,0],"split_type":[0,0,0,0,0,0,0,0,0,0,0,0,0,0,0,0,0,0,0,0,0,0,0,0,0,0,0,0,0,0,0,0,0,0,0,0,0,0,0,0,0,0,0,0,0,0,0,0,0,0,0,0,0,0,0,0,0,0,0,0,0,0,0,0,0,0,0,0,0,0,0,0,0,0,0,0,0,0,0,0,0,0,0,0,0],"sum_hessian":[4.95E2,3.47E2,1.48E2,3.2E1,3.15E2,1.3E1,1.35E2,1.2E1,2E1,3E0,3.12E2,1.1E1,2E0,1.5E1,1.2E2,7E0,5E0,1.8E1,2E0,1E0,2E0,2.5E1,2.87E2,5E0,6E0,8E0,7E0,1.3E1,1.07E2,5E0,2E0,4E0,1E0,7E0,1.1E1,1E0,1E0,2.2E1,3E0,2E0,2.85E2,4E0,1E0,2E0,4E0,6E0,2E0,4E0,3E0,5E0,8E0,1.3E1,9.4E1,2E0,3E0,1E0,1E0,2E0,5E0,8E0,3E0,4E0,1.8E1,1E0,2E0,7E1,2.15E2,2E0,2E0,1E0,1E0,2E0,2E0,4E0,2E0,3E0,1E0,4E0,1E0,4E0,4E0,1.1E1,2E0,2E0,9.2E1],"tree_param":{"num_deleted":"0","num_feature":"6","num_nodes":"85","size_leaf_vector":"0"}},{"base_weights":[1.449966E-2,6.487628E-2,-1.3394658E-1,2.2663053E-2,1.5865076E0,-2.226899E0,-2.9056825E-2,4.38064E-2,-2.5220928E0,-3.3675146E-1,2.4588687E0,-3.3515708E0,1.6982303E0,2.9446265E-1,-2.5331956E-1,2.434517E-3,9.331497E-1,-1.6891832E0,6.771202E-1,3.5806732E0,7.2234726E-1,5.744829E0,6.598928E-2,-3.4486003E0,-6.4414605E-2,5.137676E-2,-3.3359134E0,1.7139844E0,-5.389685E0,-9.121437E-1,2.81291E0,-6.576922E-1,1.4669011E0,-4.563087E0,-5.2569866E-2,1.69008E0,-2.27892E-1,1.3318141E-2,1.4538372E0,-4.688061E0,1.0363388E0,4.0281153E0,5.0629E-1,-8.7396145E-2,-2.428943E0,5.499642E0,5.625594E-1,8.557749E-2,1.993865E0,1.1085747E-1,-6.4055026E-1],"categories":[],"categories_nodes":[],"categories_segments":[],"categories_sizes":[],"default_left":[1,1,1,1,1,1,1,1,0,1,1,0,0,1,1,1,1,0,0,0,1,0,1,1,1,1,1,1,0,0,0,1,1,0,0,1,1,0,0,0,0,0,0,0,0,0,0,0,0,0,0],"id":25,"left_children":[1,3,5,7,9,11,13,15,-1,17,19,-1,-1,21,23,25,27,-1,-1,-1,29,-1,31,33,35,37,39,41,-1,-1,-1,43,45,-1,-1,47,49,-1,-1,-1,-1,-1,-1,-1,-1,-1,-1,-1,-1,-1,-1],"loss_changes":[3.7178874E0,2.3794477E1,2.759598E1,1.9587769E1,1.7605797E1,3.2178635E1,8.853551E0,1.3243499E1,0E0,6.628549E0,1.104977E1,0E0,0E0,6.1884087E1,4.3237377E1,5.6539642E1,8.8231255E1,0E0,0E0,0E0,1.6233803E1,0E0,5.064165E1,1.4899441E1,2.017575E1,1.8181755E1,3.4418076E1,3.9882042E1,0E0,0E0,0E0,3.312225E1,5.8904705E1,0E0,0E0,2.753912E0,9.0174265E0,0E0,0E0,0E0,0E0,0E0,0E0,0E0,0E0,0E0,0E0,0E0,0E0,0E0,0E0],"parents":[2147483647,0,0,1,1,2,2,3,3,4,4,5,5,6,6,7,7,9,9,10,10,13,13,14,14,15,15,16,16,20,20,22,22,23,23,24,24,25,25,26,26,27,27,31,31,32,32,35,35,36,36],"right_children":[2,4,6,8,10,12,14,16,-1,18,20,-1,-1,22,24,26,28,-1,-1,-1,30,-1,32,34,36,38,40,42,-1,-1,-1,44,46,-1,-1,48,50,-1,-1,-1,-1,-1,-1,-1,-1,-1,-1,-1,-1,-1,-1],"split_conditions":[3.5E0,2.625E2,2.765E2,2.615E2,1.5E0,3.5E0,2.5E0,2.525E2,-7.5662786E-1,2.0185E3,3.5E0,-1.0054713E0,5.094691E-1,2.785E2,2.815E2,2.515E2,5.5E0,-5.06755E-1,2.0313607E-1,1.0742021E0,5E0,1.7234489E0,3.315E2,2.0185E3,2.855E2,8.5E0,5.5E0,2.545E2,-1.6169056E0,-2.7364314E-1,8.438731E-1,3.245E2,3.37E2,-1.3689262E0,-1.577096E-2,2.0185E3,3.305E2,3.9954423E-3,4.3615118E-1,-1.4064184E0,3.1090164E-1,1.2084346E0,1.5188701E-1,-2.6218845E-2,-7.286829E-1,1.6498927E0,1.6876784E-1,2.5673248E-2,5.9815955E-1,3.3257242E-2,-1.9216509E-1],"split_indices":[1,3,3,3,0,0,0,3,0,4,0,0,0,3,3,3,0,0,0,0,0,0,3,4,3,2,0,3,0,0,0,3,3,0,0,4,3,0,0,0,0,0,0,0,0,0,0,0,0,0,0],"split_type":[0,0,0,0,0,0,0,0,0,0,0,0,0,0,0,0,0,0,0,0,0,0,0,0,0,0,0,0,0,0,0,0,0,0,0,0,0,0,0,0,0,0,0,0,0,0,0,0,0,0,0],"sum_hessian":[4.95E2,3.7E2,1.25E2,3.61E2,9E0,5E0,1.2E2,3.59E2,2E0,3E0,6E0,4E0,1E0,4.9E1,7.1E1,3.44E2,1.5E1,1E0,2E0,3E0,3E0,1E0,4.8E1,3E0,6.8E1,3.4E2,4E0,1.4E1,1E0,2E0,1E0,3.2E1,1.6E1,2E0,1E0,5E0,6.3E1,3.32E2,8E0,3E0,1E0,4E0,1E1,2.5E1,7E0,2E0,1.4E1,1E0,4E0,3.5E1,2.8E1],"tree_param":{"num_deleted":"0","num_feature":"6","num_nodes":"51","size_leaf_vector":"0"}},{"base_weights":[1.22536225E-2,-5.55537E-3,3.7874097E-1,1.36709055E-2,-6.382523E-1,2.0659366E0,-8.519165E-2,2.393592E-3,1.3015056E0,-1.6071584E0,1.4272102E0,4.544454E0,-1.1012262E0,-1.3654925E0,1.2036283E0,1.4525608E-2,-1.3782216E0,-2.373038E0,-3.66671E-1,2.582316E0,4.9285483E-1,-6.5377235E-2,-2.2213397E0,1.7744789E0,-7.198494E-1,-3.663312E-6,1.6527019E0,2.8735495E0,-3.7533286E0,-1.1757433E0,-3.1784184E0,-7.317479E-1,1.2062963E-1,-1.3029897E0,1.5257996E0,3.7209415E-1,