{"learner":{"attributes":{"best_iteration":"14","best_ntree_limit":"15","best_score":"8.676160569969634","scikit_learn":"{\"n_estimators\": 500, \"objective\": \"reg:squarederror\", \"max_depth\": null, \"max_leaves\": null, \"max_bin\": null, \"grow_policy\": null, \"learning_rate\": null, \"verbosity\": null, \"booster\": null, \"tree_method\": null, \"gamma\": null, \"min_child_weight\": null, \"max_delta_step\": null, \"subsample\": null, \"sampling_method\": null, \"colsample_bytree\": null, \"colsample_bylevel\": null, \"colsample_bynode\": null, \"reg_alpha\": null, \"reg_lambda\": null, \"scale_pos_weight\": null, \"base_score\": null, \"missing\": NaN, \"num_parallel_tree\": null, \"random_state\": null, \"n_jobs\": null, \"monotone_constraints\": null, \"interaction_constraints\": null, \"importance_type\": null, \"gpu_id\": null, \"validate_parameters\": null, \"predictor\": null, \"enable_categorical\": false, \"feature_types\": null, \"max_cat_to_onehot\": null, \"max_cat_threshold\": null, \"eval_metric\": null, \"early_stopping_rounds\": 50, \"callbacks\": null, \"evals_result_\": {\"validation_0\": {\"rmse\": [13.609697521487522, 11.341900387026882, 10.043534457059085, 9.337642050849116, 8.971186753947448, 8.783336778850067, 8.689265489082498, 8.640805465794053, 8.616969726412147, 8.602143486847133, 8.594771294848215, 8.59035795330524, 8.586506153461537, 8.584070563620816, 8.582379085000747, 8.57922715793238, 8.577429627741262, 8.57681082020633, 8.574729806646081, 8.571914367835413, 8.570555752398008, 8.569750940877, 8.5670743499617, 8.566087939570908, 8.565223466422843, 8.563856158744828, 8.562578836174161, 8.560822465106051, 8.560441786591008, 8.55913584037505, 8.557562437395068, 8.55719320497584, 8.556444079464667, 8.554935697294917, 8.553601994601083, 8.552753816144918, 8.55135935560286, 8.549523676093855, 8.548352769269215, 8.547997404475225, 8.547248993967614, 8.54713735231542, 8.546132777008998, 8.545402787942663, 8.544618626245452, 8.54389150392658, 8.542818877540062, 8.541500529158945, 8.540745376230428, 8.540272216561814, 8.539573127718704, 8.538667442407366, 8.538154205642302, 8.537753082061533, 8.537173615318801, 8.536141907937413, 8.535791870084147, 8.535322620440065, 8.534392222936365, 8.533760933145404, 8.532799787526743, 8.532583748859611, 8.532107428871207, 8.531758685290848, 8.531109337949214]}, \"validation_1\": {\"rmse\": [13.62631810499728, 11.386291013698381, 10.094503527572831, 9.400771587609125, 9.039312672517413, 8.856681163989743, 8.765943124126286, 8.718103894444921, 8.695097937896938, 8.683448639845233, 8.678551822406906, 8.67736861358449, 8.676510833459357, 8.676456016198447, 8.676160569969634, 8.677584925966396, 8.67780022370671, 8.67821004614424, 8.679805405055424, 8.681990655036357, 8.68332331005135, 8.683577121331005, 8.684459157805712, 8.685067547666124, 8.685466533309379, 8.685953137761839, 8.6863107003927, 8.686076384704396, 8.686177953488906, 8.686177169758189, 8.68618388504764, 8.686080296875675, 8.686357373000359, 8.686245784729817, 8.686819751590903, 8.687315066776545, 8.687640040273099, 8.687167278590136, 8.688141079352079, 8.688157974016686, 8.68844783775057, 8.68830829850952, 8.688901537229496, 8.689260385370341, 8.689870956036257, 8.690973287426973, 8.69154109182861, 8.691627876187455, 8.691827208466812, 8.691297452241479, 8.690706133835583, 8.691152794042676, 8.691583938810396, 8.691584603054036, 8.692144908078204, 8.693191298570603, 8.693598230597619, 8.69362836393807, 8.693762930438817, 8.6942533800249, 8.694502714874222, 8.694846797699674, 8.695314216527636, 8.695125984888126, 8.695842199175408]}}, \"_estimator_type\": \"regressor\"}"},"feature_names":["dayofweek","quarter","month","dayofyear","year","Special Day"],"feature_types":["int","int","int","int","int","i"],"gradient_booster":{"model":{"gbtree_model_param":{"num_parallel_tree":"1","num_trees":"65","size_leaf_vector":"0"},"tree_info":[0,0,0,0,0,0,0,0,0,0,0,0,0,0,0,0,0,0,0,0,0,0,0,0,0,0,0,0,0,0,0,0,0,0,0,0,0,0,0,0,0,0,0,0,0,0,0,0,0,0,0,0,0,0,0,0,0,0,0,0,0,0,0,0,0],"trees":[{"base_weights":[1.5039618E1,1.5002967E1,1.5184276E1,1.5027844E1,1.4729314E1,1.5283802E1,1.4880943E1,1.5675078E1,1.5187462E1,1.4987002E1,1.4115714E1,1.4943351E1,1.5399257E1,1.4871922E1,1.6568628E1,1.50873375E1,1.43724785E1],"categories":[],"categories_nodes":[],"categories_segments":[],"categories_sizes":[],"default_left":[1,1,1,0,0,1,1,0,1,1,0,0,0,1,0,0,0],"id":0,"left_children":[1,3,5,-1,-1,7,9,-1,11,13,-1,-1,-1,15,-1,-1,-1],"loss_changes":[6E1,7.5E1,1.02E2,0E0,0E0,7.025E1,1.03125E1,0E0,1.11E2,1.876875E2,0E0,0E0,0E0,2.34375E1,0E0,0E0,0E0],"parents":[2147483647,0,0,1,1,2,2,5,5,6,6,8,8,9,9,13,13],"right_children":[2,4,6,-1,-1,8,10,-1,12,14,-1,-1,-1,16,-1,-1,-1],"split_conditions":[2.925E2,2.675E2,2.0195E3,4.5083537E0,4.418794E0,3.065E2,3.575E2,4.7025237E0,1.15E1,3.535E2,4.2347145E0,4.4830055E0,4.619777E0,3.345E2,4.9705887E0,4.5262012E0,4.3117437E0],"split_indices":[3,3,4,0,0,3,3,0,2,3,0,0,0,3,0,0,0],"split_type":[0,0,0,0,0,0,0,0,0,0,0,0,0,0,0,0,0],"sum_hessian":[5.4394E4,4.3482E4,1.0912E4,3.9809E4,3.673E3,8.179E3,2.733E3,1.584E3,6.595E3,2.384E3,3.49E2,3.097E3,3.498E3,2.232E3,1.52E2,1.539E3,6.93E2],"tree_param":{"num_deleted":"0","num_feature":"6","num_nodes":"17","size_leaf_vector":"0"}},{"base_weights":[1.05284815E1,1.0588116E1,1.0468899E1,1.084757E1,1.0544825E1,1.0107776E1,1.0526796E1,8.836862E0,1.092918E1,1.0356297E1,1.0582271E1,1.0477775E1,9.919886E0,1.2237684E1,1.0521895E1,6.7287083E0,9.440869E0,1.0690445E1,1.1258978E1,1.0824176E1,1.0185559E1,1.0591213E1,9.639358E0,1.0222119E1,1.1465783E1,9.465793E0,1.0175462E1,1.3436322E1,1.0107352E1,1.0495019E1,1.0744435E1,1.07216015E1,8.747846E0,1.0743426E1,8.137653E0,1.2087925E1,1.098105E1,1.0618363E1,1.3225521E1,8.920317E0,1.0219977E1,1.0371937E1,8.553537E0,1.0448869E1,1.2114152E1,9.661315E0,8.926293E0,9.813336E0,1.0526282E1,1.0507055E1,9.301638E0,1.1037449E1,1.0435264E1,1.34641E1,1.0691072E1,1.1043529E1,8.520216E0,1.043892E1,1.0022772E1,1.0777081E1,9.9105835E0,1.1111757E1,8.508044E0,8.26687E0,9.723864E0,1.0803318E1,9.722115E0,1.0486273E1,1.0778956E1,7.6507263E0,9.629647E0,1.0618412E1,1.1493886E1,1.11573515E1,1.0247454E1],"categories":[],"categories_nodes":[],"categories_segments":[],"categories_sizes":[],"default_left":[1,1,1,1,1,1,1,1,1,1,1,1,1,1,1,0,1,1,1,1,1,0,0,1,1,1,1,0,0,1,1,0,0,1,0,0,1,0,0,0,1,1,0,1,0,0,1,0,1,1,1,1,1,0,0,0,0,0,0,0,0,0,0,0,0,0,0,0,0,0,0,0,0,0,0],"id":1,"left_children":[1,3,5,7,9,11,13,15,17,19,21,23,25,27,29,-1,31,33,35,37,39,-1,-1,41,43,45,47,-1,-1,49,51,-1,-1,53,-1,-1,55,-1,-1,-1,57,59,-1,61,-1,-1,63,-1,65,67,69,71,73,-1,-1,-1,-1,-1,-1,-1,-1,-1,-1,-1,-1,-1,-1,-1,-1,-1,-1,-1,-1,-1,-1],"loss_changes":[8.3E1,1.8975E2,4.6425E2,5.3353125E2,5.45E1,1.6003125E2,6.85E1,1.3384375E2,1.698125E2,2.0140625E2,6.125E1,2.013125E2,1.9810938E2,1.9958008E1,2.75E1,0E0,1.0943359E1,2.044375E2,2.1954688E2,3.67125E2,3.403125E1,0E0,0E0,1.6400781E2,3.8914062E1,1.16484375E1,1.0125E2,0E0,0E0,2.035E2,1.0984375E2,0E0,0E0,1.5675E2,0E0,0E0,8.3640625E1,0E0,0E0,0E0,1.590625E1,6.571094E1,0E0,4.054883E1,0E0,0E0,5.635742E1,0E0,7.408594E1,4E0,4.4375E1,1.185625E2,5.20625E1,0E0,0E0,0E0,0E0,0E0,0E0,0E0,0E0,0E0,0E0,0E0,0E0,0E0,0E0,0E0,0E0,0E0,0E0,0E0,0E0,0E0,0E0],"parents":[2147483647,0,0,1,1,2,2,3,3,4,4,5,5,6,6,7,7,8,8,9,9,10,10,11,11,12,12,13,13,14,14,16,16,17,17,18,18,19,19,20,20,23,23,24,24,25,25,26,26,29,29,30,30,33,33,36,36,40,40,41,41,43,43,46,46,48,48,49,49,50,50,51,51,52,52],"right_children":[2,4,6,8,10,12,14,16,18,20,22,24,26,28,30,-1,32,34,36,38,40,-1,-1,42,44,46,48,-1,-1,50,52,-1,-1,54,-1,-1,56,-1,-1,-1,58,60,-1,62,-1,-1,64,-1,66,68,70,72,74,-1,-1,-1,-1,-1,-1,-1,-1,-1,-1,-1,-1,-1,-1,-1,-1,-1,-1,-1,-1,-1,-1],"split_conditions":[2.0185E3,5E-1,5E-1,1.2E1,1.5E0,1.255E2,1.5E0,1.5E0,2.185E2,9.35E1,5E-1,1.01E2,7.5E0,1.5E0,3.285E2,2.0186126E0,5E0,7.5E0,2.57E2,8.65E1,1.005E2,3.177364E0,2.8918073E0,9.4E1,2.0195E3,1.885E2,2.0195E3,4.0308967E0,3.0322058E0,3.255E2,2.0195E3,3.2164805E0,2.624354E0,1.55E1,2.441296E0,3.6263776E0,3.62E2,3.1855092E0,3.9676564E0,2.676095E0,2.195E2,2.0195E3,2.5660613E0,1.155E2,3.6342456E0,2.8983946E0,2.0195E3,2.944001E0,3.245E2,3.035E2,4.5E0,3.5E0,1.5E0,4.0392303E0,3.207322E0,3.3130586E0,2.5560648E0,3.1316762E0,3.0068316E0,3.2331243E0,2.973175E0,3.3335273E0,2.5524135E0,2.480061E0,2.917159E0,3.2409956E0,2.9166346E0,3.145882E0,3.2336872E0,2.295218E0,2.8888943E0,3.1855237E0,3.448166E0,3.3472056E0,3.0742362E0],"split_indices":[4,0,0,3,0,3,3,3,3,3,5,3,2,0,3,0,3,2,3,3,3,0,0,3,4,3,4,0,0,3,4,0,0,3,0,0,3,0,0,0,3,4,0,3,0,0,4,0,3,3,0,0,0,0,0,0,0,0,0,0,0,0,0,0,0,0,0,0,0,0,0,0,0,0,0],"split_type":[0,0,0,0,0,0,0,0,0,0,0,0,0,0,0,0,0,0,0,0,0,0,0,0,0,0,0,0,0,0,0,0,0,0,0,0,0,0,0,0,0,0,0,0,0,0,0,0,0,0,0,0,0,0,0,0,0,0,0,0,0,0,0,0,0,0,0,0,0,0,0,0,0,0,0],"sum_hessian":[5.4394E4,2.7097E4,2.7297E4,3.839E3,2.3258E4,3.796E3,2.3501E4,1.54E2,3.685E3,3.9E3,1.9358E4,1.26E3,2.536E3,6E1,2.3441E4,3.7E1,1.17E2,2.157E3,1.528E3,1.026E3,2.874E3,1.9166E4,1.92E2,1.01E3,2.5E2,9.27E2,1.609E3,3.5E1,2.5E1,2.0958E4,2.483E3,3.6E1,8.1E1,2.11E3,4.7E1,3.73E2,1.155E3,9.5E2,7.6E1,8.3E1,2.791E3,9.22E2,8.8E1,1.04E2,1.46E2,6.68E2,2.59E2,8.06E2,8.03E2,2.0741E4,2.17E2,1.257E3,1.226E3,3.5E1,2.075E3,1.123E3,3.2E1,1.298E3,1.493E3,4.79E2,4.43E2,7.4E1,3E1,1.48E2,1.11E2,5.88E2,2.15E2,1.9305E4,1.436E3,4E1,1.77E2,6.68E2,5.89E2,2.41E2,9.85E2],"tree_param":{"num_deleted":"0","num_feature":"6","num_nodes":"75","size_leaf_vector":"0"}},{"base_weights":[7.372078E0,7.348477E0,7.463865E0,7.3517714E0,6.2145734E0,7.495062E0,7.123518E0,7.3826385E0,7.2567883E0,5.003788E0,7.500883E0,7.4511657E0,7.936719E0,6.746072E0,7.4647846E0,7.3479414E0,7.8042254E0,7.07985E0,7.3652034E0,6.203738E0,3.5923038E0,7.3634706E0,7.66229E0,8.148557E0,6.7198434E0,7.839352E0,6.8497E0,7.3536286E0,6.1054697E0,8.30043E0,7.56128E0,7.1215315E0,5.917914E0,8.1916895E0,7.2740335E0,7.7664576E0,7.242856E0,8.184633E0,7.4813046E0,8.63479E0,7.849192E0,7.6320624E0,6.326912E0,7.4031463E0,7.2729235E0,6.623802E0,4.654404E0,8.033642E0,9.33025E0,7.940061E0,7.421789E0,7.6173825E0,7.045652E0,6.501074E0,4.008491E0,8.337473E0,5.77462E0,7.1966057E0,7.5095315E0,7.5295496E0,8.751943E0,7.3397155E0,6.848535E0,7.3005147E0,8.417305E0,7.2901096E0,7.9297733E0,9.423419E0,7.9185867E0,8.281249E0,6.9279194E0],"categories":[],"categories_nodes":[],"categories_segments":[],"categories_sizes":[],"default_left":[1,1,1,1,1,1,1,1,1,1,0,1,1,0,1,1,1,1,1,0,0,1,1,1,1,0,0,1,1,1,1,1,1,1,1,1,1,1,1,1,1,0,0,0,0,0,0,0,0,0,0,0,0,0,0,0,0,0,0,0,0,0,0,0,0,0,0,0,0,0,0],"id":2,"left_children":[1,3,5,7,9,11,13,15,17,19,-1,21,23,-1,25,27,29,31,33,-1,-1,35,37,39,41,-1,-1,43,45,47,49,51,53,55,57,59,61,63,65,67,69,-1,-1,-1,-1,-1,-1,-1,-1,-1,-1,-1,-1,-1,-1,-1,-1,-1,-1,-1,-1,-1,-1,-1,-1,-1,-1,-1,-1,-1,-1],"loss_changes":[6.275E1,1.1625E2,6.40625E1,7.3E1,1.680503E2,1.369375E2,7.188281E1,4.18875E2,1.5225E2,9.7967896E1,0E0,1.1425E2,1.7698828E2,0E0,5.896289E1,1.6775E2,2.3367188E2,1.5515625E2,4.36375E2,0E0,0E0,2.6146875E2,1.92125E2,4.2996094E1,1.5361328E0,0E0,0E0,6.5875E1,7.67251E1,1.4428906E2,2.8882812E1,9.4125E1,1.3762451E2,1.7948438E2,5.421875E1,2.824375E2,1.424375E2,7.822656E1,1.1384375E2,8.352734E1,1.3448438E2,0E0,0E0,0E0,0E0,0E0,0E0,0E0,0E0,0E0,0E0,0E0,0E0,0E0,0E0,0E0,0E0,0E0,0E0,0E0,0E0,0E0,0E0,0E0,0E0,0E0,0E0,0E0,0E0,0E0,0E0],"parents":[2147483647,0,0,1,1,2,2,3,3,4,4,5,5,6,6,7,7,8,8,9,9,11,11,12,12,14,14,15,15,16,16,17,17,18,18,21,21,22,22,23,23,24,24,27,27,28,28,29,29,30,30,31,31,32,32,33,33,34,34,35,35,36,36,37,37,38,38,39,39,40,40],"right_children":[2,4,6,8,10,12,14,16,18,20,-1,22,24,-1,26,28,30,32,34,-1,-1,36,38,40,42,-1,-1,44,46,48,50,52,54,56,58,60,62,64,66,68,70,-1,-1,-1,-1,-1,-1,-1,-1,-1,-1,-1,-1,-1,-1,-1,-1,-1,-1,-1,-1,-1,-1,-1,-1,-1,-1,-1,-1,-1,-1],"split_conditions":[2.915E2,2.905E2,3.595E2,2.195E2,3.5E0,3.535E2,3.625E2,2.035E2,2.465E2,2.5E0,2.2502651E0,4.5E0,5.5E0,2.0238216E0,3.645E2,2.025E2,2.085E2,2.455E2,2.505E2,1.8611215E0,1.0776912E0,3.055E2,2.0175E3,1.5E0,3.555E2,2.3518057E0,2.0549102E0,1.255E2,2.0195E3,4.5E0,2.0175E3,5E-1,4E0,5.5E0,2.0195E3,3.035E2,3.5E0,1.05E1,1.15E1,2.0185E3,3.565E2,2.2896187E0,1.8980737E0,2.220944E0,2.1818771E0,1.9871408E0,1.3963213E0,2.4100926E0,2.7990751E0,2.3820183E0,2.2265368E0,2.285215E0,2.1136956E0,1.9503223E0,1.2025473E0,2.501242E0,1.7323861E0,2.1589818E0,2.2528596E0,2.2588649E0,2.625583E0,2.2019148E0,2.0545607E0,2.1901546E0,2.5251915E0,2.187033E0,2.378932E0,2.827026E0,2.375576E0,2.4843748E0,2.0783758E0],"split_indices":[3,3,3,3,0,3,3,3,3,0,0,0,0,0,3,3,3,3,3,0,0,3,4,0,3,0,0,3,4,0,4,0,0,0,4,3,0,2,2,4,3,0,0,0,0,0,0,0,0,0,0,0,0,0,0,0,0,0,0,0,0,0,0,0,0,0,0,0,0,0,0],"split_type":[0,0,0,0,0,0,0,0,0,0,0,0,0,0,0,0,0,0,0,0,0,0,0,0,0,0,0,0,0,0,0,0,0,0,0,0,0,0,0,0,0,0,0,0,0,0,0,0,0,0,0,0,0,0,0,0,0,0,0,0,0,0,0,0,0,0,0,0,0,0,0],"sum_hessian":[5.4394E4,4.3333E4,1.1061E4,4.3202E4,1.31E2,1.0113E4,9.48E2,3.2548E4,1.0654E4,7E1,6.1E1,9.215E3,8.98E2,4.6E2,4.88E2,3.009E4,2.458E3,4.073E3,6.581E3,3.6E1,3.4E1,6.536E3,2.679E3,7.6E2,1.38E2,2.96E2,1.92E2,2.9948E4,1.42E2,7.97E2,1.661E3,3.927E3,1.46E2,6.45E2,5.936E3,1.491E3,5.045E3,6.78E2,2.001E3,2.79E2,4.81E2,3.6E1,1.02E2,1.8504E4,1.1444E4,1.02E2,4E1,6.4E2,1.57E2,4.32E2,1.229E3,5.08E2,3.419E3,1.1E2,3.6E1,6.06E2,3.9E1,4.491E3,1.445E3,1.209E3,2.82E2,4.036E3,1.009E3,1.48E2,5.3E2,1.415E3,5.86E2,1.27E2,1.52E2,3.22E2,1.59E2],"tree_param":{"num_deleted":"0","num_feature":"6","num_nodes":"71","size_leaf_vector":"0"}},{"base_weights":[5.161885E0,5.2004533E0,5.1234097E0,4.863621E0,5.216445E0,4.867533E0,5.164531E0,4.444459E0,5.284417E0,5.427298E0,5.181907E0,5.1297665E0,4.7352734E0,5.4775643E0,5.145836E0,4.706012E0,3.0305407E0,2.6007197E0,5.451711E0,5.2684193E0,5.66895E0,5.3309E0,5.1396046E0,5.0687323E0,7.4652424E0,4.4725547E0,4.9611487E0,5.06282E0,6.2553644E0,4.7702484E0,5.1745887E0,4.49314E0,6.79348E0,3.6260269E0,1.8546342E0,5.826346E0,4.796877E0,5.5732E0,4.948614E0,6.5632334E0,5.4574947E0,5.2424464E0,6.2159905E0,4.7793045E0,5.2200065E0,6.096841E0,4.993002E0,4.559327E0,3.5666332E0,6.597427E0,4.849192E0,6.497633E0,4.9469423E0,7.1072683E0,5.303969E0,4.3492675E0,5.1568294E0,5.5257807E0,5.1561093E0,5.4773183E0,4.181266E0,3.1350465E0,4.022006E0,4.7235336E0,6.2933645E0,7.37782E0,4.257038E0,6.200857E0,4.9423275E0,5.0898623E0,3.558024E0,8.018875E0,6.323682E0,5.174619E0,5.8423157E0,5.2737846E0,4.4013634E0,6.874377E0,4.8614106E0,3.604928E0,4.8436747E0,5.4225802E0,5.0916433E0,4.114854E0,7.084933E0,3.3943734E0,5.1719813E0,4.4603324E0,5.145285E0,1.104558E0,4.4145527E0,5.4271817E0,8.0807085E0,4.5835547E0,5.126401E0,7.358144E0,5.0562468E0,4.3880095E0,5.1478024E0,8.325911E0,6.561199E0,4.570519E0,6.1808124E0,3.0781815E0,4.4643865E0,5.5550127E0,4.5408545E0,5.3976574E0,6.9380946E0,4.6645937E0,5.1819935E0],"categories":[],"categories_nodes":[],"categories_segments":[],"categories_sizes":[],"default_left":[1,1,1,1,1,1,1,1,1,1,1,1,1,1,1,1,1,0,1,1,1,1,1,1,0,1,1,1,1,1,1,1,0,1,0,1,1,1,1,1,1,1,1,1,1,1,1,1,1,1,1,1,1,1,1,1,1,1,1,0,0,0,0,0,0,0,0,0,0,0,0,0,0,0,0,0,0,0,0,0,0,0,0,0,0,0,0,0,0,0,0,0,0,0,0,0,0,0,0,0,0,0,0,0,0,0,0,0,0,0,0],"id":3,"left_children":[1,3,5,7,9,11,13,15,17,19,21,23,25,27,29,31,33,-1,35,37,39,41,43,45,-1,47,49,51,53,55,57,59,-1,61,-1,63,65,67,69,71,73,75,77,79,81,83,85,87,89,91,93,95,97,99,101,103,105,107,109,-1,-1,-1,-1,-1,-1,-1,-1,-1,-1,-1,-1,-1,-1,-1,-1,-1,-1,-1,-1,-1,-1,-1,-1,-1,-1,-1,-1,-1,-1,-1,-1,-1,-1,-1,-1,-1,-1,-1,-1,-1,-1,-1,-1,-1,-1,-1,-1,-1,-1,-1,-1],"loss_changes":[5.4125E1,1.20625E2,2.62125E2,1.9575586E2,1.601875E2,1.0739844E2,1.09375E2,2.1835059E2,2.619336E2,1.0903906E2,1.1275E2,1.4191016E2,1.2835938E2,3.9059766E2,2.15E2,2.0454395E2,6.399884E1,0E0,1.1384961E2,1.865586E2,2.3308203E2,3.5032812E2,4.77625E2,6.548047E1,0E0,7.673047E1,2.1623438E2,1.1067578E2,3.2783984E2,2.364961E2,1.051875E2,1.25350586E2,0E0,2.2247314E-1,0E0,1.5722949E2,2.6954346E2,4.1165625E2,1.9421875E2,4.2393555E1,9.560547E1,9.415625E1,3.5809766E2,2.2270312E2,3.409375E2,1.2751709E2,3.123418E2,3.9464844E1,2.2058911E2,1.0195215E2,7.016992E1,3.8455322E1,6.711328E1,1.0175586E2,1.1130762E2,9.8637695E1,1.768789E2,1.4639648E2,2.2503125E2,0E0,0E0,0E0,0E0,0E0,0E0,0E0,0E0,0E0,0E0,0E0,0E0,0E0,0E0,0E0,0E0,0E0,0E0,0E0,0E0,0E0,0E0,0E0,0E0,0E0,0E0,0E0,0E0,0E0,0E0,0E0,0E0,0E0,0E0,0E0,0E0,0E0,0E0,0E0,0E0,0E0,0E0,0E0,0E0,0E0,0E0,0E0,0E0,0E0,0E0,0E0,0E0],"parents":[2147483647,0,0,1,1,2,2,3,3,4,4,5,5,6,6,7,7,8,8,9,9,10,10,11,11,12,12,13,13,14,14,15,15,16,16,18,18,19,19,20,20,21,21,22,22,23,23,25,25,26,26,27,27,28,28,29,29,30,30,31,31,33,33,35,35,36,36,37,37,38,38,39,39,40,40,41,41,42,42,43,43,44,44,45,45,46,46,47,47,48,48,49,49,50,50,51,51,52,52,53,53,54,54,55,55,56,56,57,57,58,58],"right_children":[2,4,6,8,10,12,14,16,18,20,22,24,26,28,30,32,34,-1,36,38,40,42,44,46,-1,48,50,52,54,56,58,60,-1,62,-1,64,66,68,70,72,74,76,78,80,82,84,86,88,90,92,94,96,98,100,102,104,106,108,110,-1,-1,-1,-1,-1,-1,-1,-1,-1,-1,-1,-1,-1,-1,-1,-1,-1,-1,-1,-1,-1,-1,-1,-1,-1,-1,-1,-1,-1,-1,-1,-1,-1,-1,-1,-1,-1,-1,-1,-1,-1,-1,-1,-1,-1,-1,-1,-1,-1,-1,-1,-1],"split_conditions":[2.0185E3,1.75E1,5E-1,2.0175E3,5E-1,1.255E2,2.15E1,1.45E1,1.5E0,2.29E2,9.35E1,4.5E0,2.375E2,4.5E0,4.55E1,1.35E1,3.5E0,7.802159E-1,1.15E1,2.0175E3,2.57E2,8.65E1,1.435E2,1E1,2.2395728E0,2.27E2,8.5E0,1.5E0,2.0195E3,2.0195E3,6.15E1,3.5E0,2.038044E0,5E-1,5.563903E-1,1.5E0,5E-1,1.245E2,2.075E2,2.325E2,3.165E2,5E-1,4.5E0,9.55E1,2.295E2,6.5E0,2.05E1,7.5E0,2.305E2,2.41E2,2.0195E3,1.5E0,7.5E0,9E0,1.15E1,2.35E1,3.65E1,6.05E1,7.75E1,1.6431955E0,1.2543797E0,9.4051397E-1,1.2066019E0,1.4170601E0,1.8880094E0,2.213346E0,1.2771115E0,1.8602573E0,1.4826983E0,1.5269588E0,1.0674073E0,2.4056625E0,1.8971046E0,1.5523858E0,1.7526947E0,1.5821354E0,1.320409E0,2.062313E0,1.4584233E0,1.0814785E0,1.4531025E0,1.6267742E0,1.5274931E0,1.2344562E0,2.12548E0,1.0183121E0,1.5515945E0,1.3380997E0,1.5435857E0,3.313674E-1,1.3243659E0,1.6281546E0,2.4242127E0,1.3750665E0,1.5379204E0,2.2074432E0,1.5168741E0,1.3164029E0,1.5443407E0,2.4977732E0,1.9683598E0,1.3711557E0,1.8542438E0,9.2345446E-1,1.339316E0,1.6665039E0,1.3622564E0,1.6192973E0,2.0814285E0,1.3993782E0,1.5545981E0],"split_indices":[4,3,0,4,0,3,3,3,3,3,3,2,3,0,3,3,0,0,3,4,3,3,3,3,0,3,2,3,4,4,3,3,0,0,0,0,0,3,3,3,3,5,0,3,3,3,3,2,3,3,4,0,3,3,3,3,3,3,3,0,0,0,0,0,0,0,0,0,0,0,0,0,0,0,0,0,0,0,0,0,0,0,0,0,0,0,0,0,0,0,0,0,0,0,0,0,0,0,0,0,0,0,0,0,0,0,0,0,0,0,0],"split_type":[0,0,0,0,0,0,0,0,0,0,0,0,0,0,0,0,0,0,0,0,0,0,0,0,0,0,0,0,0,0,0,0,0,0,0,0,0,0,0,0,0,0,0,0,0,0,0,0,0,0,0,0,0,0,0,0,0,0,0,0,0,0,0,0,0,0,0,0,0,0,0,0,0,0,0,0,0,0,0,0,0,0,0,0,0,0,0,0,0,0,0,0,0,0,0,0,0,0,0,0,0,0,0,0,0,0,0,0,0,0,0],"sum_hessian":[5.4394E4,2.7097E4,2.7297E4,1.242E3,2.5855E4,3.796E3,2.3501E4,6.28E2,6.14E2,3.617E3,2.2238E4,1.26E3,2.536E3,1.308E3,2.2193E4,5.28E2,1E2,3.7E1,5.77E2,2.196E3,1.421E3,4.89E3,1.7348E4,1.231E3,2.9E1,1.182E3,1.354E3,8.58E2,4.5E2,1.59E3,2.0603E4,4.82E2,4.6E1,6.5E1,3.5E1,3.62E2,2.15E2,1.116E3,1.08E3,2.66E2,1.155E3,4.452E3,4.38E2,3.176E3,1.4172E4,7.9E1,1.152E3,1.075E3,1.07E2,8.3E1,1.271E3,6E1,7.98E2,2.34E2,2.16E2,7.67E2,8.23E2,1.015E3,1.9588E4,1.12E2,3.7E2,3.3E1,3.2E1,1.11E2,2.51E2,3.5E1,1.8E2,5.55E2,5.61E2,9.78E2,1.02E2,3.3E1,2.33E2,6.74E2,4.81E2,4.287E3,1.65E2,2.92E2,1.46E2,1.68E2,3.008E3,5.481E3,8.691E3,2.8E1,5.1E1,1.18E2,1.034E3,9.27E2,1.48E2,2.8E1,7.9E1,4.9E1,3.4E1,6.58E2,6.13E2,3.5E1,2.5E1,2.17E2,5.81E2,6.8E1,1.66E2,1.21E2,9.5E1,6.6E1,7.01E2,4.95E2,3.28E2,9.35E2,8E1,9.89E2,1.8599E4],"tree_param":{"num_deleted":"0","num_feature":"6","num_nodes":"111","size_leaf_vector":"0"}},{"base_weights":[3.6149144E0,3.5963922E0,3.6847348E0,3.6015897E0,3.0681167E0,4.3449187E0,3.6742609E0,3.621885E0,3.5355594E0,4.19335E0,2.6435335E0,5.3210297E0,3.2086868E0,2.8610654E0,3.6836324E0,3.5983794E0,3.9080532E0,3.3454537E0,3.6216297E0,5.41883E0,2.1666293E0,2.3600683E0,3.4098372E0,4.353201E0,5.963186E0,2.0212142E0,4.291489E0,2.038064E0,3.7573888E0,3.84993E0,3.641326E0,3.602162E0,2.78101E0,4.236466E0,3.748016E0,3.5683634E0,2.9352505E0,3.687144E0,3.213573E0,4.4594865E0,6.3883924E0,1.9395586E0,3.0092008E0,2.9067078E0,1.0615529E0,3.7207682E0,4.343122E0,3.5886996E0,3.9393604E0,3.5978644E0,4.3470154E0,3.154278E0,1.7754586E0,3.7924466E0,4.5945864E0,3.8531675E0,3.406631E0,3.39297E0,4.5559063E0,3.7436411E0,2.798719E0,3.6597538E0,5.268684E0,3.478523E0,2.2156432E0,1.2883295E0,2.5128286E0,2.3745227E0,3.2616022E0,3.8605044E0,3.028275E0,2.8744903E0,4.83573E0,3.0435138E0,3.6130543E0,3.2398796E0,4.0714993E0],"categories":[],"categories_nodes":[],"categories_segments":[],"categories_sizes":[],"default_left":[1,1,1,1,1,1,1,1,1,1,1,1,1,1,1,1,1,1,1,1,0,1,0,0,0,0,0,1,0,1,1,1,1,1,1,1,1,1,1,0,0,1,1,0,0,1,1,1,1,0,0,0,0,0,0,0,0,0,0,0,0,0,0,0,0,0,0,0,0,0,0,0,0,0,0,0,0],"id":4,"left_children":[1,3,5,7,9,11,13,15,17,19,21,23,25,27,29,31,33,35,37,39,-1,41,-1,-1,-1,-1,-1,43,-1,45,47,49,51,53,55,57,59,61,63,-1,-1,65,67,-1,-1,69,71,73,75,-1,-1,-1,-1,-1,-1,-1,-1,-1,-1,-1,-1,-1,-1,-1,-1,-1,-1,-1,-1,-1,-1,-1,-1,-1,-1,-1,-1],"loss_changes":[5.70625E1,1.07125E2,6.2625E1,4.425E1,1.9243848E2,1.736897E2,7.4765625E1,2.0484375E2,1.5248438E2,2.738855E2,5.972534E1,3.0597412E1,9.676141E1,8.9715454E1,6.38125E1,8.303125E1,1.13359375E2,2.773711E2,1.7292188E2,3.755127E1,0E0,5.721875E1,0E0,0E0,0E0,0E0,0E0,5.7139435E1,0E0,1.2564453E2,1.2446875E2,8.021875E1,4.8073486E1,1.0946777E2,4.653711E1,3.3702148E2,1.12475586E2,2.3842188E2,2.4717578E2,0E0,0E0,5.0148865E1,6.51239E0,0E0,0E0,1.5968164E2,3.1599707E2,8.888281E1,1.0844531E2,0E0,0E0,0E0,0E0,0E0,0E0,0E0,0E0,0E0,0E0,0E0,0E0,0E0,0E0,0E0,0E0,0E0,0E0,0E0,0E0,0E0,0E0,0E0,0E0,0E0,0E0,0E0,0E0],"parents":[2147483647,0,0,1,1,2,2,3,3,4,4,5,5,6,6,7,7,8,8,9,9,10,10,11,11,12,12,13,13,14,14,15,15,16,16,17,17,18,18,19,19,21,21,27,27,29,29,30,30,31,31,32,32,33,33,34,34,35,35,36,36,37,37,38,38,41,41,42,42,45,45,46,46,47,47,48,48],"right_children":[2,4,6,8,10,12,14,16,18,20,22,24,26,28,30,32,34,36,38,40,-1,42,-1,-1,-1,-1,-1,44,-1,46,48,50,52,54,56,58,60,62,64,-1,-1,66,68,-1,-1,70,72,74,76,-1,-1,-1,-1,-1,-1,-1,-1,-1,-1,-1,-1,-1,-1,-1,-1,-1,-1,-1,-1,-1,-1,-1,-1,-1,-1,-1,-1],"split_conditions":[2.895E2,2.865E2,2.905E2,2.195E2,5E-1,2.5E0,2.915E2,2.035E2,2.405E2,2.885E2,5.5E0,1.5E0,3.5E0,3.5E0,3.065E2,2.025E2,2.085E2,2.335E2,5.5E0,2.875E2,6.4998883E-1,2.885E2,1.0229512E0,1.3059603E0,1.7889558E0,6.063643E-1,1.2874467E0,2.5E0,1.1272167E0,3.035E2,5.5E0,2.015E2,2.0195E3,2.5E0,2.0195E3,2.315E2,5E-1,2.855E2,2.785E2,1.337846E0,1.9165179E0,2.0195E3,1.5E0,8.720124E-1,3.184659E-1,3.015E2,2.5E0,3.095E2,3.155E2,1.0793594E0,1.3041047E0,9.4628346E-1,5.326376E-1,1.137734E0,1.378376E0,1.1559503E0,1.0219893E0,1.017891E0,1.3667719E0,1.1230924E0,8.396157E-1,1.0979261E0,1.5806053E0,1.0435569E0,6.64693E-1,3.8649887E-1,7.538486E-1,7.123568E-1,9.784807E-1,1.1581514E0,9.0848255E-1,8.623471E-1,1.4507191E0,9.1305417E-1,1.0839163E0,9.7196394E-1,1.2214499E0],"split_indices":[3,3,3,3,0,0,3,3,3,3,0,0,0,0,3,3,3,3,0,3,0,3,0,0,0,0,0,0,0,3,0,3,4,0,4,3,0,3,3,0,0,4,0,0,0,3,0,3,3,0,0,0,0,0,0,0,0,0,0,0,0,0,0,0,0,0,0,0,0,0,0,0,0,0,0,0,0],"split_type":[0,0,0,0,0,0,0,0,0,0,0,0,0,0,0,0,0,0,0,0,0,0,0,0,0,0,0,0,0,0,0,0,0,0,0,0,0,0,0,0,0,0,0,0,0,0,0,0,0,0,0,0,0,0,0,0,0,0,0,0,0,0,0,0,0,0,0,0,0,0,0,0,0,0,0,0,0],"sum_hessian":[5.4394E4,4.3031E4,1.1363E4,4.2606E4,4.25E2,1.71E2,1.1192E4,3.2548E4,1.0058E4,1.14E2,3.11E2,9E1,8.1E1,1.31E2,1.1061E4,3.009E4,2.458E3,3.147E3,6.911E3,7E1,4.4E1,2.3E2,8.1E1,3.9E1,5.1E1,4E1,4.1E1,7E1,6.1E1,2.225E3,8.836E3,2.9948E4,1.42E2,7.97E2,1.661E3,2.034E3,1.113E3,5.948E3,9.63E2,3.8E1,3.2E1,1.42E2,8.8E1,3.6E1,3.4E1,1.77E3,4.55E2,7.521E3,1.315E3,2.9782E4,1.66E2,1.02E2,4E1,3.61E2,4.36E2,1.262E3,3.99E2,1.731E3,3.03E2,1.57E2,9.56E2,5.85E3,9.8E1,7.59E2,2.04E2,6.8E1,7.4E1,2.8E1,6E1,1.469E3,3.01E2,1.16E2,3.39E2,3.27E2,7.194E3,2.13E2,1.102E3],"tree_param":{"num_deleted":"0","num_feature":"6","num_nodes":"77","size_leaf_vector":"0"}},{"base_weights":[2.5311925E0,2.5169103E0,2.617075E0,2.5559947E0,2.4781847E0,2.3011415E0,2.6658375E0,7.9008055E-1,2.5587823E0,2.324352E0,2.5077434E0,1.615806E0,3.0087972E0,5.0170703E0,2.65272E0,2.661184E0,2.5236876E0,2.5143895E0,2.220045E0,2.4026473E0,2.5536945E0,2.0195878E0,8.683765E-1,3.5194743E0,2.0975628E0,2.753448E0,2.51921E0,2.5786426E0,3.752805E0,2.2958574E0,2.573975E0,2.3591383E0,2.9852567E0,2.0309672E0,2.372739E0,2.4929767E0,1.8350778E0,3.3534381E0,2.5121703E0,1.6255201E0,4.814419E0,2.8411612E-1,1.2367842E0,2.9782517E0,4.0973506E0,1.326913E0,3.1020875E0,2.6598065E0,3.2517016E0,2.3111646E0,2.8511572E0,2.6189322E0,1.2564609E0,4.0106034E0,2.2610228E0,2.4936178E0,1.9185193E0,2.7550719E0,2.5383468E0,2.466527E0,1.2189271E0,4.283108E0,2.5902798E0,1.4899966E0,2.0983794E0,3.3447957E0,2.265971E0,2.4418557E0,3.0956247E0,9.5287573E-1,2.2417634E0,3.9171731E0,3.0778153E0,1.9679973E0,2.5287056E0,2.3426905E0,1.3532972E0,7.2625846E-2,4.7205287E-1,1.4802742E0,5.589736E-1,4.215416E0,2.1873071E0,4.53013E0,3.5753176E0,1.660856E0,3.7145066E-1,3.7659981E0,2.4732974E0,2.7194204E0,1.6044632E0,3.6420984E0,2.8463628E0,1.061701E0,2.3357298E0,4.385555E0,2.7381508E0],"categories":[],"categories_nodes":[],"categories_segments":[],"categories_sizes":[],"default_left":[1,1,1,1,1,1,1,0,1,1,1,1,1,0,1,1,1,1,1,1,1,1,1,1,1,1,1,1,1,1,1,1,1,1,1,1,1,1,1,1,0,1,1,1,1,1,1,1,1,1,1,0,0,0,0,0,0,0,0,0,0,0,0,0,0,0,0,0,0,0,0,0,0,0,0,0,0,0,0,0,0,0,0,0,0,0,0,0,0,0,0,0,0,0,0,0,0],"id":5,"left_children":[1,3,5,7,9,11,13,-1,15,17,19,21,23,-1,25,27,29,31,33,35,37,39,41,43,45,47,49,51,53,55,57,59,61,63,65,67,69,71,73,75,-1,77,79,81,83,85,87,89,91,93,95,-1,-1,-1,-1,-1,-1,-1,-1,-1,-1,-1,-1,-1,-1,-1,-1,-1,-1,-1,-1,-1,-1,-1,-1,-1,-1,-1,-1,-1,-1,-1,-1,-1,-1,-1,-1,-1,-1,-1,-1,-1,-1,-1,-1,-1,-1],"loss_changes":[6.015625E1,6.428125E1,1.1296094E2,1.1215625E2,1.0090625E2,5.000044E2,1.930586E2,0E0,7.65E1,6.968359E1,8.8890625E1,1.585011E2,2.3040967E2,0E0,8.2578125E1,5.2121484E2,1.9188281E2,9.0768555E1,6.62041E1,3.031875E2,4.4570312E2,3.710393E2,4.0114853E1,8.9756836E1,1.3987323E2,1.6785742E2,1.9188867E2,2.886836E2,1.493789E2,2.2886133E2,8.421875E1,1.2078613E2,1.5704541E2,3.720752E1,1.3304932E2,1.519043E2,2.9493262E2,9.235791E1,1.1203125E2,5.5984436E1,0E0,2.90698E0,1.8152176E1,1.5908655E2,1.8821777E1,3.352356E1,2.4082397E1,1.9632812E2,8.3629395E1,5.1908203E1,1.7924805E2,0E0,0E0,0E0,0E0,0E0,0E0,0E0,0E0,0E0,0E0,0E0,0E0,0E0,0E0,0E0,0E0,0E0,0E0,0E0,0E0,0E0,0E0,0E0,0E0,0E0,0E0,0E0,0E0,0E0,0E0,0E0,0E0,0E0,0E0,0E0,0E0,0E0,0E0,0E0,0E0,0E0,0E0,0E0,0E0,0E0,0E0],"parents":[2147483647,0,0,1,1,2,2,3,3,4,4,5,5,6,6,8,8,9,9,10,10,11,11,12,12,14,14,15,15,16,16,17,17,18,18,19,19,20,20,21,21,22,22,23,23,24,24,25,25,26,26,27,27,28,28,29,29,30,30,31,31,32,32,33,33,34,34,35,35,36,36,37,37,38,38,39,39,41,41,42,42,43,43,44,44,45,45,46,46,47,47,48,48,49,49,50,50],"right_children":[2,4,6,8,10,12,14,-1,16,18,20,22,24,-1,26,28,30,32,34,36,38,40,42,44,46,48,50,52,54,56,58,60,62,64,66,68,70,72,74,76,-1,78,80,82,84,86,88,90,92,94,96,-1,-1,-1,-1,-1,-1,-1,-1,-1,-1,-1,-1,-1,-1,-1,-1,-1,-1,-1,-1,-1,-1,-1,-1,-1,-1,-1,-1,-1,-1,-1,-1,-1,-1,-1,-1,-1,-1,-1,-1,-1,-1,-1,-1,-1,-1],"split_conditions":[5.5E0,2.0185E3,4.95E1,1.5E0,5E-1,2.0185E3,5.2E1,2.3702417E-1,9.35E1,1.325E2,1.135E2,1.5E0,3.35E1,1.5051211E0,2.315E2,8.65E1,1.435E2,1.01E2,2.375E2,9.7E1,1.265E2,2.85E1,3.9E1,1.95E1,4.4E1,2.035E2,3.155E2,8.35E1,4.5E0,1.265E2,5E-1,9.4E1,1.08E2,1.465E2,2.48E2,8.85E1,1.015E2,1.165E2,1.335E2,7.5E0,1.4443257E0,3.55E1,4.6E1,2.0195E3,2.65E1,4.05E1,4.75E1,1.955E2,2.0185E3,2.34E2,3.205E2,7.856797E-1,3.7693828E-1,1.203181E0,6.783069E-1,7.480854E-1,5.755558E-1,8.265216E-1,7.6150405E-1,7.399581E-1,3.6567816E-1,1.2849325E0,7.77084E-1,4.4699898E-1,6.2951386E-1,1.0034387E0,6.7979133E-1,7.325567E-1,9.2868745E-1,2.8586274E-1,6.7252904E-1,1.175152E0,9.233446E-1,5.903992E-1,7.5861174E-1,7.028072E-1,4.059892E-1,2.1787755E-2,1.4161587E-1,4.440823E-1,1.676921E-1,1.2646248E0,6.561922E-1,1.3590391E0,1.0725954E0,4.9825683E-1,1.11435205E-1,1.1297995E0,7.4198925E-1,8.158262E-1,4.8133898E-1,1.0926296E0,8.539089E-1,3.1851032E-1,7.00719E-1,1.3156664E0,8.214453E-1],"split_indices":[0,4,3,3,0,4,3,0,3,3,3,2,3,0,3,3,3,3,3,3,3,3,3,3,3,3,3,3,0,3,0,3,3,3,3,3,3,3,3,3,0,3,3,4,3,3,3,3,4,3,3,0,0,0,0,0,0,0,0,0,0,0,0,0,0,0,0,0,0,0,0,0,0,0,0,0,0,0,0,0,0,0,0,0,0,0,0,0,0,0,0,0,0,0,0,0,0],"split_type":[0,0,0,0,0,0,0,0,0,0,0,0,0,0,0,0,0,0,0,0,0,0,0,0,0,0,0,0,0,0,0,0,0,0,0,0,0,0,0,0,0,0,0,0,0,0,0,0,0,0,0,0,0,0,0,0,0,0,0,0,0,0,0,0,0,0,0,0,0,0,0,0,0,0,0,0,0,0,0,0,0,0,0,0,0,0,0,0,0,0,0,0,0,0,0,0,0],"sum_hessian":[5.4394E4,4.6664E4,7.73E3,2.3192E4,2.3472E4,1.04E3,6.69E3,3.7E1,2.3155E4,3.796E3,1.9676E4,5.3E2,5.1E2,3.5E1,6.655E3,5.891E3,1.7264E4,1.337E3,2.459E3,6.002E3,1.3674E4,3.43E2,1.87E2,3.25E2,1.85E2,3.782E3,2.873E3,5.48E3,4.11E2,3.13E3,1.4134E4,1.01E3,3.27E2,1.105E3,1.354E3,5.175E3,8.27E2,6.71E2,1.3003E4,3.02E2,4.1E1,7.3E1,1.14E2,1.71E2,1.54E2,1.06E2,7.9E1,3.189E3,5.93E2,1.771E3,1.102E3,5.317E3,1.63E2,3.49E2,6.2E1,2.05E3,1.08E3,2.311E3,1.1823E4,9.22E2,8.8E1,7.4E1,2.53E2,1.25E2,9.8E2,1.31E2,1.223E3,4.775E3,4E2,2.62E2,5.65E2,2.16E2,4.55E2,3.87E2,1.2616E4,8.1E1,2.21E2,3.5E1,3.8E1,8.3E1,3.1E1,6.5E1,1.06E2,8E1,7.4E1,7.8E1,2.8E1,3.6E1,4.3E1,3.017E3,1.72E2,2.98E2,2.95E2,3.5E1,1.736E3,7.3E1,1.029E3],"tree_param":{"num_deleted":"0","num_feature":"6","num_nodes":"97","size_leaf_vector":"0"}},{"base_weights":[1.7725013E0,1.9921151E0,1.769032E0,1.6905674E0,2.3689632E0,1.609681E0,1.7740157E0,1.9976192E0,9.4722426E-1,2.697592E0,1.6788197E0,1.0770999E0,1.7928965E0,2.1379972E0,1.7696614E0,1.2719005E0,2.3107743E0,6.014843E-1,1.4058294E0,1.871338E0,3.0848255E0,5.4040086E-1,1.5119953E0,2.0155327E0,1.5280219E0,1.7234995E0,2.6554904E0,1.8364009E0,1.7476532E0,2.017718E0,8.345195E-1,2.5282023E0,1.1456587E0,7.803812E-1,4.4102505E-1,1.6448532E0,1.014963E0,2.2223334E0,3.5077057E0,1.0988063E0,1.1535826E-1,2.3260221E0,4.3314832E-1,1.6263444E0,2.3301406E0,9.4664186E-1,1.9168358E0,1.4276023E0,2.7029016E0,3.3803856E0,1.6248351E0,2.0500662E0,1.7440766E0,1.6535566E0,1.781806E0,5.5929375E-1,1.1663836E0,2.6172643E0,1.8554876E0,2.8440042E0,3.8704803E0,6.305365E-1,1.7096105E0,-7.638293E-2,6.002678E-1,1.9451534E0,2.9734411E0,1.349898E-1,1.043445E0,2.3676324E0,1.3179619E0,3.3523555E0,1.826241E0,4.8383862E-1,1.9501723E0,2.6468277E0,1.5316056E0,1.880112E0,1.21522434E-1,4.7174897E0,3.0003471E0,2.0666857E0,6.2235814E-1,1.6936303E0,2.2382917E0,7.0593846E-1,1.7985088E0,1.8008534E0,1.5169929E0,2.3767784E0,1.7678736E0],"categories":[],"categories_nodes":[],"categories_segments":[],"categories_sizes":[],"default_left":[1,1,1,1,1,1,1,1,1,1,0,1,1,1,1,1,1,1,1,0,1,1,1,1,1,1,1,1,1,0,1,1,0,0,0,0,0,0,1,1,1,1,1,1,1,1,1,1,0,1,1,1,1,1,1,0,0,0,0,0,0,0,0,0,0,0,0,0,0,0,0,0,0,0,0,0,0,0,0,0,0,0,0,0,0,0,0,0,0,0,0],"id":6,"left_children":[1,3,5,7,9,11,13,15,17,19,-1,21,23,25,27,29,31,33,35,-1,37,39,41,43,45,47,49,51,53,-1,55,57,-1,-1,-1,-1,-1,-1,59,61,63,65,67,69,71,73,75,77,-1,79,81,83,85,87,89,-1,-1,-1,-1,-1,-1,-1,-1,-1,-1,-1,-1,-1,-1,-1,-1,-1,-1,-1,-1,-1,-1,-1,-1,-1,-1,-1,-1,-1,-1,-1,-1,-1,-1,-1,-1],"loss_changes":[3.79375E1,9.122363E1,3.9671875E1,1.0515466E2,7.9387695E1,1.5760791E2,7.8515625E1,7.228479E1,2.1194008E1,7.389563E1,0E0,9.744763E1,6.856909E1,1.2605371E2,7.215625E1,3.1589249E1,5.536914E1,1.9809914E0,3.842682E0,0E0,5.3479492E1,4.4969006E1,2.027373E2,7.665454E1,1.2454675E2,9.496393E1,1.9548206E2,2.4707031E2,1.2113281E2,0E0,5.375927E0,6.706909E0,0E0,0E0,0E0,0E0,0E0,0E0,1.5718384E1,2.2375763E1,1.0180358E1,2.6765015E1,1.8237627E1,6.4773865E1,1.7982678E2,1.0401924E2,8.987195E1,1.557992E2,0E0,6.562561E1,4.876657E1,2.5303223E2,5.004668E2,2.043789E2,2.3053125E2,0E0,0E0,0E0,0E0,0E0,0E0,0E0,0E0,0E0,0E0,0E0,0E0,0E0,0E0,0E0,0E0,0E0,0E0,0E0,0E0,0E0,0E0,0E0,0E0,0E0,0E0,0E0,0E0,0E0,0E0,0E0,0E0,0E0,0E0,0E0,0E0],"parents":[2147483647,0,0,1,1,2,2,3,3,4,4,5,5,6,6,7,7,8,8,9,9,11,11,12,12,13,13,14,14,15,15,16,16,17,17,18,18,20,20,21,21,22,22,23,23,24,24,25,25,26,26,27,27,28,28,30,30,31,31,38,38,39,39,40,40,41,41,42,42,43,43,44,44,45,45,46,46,47,47,49,49,50,50,51,51,52,52,53,53,54,54],"right_children":[2,4,6,8,10,12,14,16,18,20,-1,22,24,26,28,30,32,34,36,-1,38,40,42,44,46,48,50,52,54,-1,56,58,-1,-1,-1,-1,-1,-1,60,62,64,66,68,70,72,74,76,78,-1,80,82,84,86,88,90,-1,-1,-1,-1,-1,-1,-1,-1,-1,-1,-1,-1,-1,-1,-1,-1,-1,-1,-1,-1,-1,-1,-1,-1,-1,-1,-1,-1,-1,-1,-1,-1,-1,-1,-1,-1],"split_conditions":[6.5E0,3.5E0,1.75E1,2.5E0,2.0195E3,2.0175E3,2.15E1,5E-1,3.5E0,2.0175E3,5.036459E-1,1.15E1,1.25E1,4.5E0,2.0175E3,2.0175E3,3.5E0,2.5E0,4.5E0,5.614014E-1,4.5E0,1.5E0,1.45E1,2.5E0,1.45E1,2.05E1,5.5E0,1.245E2,1.135E2,6.0531545E-1,3.5E0,2.0195E3,3.4369764E-1,2.3411436E-1,1.3230751E-1,4.9345598E-1,3.0448893E-1,6.6670007E-1,2.0185E3,5E-1,5.5E0,4.5E0,1.65E1,5E-1,3.5E0,5.5E0,1.5E0,2.0185E3,8.108705E-1,1.85E1,2.05E1,5.75E1,1.365E2,6.55E1,1.195E2,1.6778813E-1,3.499151E-1,7.851793E-1,5.566463E-1,8.5320127E-1,1.1611441E0,1.8916096E-1,5.128832E-1,-2.2914879E-2,1.8008035E-1,5.8354604E-1,8.920324E-1,4.049694E-2,3.1303352E-1,7.102897E-1,3.953886E-1,1.0057067E0,5.478723E-1,1.4515159E-1,5.850517E-1,7.9404837E-1,4.594817E-1,5.640336E-1,3.645673E-2,1.415247E0,9.0010417E-1,6.200057E-1,1.8670745E-1,5.080891E-1,6.7148757E-1,2.1178155E-1,5.395526E-1,5.40256E-1,4.5509788E-1,7.1303356E-1,5.303621E-1],"split_indices":[3,0,3,0,4,4,3,0,3,4,0,3,3,0,4,4,3,3,3,0,0,0,3,0,3,3,0,3,3,0,3,4,0,0,0,0,0,0,4,0,0,0,3,0,0,0,0,4,0,3,3,3,3,3,3,0,0,0,0,0,0,0,0,0,0,0,0,0,0,0,0,0,0,0,0,0,0,0,0,0,0,0,0,0,0,0,0,0,0,0,0],"split_type":[0,0,0,0,0,0,0,0,0,0,0,0,0,0,0,0,0,0,0,0,0,0,0,0,0,0,0,0,0,0,0,0,0,0,0,0,0,0,0,0,0,0,0,0,0,0,0,0,0,0,0,0,0,0,0,0,0,0,0,0,0,0,0,0,0,0,0,0,0,0,0,0,0,0,0,0,0,0,0,0,0,0,0,0,0,0,0,0,0,0,0],"sum_hessian":[5.4394E4,8.37E2,5.3557E4,4.68E2,3.69E2,1.634E3,5.1923E4,3.3E2,1.38E2,2.48E2,1.21E2,4.2E2,1.214E3,6.08E2,5.1315E4,1.01E2,2.29E2,8E1,5.8E1,8.1E1,1.67E2,1.89E2,2.31E2,6.56E2,5.58E2,3.4E2,2.68E2,1.2705E4,3.861E4,3.6E1,6.5E1,1.92E2,3.7E1,3.6E1,4.4E1,3.4E1,2.4E1,5.7E1,1.1E2,8.1E1,1.08E2,1.31E2,1E2,2.96E2,3.6E2,2.25E2,3.33E2,2.63E2,7.7E1,1.56E2,1.12E2,3.827E3,8.878E3,1.0295E4,2.8315E4,3.7E1,2.8E1,1.67E2,2.5E1,4.2E1,6.8E1,4.7E1,3.4E1,7.8E1,3E1,8.5E1,4.6E1,6.8E1,3.2E1,8.5E1,2.11E2,1.17E2,2.43E2,1.55E2,7E1,1.13E2,2.2E2,1.95E2,6.8E1,3.2E1,1.24E2,7.7E1,3.5E1,1.326E3,2.501E3,4.43E2,8.435E3,4.947E3,5.348E3,6.44E2,2.7671E4],"tree_param":{"num_deleted":"0","num_feature":"6","num_nodes":"91","size_leaf_vector":"0"}},{"base_weights":[1.2411876E0,1.230553E0,1.3052175E0,1.2346406E0,1.0074444E0,1.2759933E0,1.5867207E0,1.2881185E0,1.216784E0,1.4776653E0,7.418455E-1,1.3489239E0,1.0835072E0,2.6433594E0,1.0946864E0,1.2501137E0,2.483117E0,7.7170783E-1,1.2359278E0,1.3103194E0,2.6870646E0,4.6689507E-1,1.029608E0,1.1508787E0,1.4450008E0,1.950343E-1,1.1724964E0,2.232955E0,2.8790793E0,-3.432429E-1,1.2218521E0,1.2581061E0,5.38197E-1,3.203169E0,1.4806089E0,1.3952038E0,6.7543155E-1,1.6849638E0,1.226811E0,5.221783E-1,1.8954755E0,8.3578366E-1,-3.6112968E-2,1.9228387E0,7.221532E-1,1.2722163E0,-1.2361529E0,3.2213013E0,1.4095843E0,-8.698683E-1,4.730936E-1,1.4959738E0,1.0263379E0,3.2007349E0,2.2423854E0,3.8781097E0,1.0184981E0,1.25106E0,2.0197556E0,-8.7390596E-1,1.1650225E0,4.1506386E0,3.002764E0,9.973547E-1,2.0571685E0,5.6819636E-1,2.8926175E0,7.7834725E-1,8.124044E-2,2.7443883E0,1.3771667E0,1.1903512E0,1.2652994E0,1.1348985E0,-1.2721163E0,2.1175811E0,1.6635582E0,5.4104054E-1,1.2017814E0,-5.191498E-1,1.04511835E-1,1.748112E-2,1.2412319E0,1.0997921E0,1.5998291E0,-8.661235E-1,-1.6124377E0,4.6388704E-1,1.4290309E0,9.552532E-1,2.986841E-1,1.2582062E0,2.166627E0,-2.8547714E0,1.1407797E0,7.1159154E-1,1.3191822E0],"categories":[],"categories_nodes":[],"categories_segments":[],"categories_sizes":[],"default_left":[1,1,1,1,1,1,1,1,1,1,1,1,1,1,1,1,1,1,1,1,0,1,1,1,1,1,1,0,1,0,1,1,1,1,1,1,1,1,1,1,1,1,1,0,1,1,1,0,1,0,1,1,1,0,0,0,1,0,0,0,0,0,0,0,0,0,0,0,0,0,0,0,0,0,0,0,0,0,0,0,0,0,0,0,0,0,0,0,0,0,0,0,0,0,0,0,0],"id":7,"left_children":[1,3,5,7,9,11,13,15,17,19,21,23,25,27,29,31,33,35,37,39,-1,41,43,45,47,49,51,-1,53,-1,55,57,59,61,63,65,67,69,71,73,75,77,79,-1,81,83,85,-1,87,-1,89,91,93,-1,-1,-1,95,-1,-1,-1,-1,-1,-1,-1,-1,-1,-1,-1,-1,-1,-1,-1,-1,-1,-1,-1,-1,-1,-1,-1,-1,-1,-1,-1,-1,-1,-1,-1,-1,-1,-1,-1,-1,-1,-1,-1,-1],"loss_changes":[3.54375E1,4.1304688E1,6.1575195E1,4.2195312E1,1.04436035E2,9.693164E1,3.7299585E2,5.1703906E2,2.9189062E2,5.8005066E1,4.2402557E1,9.497754E1,1.5244531E2,1.5724731E1,9.093274E1,6.2492188E1,2.4935132E2,8.429724E1,1.3282031E2,1.2306918E2,0E0,5.1799725E1,7.111322E1,4.8352783E2,2.1036133E2,5.2822308E1,8.143921E1,0E0,2.1903687E1,0E0,2.418233E2,5.638672E1,1.1166089E2,2.6271484E1,3.946338E1,2.3240878E2,7.5275635E1,2.09156E2,4.3816406E1,1.289742E2,4.409851E0,1.6717712E1,8.137565E0,0E0,7.24028E1,8.771802E1,9.881599E0,0E0,6.0964355E1,0E0,1.1571825E1,8.40199E1,5.415802E2,0E0,0E0,0E0,3.8188812E1,0E0,0E0,0E0,0E0,0E0,0E0,0E0,0E0,0E0,0E0,0E0,0E0,0E0,0E0,0E0,0E0,0E0,0E0,0E0,0E0,0E0,0E0,0E0,0E0,0E0,0E0,0E0,0E0,0E0,0E0,0E0,0E0,0E0,0E0,0E0,0E0,0E0,0E0,0E0,0E0],"parents":[2147483647,0,0,1,1,2,2,3,3,4,4,5,5,6,6,7,7,8,8,9,9,10,10,11,11,12,12,13,13,14,14,15,15,16,16,17,17,18,18,19,19,21,21,22,22,23,23,24,24,25,25,26,26,28,28,30,30,31,31,32,32,33,33,34,34,35,35,36,36,37,37,38,38,39,39,40,40,41,41,42,42,44,44,45,45,46,46,48,48,50,50,51,51,52,52,56,56],"right_children":[2,4,6,8,10,12,14,16,18,20,22,24,26,28,30,32,34,36,38,40,-1,42,44,46,48,50,52,-1,54,-1,56,58,60,62,64,66,68,70,72,74,76,78,80,-1,82,84,86,-1,88,-1,90,92,94,-1,-1,-1,96,-1,-1,-1,-1,-1,-1,-1,-1,-1,-1,-1,-1,-1,-1,-1,-1,-1,-1,-1,-1,-1,-1,-1,-1,-1,-1,-1,-1,-1,-1,-1,-1,-1,-1,-1,-1,-1,-1,-1,-1],"split_conditions":[5.5E0,5E-1,1.15E1,9.35E1,1.5E0,8.5E0,3.425E2,9.05E1,1.045E2,2.0185E3,2E0,7.75E1,2.515E2,3.365E2,3.435E2,8.95E1,1.5E0,5E-1,1.095E2,3.5E0,8.0611944E-1,1.5E0,2.275E2,7.55E1,8.25E1,2.0175E3,2.785E2,6.698865E-1,2.0195E3,-1.0297288E-1,3.46E2,8.85E1,2E0,2.0175E3,2.5E0,9.95E1,1.025E2,2.0175E3,2.405E2,2E0,5E-1,2.0185E3,2.5E0,5.768516E-1,2.755E2,4.95E1,7.65E1,9.6639043E-1,8.45E1,-2.609605E-1,2.0185E3,2.715E2,2.795E2,9.602205E-1,6.7271566E-1,1.163433E0,2.0185E3,3.7531802E-1,6.059267E-1,-2.621718E-1,3.4950677E-1,1.2451916E0,9.0082926E-1,2.992064E-1,6.1715055E-1,1.7045891E-1,8.677853E-1,2.3350419E-1,2.4372132E-2,8.233165E-1,4.1315004E-1,3.5710537E-1,3.7958986E-1,3.4046957E-1,-3.8163492E-1,6.3527435E-1,4.990675E-1,1.6231216E-1,3.6053443E-1,-1.5574494E-1,3.1353552E-2,5.244336E-3,3.723696E-1,3.2993764E-1,4.7994873E-1,-2.5983706E-1,-4.8373133E-1,1.3916612E-1,4.287093E-1,2.8657597E-1,8.960523E-2,3.7746188E-1,6.499881E-1,-8.564314E-1,3.4223393E-1,2.1347748E-1,3.9575467E-1],"split_indices":[0,5,2,3,0,2,3,3,3,4,1,3,3,3,3,3,0,0,3,1,0,2,3,3,3,4,3,0,4,0,3,3,0,4,0,3,3,4,3,1,0,4,0,0,3,3,3,0,3,0,4,3,3,0,0,0,4,0,0,0,0,0,0,0,0,0,0,0,0,0,0,0,0,0,0,0,0,0,0,0,0,0,0,0,0,0,0,0,0,0,0,0,0,0,0,0,0],"split_type":[0,0,0,0,0,0,0,0,0,0,0,0,0,0,0,0,0,0,0,0,0,0,0,0,0,0,0,0,0,0,0,0,0,0,0,0,0,0,0,0,0,0,0,0,0,0,0,0,0,0,0,0,0,0,0,0,0,0,0,0,0,0,0,0,0,0,0,0,0,0,0,0,0,0,0,0,0,0,0,0,0,0,0,0,0,0,0,0,0,0,0,0,0,0,0,0,0],"sum_hessian":[5.4394E4,4.6664E4,7.73E3,4.582E4,8.44E2,7.008E3,7.22E2,1.1452E4,3.4368E4,3.03E2,5.41E2,5.078E3,1.93E3,2.28E2,4.94E2,1.1101E4,3.51E2,1.419E3,3.2949E4,2.68E2,3.5E1,2.78E2,2.63E2,1.663E3,3.415E3,1.76E2,1.754E3,8.7E1,1.41E2,4E1,4.54E2,1.0977E4,1.24E2,2.03E2,1.48E2,1.88E2,1.231E3,6.52E2,3.2297E4,1.15E2,1.53E2,1.6E2,1.18E2,6.6E1,1.97E2,1.583E3,8E1,6.5E1,3.35E3,3.6E1,1.4E2,5.43E2,1.211E3,9.1E1,5E1,3.1E1,4.23E2,1.0879E4,9.8E1,3.8E1,8.6E1,3.2E1,1.71E2,8.2E1,6.6E1,1.22E2,6.6E1,1.049E3,1.82E2,1.45E2,5.07E2,1.6602E4,1.5695E4,8.6E1,2.9E1,7.4E1,7.9E1,9E1,7E1,2.6E1,9.2E1,8.4E1,1.13E2,1.04E3,5.43E2,4.2E1,3.8E1,6.8E1,3.282E3,3.6E1,1.04E2,4.03E2,1.4E2,3.4E1,1.177E3,2.11E2,2.12E2],"tree_param":{"num_deleted":"0","num_feature":"6","num_nodes":"97","size_leaf_vector":"0"}},{"base_weights":[8.6914116E-1,8.724204E-1,6.835427E-1,8.6628014E-1,1.230363E0,4.242557E-1,9.265852E-1,8.698698E-1,2.4237691E-1,1.3915433E0,3.3907863E-1,6.0474133E-1,-1.1157158E-1,1.2177699E0,4.7369176E-1,8.669018E-1,1.7902844E0,-1.1999543E0,6.275937E-1,1.856919E0,1.2713797E0,1.0029752E0,9.729949E-2,1.694661E-1,1.3322606E0,-6.163491E-1,1.2485046E0,1.8582096E0,9.9691445E-1,-3.8554057E-1,6.468655E-1,8.6828244E-1,3.8951147E-1,1.4029958E0,3.0254111E0,-7.612672E-1,-1.520009E0,2.1218157E0,-2.5726286E-1,1.0819066E0,2.4733186E0,1.5412989E0,7.4489427E-1,2.4694224E-1,9.667295E-3,-2.8385153E-1,8.632854E-1,6.346379E-1,2.577218E0,-7.3674285E-1,-4.726808E-1,1.6132407E0,2.1538672E0,1.0850369E0,8.191865E-1,1.6819323E0,2.7920157E-1,8.5866445E-1,9.2626387E-1,2.1536808E0,-1.1781012E-1,1.2988178E0,1.568599E0,3.61992E-1,-5.58297E-1,1.7344714E0,5.49121E-1,3.226073E0,1.4573836E0,9.4308037E-1,2.5254812E0,1.962952E-1,1.0725437E0,-1.630473E-1,2.498888E-1,7.074174E-1,-1.3481282E0,1.3789179E0,2.0652522E-1,9.721876E-1,8.350997E-2,1.9151334E-1,4.8668686E-1],"categories":[],"categories_nodes":[],"categories_segments":[],"categories_sizes":[],"default_left":[1,1,1,1,1,1,1,1,1,1,1,1,1,1,1,1,1,1,1,1,1,0,1,1,1,1,0,1,1,0,1,1,1,1,0,0,0,0,1,1,1,1,1,0,1,1,1,1,0,0,0,0,0,0,0,0,1,0,0,0,0,0,0,0,0,0,0,0,0,0,0,0,0,0,0,0,0,0,0,0,0,0,0],"id":8,"left_children":[1,3,5,7,9,11,13,15,17,19,21,23,25,27,29,31,33,35,37,39,41,-1,43,45,47,49,-1,51,53,-1,55,57,59,61,-1,-1,-1,-1,63,65,67,69,71,-1,73,75,77,79,-1,-1,-1,-1,-1,-1,-1,-1,81,-1,-1,-1,-1,-1,-1,-1,-1,-1,-1,-1,-1,-1,-1,-1,-1,-1,-1,-1,-1,-1,-1,-1,-1,-1,-1],"loss_changes":[3.2507812E1,1.1640234E2,5.9410767E1,1.1747656E2,1.2867615E2,4.4650375E1,6.391034E1,1.4117969E2,1.6854736E2,4.0195312E1,2.2214188E1,1.0902575E2,8.1094215E1,4.0156555E1,2.8967121E1,3.398828E1,7.563995E1,7.82872E0,3.1654495E2,7.089252E1,8.5253845E1,0E0,1.3483055E0,6.8495995E1,1.1040225E2,1.1392746E0,0E0,1.9573364E0,2.6037445E0,0E0,6.080004E1,2.8164062E1,1.3629391E2,1.8823242E-1,0E0,0E0,0E0,0E0,2.8351042E1,2.3384956E1,6.0302124E1,2.3370941E2,3.7177086E1,0E0,2.7790678E0,1.4021164E2,2.883886E1,1.5545589E1,0E0,0E0,0E0,0E0,0E0,0E0,0E0,0E0,2.0900755E0,0E0,0E0,0E0,0E0,0E0,0E0,0E0,0E0,0E0,0E0,0E0,0E0,0E0,0E0,0E0,0E0,0E0,0E0,0E0,0E0,0E0,0E0,0E0,0E0,0E0,0E0],"parents":[2147483647,0,0,1,1,2,2,3,3,4,4,5,5,6,6,7,7,8,8,9,9,10,10,11,11,12,12,13,13,14,14,15,15,16,16,17,17,18,18,19,19,20,20,22,22,23,23,24,24,25,25,27,27,28,28,30,30,31,31,32,32,33,33,38,38,39,39,40,40,41,41,42,42,44,44,45,45,46,46,47,47,56,56],"right_children":[2,4,6,8,10,12,14,16,18,20,22,24,26,28,30,32,34,36,38,40,42,-1,44,46,48,50,-1,52,54,-1,56,58,60,62,-1,-1,-1,-1,64,66,68,70,72,-1,74,76,78,80,-1,-1,-1,-1,-1,-1,-1,-1,82,-1,-1,-1,-1,-1,-1,-1,-1,-1,-1,-1,-1,-1,-1,-1,-1,-1,-1,-1,-1,-1,-1,-1,-1,-1,-1],"split_conditions":[3.595E2,3.535E2,3.625E2,3.515E2,5.5E0,4.5E0,3.645E2,3.505E2,2.0175E3,5E-1,3.555E2,2.0185E3,5.5E0,2.0175E3,5E-1,3.495E2,2.0195E3,5E-1,2.0185E3,3.575E2,3.575E2,3.008926E-1,3.565E2,3.615E2,3.605E2,3.615E2,3.7455142E-1,4.5E0,2.0195E3,-1.1566218E-1,1.5E0,5.5E0,2.0175E3,3.5E0,9.0762335E-1,-2.2838016E-1,-4.5600274E-1,6.365447E-1,2.5E0,3.565E2,3.585E2,2.0185E3,3.585E2,7.408267E-2,3.575E2,3.605E2,3.5E0,3.5E0,7.7316546E-1,-2.2102286E-1,-1.4180425E-1,4.8397222E-1,6.461602E-1,3.2551107E-1,2.4575596E-1,5.045797E-1,4.5E0,2.5759935E-1,2.7787918E-1,6.461043E-1,-3.534304E-2,3.8964534E-1,4.705797E-1,1.0859761E-1,-1.674891E-1,5.2034146E-1,1.6473632E-1,9.6782196E-1,4.3721512E-1,2.8292412E-1,7.576444E-1,5.8888562E-2,3.2176313E-1,-4.891419E-2,7.496664E-2,2.1222524E-1,-4.0443847E-1,4.136754E-1,6.1957568E-2,2.916563E-1,2.505299E-2,5.7454005E-2,1.4600606E-1],"split_indices":[3,3,3,3,0,0,3,3,4,0,3,4,0,4,0,3,4,0,4,3,3,0,3,3,3,3,0,0,4,0,0,0,4,0,0,0,0,0,0,3,3,4,3,0,3,3,0,0,0,0,0,0,0,0,0,0,0,0,0,0,0,0,0,0,0,0,0,0,0,0,0,0,0,0,0,0,0,0,0,0,0,0,0],"split_type":[0,0,0,0,0,0,0,0,0,0,0,0,0,0,0,0,0,0,0,0,0,0,0,0,0,0,0,0,0,0,0,0,0,0,0,0,0,0,0,0,0,0,0,0,0,0,0,0,0,0,0,0,0,0,0,0,0,0,0,0,0,0,0,0,0,0,0,0,0,0,0,0,0,0,0,0,0,0,0,0,0,0,0],"sum_hessian":[5.4394E4,5.3446E4,9.48E2,5.2548E4,8.98E2,4.6E2,4.88E2,5.2247E4,3.01E2,7.6E2,1.38E2,3.44E2,1.16E2,2.96E2,1.92E2,5.2081E4,1.66E2,6.3E1,2.38E2,1.53E2,6.07E2,3.6E1,1.02E2,2.16E2,1.28E2,8.5E1,3.1E1,7.4E1,2.22E2,3.2E1,1.6E2,5.193E4,1.51E2,1.28E2,3.8E1,2.8E1,3.5E1,8.8E1,1.5E2,6.9E1,8.4E1,4E2,2.07E2,3.7E1,6.5E1,1.31E2,8.5E1,8.3E1,4.5E1,4.4E1,4.1E1,4.4E1,3E1,1.45E2,7.7E1,4.1E1,1.19E2,4.4555E4,7.375E3,3.3E1,1.18E2,8.4E1,4.4E1,4.9E1,1.01E2,3E1,3.9E1,4.7E1,3.7E1,2.5E2,1.5E2,7.8E1,1.29E2,3.8E1,2.7E1,6.8E1,6.3E1,4.7E1,3.8E1,5.1E1,3.2E1,8.5E1,3.4E1],"tree_param":{"num_deleted":"0","num_feature":"6","num_nodes":"83","size_leaf_vector":"0"}},{"base_weights":[6.0858995E-1,6.324474E-1,5.9040886E-1,6.162356E-1,1.985081E0,3.5167682E-1,6.079379E-1,6.3074046E-1,4.087572E-1,1.4490114E0,3.443313E0,5.10776E-1,-5.905493E-1,1.17871E0,5.987247E-1,6.106902E-1,1.3720932E0,-1.885841E-1,8.100365E-1,1.8880049E0,-2.4877788E-1,1.9759353E-2,6.8002707E-1,-2.2106448E-1,-3.355545E0,7.8671813E-1,1.9731287E0,2.7983934E-1,6.121769E-1,6.272762E-1,5.124277E-1,1.0313488E0,1.7589191E0,-4.3059945E-1,4.588855E-1,1.2714198E0,3.4585887E-1,2.3202226E0,1.5377312E0,-1.4719652E0,3.5250694E-1,1.2276164E0,4.1720715E-1,-8.395866E-1,5.526372E-1,1.1653571E0,-1.10811755E-1,1.5891465E0,2.377994E0,6.0977435E-1,-4.2073067E-2,2.0752664E0,6.038686E-1,5.905409E-1,9.004404E-1,3.156712E-1,1.097937E0,6.2711465E-1,1.603849E0,2.1577075E0,1.1461618E0,-7.79629E-2,-2.7423346E0,6.615682E-1,-4.8875135E-1,2.405867E-1,1.6599803E0,8.7747645E-1,-7.081835E-2,1.5777949E0,3.0387826E0,9.717692E-1,2.6383076E0,-5.105409E-1,-2.64766E0,8.6105853E-1,-8.312825E-1,1.7145889E0,6.653996E-1,-1.2151684E-1,5.143628E-1,-1.1112843E0,-3.0832144E-2,1.0861654E0,-6.879718E-1,2.4345715E0,4.1570386E-1,1.78399E-1,-3.4681252E-1,2.665501E0,2.041758E0,1.2955222E0,4.068786E-1,1.9275518E-1,-6.1708385E-1,3.0297933E0,1.7221407E0,5.1782376E-1,6.377802E-1],"categories":[],"categories_nodes":[],"categories_segments":[],"categories_sizes":[],"default_left":[1,1,1,1,1,1,1,1,1,1,0,1,1,1,1,1,1,1,1,1,0,1,1,1,0,1,1,1,1,1,1,1,1,1,1,1,1,1,1,1,1,1,1,1,1,1,1,0,1,1,1,1,1,0,0,0,0,0,0,0,0,0,0,0,0,0,0,0,0,0,0,0,0,0,0,0,0,0,0,0,0,0,0,0,0,0,0,0,0,0,0,0,0,0,0,0,0,0,0],"id":9,"left_children":[1,3,5,7,9,11,13,15,17,19,-1,21,23,25,27,29,31,33,35,37,-1,39,41,43,-1,45,47,49,51,53,55,57,59,61,63,65,67,69,71,73,75,77,79,81,83,85,87,-1,89,91,93,95,97,-1,-1,-1,-1,-1,-1,-1,-1,-1,-1,-1,-1,-1,-1,-1,-1,-1,-1,-1,-1,-1,-1,-1,-1,-1,-1,-1,-1,-1,-1,-1,-1,-1,-1,-1,-1,-1,-1,-1,-1,-1,-1,-1,-1,-1,-1],"loss_changes":[2.3220703E1,5.143408E2,1.290332E2,6.9663086E1,2.123269E2,3.1735577E2,1.5058984E2,3.2192676E2,3.6473746E2,1.5326001E2,0E0,1.5040677E2,3.1187512E2,1.4044867E2,1.212959E2,3.413916E1,7.344873E1,9.60965E1,1.9444928E2,2.1109375E1,0E0,2.3132988E2,1.9320068E2,1.3015147E2,0E0,1.0445999E2,1.9540222E1,1.2195494E2,3.2900684E2,1.8095703E2,3.5205853E2,6.981E1,6.2526794E1,3.6336646E2,3.2398975E1,1.8224744E2,1.00850525E2,3.3082428E1,5.536441E1,9.4727264E1,2.3008467E2,1.18229004E2,4.7744324E1,3.314598E1,8.083713E1,2.0450558E2,6.341235E0,0E0,1.4212646E0,7.836261E1,7.8705696E1,4.6353638E1,7.850293E1,0E0,0E0,0E0,0E0,0E0,0E0,0E0,0E0,0E0,0E0,0E0,0E0,0E0,0E0,0E0,0E0,0E0,0E0,0E0,0E0,0E0,0E0,0E0,0E0,0E0,0E0,0E0,0E0,0E0,0E0,0E0,0E0,0E0,0E0,0E0,0E0,0E0,0E0,0E0,0E0,0E0,0E0,0E0,0E0,0E0,0E0],"parents":[2147483647,0,0,1,1,2,2,3,3,4,4,5,5,6,6,7,7,8,8,9,9,11,11,12,12,13,13,14,14,15,15,16,16,17,17,18,18,19,19,21,21,22,22,23,23,25,25,26,26,27,27,28,28,29,29,30,30,31,31,32,32,33,33,34,34,35,35,36,36,37,37,38,38,39,39,40,40,41,41,42,42,43,43,44,44,45,45,46,46,48,48,49,49,50,50,51,51,52,52],"right_children":[2,4,6,8,10,12,14,16,18,20,-1,22,24,26,28,30,32,34,36,38,-1,40,42,44,-1,46,48,50,52,54,56,58,60,62,64,66,68,70,72,74,76,78,80,82,84,86,88,-1,90,92,94,96,98,-1,-1,-1,-1,-1,-1,-1,-1,-1,-1,-1,-1,-1,-1,-1,-1,-1,-1,-1,-1,-1,-1,-1,-1,-1,-1,-1,-1,-1,-1,-1,-1,-1,-1,-1,-1,-1,-1,-1,-1,-1,-1,-1,-1,-1,-1],"split_conditions":[1.595E2,1.575E2,1.735E2,1.475E2,2.0195E3,1.715E2,1.765E2,1.435E2,5.5E0,4.5E0,1.0329939E0,2.0175E3,5.5E0,1.755E2,1.845E2,1.225E2,4.5E0,2.0195E3,1.545E2,2.0175E3,-7.463337E-2,1.615E2,2.0185E3,1.725E2,-1.0066636E0,2.0195E3,2.0185E3,2.0185E3,1.855E2,1.075E2,2.0195E3,2.0185E3,5.5E0,3.5E0,5.5E0,2.0175E3,1.5E0,2.5E0,2.0185E3,4.5E0,1.685E2,3.5E0,5E-1,4.5E0,4.5E0,4.5E0,5E-1,4.7674397E-1,1.5E0,1.785E2,2.5E0,1.5E0,1.5E0,1.7716227E-1,2.7013212E-1,9.4701365E-2,3.293811E-1,1.881344E-1,4.8115474E-1,6.473123E-1,3.4384856E-1,-2.338887E-2,-8.2270044E-1,1.9847047E-1,-1.4662541E-1,7.217601E-2,4.979941E-1,2.6324296E-1,-2.1245506E-2,4.7333848E-1,9.116348E-1,2.915308E-1,7.914923E-1,-1.5316227E-1,-7.9429805E-1,2.5831756E-1,-2.4938476E-1,5.143767E-1,1.9961989E-1,-3.6455054E-2,1.5430886E-1,-3.333853E-1,-9.249643E-3,3.2584965E-1,-2.0639154E-1,7.303715E-1,1.2471116E-1,5.35197E-2,-1.0404376E-1,7.996504E-1,6.1252743E-1,3.8865668E-1,1.22063585E-1,5.7826556E-2,-1.8512516E-1,9.08938E-1,5.166422E-1,1.5534714E-1,1.9133407E-1],"split_indices":[3,3,3,3,4,3,3,3,2,0,0,4,0,3,3,3,0,4,3,4,0,3,4,3,0,4,4,4,3,3,4,4,0,0,0,4,0,0,4,0,3,0,0,0,0,0,0,0,0,3,1,0,0,0,0,0,0,0,0,0,0,0,0,0,0,0,0,0,0,0,0,0,0,0,0,0,0,0,0,0,0,0,0,0,0,0,0,0,0,0,0,0,0,0,0,0,0,0,0],"split_type":[0,0,0,0,0,0,0,0,0,0,0,0,0,0,0,0,0,0,0,0,0,0,0,0,0,0,0,0,0,0,0,0,0,0,0,0,0,0,0,0,0,0,0,0,0,0,0,0,0,0,0,0,0,0,0,0,0,0,0,0,0,0,0,0,0,0,0,0,0,0,0,0,0,0,0,0,0,0,0,0,0,0,0,0,0,0,0,0,0,0,0,0,0,0,0,0,0,0,0],"sum_hessian":[5.4394E4,2.351E4,3.0884E4,2.3233E4,2.77E2,2.114E3,2.877E4,2.1713E4,1.52E3,2.04E2,7.3E1,1.809E3,3.05E2,4.55E2,2.8315E4,2.1143E4,5.7E2,6.11E2,9.09E2,1.62E2,4.2E1,4.64E2,1.345E3,2.7E2,3.5E1,3.06E2,1.49E2,1.147E3,2.7168E4,1.8085E4,3.058E3,3.05E2,2.65E2,4.45E2,1.66E2,4.55E2,4.54E2,7E1,9.2E1,8.4E1,3.8E2,4.35E2,9.1E2,1.5E2,1.2E2,2.15E2,9.1E1,7.9E1,7E1,5.66E2,5.81E2,1.52E2,2.7016E4,1.5944E4,2.141E3,2.29E3,7.68E2,1.8E2,1.25E2,1.59E2,1.06E2,3.87E2,5.8E1,1.37E2,2.9E1,1.25E2,3.3E2,1.99E2,2.55E2,3.6E1,3.4E1,6.2E1,3E1,4.7E1,3.7E1,2.66E2,1.14E2,2.32E2,2.03E2,1.39E2,7.71E2,1.12E2,3.8E1,8.4E1,3.6E1,7.9E1,1.36E2,4.1E1,5E1,3.4E1,3.6E1,1.28E2,4.38E2,4.13E2,1.68E2,3.9E1,1.13E2,7.642E3,1.9374E4],"tree_param":{"num_deleted":"0","num_feature":"6","num_nodes":"99","size_leaf_vector":"0"}},{"base_weights":[4.2618752E-1,5.820405E-1,4.2374098E-1,3.5490397E-1,8.6837834E-1,4.5725363E-1,4.1268578E-1,5.5864525E-1,-1.3281745E-1,1.1018691E0,3.8470972E-1,-4.1904944E-1,4.6994108E-1,4.478276E-1,3.6517137E-1,1.1184393E-1,7.5436306E-1,-3.745152E-1,2.0125605E-1,7.653462E-1,1.5874139E0,5.883472E-1,2.8558385E-1,-2.2474336E-2,-7.1354586E-1,6.810058E-1,4.356777E-1,3.8331002E-1,5.117352E-1,3.9518803E-1,1.7949629E-1,6.405782E-1,-1.8626231E-1,8.946022E-1,2.2244252E-2,-2.3559158E-1,-4.8041874E-1,3.7856162E-1,-5.502197E-2,5.306638E-1,1.0370905E0,8.07005E-1,1.937647E0,2.2246347E-1,3.3791003E-1,-3.47886E-1,4.2444664E-1,-8.5358256E-1,-3.3366054E-1,-4.135483E-1,7.0138156E-1,3.401725E-1,5.2967536E-1,3.4645018E-1,6.7022085E-1,5.3126746E-1,1.04152165E-1,3.4040135E-1,5.861709E-1,-2.2327214E-1,3.6499515E-1,-3.5890982E-1,4.63883E-2,7.6648164E-1,1.1351091E0,5.9959435E-1,4.665752E-1,6.956828E-1,1.2194047E0,9.614406E-1,5.8401954E-1,4.3969992E-1,2.2240934E-1,4.745469E-1,1.1252229E0,4.001231E-1,1.0177134E-1,2.0281763E0,4.1230342E-1,5.1451856E-1,2.985598E0,4.1309693E-1,-2.2924025E-1,4.3337935E-1,1.5544729E-1,7.320369E-1,2.900042E-1,-9.944686E-1,1.6662003E-1,6.57718E-2,5.304725E-1],"categories":[],"categories_nodes":[],"categories_segments":[],"categories_sizes":[],"default_left":[1,1,1,1,1,1,1,1,1,1,1,1,1,1,1,1,1,1,1,1,1,0,1,1,1,1,1,1,1,1,1,0,1,1,0,0,0,0,0,1,1,0,0,0,0,0,0,0,0,0,1,1,1,1,1,1,1,1,1,1,1,0,0,0,0,0,0,0,0,0,0,0,0,0,0,0,0,0,0,0,0,0,0,0,0,0,0,0,0,0,0],"id":10,"left_children":[1,3,5,7,9,11,13,15,17,19,21,23,25,27,29,31,33,35,37,39,41,-1,43,45,47,49,51,53,55,57,59,-1,61,63,-1,-1,-1,-1,-1,65,67,-1,-1,-1,-1,-1,-1,-1,-1,-1,69,71,73,75,77,79,81,83,85,87,89,-1,-1,-1,-1,-1,-1,-1,-1,-1,-1,-1,-1,-1,-1,-1,-1,-1,-1,-1,-1,-1,-1,-1,-1,-1,-1,-1,-1,-1,-1],"loss_changes":[2.049414E1,5.419345E1,1.965332E1,4.6678253E1,4.1360992E1,1.477998E2,6.709863E1,2.8860588E1,1.1298903E1,3.9470917E1,2.2946377E0,2.217405E1,9.43457E1,9.526367E1,9.541138E1,1.6196453E1,2.359459E1,1.0785313E0,2.7017608E0,8.951935E0,2.6042114E1,0E0,2.0226622E-1,1.207319E1,5.5137634E0,4.1014343E1,1.00921875E2,1.2165027E2,9.251538E1,1.5410327E2,1.7834692E2,0E0,2.6676412E0,5.0770416E0,0E0,0E0,0E0,0E0,0E0,8.249283E-2,3.3842316E0,0E0,0E0,0E0,0E0,0E0,0E0,0E0,0E0,0E0,5.416272E1,6.540906E1,1.857528E2,1.3410901E2,4.5832892E2,4.5458984E2,5.499361E1,1.9704077E2,1.41745E2,2.2658035E2,8.087213E1,0E0,0E0,0E0,0E0,0E0,0E0,0E0,0E0,0E0,0E0,0E0,0E0,0E0,0E0,0E0,0E0,0E0,0E0,0E0,0E0,0E0,0E0,0E0,0E0,0E0,0E0,0E0,0E0,0E0,0E0],"parents":[2147483647,0,0,1,1,2,2,3,3,4,4,5,5,6,6,7,7,8,8,9,9,10,10,11,11,12,12,13,13,14,14,15,15,16,16,17,17,18,18,19,19,20,20,22,22,23,23,24,24,25,25,26,26,27,27,28,28,29,29,30,30,32,32,33,33,39,39,40,40,50,50,51,51,52,52,53,53,54,54,55,55,56,56,57,57,58,58,59,59,60,60],"right_children":[2,4,6,8,10,12,14,16,18,20,22,24,26,28,30,32,34,36,38,40,42,-1,44,46,48,50,52,54,56,58,60,-1,62,64,-1,-1,-1,-1,-1,66,68,-1,-1,-1,-1,-1,-1,-1,-1,-1,70,72,74,76,78,80,82,84,86,88,90,-1,-1,-1,-1,-1,-1,-1,-1,-1,-1,-1,-1,-1,-1,-1,-1,-1,-1,-1,-1,-1,-1,-1,-1,-1,-1,-1,-1,-1,-1],"split_conditions":[6.5E0,3.5E0,2.0175E3,2.5E0,2.0195E3,1.15E1,3.5E0,5E-1,3.5E0,2.0185E3,4.5E0,1.5E0,5E-1,1.5E0,3.185E2,2.0175E3,3.5E0,2.5E0,4.5E0,2.0175E3,4.5E0,1.7650416E-1,5.5E0,5E-1,5.5E0,1.95E1,3.5E0,3.285E2,3.515E2,2.485E2,4.5E0,1.9217347E-1,3.5E0,2.5E0,6.673276E-3,-7.0677474E-2,-1.4412563E-1,1.1356849E-1,-1.6506592E-2,5E0,4.5E0,2.421015E-1,5.812941E-1,6.6739045E-2,1.0137301E-1,-1.043658E-1,1.27334E-1,-2.560748E-1,-1.0009817E-1,-1.2406449E-1,1.245E2,2.005E2,3.365E2,2.675E2,3.33E2,3.465E2,2.5E0,1.665E2,5.5E0,2.0185E3,1.15E1,-1.0767295E-1,1.391649E-2,2.299445E-1,3.4053272E-1,1.7987831E-1,1.3997257E-1,2.0870486E-1,3.6582142E-1,2.884322E-1,1.7520587E-1,1.3190998E-1,6.67228E-2,1.4236408E-1,3.3756688E-1,1.2003693E-1,3.0531403E-2,6.084529E-1,1.2369103E-1,1.5435557E-1,8.956795E-1,1.2392908E-1,-6.877208E-2,1.3001381E-1,4.663419E-2,2.1961108E-1,8.7001264E-2,-2.983406E-1,4.9986012E-2,1.9731542E-2,1.5914176E-1],"split_indices":[3,0,4,0,4,3,0,0,3,4,0,0,0,0,3,4,3,3,3,4,0,0,0,0,0,3,0,3,3,3,0,0,3,3,0,0,0,0,0,0,0,0,0,0,0,0,0,0,0,0,3,3,3,3,3,3,0,3,0,4,2,0,0,0,0,0,0,0,0,0,0,0,0,0,0,0,0,0,0,0,0,0,0,0,0,0,0,0,0,0,0],"split_type":[0,0,0,0,0,0,0,0,0,0,0,0,0,0,0,0,0,0,0,0,0,0,0,0,0,0,0,0,0,0,0,0,0,0,0,0,0,0,0,0,0,0,0,0,0,0,0,0,0,0,0,0,0,0,0,0,0,0,0,0,0,0,0,0,0,0,0,0,0,0,0,0,0,0,0,0,0,0,0,0,0,0,0,0,0,0,0,0,0,0,0],"sum_hessian":[5.4394E4,8.37E2,5.3557E4,4.68E2,3.69E2,1.3275E4,4.0282E4,3.3E2,1.38E2,2.48E2,1.21E2,1.89E2,1.3086E4,2.3151E4,1.7131E4,1.01E2,2.29E2,8E1,5.8E1,1.48E2,1E2,3.8E1,8.3E1,8.1E1,1.08E2,1.825E3,1.1261E4,1.1524E4,1.1627E4,1.4746E4,2.385E3,3.6E1,6.5E1,1.92E2,3.7E1,3.6E1,4.4E1,3.4E1,2.4E1,8.1E1,6.7E1,3.2E1,6.8E1,4E1,4.3E1,4.7E1,3.4E1,7.8E1,3E1,3.3E1,1.792E3,5.588E3,5.673E3,1.0214E4,1.31E3,1.1095E4,5.32E2,1.1461E4,3.285E3,7.52E2,1.633E3,3.7E1,2.8E1,1.28E2,6.4E1,3.5E1,4.6E1,2.5E1,4.2E1,5.55E2,1.237E3,3.027E3,2.561E3,5.194E3,4.79E2,8.376E3,1.838E3,2.08E2,1.102E3,1.1021E4,7.4E1,2.76E2,2.56E2,7.626E3,3.835E3,2.2E3,1.085E3,2.52E2,5E2,5.82E2,1.051E3],"tree_param":{"num_deleted":"0","num_feature":"6","num_nodes":"91","size_leaf_vector":"0"}},{"base_weights":[2.984361E-1,2.914725E-1,3.4043047E-1,2.8668776E-1,4.2863128E-1,3.3309647E-1,9.8851633E-1,2.9727563E-1,1.2725517E-1,6.993139E-1,1.7410834E-1,8.6553715E-2,3.637158E-1,3.2958066E-1,1.7380528E0,2.922511E-1,8.506038E-1,-2.0930652E-1,1.8500264E-1,9.3505776E-1,5.6091636E-1,3.000948E-1,-1.2867136E-1,4.290984E-1,-6.744069E-1,7.4318916E-1,3.4418738E-1,2.9819274E-1,-3.510105E-1,-7.801906E-1,1.227842E0,1.9183448E-1,-5.307067E-1,-1.308296E-1,2.8057775E-1,7.2751844E-1,1.5245112E0,8.239476E-1,2.6416361E-2,1.1667533E-1,6.189848E-1,4.1522514E-2,-8.633188E-1,2.2819515E-1,1.7104647E0,-9.3415666E-1,-4.725011E-1,2.8969663E-1,1.0603111E0,-1.1449768E-1,3.7459376E-1,2.8186035E-1,4.4485736E-1,-9.2669034E-1,9.629468E-2,-5.743457E-1,-9.9336E-1,2.0081012E0,9.080641E-1,3.8612264E-1,-8.599168E-1,2.0932405E-1,-8.714171E-1,-4.0897653E-1,2.4762668E-1,4.076673E-1,-9.128297E-2,1.1803181E0,1.1837133E-2,9.608785E-1,1.904228E0,5.835909E-1,1.2840602E0,-4.7575355E-1,4.5324576E-1,-4.3079993E-1,4.2500892E-1,9.3914235E-1,-6.763831E-1,3.01121E-1,-1.3042837E-1,-2.504638E-1,7.193438E-1,2.0032268E0,1.3418735E0,-3.876676E-1,-1.2243173E0,-1.3516308E-1,-5.8574826E-1,-1.0132495E0,6.7665535E-1,6.8425405E-1,1.6932385E0,2.2134744E-1,-1.4523183E0,1.686439E0,3.6010826E-1],"categories":[],"categories_nodes":[],"categories_segments":[],"categories_sizes":[],"default_left":[1,1,1,1,1,1,1,1,1,1,1,1,1,0,0,1,1,1,1,1,1,1,1,1,1,1,1,1,1,1,1,1,1,1,1,1,1,1,1,1,1,1,0,1,1,1,1,1,1,1,1,0,0,0,0,0,0,0,0,0,0,0,0,0,0,0,0,0,0,0,0,0,0,0,0,0,0,0,0,0,0,0,0,0,0,0,0,0,0,0,0,0,0,0,0,0,0],"id":11,"left_children":[1,3,5,7,9,11,13,15,17,19,21,23,25,-1,-1,27,29,31,33,35,37,39,41,43,45,47,49,51,53,55,57,59,61,63,65,67,69,71,73,75,77,79,-1,81,83,85,87,89,91,93,95,-1,-1,-1,-1,-1,-1,-1,-1,-1,-1,-1,-1,-1,-1,-1,-1,-1,-1,-1,-1,-1,-1,-1,-1,-1,-1,-1,-1,-1,-1,-1,-1,-1,-1,-1,-1,-1,-1,-1,-1,-1,-1,-1,-1,-1,-1],"loss_changes":[1.5807617E1,3.0501953E1,3.6416687E1,7.608496E1,1.0811215E2,5.7687927E1,4.1902252E1,1.173147E2,5.465271E1,2.43042E1,3.0975136E1,2.208103E2,5.0143127E1,0E0,0E0,1.6027417E2,2.3473312E2,5.3219635E1,7.2452225E1,3.3144623E1,6.774271E1,3.3442917E1,2.9918615E1,1.4994917E2,1.3351639E1,4.7438553E1,9.027966E1,9.934082E1,9.897099E1,2.5888138E0,7.5275055E1,3.7931114E1,5.79216E1,5.883996E1,8.708943E1,6.771461E1,1.3579773E1,3.497159E1,3.4510174E1,6.1796925E1,8.731207E1,8.743721E0,0E0,1.1913707E2,5.8367767E0,1.7602318E1,5.6512146E0,7.0263336E1,4.5254654E1,1.8138959E2,1.1470117E2,0E0,0E0,0E0,0E0,0E0,0E0,0E0,0E0,0E0,0E0,0E0,0E0,0E0,0E0,0E0,0E0,0E0,0E0,0E0,0E0,0E0,0E0,0E0,0E0,0E0,0E0,0E0,0E0,0E0,0E0,0E0,0E0,0E0,0E0,0E0,0E0,0E0,0E0,0E0,0E0,0E0,0E0,0E0,0E0,0E0,0E0],"parents":[2147483647,0,0,1,1,2,2,3,3,4,4,5,5,6,6,7,7,8,8,9,9,10,10,11,11,12,12,15,15,16,16,17,17,18,18,19,19,20,20,21,21,22,22,23,23,24,24,25,25,26,26,27,27,28,28,29,29,30,30,31,31,32,32,33,33,34,34,35,35,36,36,37,37,38,38,39,39,40,40,41,41,43,43,44,44,45,45,46,46,47,47,48,48,49,49,50,50],"right_children":[2,4,6,8,10,12,14,16,18,20,22,24,26,-1,-1,28,30,32,34,36,38,40,42,44,46,48,50,52,54,56,58,60,62,64,66,68,70,72,74,76,78,80,-1,82,84,86,88,90,92,94,96,-1,-1,-1,-1,-1,-1,-1,-1,-1,-1,-1,-1,-1,-1,-1,-1,-1,-1,-1,-1,-1,-1,-1,-1,-1,-1,-1,-1,-1,-1,-1,-1,-1,-1,-1,-1,-1,-1,-1,-1,-1,-1,-1,-1,-1,-1],"split_conditions":[5.5E0,3.535E2,5E-1,3.315E2,3.595E2,4.5E1,1.35E1,3.285E2,5E-1,1.5E0,2.0195E3,3.35E1,6.15E1,9.8874204E-2,5.214159E-1,3.255E2,2.0175E3,2.0185E3,3.365E2,2.0195E3,3.565E2,2.0185E3,4.5E0,2.85E1,3.8E1,2.0185E3,7.75E1,2.925E2,3.265E2,2.5E0,2.0185E3,3.515E2,3.39E2,2.0185E3,2.0195E3,2.0185E3,5E-1,2.0185E3,3.585E2,3.615E2,4.5E0,1.5E0,-2.5899565E-1,2.0185E3,1.5E0,3.45E1,4.05E1,4.95E1,5.45E1,7.55E1,8.25E1,8.455811E-2,1.3345721E-1,-2.7800712E-1,2.8888404E-2,-1.7230372E-1,-2.98008E-1,6.024304E-1,2.7241924E-1,1.158368E-1,-2.5797504E-1,6.279722E-2,-2.6142514E-1,-1.22692965E-1,7.4288E-2,1.223002E-1,-2.7384892E-2,3.5409546E-1,3.5511402E-3,2.8826356E-1,5.7126844E-1,1.7507729E-1,3.8521808E-1,-1.4272606E-1,1.3597374E-1,-1.2923999E-1,1.2750268E-1,2.8174272E-1,-2.0291494E-1,9.03363E-2,-3.9128512E-2,-7.513915E-2,2.1580315E-1,6.0096806E-1,4.0256208E-1,-1.16300285E-1,-3.672952E-1,-4.0548928E-2,-1.7572448E-1,-3.0397487E-1,2.0299661E-1,2.0527622E-1,5.079716E-1,6.640423E-2,-4.356955E-1,5.0593174E-1,1.0803248E-1],"split_indices":[0,3,5,3,3,3,3,3,0,0,4,3,3,0,0,3,4,4,3,4,3,4,0,3,3,4,3,3,3,0,4,3,3,4,4,4,0,4,3,3,0,0,0,4,2,3,3,3,3,3,3,0,0,0,0,0,0,0,0,0,0,0,0,0,0,0,0,0,0,0,0,0,0,0,0,0,0,0,0,0,0,0,0,0,0,0,0,0,0,0,0,0,0,0,0,0,0],"split_type":[0,0,0,0,0,0,0,0,0,0,0,0,0,0,0,0,0,0,0,0,0,0,0,0,0,0,0,0,0,0,0,0,0,0,0,0,0,0,0,0,0,0,0,0,0,0,0,0,0,0,0,0,0,0,0,0,0,0,0,0,0,0,0,0,0,0,0,0,0,0,0,0,0,0,0,0,0,0,0,0,0,0,0,0,0,0,0,0,0,0,0,0,0,0,0,0,0],"sum_hessian":[5.4394E4,4.6664E4,7.73E3,4.5094E4,1.57E3,7.645E3,8.5E1,4.2285E4,2.809E3,7.6E2,8.1E2,8.45E2,6.8E3,4.6E1,3.9E1,4.1906E4,3.79E2,4.11E2,2.398E3,2.79E2,4.81E2,5.72E2,2.38E2,5.83E2,2.62E2,3.31E2,6.469E3,4.1523E4,3.83E2,7.1E1,3.08E2,1.83E2,2.28E2,5.57E2,1.841E3,2.08E2,7.1E1,3.22E2,1.59E2,3.64E2,2.08E2,1.94E2,4.4E1,5.05E2,7.8E1,1.13E2,1.49E2,1.37E2,1.94E2,4.02E2,6.067E3,3.7365E4,4.158E3,1.67E2,2.16E2,3.8E1,3.3E1,8.8E1,2.2E2,1.55E2,2.8E1,7.2E1,1.56E2,3.21E2,2.36E2,1.372E3,4.69E2,1.27E2,8.1E1,3E1,4.1E1,2.13E2,1.09E2,7.3E1,8.6E1,1.31E2,2.33E2,1.67E2,4.1E1,7.7E1,1.17E2,2.56E2,2.49E2,4.1E1,3.7E1,4E1,7.3E1,3.8E1,1.11E2,3.1E1,1.06E2,1.23E2,7.1E1,3.22E2,8E1,6.5E1,6.002E3],"tree_param":{"num_deleted":"0","num_feature":"6","num_nodes":"97","size_leaf_vector":"0"}},{"base_weights":[2.0897198E-1,2.44013E-1,2.0139411E-1,1.8099776E-1,6.2977254E-1,-1.9254272E-1,2.1038868E-1,2.404271E-1,-5.7099783E-1,5.278418E-1,9.5181775E-1,-7.08909E-1,4.9239054E-1,6.098159E-1,2.0739321E-1,2.0459503E-1,4.74732E-1,-8.114661E-1,5.151704E-1,6.7820424E-1,3.5918057E-1,2.2622826E0,8.108814E-1,-7.459917E-2,-8.655882E-1,1.5483257E-1,1.4267193E0,2.5980263E0,1.3299566E-2,-2.4577415E-1,2.1105078E-1,2.601832E-1,8.457818E-2,-3.0945015E-1,7.64222E-1,-3.3248037E-1,-1.8924896E0,6.680597E-1,1.9133614E-1,9.501323E-1,2.690778E-1,-5.4082406E-1,4.935494E-1,1.1958144E0,6.5959454E-1,-4.4601622E-1,1.24484584E-1,-1.1421274E0,-2.0447628E-1,5.379417E-1,-1.4295348E0,1.916856E0,5.728459E-1,2.1979325E0,2.9495296E0,-3.5757312E-1,4.919416E-1,1.4024857E0,-4.3456516E-1,5.2371424E-1,2.064035E-1,2.322604E-1,1.2039483E0,3.6331335E-1,-1.2065852E-1,-4.4298103E-1,4.6671426E-1,9.0720814E-1,3.4102467E-1,1.24707E-1,-8.317311E-1,-4.780253E-1,-2.2774837E0,3.3758402E-1,1.1262321E0,4.9677065E-1,1.2318577E0,1.0230668E0,3.99505E-2,-4.5096403E-1,-5.9818846E-1,6.2359655E-1,1.3216077E-1,5.2149856E-1,1.2127137E0,6.029757E-1,-4.70254E-1,-6.7697245E-1,-1.3141644E0,-6.14526E-1,1.0939978E0,1.1767317E0,4.1771343E-1,-2.5577571E0,-4.2518234E-1,8.7742314E-2,-1.721473E0,-1.5407544E-1,8.6329526E-1,2.3855099E-1,-6.825141E-1,7.479138E-1,-2.2464523E-1,-8.303683E-1,2.1037203E-1],"categories":[],"categories_nodes":[],"categories_segments":[],"categories_sizes":[],"default_left":[1,1,1,1,1,1,1,1,1,1,1,1,1,1,1,1,1,1,1,1,1,0,1,1,1,1,1,1,1,1,1,1,1,1,1,1,1,1,0,1,1,1,1,0,1,0,1,1,1,1,1,0,0,0,0,1,1,0,1,1,1,0,0,0,0,0,0,0,0,0,0,0,0,0,0,0,0,0,0,0,0,0,0,0,0,0,0,0,0,0,0,0,0,0,0,0,0,0,0,0,0,0,0,0,0],"id":12,"left_children":[1,3,5,7,9,11,13,15,17,19,21,23,25,27,29,31,33,35,37,39,41,-1,43,45,47,49,51,53,55,57,59,61,63,65,67,69,71,73,-1,75,77,79,81,-1,83,-1,85,87,89,91,93,-1,-1,-1,-1,95,97,-1,99,101,103,-1,-1,-1,-1,-1,-1,-1,-1,-1,-1,-1,-1,-1,-1,-1,-1,-1,-1,-1,-1,-1,-1,-1,-1,-1,-1,-1,-1,-1,-1,-1,-1,-1,-1,-1,-1,-1,-1,-1,-1,-1,-1,-1,-1],"loss_changes":[1.4394531E1,2.3487854E2,1.5852844E2,3.7156094E2,4.4042908E1,3.536718E2,5.2196533E1,6.457443E1,1.5948218E2,2.5953613E1,5.819049E1,5.65838E1,1.3539688E2,3.8541544E2,7.1998535E1,4.456372E1,2.3201665E2,2.577504E2,5.367872E0,6.0377213E1,5.940295E1,0E0,1.639067E1,8.485036E0,8.331677E1,1.9318344E2,4.6612625E1,4.0646973E0,4.4732235E1,1.08898926E2,6.2459717E1,1.2007248E2,1.2115039E2,2.8811916E1,4.4832092E1,7.930686E1,8.2229065E1,1.0975918E1,0E0,4.1153625E1,3.7793453E1,6.0144424E-2,1.9938553E1,0E0,1.5713646E1,0E0,2.1626835E1,2.4878052E1,7.3083984E1,1.9169426E1,6.916672E1,0E0,0E0,0E0,0E0,8.6396965E1,2.65221E1,0E0,5.2402023E1,1.0587056E2,1.747561E2,0E0,0E0,0E0,0E0,0E0,0E0,0E0,0E0,0E0,0E0,0E0,0E0,0E0,0E0,0E0,0E0,0E0,0E0,0E0,0E0,0E0,0E0,0E0,0E0,0E0,0E0,0E0,0E0,0E0,0E0,0E0,0E0,0E0,0E0,0E0,0E0,0E0,0E0,0E0,0E0,0E0,0E0,0E0,0E0],"parents":[2147483647,0,0,1,1,2,2,3,3,4,4,5,5,6,6,7,7,8,8,9,9,10,10,11,11,12,12,13,13,14,14,15,15,16,16,17,17,18,18,19,19,20,20,22,22,23,23,24,24,25,25,26,26,27,27,28,28,29,29,30,30,31,31,32,32,33,33,34,34,35,35,36,36,37,37,39,39,40,40,41,41,42,42,44,44,46,46,47,47,48,48,49,49,50,50,55,55,56,56,58,58,59,59,60,60],"right_children":[2,4,6,8,10,12,14,16,18,20,22,24,26,28,30,32,34,36,38,40,42,-1,44,46,48,50,52,54,56,58,60,62,64,66,68,70,72,74,-1,76,78,80,82,-1,84,-1,86,88,90,92,94,-1,-1,-1,-1,96,98,-1,100,102,104,-1,-1,-1,-1,-1,-1,-1,-1,-1,-1,-1,-1,-1,-1,-1,-1,-1,-1,-1,-1,-1,-1,-1,-1,-1,-1,-1,-1,-1,-1,-1,-1,-1,-1,-1,-1,-1,-1,-1,-1,-1,-1,-1,-1],"split_conditions":[6.55E1,5.65E1,7.25E1,5.25E1,2.0195E3,3.5E0,7.45E1,4.55E1,5.5E0,2.5E0,5.75E1,6.65E1,6.95E1,2.0175E3,7.65E1,1.5E0,1.5E0,4.5E0,5.55E1,6.35E1,2.5E0,6.7868483E-1,1.5E0,1.5E0,2.0195E3,5.5E0,7.05E1,1.5E0,7.35E1,1.5E0,8.05E1,3.05E1,2.5E0,5.15E1,5.05E1,5.45E1,5.35E1,5.45E1,5.7400845E-2,5E-1,2.0175E3,4.5E0,2.0185E3,3.5874432E-1,5.5E0,-1.3380487E-1,2.5E0,2.0175E3,2.5E0,2.0175E3,6.85E1,5.7505685E-1,1.7185377E-1,6.593798E-1,8.848589E-1,3.5E0,3.5E0,4.2074573E-1,2.0175E3,2.0195E3,8.15E1,6.967813E-2,3.6118448E-1,1.0899401E-1,-3.6197558E-2,-1.3289432E-1,1.4001429E-1,2.7216247E-1,1.023074E-1,3.74121E-2,-2.4951933E-1,-1.434076E-1,-6.832451E-1,1.0127521E-1,3.3786964E-1,1.490312E-1,3.6955732E-1,3.0692005E-1,1.1985151E-2,-1.3528922E-1,-1.7945655E-1,1.8707897E-1,3.964823E-2,1.5644957E-1,3.6381412E-1,1.8089272E-1,-1.410762E-1,-2.0309174E-1,-3.9424935E-1,-1.8435779E-1,3.2819936E-1,3.5301954E-1,1.2531404E-1,-7.673272E-1,-1.2755471E-1,2.6322694E-2,-5.1644194E-1,-4.6222635E-2,2.589886E-1,7.15653E-2,-2.0475423E-1,2.2437415E-1,-6.739357E-2,-2.4911049E-1,6.311161E-2],"split_indices":[3,3,3,3,4,0,3,3,0,0,3,3,3,4,3,2,0,0,3,3,2,0,0,0,4,0,3,0,3,0,3,3,0,3,3,3,3,3,0,0,4,0,4,0,0,0,0,4,0,4,3,0,0,0,0,0,0,0,4,4,3,0,0,0,0,0,0,0,0,0,0,0,0,0,0,0,0,0,0,0,0,0,0,0,0,0,0,0,0,0,0,0,0,0,0,0,0,0,0,0,0,0,0,0,0],"split_type":[0,0,0,0,0,0,0,0,0,0,0,0,0,0,0,0,0,0,0,0,0,0,0,0,0,0,0,0,0,0,0,0,0,0,0,0,0,0,0,0,0,0,0,0,0,0,0,0,0,0,0,0,0,0,0,0,0,0,0,0,0,0,0,0,0,0,0,0,0,0,0,0,0,0,0,0,0,0,0,0,0,0,0,0,0,0,0,0,0,0,0,0,0,0,0,0,0,0,0,0,0,0,0,0,0],"sum_hessian":[5.4394E4,9.666E3,4.4728E4,8.31E3,1.356E3,9.98E2,4.373E4,7.702E3,6.08E2,1.032E3,3.24E2,5.69E2,4.29E2,3.24E2,4.3406E4,6.682E3,1.02E3,4.98E2,1.1E2,5.44E2,4.88E2,3E1,2.94E2,1.13E2,4.56E2,3.16E2,1.13E2,7.4E1,2.5E2,3.47E2,4.3059E4,4.566E3,2.116E3,2.75E2,7.45E2,3.46E2,1.52E2,7.4E1,3.6E1,3.26E2,2.18E2,6.3E1,4.25E2,8.1E1,2.13E2,3.9E1,7.4E1,3.21E2,1.35E2,2.55E2,6.1E1,7.1E1,4.2E1,3.8E1,3.6E1,1.41E2,1.09E2,3.5E1,3.12E2,6.29E2,4.243E4,4.436E3,1.3E2,8.97E2,1.219E3,2.35E2,4E1,5.56E2,1.89E2,1.81E2,1.65E2,3.3E1,1.19E2,4.4E1,3E1,1.26E2,2E2,5E1,1.68E2,2.8E1,3.5E1,3.12E2,1.13E2,1.72E2,4.1E1,4.1E1,3.3E1,8.8E1,2.33E2,1.03E2,3.2E1,3.9E1,2.16E2,2.8E1,3.3E1,1.07E2,3.4E1,4E1,6.9E1,8.4E1,2.28E2,4.84E2,1.45E2,1.61E2,4.2269E4],"tree_param":{"num_deleted":"0","num_feature":"6","num_nodes":"105","size_leaf_vector":"0"}},{"base_weights":[1.4635335E-1,1.4729737E-1,-1.1953014E-1,1.557223E-1,1.21871844E-1,-5.3406185E-1,1.0010101E-1,9.742783E-2,1.787455E-1,2.2908823E-1,7.806399E-2,-7.288023E-1,-3.3519053E-1,5.8032936E-1,-1.3559309E-1,1.4582117E-1,-1.6159737E-2,1.5645954E-1,2.698916E-1,-7.7350175E-1,2.6648518E-1,2.962871E-1,2.713522E-2,-2.418913E-1,7.089326E-2,1.3716845E-1,9.5847857E-1,-5.057204E-1,9.982237E-2,1.7141287E-1,-2.2323507E-1,7.260483E-1,1.8298012E-1,-1.1596614E-1,-9.3540466E-1,1.0117587E0,2.4173298E-1,1.939144E-1,5.4506546E-1,-3.5568598E-1,1.0761824E-1,1.4441523E-1,-1.7303789E0,2.421316E0,-1.656737E-1,-1.0301724E-1,-1.3217375E0,1.1838148E0,5.1011384E-2,1.670769E-1,9.421982E-1,1.5834162E-1,-9.8435205E-1,3.7829927E-1,9.0475804E-1,3.5518178E-1,1.01224504E-1,-1.0373712E0,-6.6797155E-1,2.9444557E-1,2.4569566E0,-2.82597E-1,2.844892E-1,2.5920728E-1,-6.871506E-1,4.8782623E-1,1.3137845E0,-2.9452878E-1,-2.2532835E0,9.819101E-1,6.863587E-2],"categories":[],"categories_nodes":[],"categories_segments":[],"categories_sizes":[],"default_left":[1,1,1,1,1,1,1,1,1,1,1,0,0,0,1,1,1,1,1,1,1,1,1,0,0,1,1,1,1,1,1,1,1,0,1,1,1,1,1,1,1,0,0,0,0,0,0,0,0,0,0,0,0,0,0,0,0,0,0,0,0,0,0,0,0,0,0,0,0,0,0],"id":13,"left_children":[1,3,5,7,9,11,13,15,17,19,21,-1,-1,-1,23,25,27,29,31,33,35,37,39,-1,-1,41,43,45,47,49,51,53,55,-1,57,59,61,63,65,67,69,-1,-1,-1,-1,-1,-1,-1,-1,-1,-1,-1,-1,-1,-1,-1,-1,-1,-1,-1,-1,-1,-1,-1,-1,-1,-1,-1,-1,-1,-1],"loss_changes":[1.3670898E1,1.1591675E1,1.7624968E1,5.46192E1,6.3367065E1,2.3505096E0,1.4453436E1,6.33704E1,5.9234497E1,1.4695688E2,1.06484726E2,0E0,0E0,0E0,1.9047735E0,5.6712723E1,1.9565852E2,1.3318604E2,2.2711374E2,1.4901962E1,6.937503E1,4.6067993E1,2.3943669E2,0E0,0E0,1.08519455E2,1.4017957E2,2.167482E2,1.4734894E2,7.5250305E1,2.5834323E2,5.6645752E1,6.7765884E1,0E0,2.3884735E0,1.2471235E2,8.199715E1,7.415817E1,2.2591568E1,1.5600621E2,2.1877292E2,0E0,0E0,0E0,0E0,0E0,0E0,0E0,0E0,0E0,0E0,0E0,0E0,0E0,0E0,0E0,0E0,0E0,0E0,0E0,0E0,0E0,0E0,0E0,0E0,0E0,0E0,0E0,0E0,0E0,0E0],"parents":[2147483647,0,0,1,1,2,2,3,3,4,4,5,5,6,6,7,7,8,8,9,9,10,10,14,14,15,15,16,16,17,17,18,18,19,19,20,20,21,21,22,22,25,25,26,26,27,27,28,28,29,29,30,30,31,31,32,32,34,34,35,35,36,36,37,37,38,38,39,39,40,40],"right_children":[2,4,6,8,10,12,14,16,18,20,22,-1,-1,-1,24,26,28,30,32,34,36,38,40,-1,-1,42,44,46,48,50,52,54,56,-1,58,60,62,64,66,68,70,-1,-1,-1,-1,-1,-1,-1,-1,-1,-1,-1,-1,-1,-1,-1,-1,-1,-1,-1,-1,-1,-1,-1,-1,-1,-1,-1,-1,-1,-1],"split_conditions":[3.645E2,2.0195E3,2.0185E3,1.5E0,1.5E0,3E0,1.5E0,2.535E2,2.935E2,1.7E1,6.75E1,-2.186407E-1,-1.0055716E-1,1.7409882E-1,2.5E0,2.525E2,2.745E2,2.835E2,3.055E2,6.5E0,2.75E1,4.65E1,1.205E2,-7.256739E-2,2.1267978E-2,2.5E2,5E-1,2.675E2,2.78E2,2.815E2,2.0185E3,2.0175E3,2.0175E3,-3.4789845E-2,1.35E1,2.4E1,5.55E1,4.45E1,6.65E1,1.185E2,1.295E2,4.332457E-2,-5.1911366E-1,7.263948E-1,-4.970211E-2,-3.0905174E-2,-3.9652127E-1,3.5514444E-1,1.5303415E-2,5.0123073E-2,2.8265947E-1,4.7502488E-2,-2.9530564E-1,1.13489784E-1,2.7142742E-1,1.0655454E-1,3.0367352E-2,-3.1121135E-1,-2.0039147E-1,8.8333674E-2,7.37087E-1,-8.4779106E-2,8.5346766E-2,7.776219E-2,-2.0614518E-1,1.4634788E-1,3.9413536E-1,-8.835864E-2,-6.759851E-1,2.9457304E-1,2.0590764E-2],"split_indices":[3,4,4,0,0,0,0,3,3,3,3,0,0,0,0,3,3,3,3,3,3,3,3,0,0,3,0,3,3,3,4,4,4,0,3,3,3,3,3,3,3,0,0,0,0,0,0,0,0,0,0,0,0,0,0,0,0,0,0,0,0,0,0,0,0,0,0,0,0,0,0],"split_type":[0,0,0,0,0,0,0,0,0,0,0,0,0,0,0,0,0,0,0,0,0,0,0,0,0,0,0,0,0,0,0,0,0,0,0,0,0,0,0,0,0,0,0,0,0,0,0,0,0,0,0,0,0,0,0,0,0,0,0,0,0,0,0,0,0,0,0,0,0,0,0],"sum_hessian":[5.4394E4,5.4202E4,1.92E2,4.0708E4,1.3494E4,6.6E1,1.26E2,1.1527E4,2.9181E4,3.913E3,9.581E3,3.2E1,3.4E1,4.1E1,8.5E1,8.083E3,3.444E3,2.345E4,5.731E3,1.4E2,3.773E3,1.812E3,7.769E3,5.6E1,2.9E1,7.999E3,8.4E1,6.59E2,2.785E3,2.2562E4,8.88E2,9.16E2,4.815E3,2.8E1,1.12E2,1.2E2,3.653E3,1.285E3,5.27E2,1.349E3,6.42E3,7.969E3,3E1,3.6E1,4.8E1,4.42E2,2.17E2,1.19E2,2.666E3,2.2437E4,1.25E2,5.92E2,2.96E2,3.12E2,6.04E2,1.549E3,3.266E3,7.9E1,3.3E1,8.1E1,3.9E1,2.75E2,3.378E3,1.197E3,8.8E1,4.92E2,3.5E1,1.308E3,4.1E1,2.73E2,6.147E3],"tree_param":{"num_deleted":"0","num_feature":"6","num_nodes":"71","size_leaf_vector":"0"}},{"base_weights":[1.0246192E-1,1.0451921E-1,-1.592272E-2,1.2728119E-1,9.692379E-2,-7.5356275E-2,5.6823164E-1,1.05854295E-1,7.6286703E-1,-6.435767E-1,1.0256011E-1,1.4689814E-1,-1.9987653E-1,1.1555773E-1,1.0859177E0,1.19301565E-1,-4.990504E-2,1.4765637E0,1.3472547E-1,4.391458E-1,-8.146865E-1,4.908956E-1,9.828531E-2,2.3480412E-2,1.0650222E0,-3.0018184E-1,1.7934147E-1,1.0092729E-1,9.11131E-1,-1.1901925E0,1.4149229E-1,1.1435949E0,1.7857299E0,-2.087679E-1,8.470574E-1,-1.0199431E0,3.1657353E-1,-2.3895352E-1,1.1421103E0,-6.654788E-1,1.0401098E-1,-3.092708E-1,2.739717E-1,-2.0911181E-1,-1.0359188E0,5.6849784E-1,-3.0599823E-2,1.1073819E-1,-5.9499717E-1,3.879588E-1,1.0784909E0,-2.9829535E-1,-1.5646654E0,-1.1617634E-2,4.8673874E-1,2.0566924E0,6.9032216E-1,-5.580199E-1,6.827036E-2,1.6840494E-1,1.4865891E0,-1.2656473E0,-6.781528E-1,6.6671185E-2,-8.5567784E-1,1.4180858E0,-2.3874709E-1,5.4446757E-1,-9.9258333E-1,-1.24420576E-1,1.103913E-1,1.2264244E-1,-1.5515102E0,3.604292E-1,1.8949318E-1,-3.7861905E-1,2.4328467E-1,1.1394119E-1,-2.1801388E-1],"categories":[],"categories_nodes":[],"categories_segments":[],"categories_sizes":[],"default_left":[1,1,1,1,1,1,1,1,1,1,1,1,1,0,0,1,1,1,1,0,1,1,1,1,0,1,1,1,1,1,1,1,0,1,1,1,0,1,1,1,1,1,1,1,0,0,1,0,0,0,0,0,0,0,0,0,0,0,0,0,0,0,0,0,0,0,0,0,0,0,0,0,0,0,0,0,0,0,0],"id":14,"left_children":[1,3,5,7,9,11,13,15,17,19,21,23,25,-1,-1,27,29,31,33,-1,35,37,39,41,-1,43,45,47,49,51,53,55,-1,57,59,61,-1,63,65,67,69,71,73,75,-1,-1,77,-1,-1,-1,-1,-1,-1,-1,-1,-1,-1,-1,-1,-1,-1,-1,-1,-1,-1,-1,-1,-1,-1,-1,-1,-1,-1,-1,-1,-1,-1,-1,-1],"loss_changes":[1.3249634E1,9.231262E0,3.2330902E1,1.8205487E2,1.6740204E2,2.3414885E1,2.0028006E1,2.7107208E1,1.9526093E2,5.649288E1,6.600705E1,3.442208E1,2.06702E1,0E0,0E0,1.7320459E2,2.2474557E2,1.895819E1,5.7187576E1,0E0,6.1158936E1,2.0607281E2,1.7218845E2,2.2506227E1,0E0,2.852792E1,9.331194E0,7.955325E1,2.322226E1,4.8963974E1,4.6628754E1,4.038231E1,0E0,1.5325571E1,3.2735153E1,1.778511E1,0E0,3.8696716E1,8.760654E1,1.1650365E2,5.6952545E1,6.2428883E1,1.0564861E0,2.9462263E1,0E0,0E0,2.0565171E0,0E0,0E0,0E0,0E0,0E0,0E0,0E0,0E0,0E0,0E0,0E0,0E0,0E0,0E0,0E0,0E0,0E0,0E0,0E0,0E0,0E0,0E0,0E0,0E0,0E0,0E0,0E0,0E0,0E0,0E0,0E0,0E0],"parents":[2147483647,0,0,1,1,2,2,3,3,4,4,5,5,6,6,7,7,8,8,9,9,10,10,11,11,12,12,15,15,16,16,17,17,18,18,20,20,21,21,22,22,23,23,25,25,26,26,27,27,28,28,29,29,30,30,31,31,33,33,34,34,35,35,37,37,38,38,39,39,40,40,41,41,42,42,43,43,46,46],"right_children":[2,4,6,8,10,12,14,16,18,20,22,24,26,-1,-1,28,30,32,34,-1,36,38,40,42,-1,44,46,48,50,52,54,56,-1,58,60,62,-1,64,66,68,70,72,74,76,-1,-1,78,-1,-1,-1,-1,-1,-1,-1,-1,-1,-1,-1,-1,-1,-1,-1,-1,-1,-1,-1,-1,-1,-1,-1,-1,-1,-1,-1,-1,-1,-1,-1,-1],"split_conditions":[5E-1,9.35E1,5.5E0,9.05E1,9.55E1,1.5E0,1.35E1,8.35E1,1.5E0,1.5E0,9.85E1,2.0185E3,2.755E2,3.466732E-2,3.2577533E-1,8.15E1,5E-1,2.0185E3,2.0195E3,1.3174374E-1,4.5E0,4.5E0,1.005E2,3.5E0,3.1950668E-1,3.5E0,1.1E1,8.05E1,3.5E0,2.0175E3,8.85E1,2.0175E3,5.35719E-1,2.0175E3,2.5E0,2.0185E3,9.497207E-2,9.75E1,2.0195E3,5E-1,1.075E2,2E0,5E-1,2E0,-3.1077567E-1,1.7054936E-1,3E0,3.3221457E-2,-1.7849916E-1,1.1638764E-1,3.2354727E-1,-8.948861E-2,-4.6939966E-1,-3.4852906E-3,1.4602163E-1,6.1700773E-1,2.0709665E-1,-1.6740596E-1,2.048111E-2,5.052148E-2,4.4597673E-1,-3.796942E-1,-2.0344585E-1,2.0001356E-2,-2.5670338E-1,4.2542577E-1,-7.162413E-2,1.6334027E-1,-2.97775E-1,-3.7326176E-2,3.311739E-2,3.6792733E-2,-4.654531E-1,1.08128764E-1,5.6847956E-2,-1.1358572E-1,7.29854E-2,3.418236E-2,-6.540417E-2],"split_indices":[5,3,0,3,3,0,3,3,0,0,3,4,3,0,0,3,0,4,4,0,0,0,3,1,0,1,2,3,0,4,3,4,0,4,0,4,0,3,4,0,3,1,0,1,0,0,0,0,0,0,0,0,0,0,0,0,0,0,0,0,0,0,0,0,0,0,0,0,0,0,0,0,0,0,0,0,0,0,0],"split_type":[0,0,0,0,0,0,0,0,0,0,0,0,0,0,0,0,0,0,0,0,0,0,0,0,0,0,0,0,0,0,0,0,0,0,0,0,0,0,0,0,0,0,0,0,0,0,0,0,0,0,0,0,0,0,0,0,0,0,0,0,0,0,0,0,0,0,0,0,0,0,0,0,0,0,0,0,0,0,0],"sum_hessian":[5.4394E4,5.3465E4,9.29E2,1.3373E4,4.0092E4,8.44E2,8.5E1,1.2938E4,4.35E2,3.02E2,3.979E4,3.03E2,5.41E2,4.6E1,3.9E1,1.191E4,1.028E3,2.03E2,2.32E2,4.1E1,2.61E2,4.32E2,3.9358E4,2.68E2,3.5E1,4.28E2,1.13E2,1.1641E4,2.69E2,1.47E2,8.81E2,1E2,1.03E2,1.57E2,7.5E1,2.21E2,4E1,2.04E2,2.28E2,2.92E2,3.9066E4,1.15E2,1.53E2,3.82E2,4.6E1,3.9E1,7.4E1,1.148E4,1.61E2,6.6E1,2.03E2,4.4E1,1.03E2,6.11E2,2.7E2,3.2E1,6.8E1,6.9E1,8.8E1,3.7E1,3.8E1,1.27E2,9.4E1,1.37E2,6.7E1,1.9E2,3.8E1,6.2E1,2.3E2,1.061E3,3.8005E4,8.6E1,2.9E1,7.4E1,7.9E1,2.78E2,1.04E2,4.2E1,3.2E1],"tree_param":{"num_deleted":"0","num_feature":"6","num_nodes":"79","size_leaf_vector":"0"}},{"base_weights":[7.174942E-2,8.183582E-2,5.5699516E-2,7.696001E-2,6.843476E-1,-1.7101309E-1,7.939473E-2,6.2089127E-2,1.908917E-1,-1.5844254E-1,1.4332913E0,3.533622E-2,-5.964841E-1,2.5465825E-1,5.5278264E-2,7.540046E-2,-3.5295355E-1,1.0986124E0,1.4602593E-1,-5.577101E-1,9.9576545E-1,1.0540441E0,1.7773188E0,-1.8801466E-1,4.6253932E-1,-8.2107395E-1,5.3614694E-1,3.0694483E-2,5.1458734E-1,-8.1968457E-1,7.0617646E-2,7.2019994E-2,6.29771E-1,-1.0864522E0,-1.9995718E-1,1.9930676E0,-1.2668322E0,2.725246E-1,-3.0487007E-2,7.264981E-1,-1.0521437E0,1.5492257E-1,-1.317954E0,-7.266022E-1,8.16304E-1,-5.449166E-1,-1.4654868E0,1.6968411E0,2.5106769E-2,1.4488137E-1,-8.1620616E-1,6.0475576E-1,-9.483793E-2,4.1489996E-2,-1.6233407E0,9.602037E-1,6.2304016E-2,8.4448464E-2,-3.9464463E-3,-6.645552E-1,1.6613684E0,-2.7566817E0,-6.0235083E-1,6.922744E-1,-4.278703E-1,1.0551741E0,2.4393659E0,-2.8442314E-1,3.6215687E-1,2.890121E-1,-1.2641977E-1,-4.8775846E-1,-1.6187825E0,-6.7514515E-1,3.690945E-1,-2.094058E0,-9.823656E-1,8.523205E-1,-1.3610759E0,4.9318793E-1,1.3785602E0,-1.1415167E0,3.0002046E-2,6.9961235E-2,-1.9529049E0,8.1896864E-2,-2.281609E-2,4.649298E-1,-1.1629769E-1,-5.947492E-1,-1.4585174E0,4.413818E-1,1.174422E0,-6.7882985E-1,5.16313E-1,-3.8179502E-1,1.1474792E0,-3.339459E0,-1.1807833E0,1.3188308E0,2.0455161E-2,-3.6092556E-1,6.607852E-2],"categories":[],"categories_nodes":[],"categories_segments":[],"categories_sizes":[],"default_left":[1,1,1,1,1,1,1,1,1,1,1,1,1,1,1,1,1,1,1,1,0,0,0,1,1,1,1,1,1,1,1,1,1,1,1,1,0,1,1,0,1,1,1,1,1,1,1,0,1,1,1,1,1,1,1,1,1,0,0,0,0,0,0,0,0,0,0,0,0,0,0,0,0,0,0,0,0,0,0,0,0,0,0,0,0,0,0,0,0,0,0,0,0,0,0,0,0,0,0,0,0,0,0],"id":15,"left_children":[1,3,5,7,9,11,13,15,17,19,21,23,25,27,29,31,33,35,37,39,-1,-1,-1,41,43,45,47,49,51,53,55,57,59,61,63,65,-1,67,69,-1,71,73,75,77,79,81,83,-1,85,87,89,91,93,95,97,99,101,-1,-1,-1,-1,-1,-1,-1,-1,-1,-1,-1,-1,-1,-1,-1,-1,-1,-1,-1,-1,-1,-1,-1,-1,-1,-1,-1,-1,-1,-1,-1,-1,-1,-1,-1,-1,-1,-1,-1,-1,-1,-1,-1,-1,-1,-1],"loss_changes":[8.801239E0,9.807048E1,1.1279878E2,5.6125946E1,1.6938931E2,1.7447105E2,8.033196E1,1.6195764E2,1.5561497E2,5.9081753E1,1.6653564E1,1.27849236E2,1.6553116E2,1.3381978E2,2.2434274E2,5.3177094E1,1.02017586E2,3.833661E2,8.141856E1,6.1085167E1,0E0,0E0,0E0,3.412026E2,1.9410422E2,9.5655365E1,6.401883E1,1.1964556E2,5.8525146E1,1.9938876E2,1.21406975E2,2.6652634E1,2.307625E2,1.2528352E2,1.5382642E2,5.226001E1,0E0,1.0613414E2,4.6717144E1,0E0,2.1276794E1,1.204266E2,5.133545E1,1.0734927E2,6.3814377E1,1.3071594E2,1.21378296E2,0E0,2.0870589E-1,9.1167114E1,2.0042465E1,8.5756256E1,4.9603687E1,6.597891E1,1.0921942E2,5.119995E1,2.6019676E1,0E0,0E0,0E0,0E0,0E0,0E0,0E0,0E0,0E0,0E0,0E0,0E0,0E0,0E0,0E0,0E0,0E0,0E0,0E0,0E0,0E0,0E0,0E0,0E0,0E0,0E0,0E0,0E0,0E0,0E0,0E0,0E0,0E0,0E0,0E0,0E0,0E0,0E0,0E0,0E0,0E0,0E0,0E0,0E0,0E0,0E0],"parents":[2147483647,0,0,1,1,2,2,3,3,4,4,5,5,6,6,7,7,8,8,9,9,10,10,11,11,12,12,13,13,14,14,15,15,16,16,17,17,18,18,19,19,23,23,24,24,25,25,26,26,27,27,28,28,29,29,30,30,31,31,32,32,33,33,34,34,35,35,37,37,38,38,40,40,41,41,42,42,43,43,44,44,45,45,46,46,48,48,49,49,50,50,51,51,52,52,53,53,54,54,55,55,56,56],"right_children":[2,4,6,8,10,12,14,16,18,20,22,24,26,28,30,32,34,36,38,40,-1,-1,-1,42,44,46,48,50,52,54,56,58,60,62,64,66,-1,68,70,-1,72,74,76,78,80,82,84,-1,86,88,90,92,94,96,98,100,102,-1,-1,-1,-1,-1,-1,-1,-1,-1,-1,-1,-1,-1,-1,-1,-1,-1,-1,-1,-1,-1,-1,-1,-1,-1,-1,-1,-1,-1,-1,-1,-1,-1,-1,-1,-1,-1,-1,-1,-1,-1,-1,-1,-1,-1,-1],"split_conditions":[2.255E2,2.235E2,2.385E2,1.985E2,1.5E0,2.345E2,2.535E2,1.925E2,1.995E2,2.0195E3,2.245E2,2.315E2,5.5E0,2.465E2,2.555E2,1.915E2,1.935E2,3.5E0,2.135E2,2.0185E3,2.9872966E-1,3.1621325E-1,5.331957E-1,2.0195E3,2.0175E3,4.5E0,2.365E2,2.455E2,5.5E0,2.545E2,2.565E2,1.645E2,2.5E0,2.5E0,1.945E2,1.5E0,-3.8004968E-1,2.015E2,1.5E0,2.1794945E-1,5E-1,1.5E0,2E0,5E-1,2.0195E3,2.5E0,2.355E2,5.0905234E-1,2.375E2,2.5E0,4E0,2.0195E3,2.515E2,2.5E0,1.5E0,4.5E0,2.575E2,2.533454E-2,-1.1839339E-3,-1.9936657E-1,4.9841052E-1,-8.2700455E-1,-1.8070525E-1,2.0768233E-1,-1.2836109E-1,3.1655225E-1,7.318098E-1,-8.532695E-2,1.0864706E-1,8.6703636E-2,-3.7925933E-2,-1.4632754E-1,-4.8563477E-1,-2.0254356E-1,1.1072835E-1,-6.2821746E-1,-2.9470968E-1,2.5569615E-1,-4.0832278E-1,1.4795639E-1,4.1356808E-1,-3.4245503E-1,9.000614E-3,2.0988371E-2,-5.858715E-1,2.456906E-2,-6.8448274E-3,1.3947894E-1,-3.488931E-2,-1.7842478E-1,-4.3755525E-1,1.3241455E-1,3.5232663E-1,-2.0364897E-1,1.548939E-1,-1.1453851E-1,3.4424376E-1,-1.0018377E0,-3.54235E-1,3.9564928E-1,6.1365487E-3,-1.0827767E-1,1.9823557E-2],"split_indices":[3,3,3,3,0,3,3,3,3,4,3,3,0,3,3,3,3,0,3,4,0,0,0,4,4,0,3,3,0,3,3,3,0,0,3,0,0,3,0,0,0,0,0,0,4,0,3,0,3,0,0,4,3,0,0,0,3,0,0,0,0,0,0,0,0,0,0,0,0,0,0,0,0,0,0,0,0,0,0,0,0,0,0,0,0,0,0,0,0,0,0,0,0,0,0,0,0,0,0,0,0,0,0],"split_type":[0,0,0,0,0,0,0,0,0,0,0,0,0,0,0,0,0,0,0,0,0,0,0,0,0,0,0,0,0,0,0,0,0,0,0,0,0,0,0,0,0,0,0,0,0,0,0,0,0,0,0,0,0,0,0,0,0,0,0,0,0,0,0,0,0,0,0,0,0,0,0,0,0,0,0,0,0,0,0,0,0,0,0,0,0,0,0,0,0,0,0,0,0,0,0,0,0,0,0,0,0,0,0],"sum_hessian":[5.4394E4,3.34E4,2.0994E4,3.3133E4,2.67E2,1.986E3,1.9008E4,2.9309E4,3.824E3,1.26E2,1.41E2,1.338E3,6.48E2,2.298E3,1.671E4,2.8399E4,9.1E2,1.79E2,3.645E3,9.4E1,3.2E1,6.9E1,7.2E1,8.79E2,4.59E2,5.41E2,1.07E2,1.235E3,1.063E3,2.87E2,1.6423E4,2.8228E4,1.71E2,1.56E2,7.54E2,1.3E2,4.9E1,2.123E3,1.522E3,2.6E1,6.8E1,6.75E2,2.04E2,1.05E2,3.54E2,3.8E2,1.61E2,3.2E1,7.5E1,1.089E3,1.46E2,9.26E2,1.37E2,1.39E2,1.48E2,1.51E2,1.6272E4,2.4259E4,3.969E3,7.6E1,9.5E1,3.4E1,1.22E2,1.53E2,6.01E2,4.3E1,8.7E1,2.94E2,1.829E3,3.51E2,1.171E3,3.5E1,3.3E1,1.38E2,5.37E2,6E1,1.44E2,3E1,7.5E1,2.26E2,1.28E2,1.86E2,1.94E2,3.9E1,1.22E2,3.4E1,4.1E1,4.89E2,6E2,1.1E2,3.6E1,7.21E2,2.05E2,7E1,6.7E1,1.01E2,3.8E1,2.9E1,1.19E2,1.09E2,4.2E1,1.43E2,1.6129E4],"tree_param":{"num_deleted":"0","num_feature":"6","num_nodes":"103","size_leaf_vector":"0"}},{"base_weights":[5.0206162E-2,2.3508307E-2,5.501978E-2,6.6007085E-2,-5.140806E-1,3.5931608E-1,4.813128E-2,1.5723148E-2,1.9646111E-1,-6.761757E-1,2.1924883E-1,6.5092117E-1,1.396208E-1,-1.3650936E-1,5.3771026E-2,-2.9227376E-2,1.5973641E-1,4.0533513E-1,-1.104253E-2,-1.00811146E-1,-1.1482787E0,3.8208008E-2,3.3757105E-1,3.6931297E-1,9.207707E-1,-1.8832906E-1,2.4466437E-1,-4.274024E-1,1.6387497E-1,3.5475063E-1,5.1516272E-2,1.8080029E-1,-7.8439325E-2,-1.2380241E-1,3.9164492E-1,6.7995644E-1,1.5311863E-1,-6.1375648E-2,1.4447302E0,-1.1711327E0,3.109637E-1,-6.402004E-1,-1.7313284E0,6.940866E-1,2.9745257E-2,-8.668347E-1,6.131362E-1,1.2549603E0,7.871872E-1,-4.6928954E-1,2.905217E-2,4.9279064E-1,1.04887106E-1,2.678119E-2,-8.51901E-1,-4.1017167E-2,8.826818E-1,1.7354206E0,-5.921348E-2,-2.1897368E-1,5.466067E-2,-1.8133834E-1,4.1887346E-1,1.090253E-1,-1.7939836E-1,8.9844435E-2,-3.604148E-1,5.716688E-1,-5.3445756E-1,-2.7678177E-1,9.5849603E-1,4.9399653E-1,-1.0195306E-1,1.5688598E-1,-4.5267767E-1,-1.7001833E0,-5.701714E-1,-1.5015641E-1,1.6979864E0,5.227685E-3,-1.3792446E0,-1.932317E0,-1.2626128E0,8.1135803E-1,-5.4751277E-1,1.0682639E0,1.4071966E0,9.025051E-1,6.5770507E-1,-3.7179235E-1,-5.293766E-1,2.4344386E-1,-1.5676457E-1,6.461138E-1,1.4562389E-1,-1.2662363E-1,4.412701E-1,-1.434891E-1,1.15323864E-1,-1.1891088E0,-6.624609E-1,5.6911695E-1,-1.7043002E-1,1.2426152E0,5.253766E-1,1.4561892E0,1.9828423E0,-3.2850817E-1,2.889598E-1,-7.131173E-1,2.3074065E-1,3.1974196E-1,4.8922386E-2],"categories":[],"categories_nodes":[],"categories_segments":[],"categories_sizes":[],"default_left":[1,1,1,1,1,1,1,1,1,1,1,1,1,1,1,1,1,1,1,1,1,0,1,1,1,1,1,1,1,1,1,1,1,1,1,1,1,1,0,1,1,1,1,0,0,0,1,1,1,1,1,1,1,1,1,1,1,1,1,1,1,0,0,0,0,0,0,0,0,0,0,0,0,0,0,0,0,0,0,0,0,0,0,0,0,0,0,0,0,0,0,0,0,0,0,0,0,0,0,0,0,0,0,0,0,0,0,0,0,0,0,0,0],"id":16,"left_children":[1,3,5,7,9,11,13,15,17,19,21,23,25,27,29,31,33,35,37,39,41,-1,43,45,47,49,51,53,55,57,59,61,63,65,67,69,71,73,-1,75,77,79,81,-1,-1,-1,83,85,87,89,91,93,95,97,99,101,103,105,107,109,111,-1,-1,-1,-1,-1,-1,-1,-1,-1,-1,-1,-1,-1,-1,-1,-1,-1,-1,-1,-1,-1,-1,-1,-1,-1,-1,-1,-1,-1,-1,-1,-1,-1,-1,-1,-1,-1,-1,-1,-1,-1,-1,-1,-1,-1,-1,-1,-1,-1,-1,-1,-1],"loss_changes":[6.9891663E0,1.8991428E2,9.658359E1,5.0526608E1,7.253955E1,6.5254684E1,4.6935745E1,3.6003643E1,9.288666E1,1.3542827E2,2.3648496E0,3.2944366E1,2.0129858E1,1.1680934E2,2.9659126E1,4.3827938E1,8.7042435E1,7.386987E1,7.8931046E1,9.99695E1,8.006E1,0E0,7.332248E0,6.563422E1,8.967331E0,8.686359E0,1.5277939E1,1.309342E2,9.694504E1,1.8585582E2,3.6930832E1,6.947943E1,6.503121E1,3.0161072E1,1.216781E2,1.364414E2,4.8567524E1,8.897889E1,0E0,1.9060753E1,1.0514674E2,7.060318E1,9.524475E0,0E0,0E0,0E0,4.2086166E1,2.5891113E-1,1.8253403E0,1.66399E-1,3.2650063E0,8.36927E0,2.2172739E1,4.976613E0,2.1634384E1,4.060306E1,1.8123634E1,2.2941895E0,2.362899E1,1.1105406E2,6.525371E1,0E0,0E0,0E0,0E0,0E0,0E0,0E0,0E0,0E0,0E0,0E0,0E0,0E0,0E0,0E0,0E0,0E0,0E0,0E0,0E0,0E0,0E0,0E0,0E0,0E0,0E0,0E0,0E0,0E0,0E0,0E0,0E0,0E0,0E0,0E0,0E0,0E0,0E0,0E0,0E0,0E0,0E0,0E0,0E0,0E0,0E0,0E0,0E0,0E0,0E0,0E0,0E0],"parents":[2147483647,0,0,1,1,2,2,3,3,4,4,5,5,6,6,7,7,8,8,9,9,10,10,11,11,12,12,13,13,14,14,15,15,16,16,17,17,18,18,19,19,20,20,22,22,23,23,24,24,25,25,26,26,27,27,28,28,29,29,30,30,31,31,32,32,33,33,34,34,35,35,36,36,37,37,39,39,40,40,41,41,42,42,46,46,47,47,48,48,49,49,50,50,51,51,52,52,53,53,54,54,55,55,56,56,57,57,58,58,59,59,60,60],"right_children":[2,4,6,8,10,12,14,16,18,20,22,24,26,28,30,32,34,36,38,40,42,-1,44,46,48,50,52,54,56,58,60,62,64,66,68,70,72,74,-1,76,78,80,82,-1,-1,-1,84,86,88,90,92,94,96,98,100,102,104,106,108,110,112,-1,-1,-1,-1,-1,-1,-1,-1,-1,-1,-1,-1,-1,-1,-1,-1,-1,-1,-1,-1,-1,-1,-1,-1,-1,-1,-1,-1,-1,-1,-1,-1,-1,-1,-1,-1,-1,-1,-1,-1,-1,-1,-1,-1,-1,-1,-1,-1,-1,-1,-1,-1],"split_conditions":[5.65E1,5.25E1,6.35E1,4.5E0,5.5E0,2.5E0,7.25E1,4.05E1,5.5E0,3.5E0,5.45E1,2.0185E3,2.0175E3,2.5E0,7.45E1,5E-1,1.5E0,2.0185E3,4.95E1,5.35E1,5.45E1,1.14624025E-2,5.55E1,5.75E1,5.75E1,6.15E1,2.0185E3,6.65E1,6.95E1,2.0175E3,7.75E1,1.45E1,1.55E1,2.0185E3,5E-1,1.35E1,2.2E1,3.35E1,4.3341908E-1,2.5E0,2E0,4.5E0,2.0175E3,2.08226E-1,8.923577E-3,-2.6005042E-1,2.5E0,1.5E0,5E-1,4.5E0,4.5E0,5.5E0,6.05E1,6.45E1,7.05E1,6.55E1,7.05E1,1.5E0,7.35E1,2.0185E3,8.35E1,-5.4401506E-2,1.2566204E-1,3.270759E-2,-5.381951E-2,2.6953332E-2,-1.0812444E-1,1.7150065E-1,-1.6033727E-1,-8.303453E-2,2.875488E-1,1.4819896E-1,-3.0585919E-2,4.70658E-2,-1.3580331E-1,-5.10055E-1,-1.7105143E-1,-4.5046926E-2,5.0939596E-1,1.5683055E-3,-4.137734E-1,-5.796951E-1,-3.7878385E-1,2.4340741E-1,-1.6425383E-1,3.2047918E-1,4.2215902E-1,2.7075154E-1,1.9731154E-1,-1.1153771E-1,-1.58813E-1,7.303316E-2,-4.7029372E-2,1.9383416E-1,4.368717E-2,-3.798709E-2,1.3238104E-1,-4.3046728E-2,3.4597162E-2,-3.5673267E-1,-1.9873829E-1,1.7073509E-1,-5.112901E-2,3.7278458E-1,1.57613E-1,4.3685678E-1,5.9485275E-1,-9.855246E-2,8.6687945E-2,-2.139352E-1,6.92222E-2,9.59226E-2,1.4676716E-2],"split_indices":[3,3,3,0,0,0,3,3,0,0,3,4,4,0,3,0,0,4,3,3,3,0,3,3,3,3,4,3,3,4,3,3,3,4,5,3,3,3,0,0,0,0,4,0,0,0,2,0,0,0,0,0,3,3,3,3,3,0,3,4,3,0,0,0,0,0,0,0,0,0,0,0,0,0,0,0,0,0,0,0,0,0,0,0,0,0,0,0,0,0,0,0,0,0,0,0,0,0,0,0,0,0,0,0,0,0,0,0,0,0,0,0,0],"split_type":[0,0,0,0,0,0,0,0,0,0,0,0,0,0,0,0,0,0,0,0,0,0,0,0,0,0,0,0,0,0,0,0,0,0,0,0,0,0,0,0,0,0,0,0,0,0,0,0,0,0,0,0,0,0,0,0,0,0,0,0,0,0,0,0,0,0,0,0,0,0,0,0,0,0,0,0,0,0,0,0,0,0,0,0,0,0,0,0,0,0,0,0,0,0,0,0,0,0,0,0,0,0,0,0,0,0,0,0,0,0,0,0,0],"sum_hessian":[5.4394E4,8.31E3,4.6084E4,7.702E3,6.08E2,1.019E3,4.5065E4,5.56E3,2.142E3,4.98E2,1.1E2,4.37E2,5.82E2,1.335E3,4.373E4,4.238E3,1.322E3,1.067E3,1.075E3,2.25E2,2.73E2,4.4E1,6.6E1,2.15E2,2.22E2,1.41E2,4.41E2,6.78E2,6.57E2,3.24E2,4.3406E4,8.04E2,3.434E3,5.95E2,7.27E2,5.1E2,5.57E2,1.04E3,3.5E1,6.2E1,1.63E2,1.47E2,1.26E2,3E1,3.6E1,3.5E1,1.8E2,6.1E1,1.61E2,6.1E1,8E1,1.58E2,2.83E2,3.28E2,3.5E2,5.12E2,1.45E2,7.4E1,2.5E2,4.98E2,4.2908E4,3.19E2,4.85E2,1.202E3,2.232E3,3.13E2,2.82E2,6.09E2,1.18E2,1.15E2,3.95E2,2.38E2,3.19E2,6.68E2,3.72E2,3.2E1,3E1,1.23E2,4E1,7.9E1,6.8E1,8.6E1,4E1,1.54E2,2.6E1,3.1E1,3E1,8.2E1,7.9E1,2.6E1,3.5E1,3.7E1,4.3E1,1.09E2,4.9E1,1.68E2,1.15E2,1.12E2,2.16E2,1.24E2,2.26E2,8.9E1,4.23E2,7.1E1,7.4E1,3.8E1,3.6E1,1.41E2,1.09E2,2.37E2,2.61E2,9.08E2,4.2E4],"tree_param":{"num_deleted":"0","num_feature":"6","num_nodes":"113","size_leaf_vector":"0"}},{"base_weights":[3.5171237E-2,3.5836894E-2,-1.5195689E-1,3.342488E-2,1.1240069E-1,-4.452167E-1,3.9514783E-3,3.4843244E-2,-4.2545527E-1,2.0614593E-1,-7.127285E-2,-5.8235675E-1,-3.0319268E-1,3.443672E-1,-1.6234401E-1,2.9423034E-2,6.750814E-2,-1.5534534E0,-1.02357715E-1,4.079163E-1,7.325128E-2,5.273337E-1,-2.2885324E-1,-2.370295E-1,-1.503013E-2,3.5209365E-2,-6.295534E-2,4.303014E-2,4.2711532E-1,1.0632164E0,-8.4820837E-1,8.622513E-1,2.7843374E-1,-1.799774E-2,3.5965756E-1,1.7087762E0,2.2207121E-3,-4.549298E-1,2.3570664E-1,3.1606838E-2,4.324094E-1,-1.4780907E-1,1.5369944E-1,8.006027E-2,-1.2730734E-1,8.541981E-1,-7.602343E-2,-1.9432288E0,1.36648E-1,6.1975414E-1,-2.0768343E-1,1.591384E-1,-2.503048E-1,-1.8804747E-1,4.9805292E-1,-9.004427E-2,1.1686851E-1,-9.558819E-2,-5.8575964E-1,6.636933E-1,1.1929894E-1],"categories":[],"categories_nodes":[],"categories_segments":[],"categories_sizes":[],"default_left":[1,1,1,1,1,1,1,1,1,1,1,0,0,0,1,1,1,0,1,1,1,1,1,0,0,1,1,1,1,0,1,0,1,1,1,0,1,1,1,0,0,0,0,0,0,0,0,0,0,0,0,0,0,0,0,0,0,0,0,0,0],"id":17,"left_children":[1,3,5,7,9,11,13,15,17,19,21,-1,-1,-1,23,25,27,-1,29,31,33,35,37,-1,-1,39,41,43,45,-1,47,-1,49,51,53,-1,55,57,59,-1,-1,-1,-1,-1,-1,-1,-1,-1,-1,-1,-1,-1,-1,-1,-1,-1,-1,-1,-1,-1,-1],"loss_changes":[6.781044E0,1.0006073E1,8.826038E0,3.4216778E1,2.8511341E1,1.1284056E0,7.245325E0,9.273338E0,5.8882446E1,2.9358486E1,5.2944725E1,0E0,0E0,0E0,9.426272E-1,2.4020882E1,6.5604E1,0E0,1.1130855E2,2.5350304E1,1.7307373E1,7.2581924E1,4.6738823E1,0E0,0E0,6.0494434E1,4.872185E1,4.4043682E1,1.02133835E2,0E0,8.43837E1,0E0,5.6542103E1,2.073827E1,1.2221634E1,0E0,8.779174E-1,1.4000774E1,7.194681E0,0E0,0E0,0E0,0E0,0E0,0E0,0E0,0E0,0E0,0E0,0E0,0E0,0E0,0E0,0E0,0E0,0E0,0E0,0E0,0E0,0E0,0E0],"parents":[2147483647,0,0,1,1,2,2,3,3,4,4,5,5,6,6,7,7,8,8,9,9,10,10,14,14,15,15,16,16,18,18,19,19,20,20,21,21,22,22,25,25,26,26,27,27,28,28,30,30,32,32,33,33,34,34,36,36,37,37,38,38],"right_children":[2,4,6,8,10,12,14,16,18,20,22,-1,-1,-1,24,26,28,-1,30,32,34,36,38,-1,-1,40,42,44,46,-1,48,-1,50,52,54,-1,56,58,60,-1,-1,-1,-1,-1,-1,-1,-1,-1,-1,-1,-1,-1,-1,-1,-1,-1,-1,-1,-1,-1,-1],"split_conditions":[3.645E2,3.535E2,2.0185E3,3.525E2,4.5E0,3E0,1.5E0,5.5E0,1.5E0,3.585E2,3.555E2,-1.7470703E-1,-9.0957806E-2,1.0331017E-1,2.5E0,3.315E2,3.32E2,-4.6603605E-1,2.5E0,2.0175E3,3.5E0,2.0195E3,3.625E2,-7.110885E-2,-4.509039E-3,3.285E2,3.465E2,3.5E0,3.425E2,3.1896496E-1,3.5E0,2.586754E-1,1.5E0,3.605E2,3.605E2,5.126329E-1,5.5E0,3.565E2,2.0175E3,9.482052E-3,1.2972283E-1,-4.4342723E-2,4.6109833E-2,2.4018083E-2,-3.8192205E-2,2.5625944E-1,-2.280703E-2,-5.8296865E-1,4.0994402E-2,1.8592624E-1,-6.230503E-2,4.774152E-2,-7.509144E-2,-5.6414243E-2,1.4941588E-1,-2.7013281E-2,3.5060555E-2,-2.867646E-2,-1.757279E-1,1.99108E-1,3.5789683E-2],"split_indices":[3,3,4,3,0,0,0,0,0,3,3,0,0,0,0,3,3,0,0,4,0,4,3,0,0,3,3,1,3,0,0,0,0,3,3,0,0,3,4,0,0,0,0,0,0,0,0,0,0,0,0,0,0,0,0,0,0,0,0,0,0],"split_type":[0,0,0,0,0,0,0,0,0,0,0,0,0,0,0,0,0,0,0,0,0,0,0,0,0,0,0,0,0,0,0,0,0,0,0,0,0,0,0,0,0,0,0,0,0,0,0,0,0,0,0,0,0,0,0,0,0,0,0,0,0],"sum_hessian":[5.4394E4,5.4202E4,1.92E2,5.2548E4,1.654E3,6.6E1,1.26E2,5.2387E4,1.61E2,1.095E3,5.59E2,3.2E1,3.4E1,4.1E1,8.5E1,4.4933E4,7.454E3,3.5E1,1.26E2,4.34E2,6.61E2,1.16E2,4.43E2,5.6E1,2.9E1,4.2285E4,2.648E3,6.98E3,4.74E2,4.9E1,7.7E1,9.5E1,3.39E2,5.02E2,1.59E2,3.5E1,8.1E1,2.98E2,1.45E2,4.1906E4,3.79E2,1.903E3,7.45E2,5.734E3,1.246E3,2.56E2,2.18E2,3.6E1,4.1E1,1.99E2,1.4E2,2.85E2,2.17E2,3.2E1,1.27E2,4.5E1,3.6E1,8E1,2.18E2,3E1,1.15E2],"tree_param":{"num_deleted":"0","num_feature":"6","num_nodes":"61","size_leaf_vector":"0"}},{"base_weights":[2.4627635E-2,9.966403E-3,3.2960687E-2,2.9143644E-2,-4.7163686E-1,9.499085E-1,2.5389358E-2,2.4195457E-2,6.412576E-1,-7.327567E-1,9.730901E-1,-9.222072E-1,1.5550163E0,-5.430143E-1,2.7711341E-2,3.1415157E-2,-8.2824767E-1,-5.0174896E-2,2.7916605E0,-3.466362E-1,-9.327894E-1,1.4014705E0,2.1324721E-1,-1.2630635E0,-6.349883E-1,2.015397E0,1.0054246E0,-1.3923535E0,-1.2603933E-1,1.9011128E-1,1.9864293E-2,8.096117E-3,1.6870861E-1,-3.9371142E-1,-2.2386577E0,3.019312E-1,-2.5409904E-1,-1.0797944E0,1.0289665E0,-2.9902443E-1,-1.069302E0,7.651958E-1,1.9231741E0,1.518553E0,3.0773127E0,3.4172392E-1,-5.031673E-1,-1.1173296E-2,5.454633E-1,-5.4662985E-1,3.067389E-2,1.6624613E-2,-8.665149E-1,1.3250327E0,1.04202345E-1,-8.28349E-1,3.6840957E-1,-2.985108E-1,-2.0161943E-1,-6.802796E-2,-2.2095916E0,-7.677036E-1,2.625255E0,-1.228086E0,4.425365E-1,-8.888276E-1,-2.5986965E0,1.1338173E0,1.8662508E0,-8.6975837E-1,-1.1794027E-1,-1.5560558E-1,3.907906E-1,1.1001716E0,3.794492E-1,-2.6710913E-1,-9.1901594E-1,3.4673694E-1,1.8525677E-2],"categories":[],"categories_nodes":[],"categories_segments":[],"categories_sizes":[],"default_left":[1,1,1,1,1,1,1,1,1,1,1,1,1,1,1,1,1,1,0,1,1,1,0,0,0,1,0,0,1,1,1,1,1,1,0,0,1,1,1,1,1,0,0,1,0,0,1,1,1,1,1,0,0,0,0,0,0,0,0,0,0,0,0,0,0,0,0,0,0,0,0,0,0,0,0,0,0,0,0],"id":18,"left_children":[1,3,5,7,9,11,13,15,17,19,21,23,25,27,29,31,33,35,-1,37,39,41,-1,-1,-1,43,-1,-1,45,47,49,51,53,55,-1,-1,57,59,61,63,65,-1,-1,67,-1,-1,69,71,73,75,77,-1,-1,-1,-1,-1,-1,-1,-1,-1,-1,-1,-1,-1,-1,-1,-1,-1,-1,-1,-1,-1,-1,-1,-1,-1,-1,-1,-1],"loss_changes":[6.6452637E0,1.8208875E2,2.407561E2,5.7411575E1,2.8553442E2,3.2315833E2,4.541565E1,1.1578379E2,2.2614255E2,4.9108154E1,3.745936E1,6.050995E0,5.237323E1,4.9405952E1,4.36558E1,5.9713974E1,9.595275E1,8.405861E0,0E0,2.2298863E2,3.610385E1,2.3092453E1,0E0,0E0,0E0,5.6529297E1,0E0,0E0,1.693057E1,1.1294704E2,2.0014737E2,1.1895001E2,2.0185204E2,4.071724E1,0E0,0E0,1.12287045E-1,1.644548E2,2.2285175E2,5.2904118E1,9.3191864E1,0E0,0E0,8.719528E0,0E0,0E0,7.382124E0,5.8639885E1,5.216562E1,6.3457382E1,1.2313342E2,0E0,0E0,0E0,0E0,0E0,0E0,0E0,0E0,0E0,0E0,0E0,0E0,0E0,0E0,0E0,0E0,0E0,0E0,0E0,0E0,0E0,0E0,0E0,0E0,0E0,0E0,0E0,0E0],"parents":[2147483647,0,0,1,1,2,2,3,3,4,4,5,5,6,6,7,7,8,8,9,9,10,10,11,11,12,12,13,13,14,14,15,15,16,16,17,17,19,19,20,20,21,21,25,25,28,28,29,29,30,30,31,31,32,32,33,33,36,36,37,37,38,38,39,39,40,40,43,43,46,46,47,47,48,48,49,49,50,50],"right_children":[2,4,6,8,10,12,14,16,18,20,22,24,26,28,30,32,34,36,-1,38,40,42,-1,-1,-1,44,-1,-1,46,48,50,52,54,56,-1,-1,58,60,62,64,66,-1,-1,68,-1,-1,70,72,74,76,78,-1,-1,-1,-1,-1,-1,-1,-1,-1,-1,-1,-1,-1,-1,-1,-1,-1,-1,-1,-1,-1,-1,-1,-1,-1,-1,-1,-1],"split_conditions":[1.335E2,1.285E2,1.355E2,1.275E2,5.5E0,2.0175E3,1.365E2,1.265E2,2.5E0,2.5E0,1.325E2,3E0,1.5E0,1.5E0,1.475E2,1.075E2,4E0,5E-1,8.374982E-1,1.5E0,1.295E2,1.315E2,6.3974164E-2,-3.789191E-1,-1.904965E-1,1.345E2,3.016274E-1,-4.1770607E-1,2.5E0,1.435E2,5.5E0,1.065E2,1.085E2,1.5E0,-6.7159736E-1,9.057936E-2,1.5E0,5E-1,1.295E2,3.5E0,2.0195E3,2.2955875E-1,5.769523E-1,5E-1,9.231939E-1,1.0251718E-1,3.5E0,2.0195E3,1.445E2,2.5E0,1.595E2,4.987384E-3,-2.5995448E-1,3.9750984E-1,3.1260706E-2,-2.4850471E-1,1.1052287E-1,-8.955324E-2,-6.0485832E-2,-2.0408388E-2,-6.628775E-1,-2.3031108E-1,7.8757656E-1,-3.6842582E-1,1.3276096E-1,-2.666483E-1,-7.7960896E-1,3.401452E-1,5.5987525E-1,-2.6092753E-1,-3.538208E-2,-4.6681676E-2,1.1723719E-1,3.3005148E-1,1.1383476E-1,-8.013274E-2,-2.757048E-1,1.0402109E-1,5.5577033E-3],"split_indices":[3,3,3,3,0,4,3,3,0,0,3,0,0,0,3,3,0,0,0,0,3,3,0,0,0,3,0,0,0,3,2,3,3,0,0,0,0,0,3,0,4,0,0,0,0,0,0,4,3,0,3,0,0,0,0,0,0,0,0,0,0,0,0,0,0,0,0,0,0,0,0,0,0,0,0,0,0,0,0],"split_type":[0,0,0,0,0,0,0,0,0,0,0,0,0,0,0,0,0,0,0,0,0,0,0,0,0,0,0,0,0,0,0,0,0,0,0,0,0,0,0,0,0,0,0,0,0,0,0,0,0,0,0,0,0,0,0,0,0,0,0,0,0,0,0,0,0,0,0,0,0,0,0,0,0,0,0,0,0,0,0],"sum_hessian":[5.4394E4,1.9713E4,3.4681E4,1.8959E4,7.54E2,2.83E2,3.4398E4,1.8808E4,1.51E2,6.39E2,1.15E2,6.9E1,2.14E2,1.39E2,3.4259E4,1.8651E4,1.57E2,1.15E2,3.6E1,2.19E2,4.2E2,7.3E1,4.2E1,3E1,3.9E1,1.15E2,9.9E1,4.5E1,9.4E1,1.578E3,3.2681E4,1.5944E4,2.707E3,1.21E2,3.6E1,4.2E1,7.3E1,1.43E2,7.6E1,7.5E1,3.45E2,3.4E1,3.9E1,8E1,3.5E1,4.2E1,5.2E1,1.008E3,5.7E2,6.11E2,3.207E4,1.5791E4,1.53E2,1.42E2,2.565E3,7.7E1,4.4E1,3.7E1,3.6E1,7.6E1,6.7E1,3.6E1,4E1,3.3E1,4.2E1,3.1E2,3.5E1,4E1,4E1,2.6E1,2.6E1,7.42E2,2.66E2,1.3E2,4.4E2,3.5E2,2.61E2,1.186E3,3.0884E4],"tree_param":{"num_deleted":"0","num_feature":"6","num_nodes":"79","size_leaf_vector":"0"}},{"base_weights":[1.7254084E-2,2.4024086E-2,-3.0950792E-3,1.1164745E-2,7.704345E-2,8.8503234E-2,-4.018132E-2,2.7757889E-2,-1.8567692E-1,5.523266E-1,2.3766492E-2,-5.7712585E-1,1.1925292E-1,1.1930108E-1,-7.698608E-2,2.0914348E-2,1.7485628E0,3.891006E-2,-6.343694E-1,1.0013992E0,2.1700291E-1,-4.480307E-1,3.9830036E-2,-1.00357845E-1,-6.6849923E-1,9.641271E-1,9.864179E-2,-3.0747665E-2,2.3889469E-1,-3.6468518E-1,-2.4389926E-2,2.6374001E-2,-4.6997476E-1,7.417157E-1,2.3011954E0,-1.82449E0,1.4401266E-1,1.269528E0,-7.32186E-1,6.9277567E-1,1.7238059E0,-7.6246333E-1,5.188296E-1,2.4880257E-1,-8.002513E-1,5.495098E-1,2.1778956E-2,-7.876401E-1,-5.139573E-1,1.5445762E0,4.804854E-1,2.1929227E-2,2.30786E-1,5.7024207E-2,-9.389389E-1,9.644169E-1,7.483397E-2,-1.6888805E-1,-7.874527E-1,1.8215625E-1,-8.3232895E-2,2.335414E-2,3.9115208E-1,-7.965719E-1,2.3386988E-1,4.2525256E-1,-1.0929194E-2,-4.6789557E-1,-1.4312814E0,-3.3625346E-2,8.3678395E-1,4.4694102E-1,2.3011308E0,-2.2177234E0,1.6180303E-2,1.1774995E0,1.9561723E-1,7.158835E-1,-1.303911E-1,-1.2379991E0,-2.6627135E-1,-5.848873E-1,1.6418648E0,-4.3678883E-1,3.6333308E-2,-6.8208706E-1,-8.918751E-1,-4.3436038E-1,-5.760968E-1,1.0626676E-1,-1.2214814E0,8.819794E-1,-1.2482276E-2,-2.237367E-1,1.7201619E-1,2.11741E0,6.4411664E-1,5.255889E-1,2.4557703E-3,-1.7667533E0,-1.1097151E-1,-6.0351807E-1,-1.2459712E0,-6.419408E-1,3.9082867E-1,-1.036398E0,-3.682387E-2],"categories":[],"categories_nodes":[],"categories_segments":[],"categories_sizes":[],"default_left":[1,1,1,1,1,1,1,1,1,1,1,1,1,1,1,1,1,1,1,1,1,1,1,0,1,1,1,1,1,1,1,1,1,0,0,0,1,0,1,1,1,1,1,1,1,1,1,1,1,0,0,1,1,1,0,1,1,1,1,1,1,0,0,0,0,0,0,0,0,0,0,0,0,0,0,0,0,0,0,0,0,0,0,0,0,0,0,0,0,0,0,0,0,0,0,0,0,0,0,0,0,0,0,0,0,0,0],"id":19,"left_children":[1,3,5,7,9,11,13,15,17,19,21,23,25,27,29,31,33,35,37,39,41,43,45,-1,47,49,51,53,55,57,59,61,63,-1,-1,-1,65,-1,67,69,71,73,75,77,79,81,83,85,87,-1,-1,89,91,93,-1,95,97,99,101,103,105,-1,-1,-1,-1,-1,-1,-1,-1,-1,-1,-1,-1,-1,-1,-1,-1,-1,-1,-1,-1,-1,-1,-1,-1,-1,-1,-1,-1,-1,-1,-1,-1,-1,-1,-1,-1,-1,-1,-1,-1,-1,-1,-1,-1,-1,-1],"loss_changes":[7.49374E0,2.7827246E1,4.6135323E1,1.07300545E2,2.0172438E2,8.018012E1,5.6751694E1,3.5675296E2,2.5739252E2,1.20702194E2,5.4319492E1,7.469471E0,6.506737E1,3.2541397E1,1.1885191E2,8.0891975E1,6.506317E1,3.337922E2,1.5959998E2,7.527826E1,1.3668057E2,5.812271E1,6.374591E1,0E0,2.2649612E0,2.424276E1,3.7035976E1,6.422303E1,1.2002879E2,1.0035788E2,8.074062E1,3.2869713E1,7.6504364E1,0E0,0E0,0E0,7.029246E1,0E0,1.4917407E2,2.5343216E1,7.4162445E1,1.23546936E2,7.491993E1,1.4262474E1,3.636888E1,2.9464227E2,4.4692677E1,2.718506E-1,7.621002E-2,0E0,0E0,2.4268529E2,2.1260355E2,2.3768148E1,0E0,6.7326675E1,2.6881569E1,7.670703E1,3.1633606E1,2.5355728E2,2.2865918E2,0E0,0E0,0E0,0E0,0E0,0E0,0E0,0E0,0E0,0E0,0E0,0E0,0E0,0E0,0E0,0E0,0E0,0E0,0E0,0E0,0E0,0E0,0E0,0E0,0E0,0E0,0E0,0E0,0E0,0E0,0E0,0E0,0E0,0E0,0E0,0E0,0E0,0E0,0E0,0E0,0E0,0E0,0E0,0E0,0E0,0E0],"parents":[2147483647,0,0,1,1,2,2,3,3,4,4,5,5,6,6,7,7,8,8,9,9,10,10,11,11,12,12,13,13,14,14,15,15,16,16,17,17,18,18,19,19,20,20,21,21,22,22,24,24,25,25,26,26,27,27,28,28,29,29,30,30,31,31,32,32,36,36,38,38,39,39,40,40,41,41,42,42,43,43,44,44,45,45,46,46,47,47,48,48,51,51,52,52,53,53,55,55,56,56,57,57,58,58,59,59,60,60],"right_children":[2,4,6,8,10,12,14,16,18,20,22,24,26,28,30,32,34,36,38,40,42,44,46,-1,48,50,52,54,56,58,60,62,64,-1,-1,-1,66,-1,68,70,72,74,76,78,80,82,84,86,88,-1,-1,90,92,94,-1,96,98,100,102,104,106,-1,-1,-1,-1,-1,-1,-1,-1,-1,-1,-1,-1,-1,-1,-1,-1,-1,-1,-1,-1,-1,-1,-1,-1,-1,-1,-1,-1,-1,-1,-1,-1,-1,-1,-1,-1,-1,-1,-1,-1,-1,-1,-1,-1,-1,-1],"split_conditions":[2.0195E3,2.945E2,1.5E0,2.715E2,3.015E2,2.05E1,6.75E1,2.705E2,2.0185E3,2.5E0,3.035E2,6.5E0,2.75E1,3.05E1,1.145E2,2.675E2,3.5E0,2.725E2,2.725E2,2.0185E3,3.5E0,2.0175E3,3.055E2,-3.0107355E-2,1.35E1,5E-1,2.41E2,2.75E1,2.5E0,9.95E1,1.705E2,2.655E2,2.0185E3,2.2251473E-1,6.9035864E-1,-5.47347E-1,2.805E2,3.8085842E-1,4.5E0,2.955E2,2.955E2,2.975E2,4.5E0,3E0,2.0185E3,2.5E0,3.075E2,5E-1,5E-1,4.6337286E-1,1.4414562E-1,2.27E2,3.5E0,8.5E0,-2.816817E-1,3.95E1,3.5E1,6.95E1,1.095E2,2.5E0,1.785E2,7.006242E-3,1.1734563E-1,-2.3897158E-1,7.016097E-2,1.2757577E-1,-3.2787584E-3,-1.4036867E-1,-4.2938444E-1,-1.0087604E-2,2.5103518E-1,1.3408232E-1,6.9033927E-1,-6.6531706E-1,4.854091E-3,3.5324988E-1,5.8685172E-2,2.1476506E-1,-3.9117333E-2,-3.7139973E-1,-7.988141E-2,-1.7546621E-1,4.9255946E-1,-1.3103665E-1,1.0899993E-2,-2.0462613E-1,-2.6756254E-1,-1.3030812E-1,-1.7282903E-1,3.188003E-2,-3.6644444E-1,2.6459384E-1,-3.744683E-3,-6.7121014E-2,5.160486E-2,6.3522303E-1,1.93235E-1,1.5767668E-1,7.367311E-4,-5.30026E-1,-3.3291455E-2,-1.8105543E-1,-3.7379137E-1,-1.9258223E-1,1.172486E-1,-3.1091943E-1,-1.1047161E-2],"split_indices":[4,3,0,3,3,3,3,3,4,0,3,3,3,3,3,3,0,3,3,4,0,4,3,0,3,0,3,3,0,3,3,3,4,0,0,0,3,0,0,3,3,3,0,0,4,0,3,0,0,0,0,3,1,3,0,3,3,3,3,0,3,0,0,0,0,0,0,0,0,0,0,0,0,0,0,0,0,0,0,0,0,0,0,0,0,0,0,0,0,0,0,0,0,0,0,0,0,0,0,0,0,0,0,0,0,0,0],"split_type":[0,0,0,0,0,0,0,0,0,0,0,0,0,0,0,0,0,0,0,0,0,0,0,0,0,0,0,0,0,0,0,0,0,0,0,0,0,0,0,0,0,0,0,0,0,0,0,0,0,0,0,0,0,0,0,0,0,0,0,0,0,0,0,0,0,0,0,0,0,0,0,0,0,0,0,0,0,0,0,0,0,0,0,0,0,0,0,0,0,0,0,0,0,0,0,0,0,0,0,0,0,0,0,0,0,0,0],"sum_hessian":[5.4394E4,4.0815E4,1.3579E4,3.2849E4,7.966E3,3.913E3,9.666E3,3.0296E4,2.553E3,8.02E2,7.164E3,1.72E2,3.741E3,1.812E3,7.854E3,3.0177E4,1.19E2,1.702E3,8.51E2,3.42E2,4.6E2,2.35E2,6.929E3,2.8E1,1.44E2,8.8E1,3.653E3,8.04E2,1.008E3,1.213E3,6.641E3,2.9846E4,3.31E2,4.3E1,7.6E1,9E1,1.612E3,4.1E1,8.1E2,2.41E2,1.01E2,1.08E2,3.52E2,7.9E1,1.56E2,2.36E2,6.693E3,7.9E1,6.5E1,3.9E1,4.9E1,2.312E3,1.341E3,7.34E2,7E1,1.85E2,8.23E2,